<?xml version="1.0"?>
<opencv_storage>
<my_nn type_id="opencv-ml-ann-mlp">
  <layer_sizes type_id="opencv-matrix">
    <rows>1</rows>
    <cols>3</cols>
    <dt>i</dt>
    <data>
      20 20 23</data></layer_sizes>
  <activation_function>SIGMOID_SYM</activation_function>
  <f_param1>1.</f_param1>
  <f_param2>1.</f_param2>
  <min_val>-9.4999999999999996e-001</min_val>
  <max_val>9.4999999999999996e-001</max_val>
  <min_val1>-9.7999999999999998e-001</min_val1>
  <max_val1>9.7999999999999998e-001</max_val1>
  <training_params>
    <train_method>RPROP</train_method>
    <dw0>1.0000000000000001e-001</dw0>
    <dw_plus>1.2000000000000000e+000</dw_plus>
    <dw_minus>5.0000000000000000e-001</dw_minus>
    <dw_min>1.1920928955078125e-007</dw_min>
    <dw_max>50.</dw_max>
    <term_criteria><epsilon>9.9999997764825821e-003</epsilon>
      <iterations>1000</iterations></term_criteria></training_params>
  <input_scale>
    6.8162049100143145e+000 -7.6409658449011908e-001
    7.0331226051434630e+000 -1.0683313445663489e+000
    7.2274334850356663e+000 -1.3746578753149739e+000
    8.0302868394437663e+000 -1.8405417791038108e+000
    8.6080355804995019e+000 -1.9548849178631587e+000
    8.2316626440235368e+000 -1.8134353147376951e+000
    7.1723554347944614e+000 -1.4581398871258269e+000
    6.3421141777451924e+000 -1.0984541969152155e+000
    6.5107711735669289e+000 -7.9366302118292276e-001
    7.5705995950766249e+000 -5.0344488271791255e-001
    5.1239789347393945e+000 -4.1760428925134291e-001
    4.1295259518315692e+000 -7.7717679605397882e-001
    4.8309972941620130e+000 -1.0043643558418822e+000
    5.0364854516954569e+000 -1.3034424586369353e+000
    5.1378486783164758e+000 -1.5059034761025021e+000
    4.7869628844377745e+000 -1.2000916177191745e+000
    4.6300443925915626e+000 -8.7693042343887961e-001
    5.1970221983338982e+000 -6.4650957195833847e-001
    5.9259843853724217e+000 -4.2667088179564167e-001
    8.5598650877897224e+000 -2.5422799670431917e-001</input_scale>
  <output_scale>
    5.2631578947368418e-001 4.9999999999999994e-001
    5.2631578947368418e-001 4.9999999999999994e-001 1. 0. 1. 0. 1. 0. 1.
    0. 1. 0. 1. 0. 1. 0. 1. 0. 1. 0. 1. 0. 1. 0. 1. 0. 1. 0. 1. 0. 1. 0.
    1. 0. 1. 0. 1. 0. 1. 0. 1. 0. 1. 0.</output_scale>
  <inv_output_scale>
    1.8999999999999999e+000 -9.4999999999999996e-001
    1.8999999999999999e+000 -9.4999999999999996e-001 1. 0. 1. 0. 1. 0.
    1. 0. 1. 0. 1. 0. 1. 0. 1. 0. 1. 0. 1. 0. 1. 0. 1. 0. 1. 0. 1. 0. 1.
    0. 1. 0. 1. 0. 1. 0. 1. 0. 1. 0. 1. 0.</inv_output_scale>
  <weights>
    <_>
      5.1544907628084655e-002 5.4015063198736994e-002
      -4.5614810042188689e-002 -7.7871353016017442e-003
      -8.5610163259184566e-002 4.8285901150320804e-002
      -8.3386216525828186e-002 -3.7837209095500375e-002
      -3.0011185028011676e-002 -2.4196298689166222e-002
      7.5712491193002898e-002 9.4765420411104737e-002
      3.0004752688830408e-002 -1.2796139198663639e-001
      8.7853079291619507e-002 -8.0117386714615324e-002
      3.6685288104642652e-002 8.2897616351624639e-003
      -7.5427917425984592e-002 1.1169648034504870e-002
      -7.2418986087097278e-002 5.7970568865780621e-002
      -4.4844949037071091e-002 1.7076002683885802e-002
      -1.0313716560884983e-002 -1.5543569964083554e-002
      -8.0403458116510063e-002 -5.8867179824048502e-002
      -1.7661596230527599e-002 -5.4219616620258829e-002
      1.4548057896557121e-001 -6.6232992941056695e-003
      -5.5581586675873713e-002 2.4454194936364568e-002
      1.1988597979537365e-002 3.1303793781166392e-002
      1.7946368513870655e-002 2.7546523047914162e-002
      -7.0586773749342982e-002 -1.0324039268474934e-001
      4.9380770072392319e-002 1.0929076119308991e-001
      -4.2048721671077975e-002 2.9258742881227890e-002
      8.1343557260692353e-003 1.1541671077967539e-002
      3.0883867641464027e-002 4.8931125263954559e-002
      -1.7935424480248180e-002 -1.6024185288485071e-003
      3.5115100942405116e-002 -2.2043377164260518e-002
      1.0680211171312068e-001 1.8448450626078489e-003
      -9.4540333143087144e-002 -9.6648130829359455e-002
      4.4243971492676802e-002 -6.2616682790702899e-002
      7.0555888990647991e-002 -1.4185059906419997e-001
      -4.7171886282628556e-002 9.8385153894821484e-002
      -8.6019892606063422e-002 8.9684527311363459e-003
      -3.8363867140007543e-002 3.6669554136642954e-002
      -6.5671519635858780e-002 -4.4077934916798567e-002
      -1.7806300316687645e-002 -6.1802498364858661e-002
      1.5433755263015328e-001 1.2399111536357468e-001
      -4.5521068762793430e-002 -1.4072386700613573e-001
      2.3969004777478563e-002 -2.0036619730898691e-002
      7.9053954196911816e-002 -1.9714811240382605e-002
      -9.3940180255424638e-002 -4.9498793827851773e-002
      -1.4133947497360248e-002 -4.0713775271390418e-002
      1.2883444287413651e-002 1.6485290152279897e-002
      3.6795117985119266e-002 -2.7615808340977186e-002
      -8.9784426747355303e-002 -7.0196730897278944e-002
      -8.6440486617407289e-002 -2.4807789741397621e-002
      -3.5681146568144039e-003 -1.1520672311216089e-001
      -3.4320610414530127e-002 1.7418848207958387e-001
      3.5092246469235373e-002 5.5067119553950196e-002
      2.1479228170738423e-002 4.1266046514753393e-002
      -3.3745846776290354e-002 -4.9427433470628980e-002
      8.2990075700773741e-002 2.0093363005608472e-002
      -4.9059671439155191e-002 3.7033553914136021e-002
      9.1592947440555239e-003 8.6384685771027203e-002
      8.8852273603754195e-002 4.3162239590179660e-002
      6.9253991042358867e-002 6.6774113681671479e-002
      4.9590488293991652e-002 5.6893867923103268e-002
      -8.5707841952126190e-002 -2.5539691655622776e-001
      4.3334428505717684e-002 -5.4675354020595410e-002
      -9.6587833748784990e-002 -2.5920852829512953e-002
      -1.4347376791327672e-002 5.9535519517585497e-002
      -1.4027805521452044e-001 3.5335203977452309e-002
      -1.1041524818540648e-001 1.6192985845349084e-001
      -5.4365336412885913e-002 -5.2481202545261113e-003
      -4.1730702872939049e-002 5.4381028609160140e-003
      -5.5093770413556467e-002 6.6872228646311441e-002
      1.2151191065119206e-001 3.5668446957431474e-002
      -1.0711791063344245e-001 -1.8010632451241279e-001
      -3.1335948053621443e-002 1.0346255218871675e-001
      6.8424605073865982e-002 -1.0727742937481582e-001
      -1.1921284504960748e-001 -4.8003589564667881e-002
      -1.6023968681421516e-002 9.2224455608417424e-002
      -1.0332115168895509e-001 1.1934362148720953e-001
      -1.8767782976143142e-003 1.3328846504335454e-001
      5.0307418726015324e-002 3.7606553575972479e-002
      -2.9671691952577156e-002 9.1871196128587254e-002
      -5.7396569129675072e-003 1.2674160337604665e-001
      -3.6299468525424539e-002 -2.8157621576924818e-001
      -2.1795842921809180e-002 -3.6050067493755833e-002
      1.4767125423862881e-001 -7.4083852718675000e-002
      4.2909202770362396e-003 2.1020954988069402e-003
      -3.6147278905244240e-003 6.0960056980432852e-002
      -9.2836289036951798e-003 8.3156210623392970e-002
      -1.0019650406998890e-001 -2.3072375389456305e-003
      -6.5230384100712704e-002 5.7263373040769526e-002
      3.1727146931813117e-002 7.1311927458716687e-002
      1.5006504298436724e-001 8.9940316134073245e-004
      -1.6437225738516893e-002 -5.9553651758143686e-002
      -5.0764030540049056e-002 -1.3787834957637673e-002
      -1.4151920258028053e-001 -7.1601907966976949e-002
      -7.5067154950140727e-002 -6.6893266872663198e-002
      4.7125509787600044e-002 7.2826653465738925e-002
      -2.0149396612810629e-002 -1.2407092729849571e-002
      -6.4265638540285289e-002 -4.0820736977988110e-002
      -7.0333505636181681e-002 -8.9607402462118600e-003
      -6.1917465098844078e-003 -5.3427887331665466e-002
      1.2814194919715394e-001 -9.1601268316817194e-003
      1.4778095608444163e-002 3.1134441067382345e-003
      4.2169760648145024e-002 -5.3769056186847242e-002
      -8.9101356588622213e-002 2.1807578205260070e-002
      -3.9797764909437337e-002 -1.0145466818774582e-001
      -6.6036659996415989e-002 -7.8511474075702425e-003
      -1.6446913577339760e-002 2.2504293695864430e-004
      1.0075161590279991e-003 -1.0445285132872970e-001
      -1.2623756761022944e-002 1.7975776659625679e-002
      7.3500504008834136e-002 -1.7357983636466848e-002
      -6.4631953598044628e-003 -2.3774682369207704e-002
      4.6012938052679114e-002 8.2524422878975046e-002
      -6.2915938241189115e-002 5.8988365928755372e-002
      -2.0434577335960852e-002 2.3813860894003010e-002
      1.2198086295340131e-002 -7.9044455498147696e-003
      -8.5116170153563250e-002 -1.7707403448527406e-002
      5.7110493108804570e-003 3.6409642303461637e-002
      -1.0949025985060500e-001 -2.2849854932702265e-002
      -4.4954195974099442e-002 4.9268255233186856e-002
      6.6403829369381648e-002 1.0315416282531287e-001
      -1.8353689662067813e-002 1.3338192090075379e-001
      -1.7992519516821792e-003 -1.0831435691338606e-001
      -2.6872135801244423e-002 6.1583484595459377e-002
      -6.3094304695442527e-002 -1.2994108844786219e-002
      -6.0528178754013902e-002 1.3371717245856601e-001
      -6.3820231646097209e-002 1.7855628308353882e-002
      -1.7561133176114751e-002 -4.1872697683586091e-002
      -1.7370483243956444e-002 -8.5972308699345704e-002
      1.2777310812163607e-002 3.0651136635655264e-002
      1.0814462364079697e-001 -1.3519511124155118e-002
      5.8171139251962441e-002 5.7874349690976906e-002
      -7.6185503849611558e-003 1.2061930838175149e-002
      -5.1678484023950089e-002 3.6194482296653410e-002
      -6.1184518763109860e-002 1.9967494060194865e-002
      1.2099256595044062e-002 -3.7544754266750198e-002
      -2.6540365097270896e-002 -5.2632549604346893e-002
      9.8852236195125384e-002 -3.1602246634597805e-002
      9.9714805049197427e-003 -2.9794361593208762e-002
      5.3964781945643532e-002 2.4451048108068828e-002
      -6.4901441089145279e-002 1.6679502445847871e-002
      -7.3871545520479961e-002 -1.0710295850468199e-002
      -1.7618857859352851e-002 7.8880427586028590e-002
      -4.3369529585158127e-002 4.4710599852226952e-002
      -3.0669407396856831e-003 -4.9388232251058532e-002
      4.8824609749121672e-002 7.1254700858453118e-003
      -3.1990357539313646e-002 -9.1467159651618543e-002
      8.7345229643271100e-002 -5.6715353257891052e-002
      3.6423377644931934e-002 -4.4661894801344512e-002
      5.0544930072232097e-002 1.1415187565697866e-002
      -2.5598617810365789e-002 2.6892479685912234e-004
      -9.4535204346079177e-002 -5.9777509848168361e-002
      -7.9543562902676095e-004 1.4882299072379346e-001
      -5.5438546739048728e-003 4.5630597899030852e-002
      -5.6736782976806205e-002 2.1492600202845637e-002
      7.6523366899752213e-002 7.8583001786961468e-003
      5.1909205690886723e-002 2.4542610459189484e-003
      1.0674550600592497e-001 -1.0523373726648634e-001
      -1.4789717675176220e-001 1.9800219914088313e-002
      5.7458871109477040e-002 1.0833203304108270e-001
      -1.6259240434323231e-002 3.4286624264114864e-002
      -9.2302897093995175e-003 1.7609748983235118e-001
      -3.9300450082441464e-002 -1.5636870124774643e-001
      2.9230704448709170e-002 -7.2988563174271034e-002
      -1.8359544113979839e-001 -6.6477950409158340e-002
      -3.5479976741640315e-002 7.5738205700328048e-002
      -1.7965745784207031e-002 -1.0939377871864547e-001
      -3.2408486890825048e-003 2.1419183130792482e-002
      -1.9953135942327921e-002 -8.4326065982416570e-002
      -7.4554785739520429e-002 5.0530034330981567e-003
      1.8672798744873714e-001 1.4668745873955519e-001
      -9.7135315478556819e-002 -3.0361961062548147e-002
      -1.4411316246825859e-002 2.0666473292862315e-002
      8.5363259727430876e-002 1.4882937662107557e-001
      -1.0793688819545057e-001 1.0440247921891732e-001
      -1.2459785529758842e-002 1.5968195189418932e-001
      -4.7581376231124475e-002 -8.1625040649459982e-002
      5.6211238873668024e-002 3.8897323444524708e-003
      -4.4713846274822611e-002 -5.6253164551599531e-002
      5.1082122390413071e-002 7.7480762623312049e-002
      3.8763917550230016e-002 5.4850661414449477e-002
      -3.7359188662771242e-002 -4.1513987156994558e-002
      -9.2801490344518577e-003 3.2071767747703477e-002
      8.5605709995855237e-003 1.7800445120439212e-002
      -3.1114940305967420e-001 -2.1741468826633522e-002
      1.2061530417733776e-002 4.7662006224951765e-002
      -9.2602377434727559e-002 -8.0296857579703756e-002
      -6.0938529546467222e-003 -7.7587259968727548e-002
      -6.3407961089126413e-002 5.6726453945802058e-002
      -1.1247160932972675e-001 3.0711590438835697e-002
      -7.1027723533205120e-002 2.5019365397110329e-002
      -1.9494566475712544e-001 5.4162125768399960e-002
      1.4823952092811621e-001 8.5706831745456513e-002
      9.5586442522093015e-002 -4.8912070732982718e-002
      4.1080349678769057e-002 2.4976930813181537e-002
      5.7648784777307805e-003 1.0380108983198187e-001
      -1.3253674149981579e-002 -8.2592416365171742e-002
      2.8955407825861881e-002 -2.2506833399543479e-002
      2.5834834403963416e-002 3.5650109384154319e-002
      -6.5463961486888732e-003 -1.6102021349062249e-002
      2.0253556893846600e-003 -1.0309102622566648e-002
      -7.0408227553643718e-002 5.5079247358950541e-003
      -5.1548081312330990e-002 3.4351081655276186e-002
      -2.9758182926563348e-004 3.1910875768707839e-002
      -7.0580902626878605e-002 2.6520873689235239e-002
      -1.2991203756356555e-002 1.0242357015554750e-001
      -7.8843778694886424e-001 -3.4204051195902396e-001
      -1.7474935113105824e-001 -3.5570815367649589e-001
      -3.5354441703017664e-001 5.2090183301167736e-001
      -5.3704445787992515e-002 6.4043988937608842e-001
      4.1866553398009787e-001 -5.2233370230442633e-001
      -4.3312000000000000e-001 6.4505679000305050e-001
      5.2950584089234198e-001 1.4132114460507372e-001
      -2.3008167492721238e-001 -7.1117945417021333e-001
      -9.7377206522264181e-001 2.9613993184947141e-001
      -3.7013023012013452e-001 -2.0636950110908236e-001</_>
    <_>
      -1.5732655079673936e+000 9.5968674388769637e-001
      -5.2242062390201224e-002 -7.0711155380917615e-002
      6.5364554727012802e-001 -4.8068479641473227e-001
      7.2296060948266094e-001 2.8117364193754540e-001
      2.6975818120266688e-002 1.8815456231461847e-001
      2.0364403986517551e-001 -5.3038427146447009e-001
      -2.1687932554860170e-001 -3.5949357265096116e-001
      2.3707477881961392e-001 -1.7915827436282281e-001
      8.1937193730204816e-001 -6.7258123942996673e-001
      9.0106917399212749e-001 -2.1337067635217027e-001
      -2.4149904174282141e-001 -1.9997429001685779e-001
      -6.2121860943132790e-001 -9.4215788941967737e-001
      -1.0010533520264453e-001 2.9888982876988207e-001
      -2.5280704892918116e-001 1.4152785379022530e-003
      -2.3831519472002186e-001 6.1345076822055880e-002
      -2.1186146891152280e-003 -1.4005196909056336e-001
      6.4338846870274524e-001 -6.0572223917978951e-002
      6.9240379133828278e-001 -1.0722787273092288e-001
      8.8755657868349658e-001 4.2854821840706542e-001
      -1.7518210780866908e-001 -5.1951955463835764e-001
      -7.4623601758349312e-001 5.6677065075130317e-001
      -7.0635619027849950e-001 3.2800810539473413e-001
      7.0963394205106600e-001 -1.0838224718061933e+000
      -3.2905724135285482e-002 1.0215406321548892e+000
      5.0922153047668828e-001 7.0274107681709208e-001
      1.3253450590653088e-001 7.3508682228970978e-001
      5.1564968319784514e-002 -1.0371120332216749e-001
      -6.0941611012677399e-001 -7.1055220527984653e-001
      1.6385959229786129e-001 5.8193761689771828e-001
      5.8183192572176434e-001 -3.9013099043887522e-001
      9.0543635074308682e-002 3.5046750224999354e-002
      -3.3078307744755181e-001 7.0246664004784654e-001
      -4.9367283569212861e-001 2.4988679059870286e-001
      1.8403091239383088e-001 -1.1622114672435190e-001
      1.8003099769525646e-001 -3.1427350934668619e-001
      2.8253966935494207e-001 5.2510620786848505e-001
      7.6041430003791211e-001 -1.2097617142329617e-001
      -3.4083779495512467e-001 3.4318749705826507e-001
      6.4604453291357511e-001 2.0096127003594194e-001
      2.8898549246033750e-001 4.5869243821967642e-001
      1.7511207818438151e-001 2.7395964718108196e-001
      -2.5083659902893995e-001 6.1505049091758128e-002
      2.3748465798874654e-001 1.2599328954020312e+000
      2.7959235712993702e-001 5.6517674453809152e-001
      -6.1863860893816935e-001 5.8536290347417619e-001
      -2.8151063784020258e-001 -8.1314917918740193e-001
      -1.0291351520879159e+000 -7.0419692847034809e-002
      2.7389424871398949e-001 9.1586230426015458e-001
      2.1727852616446458e-001 -4.2665215698608661e-001
      -1.2462693322284668e-001 -1.6802700908441706e-001
      -3.9182813874193406e-001 -6.1692563460315852e-001
      5.8753651012075858e-001 8.6264564268439081e-001
      -3.6342995224274199e-001 3.1570361772763000e-001
      -1.1226832634713597e-001 -3.9263670329842681e-001
      3.8772478644606090e-001 2.0550009935900060e-002
      6.4408098161286342e-001 -5.4681170196685613e-001
      -2.3469478383081829e-001 -1.5209286433716959e-001
      7.7892733973215833e-001 2.8875295830118286e-001
      -7.1447049989611711e-001 4.9595197252872930e-001
      -7.5736113208100309e-001 -8.0581041075029836e-002
      -5.3530063049813115e-001 7.5517809998568353e-001
      5.1134779721874957e-001 -6.2072373076827703e-001
      -1.5623691993030020e-001 7.2343945822631850e-001
      2.0188713793943915e-002 8.0366609595801330e-001
      -2.9184811237665048e-001 4.0125757978260979e-001
      3.2466694339926211e-001 -2.1864329097636712e-001
      -3.9939455373554716e-001 -2.8880318717276765e-001
      -7.8638323442272962e-001 -6.7603592238577670e-001
      -2.1329151387039477e-001 -8.2271604052913694e-001
      8.3105291979295248e-001 -5.3903553024638604e-002
      -2.2994850633836900e-001 -6.2139185520630935e-001
      -3.5363600896607383e-001 -1.2994657506440752e-001
      -1.7382450049987380e-001 5.7134706534862634e-001
      6.2504576838739412e-001 -1.7986798615295657e-001
      3.4333512878124267e-001 -1.4336677334165118e-001
      1.7594821619841181e-001 7.4381163432419517e-001
      -7.5307320717464354e-001 -4.1718057501839928e-001
      -2.3560804958812684e-001 -1.8800921767848891e-001
      -7.4157195794438613e-001 5.4089340776333661e-001
      6.1090452911642035e-001 1.2862108859665011e-001
      -4.1621006363374541e-001 3.8112962295445280e-004
      -1.1017169208219770e+000 -5.5771216043096039e-001
      8.3917370408703687e-002 -7.7225293746426144e-002
      9.5144272244352651e-002 4.3968918874355944e-001
      8.0283904284718755e-001 1.9619820486841424e-001
      -3.1392260216523687e-001 -2.1927663595069011e-001
      5.9740293386294652e-001 -7.6135759323628216e-001
      -3.8871762595297604e-001 -1.0440550230300132e-001
      -4.3778685703750764e-001 -4.0877124454496944e-001
      6.1102189299631970e-001 4.8179107709572982e-001
      3.3002799229454599e-001 1.6042726412247785e-002
      -5.0664930376583861e-001 -6.4651475665822677e-001
      9.9518354520487051e-001 -1.1764300512121628e-002
      3.3063615166209620e-001 2.8990444358088102e-001
      9.1182044901995489e-003 2.2153204088911452e-001
      -5.3330676225674256e-001 2.7699513616869209e-001
      -4.2749116007684407e-001 1.4965657114664413e-001
      -3.4235340350211158e-001 -2.3298446456345659e-001
      7.7093454927058463e-002 -5.9388818570514645e-001
      6.2447584227809522e-002 1.6822816365510662e-001
      -3.2527156677040464e-001 2.5088220985246068e-001
      -5.4574905017071540e-001 2.1040256662226248e-001
      -6.1787123931335330e-001 4.7736291208928178e-001
      4.3739777015515971e-002 2.1402949447485153e-001
      5.5956521147479998e-001 -3.8507550156521392e-001
      -2.4300638670143343e-001 8.5297853173604388e-002
      -4.3023090676664211e-001 2.8440027470058865e-001
      -6.7974560651576965e-001 3.4312551828287868e-001
      2.7881105584377136e-001 1.5798968099851943e-001
      5.7254987292675730e-001 1.9021228707809187e-001
      8.2725067636398686e-001 -6.6130983967413803e-001
      -3.0973112742496217e-001 -3.3682116608262425e-001
      -3.9447105629782231e-001 -5.4208597857897700e-001
      -5.7616343404997120e-002 -3.1907523978136731e-001
      3.2713062666568699e-001 3.6417034167423129e-001
      -1.1078480668086672e+000 6.6008125893191094e-001
      -4.9833780905322739e-001 -5.2192570279191430e-001
      -1.2528455186606158e-001 -2.4459143892691496e-001
      1.7192659654888948e-001 -3.1143953028291144e-001
      1.8891842225108296e-001 -2.9163695603646222e-001
      7.7092111246799278e-001 6.8272099775838868e-001
      2.3789873507153581e-001 2.2035830323052430e-001
      -2.1514056852534838e-001 -6.2821847703191325e-002
      4.8094965367330975e-002 2.8272863454155112e-001
      -3.7772142338258236e-001 -5.0706203964532504e-001
      -6.3335073614568804e-002 -5.6418277819070817e-001
      -4.3379775963029088e-001 9.1814829784214369e-001
      -4.2332152984572280e-001 -6.2039516110099546e-001
      7.5185862073489640e-001 -1.3642283414899004e-001
      -2.3233682733123381e-001 -3.0481208219523676e-001
      2.6164316455374081e-001 2.7411195445666930e-001
      -2.9603761589049588e-001 2.4267586243175288e-001
      -1.5759284440791463e-001 -2.3098147737833949e-001
      -6.8444220581331916e-001 -7.3495473500307751e-001
      -6.7787194553539265e-001 2.4183473422349705e-001
      -1.9583483492779399e-001 2.8475354858583429e-001
      2.6072077941616023e-001 7.0299625041370295e-001
      9.5627386526893031e-003 4.1610335534611947e-001
      9.4089832585045807e-001 -5.4833726981827779e-001
      4.2514857751455976e-001 -5.3232582167297882e-001
      1.8654356269550959e-001 2.4159418730552457e-001
      -2.4723535551543663e-001 2.4165939249400972e-001
      -3.7080040535688491e-001 -8.4834891323738215e-001
      9.9974239363162820e-001 7.2390731321517104e-002
      5.0913857563268916e-001 -2.0203152501632557e-001
      -3.8563427310344101e-001 -8.4734876491998257e-001
      1.5195359735399483e-001 4.1370388556407917e-001
      -3.5806659057919760e-001 2.9550053650991670e-001
      6.0023946557647123e-001 -5.3492689434402896e-001
      5.1171947190359268e-001 6.5840573460126528e-001
      -8.7068332276720603e-002 -7.6976605419919586e-001
      -8.7846962340639087e-002 -1.7986999745395016e-001
      -5.4531346672542502e-001 8.0413956668795666e-002
      4.2299711963626424e-001 5.9970396956113414e-001
      4.9045500450080126e-001 -9.6295122937910899e-002
      1.7654524696554813e-001 -2.0579445519376907e-001
      1.0109674197048388e-001 -2.7716621458338264e-001
      -3.3284356600634452e-001 2.3321677561326127e-002
      -5.8248662697600029e-001 -1.1602797161907288e-001
      -3.9198673072837054e-001 2.3958730647084209e-001
      4.9260154578632664e-001 -7.6044694872004504e-001
      -5.1014140227336413e-001 8.9872833077360603e-001
      2.7302192558824706e-001 -3.3381824073106708e-001
      3.3641662568362063e-001 -2.0703890390395507e-001
      -5.9988501006468676e-003 2.8478559768975958e-001
      4.2822734956409447e-001 2.2409642372116595e-001
      5.4918866028822222e-001 6.2837101279858387e-001
      -2.3186905817713083e-001 -1.4078478817807016e-001
      1.4288666864505470e-001 -1.4200653196724899e-001
      3.8480469928177502e-001 5.7196690575519883e-002
      3.1428503597186763e-001 -5.8717326058781294e-001
      5.8000558702460472e-002 6.7686719814906360e-001
      -9.5065745144930824e-001 -9.5351164613442785e-001
      1.0332877901275681e+000 1.6495255597547151e-001
      -1.0056570006595111e+000 4.4011389821301150e-001
      3.1689733097993544e-001 1.7978664198339020e-001
      5.4065203856776689e-001 -5.5325147930752150e-001
      -1.0033113470543933e+000 2.5627332692043020e-001
      -7.1430223018086725e-001 -3.9186488744640771e-002
      -6.9841139241270611e-001 -2.5711738779106513e-001
      -9.1706076473278375e-001 -5.2259040965762882e-001
      -2.5944997750726717e-001 3.3163226785676786e-001
      -8.8734580702798910e-002 4.6940895081503153e-001
      -4.4181669672118555e-002 -5.0845827546324407e-001
      -4.2164364232507157e-001 9.3781393557612502e-001
      -1.5790829074904017e-001 -1.7243631847447724e-001
      -8.0112636992181879e-002 5.2331072077533425e-001
      3.7718454704553922e-001 1.4916172643332168e-001
      4.0143529819312945e-001 2.4602604487933674e-001
      -3.7320230683840883e-001 3.4601430440335262e-001
      -7.0955133355948302e-002 -9.9362375285723031e-002
      -1.0825092770080690e-001 4.9075202732629865e-002
      -2.7929862504340158e-001 3.4740795911185596e-001
      -3.5572461790296850e-001 3.9764998396261386e-001
      -4.5534371591301498e-001 7.4501943716150459e-002
      -1.2041760384861142e-001 -2.0230823736453435e-001
      -1.3133258860967940e+000 -2.1949495272938213e-003
      2.0089252387044973e-001 -6.5500568996795872e-001
      -1.2500565703464583e-001 4.5887662458448664e-001
      8.8315766016760763e-002 2.7371817404018817e-001
      -2.3115449042828326e-001 4.5833863114586992e-001
      1.1517179973981531e-001 2.7945823713449658e-001
      6.2036831141797555e-001 -6.1374435899170798e-001
      2.4110297319301907e-001 -4.5132658368545431e-001
      4.4714962874732478e-001 -1.5558809595400150e-001
      8.0391706593632806e-001 3.2772772892056568e-001
      -9.8133684271276156e-001 -1.1743914165102232e-001
      -5.1878918117595074e-001 1.7728032422534984e-001
      -3.7606406791211222e-001 -2.6756769470389102e-001
      -2.0346970485285204e-001 3.9343129667559240e-001
      -3.3241993104677775e-001 -9.4622609968484273e-001
      -2.8364562991693670e-001 3.1756101265754139e-001
      -2.3697967669082798e-001 -2.1421399665199048e-001
      -4.0956739587495648e-002 -6.7930168312424266e-001
      -2.6374533455588777e-002 3.3249203799151217e-001
      -1.2122703036641390e-001 4.9025869457285698e-001
      5.9146725130626732e-001 -6.2194700170391870e-001
      4.1258689476349947e-002 -5.9688998418178311e-002
      -3.5559302454874525e-001 -1.0338054959352503e+000
      -6.9162789988520962e-002 -7.9997796588439440e-001
      -1.5583921327191860e-001 -3.9605071216068077e-001
      4.8322221937378246e-001 -4.0798634896418995e-001
      -3.5709225407801942e-001 9.2202083571993887e-003
      2.0636280546879882e-003 -2.1274022851453131e-001
      3.8777072769567827e-001 -3.7293148319298203e-001
      4.9626344233166370e-001 -1.9420607574349227e-002
      -1.2619685694662330e-001 -3.7823672391309521e-001
      -1.2336739620687220e-001 3.2934891871118227e-002
      -2.5534663424487847e-001 3.9460664918143101e-001
      9.0484688221309895e-002 -3.6436697494997511e-001
      3.4870084115765729e-003 -4.5162868528621947e-002
      -2.8309400722335301e-002 -4.1785986591722607e-001
      4.5264846500087919e-001 1.1137361460241733e-001
      3.8822755643757140e-001 -5.7684190510609523e-001
      1.3296392192062814e-001 3.3348181525243276e-001
      -6.4059911161194222e-002 2.6147383624770798e-001
      -1.4914156824074923e-001 3.7059781362886202e-001
      1.5233318717917660e-001 -4.2846833197385678e-002
      2.5853958607597438e-001 -3.4115599981890188e-001
      5.4460719823030801e-001 -7.0646027679558421e-001
      -1.7726497664672797e-001 4.0263639851267913e-001
      -6.1179578362502540e-001</_></weights></my_nn>
</opencv_storage>
