<?xml version="1.0"?>
<opencv_storage>
<my_svm type_id="opencv-ml-svm">
  <svm_type>C_SVC</svm_type>
  <kernel><type>RBF</type>
    <gamma>1.</gamma></kernel>
  <C>1.</C>
  <term_criteria><epsilon>1.1920928955078125e-007</epsilon>
    <iterations>1000</iterations></term_criteria>
  <var_all>120</var_all>
  <var_count>120</var_count>
  <class_count>23</class_count>
  <class_labels type_id="opencv-matrix">
    <rows>1</rows>
    <cols>23</cols>
    <dt>i</dt>
    <data>
      0 1 2 3 4 5 6 7 8 9 10 11 12 13 14 15 16 17 18 19 20 21 22</data></class_labels>
  <sv_total>1235</sv_total>
  <support_vectors>
    <_>
      2.00000003e-001 2.00000003e-001 2.00000003e-001 2.00000003e-001
      4.00000006e-001 3.00000012e-001 0. 0. 0. 0. 5.00000000e-001
      2.00000003e-001 1.00000001e-001 2.00000003e-001 5.00000000e-001 0.
      0. 0. 0. 0. 255. 0. 0. 0. 255. 0. 0. 0. 0. 0. 255. 0. 0. 0. 255.
      0. 0. 0. 0. 0. 255. 0. 0. 0. 255. 0. 0. 0. 0. 0. 255. 0. 0. 0.
      255. 0. 0. 0. 0. 0. 255. 255. 0. 255. 255. 0. 0. 0. 0. 0. 0. 255.
      255. 255. 0. 0. 0. 0. 0. 0. 0. 0. 0. 0. 0. 0. 0. 0. 0. 0. 0. 0. 0.
      0. 0. 0. 0. 0. 0. 0. 0. 0. 0. 0. 0. 0. 0. 0. 0. 0. 0. 0. 0. 0. 0.
      0. 0. 0. 0. 0.</_>
    <_>
      4.00000006e-001 4.00000006e-001 4.00000006e-001 4.00000006e-001
      4.00000006e-001 4.00000006e-001 4.00000006e-001 4.00000006e-001
      6.00000024e-001 4.00000006e-001 6.00000024e-001 9.00000036e-001
      4.00000006e-001 2.00000003e-001 2.00000003e-001 4.00000006e-001
      9.00000036e-001 6.00000024e-001 0. 0. 0. 255. 255. 0. 0. 255. 255.
      0. 0. 0. 255. 255. 0. 0. 0. 0. 255. 255. 0. 0. 255. 255. 0. 0. 0.
      0. 255. 255. 0. 0. 255. 255. 0. 0. 0. 0. 255. 255. 0. 0. 255. 255.
      0. 0. 0. 0. 255. 255. 0. 0. 255. 255. 0. 0. 0. 0. 255. 255. 0. 0.
      255. 255. 0. 0. 0. 0. 255. 255. 0. 0. 0. 255. 255. 0. 0. 255. 255.
      0. 0. 0. 0. 255. 255. 255. 255. 255. 255. 0. 0. 0. 0. 0. 255. 255.
      255. 255. 0. 0. 0. 0.</_>
    <_>
      2.00000003e-001 2.00000003e-001 2.00000003e-001 2.00000003e-001
      4.00000006e-001 3.00000012e-001 0. 0. 0. 0. 5.00000000e-001
      2.00000003e-001 1.00000001e-001 2.00000003e-001 5.00000000e-001 0.
      0. 0. 0. 0. 255. 0. 0. 0. 255. 0. 0. 0. 0. 0. 255. 0. 0. 0. 255.
      0. 0. 0. 0. 0. 255. 0. 0. 0. 255. 0. 0. 0. 0. 0. 255. 0. 0. 0.
      255. 0. 0. 0. 0. 0. 255. 255. 0. 255. 255. 0. 0. 0. 0. 0. 0. 255.
      255. 255. 0. 0. 0. 0. 0. 0. 0. 0. 0. 0. 0. 0. 0. 0. 0. 0. 0. 0. 0.
      0. 0. 0. 0. 0. 0. 0. 0. 0. 0. 0. 0. 0. 0. 0. 0. 0. 0. 0. 0. 0. 0.
      0. 0. 0. 0. 0.</_>
    <_>
      2.00000003e-001 2.00000003e-001 2.00000003e-001 2.00000003e-001
      2.00000003e-001 2.00000003e-001 2.00000003e-001 4.00000006e-001 0.
      0. 0. 6.00000024e-001 2.00000003e-001 1.00000001e-001
      1.00000001e-001 2.00000003e-001 6.00000024e-001 0. 0. 0. 0. 255.
      0. 0. 0. 0. 255. 0. 0. 0. 0. 255. 0. 0. 0. 0. 255. 0. 0. 0. 0.
      255. 0. 0. 0. 0. 255. 0. 0. 0. 0. 255. 0. 0. 0. 0. 255. 0. 0. 0.
      0. 255. 0. 0. 0. 0. 255. 0. 0. 0. 0. 255. 0. 0. 0. 0. 255. 0. 0.
      0. 0. 0. 255. 0. 0. 255. 0. 0. 0. 0. 0. 0. 255. 255. 255. 255. 0.
      0. 0. 0. 0. 0. 0. 0. 0. 0. 0. 0. 0. 0. 0. 0. 0. 0. 0. 0. 0. 0. 0.
      0.</_>
    <_>
      2.00000003e-001 2.00000003e-001 2.00000003e-001 2.00000003e-001
      2.00000003e-001 2.00000003e-001 2.00000003e-001 2.00000003e-001
      4.00000006e-001 0. 6.00000024e-001 3.00000012e-001 1.00000001e-001
      1.00000001e-001 3.00000012e-001 6.00000024e-001 0. 0. 0. 0. 0.
      255. 0. 0. 255. 0. 0. 0. 0. 0. 255. 0. 0. 0. 0. 255. 0. 0. 0. 0.
      255. 0. 0. 0. 0. 255. 0. 0. 0. 0. 255. 0. 0. 0. 0. 255. 0. 0. 0.
      0. 255. 0. 0. 0. 0. 255. 0. 0. 0. 0. 255. 0. 0. 0. 0. 255. 0. 0.
      0. 0. 255. 0. 0. 0. 0. 255. 0. 0. 0. 0. 0. 255. 0. 0. 255. 0. 0.
      0. 0. 0. 0. 255. 255. 255. 255. 0. 0. 0. 0. 0. 0. 0. 0. 0. 0. 0.
      0. 0. 0. 0.</_>
    <_>
      2.00000003e-001 2.00000003e-001 2.00000003e-001 2.00000003e-001
      2.00000003e-001 2.00000003e-001 4.00000006e-001 0. 0. 0. 0.
      5.00000000e-001 2.00000003e-001 1.00000001e-001 1.00000001e-001
      2.00000003e-001 5.00000000e-001 0. 0. 0. 0. 255. 0. 0. 0. 0. 255.
      0. 0. 0. 0. 255. 0. 0. 0. 0. 255. 0. 0. 0. 0. 255. 0. 0. 0. 0.
      255. 0. 0. 0. 0. 255. 0. 0. 0. 0. 255. 0. 0. 0. 0. 255. 0. 0. 0.
      0. 255. 0. 0. 0. 0. 0. 255. 0. 0. 255. 0. 0. 0. 0. 0. 0. 255. 255.
      255. 255. 0. 0. 0. 0. 0. 0. 0. 0. 0. 0. 0. 0. 0. 0. 0. 0. 0. 0. 0.
      0. 0. 0. 0. 0. 0. 0. 0. 0. 0. 0. 0. 0. 0. 0.</_>
    <_>
      1.00000001e-001 1.00000001e-001 1.00000001e-001 3.00000012e-001
      3.00000012e-001 0. 0. 0. 0. 0. 0. 4.00000006e-001 2.00000003e-001
      1.00000001e-001 2.00000003e-001 0. 0. 0. 0. 0. 0. 255. 0. 0. 0. 0.
      0. 0. 0. 0. 0. 255. 0. 0. 0. 0. 0. 0. 0. 0. 0. 255. 0. 0. 0. 0. 0.
      0. 0. 0. 0. 255. 255. 0. 255. 0. 0. 0. 0. 0. 0. 0. 255. 255. 255.
      0. 0. 0. 0. 0. 0. 0. 0. 0. 0. 0. 0. 0. 0. 0. 0. 0. 0. 0. 0. 0. 0.
      0. 0. 0. 0. 0. 0. 0. 0. 0. 0. 0. 0. 0. 0. 0. 0. 0. 0. 0. 0. 0. 0.
      0. 0. 0. 0. 0. 0. 0. 0. 0. 0. 0.</_>
    <_>
      2.00000003e-001 2.00000003e-001 2.00000003e-001 2.00000003e-001
      2.00000003e-001 2.00000003e-001 2.00000003e-001 4.00000006e-001 0.
      0. 5.00000000e-001 3.00000012e-001 1.00000001e-001 1.00000001e-001
      3.00000012e-001 5.00000000e-001 0. 0. 0. 0. 0. 255. 0. 0. 255. 0.
      0. 0. 0. 0. 255. 0. 0. 0. 0. 255. 0. 0. 0. 0. 255. 0. 0. 0. 0.
      255. 0. 0. 0. 0. 255. 0. 0. 0. 0. 255. 0. 0. 0. 0. 255. 0. 0. 0.
      0. 255. 0. 0. 0. 0. 255. 0. 0. 0. 0. 255. 0. 0. 0. 0. 0. 255. 0.
      0. 255. 0. 0. 0. 0. 0. 0. 255. 255. 255. 255. 0. 0. 0. 0. 0. 0. 0.
      0. 0. 0. 0. 0. 0. 0. 0. 0. 0. 0. 0. 0. 0. 0. 0. 0. 0.</_>
    <_>
      2.00000003e-001 2.00000003e-001 2.00000003e-001 2.00000003e-001
      2.00000003e-001 2.00000003e-001 4.00000006e-001 0. 0. 0.
      5.00000000e-001 2.00000003e-001 1.00000001e-001 1.00000001e-001
      2.00000003e-001 5.00000000e-001 0. 0. 0. 0. 255. 0. 0. 0. 0. 255.
      0. 0. 0. 0. 255. 0. 0. 0. 0. 255. 0. 0. 0. 0. 255. 0. 0. 0. 0.
      255. 0. 0. 0. 0. 255. 0. 0. 0. 0. 255. 0. 0. 0. 0. 255. 0. 0. 0.
      0. 255. 0. 0. 0. 0. 0. 255. 0. 0. 255. 0. 0. 0. 0. 0. 0. 255. 255.
      255. 255. 0. 0. 0. 0. 0. 0. 0. 0. 0. 0. 0. 0. 0. 0. 0. 0. 0. 0. 0.
      0. 0. 0. 0. 0. 0. 0. 0. 0. 0. 0. 0. 0. 0. 0. 0.</_>
    <_>
      2.00000003e-001 2.00000003e-001 2.00000003e-001 2.00000003e-001
      2.00000003e-001 2.00000003e-001 4.00000006e-001 0. 0. 0.
      5.00000000e-001 2.00000003e-001 1.00000001e-001 1.00000001e-001
      2.00000003e-001 5.00000000e-001 0. 0. 0. 0. 255. 0. 0. 0. 0. 255.
      0. 0. 0. 0. 255. 0. 0. 0. 0. 255. 0. 0. 0. 0. 255. 0. 0. 0. 0.
      255. 0. 0. 0. 0. 255. 0. 0. 0. 0. 255. 0. 0. 0. 0. 255. 0. 0. 0.
      0. 255. 0. 0. 0. 0. 0. 255. 0. 0. 255. 0. 0. 0. 0. 0. 0. 255. 255.
      255. 255. 0. 0. 0. 0. 0. 0. 0. 0. 0. 0. 0. 0. 0. 0. 0. 0. 0. 0. 0.
      0. 0. 0. 0. 0. 0. 0. 0. 0. 0. 0. 0. 0. 0. 0. 0.</_>
    <_>
      2.00000003e-001 2.00000003e-001 2.00000003e-001 2.00000003e-001
      2.00000003e-001 2.00000003e-001 2.00000003e-001 2.00000003e-001
      4.00000006e-001 0. 0. 6.00000024e-001 3.00000012e-001
      1.00000001e-001 1.00000001e-001 3.00000012e-001 6.00000024e-001 0.
      0. 0. 0. 0. 255. 0. 0. 255. 0. 0. 0. 0. 0. 255. 0. 0. 0. 0. 255.
      0. 0. 0. 0. 255. 0. 0. 0. 0. 255. 0. 0. 0. 0. 255. 0. 0. 0. 0.
      255. 0. 0. 0. 0. 255. 0. 0. 0. 0. 255. 0. 0. 0. 0. 255. 0. 0. 0.
      0. 255. 0. 0. 0. 0. 255. 0. 0. 0. 0. 255. 0. 0. 0. 0. 0. 255. 0.
      0. 255. 0. 0. 0. 0. 0. 0. 255. 255. 255. 255. 0. 0. 0. 0. 0. 0. 0.
      0. 0. 0. 0. 0. 0. 0.</_>
    <_>
      2.00000003e-001 2.00000003e-001 2.00000003e-001 2.00000003e-001
      2.00000003e-001 2.00000003e-001 4.00000006e-001 0. 0. 0. 0.
      5.00000000e-001 2.00000003e-001 1.00000001e-001 1.00000001e-001
      2.00000003e-001 5.00000000e-001 0. 0. 0. 0. 255. 0. 0. 0. 0. 255.
      0. 0. 0. 0. 255. 0. 0. 0. 0. 255. 0. 0. 0. 0. 255. 0. 0. 0. 0.
      255. 0. 0. 0. 0. 255. 0. 0. 0. 0. 255. 0. 0. 0. 0. 255. 0. 0. 0.
      0. 255. 0. 0. 0. 0. 0. 255. 0. 0. 255. 0. 0. 0. 0. 0. 0. 255. 255.
      255. 255. 0. 0. 0. 0. 0. 0. 0. 0. 0. 0. 0. 0. 0. 0. 0. 0. 0. 0. 0.
      0. 0. 0. 0. 0. 0. 0. 0. 0. 0. 0. 0. 0. 0. 0.</_>
    <_>
      4.00000006e-001 4.00000006e-001 4.00000006e-001 4.00000006e-001
      4.00000006e-001 4.00000006e-001 4.00000006e-001 6.00000024e-001
      4.00000006e-001 0. 6.00000024e-001 8.00000012e-001 3.00000012e-001
      2.00000003e-001 2.00000003e-001 3.00000012e-001 8.00000012e-001
      6.00000024e-001 0. 0. 255. 255. 0. 0. 0. 0. 255. 255. 0. 0. 255.
      255. 0. 0. 0. 0. 255. 255. 0. 0. 255. 255. 0. 0. 0. 0. 255. 255.
      0. 0. 255. 255. 0. 0. 0. 0. 255. 255. 0. 0. 255. 255. 0. 0. 0. 0.
      255. 255. 0. 0. 255. 255. 0. 0. 0. 0. 255. 255. 0. 0. 0. 255. 255.
      0. 0. 255. 255. 0. 0. 0. 0. 255. 255. 255. 255. 255. 255. 0. 0. 0.
      0. 0. 255. 255. 255. 255. 0. 0. 0. 0. 0. 0. 0. 0. 0. 0. 0. 0. 0.
      0.</_>
    <_>
      4.00000006e-001 4.00000006e-001 4.00000006e-001 4.00000006e-001
      4.00000006e-001 4.00000006e-001 4.00000006e-001 4.00000006e-001
      6.00000024e-001 4.00000006e-001 0. 6.00000024e-001 9.00000036e-001
      4.00000006e-001 2.00000003e-001 2.00000003e-001 4.00000006e-001
      9.00000036e-001 6.00000024e-001 0. 0. 0. 255. 255. 0. 0. 255. 255.
      0. 0. 0. 255. 255. 0. 0. 0. 0. 255. 255. 0. 0. 255. 255. 0. 0. 0.
      0. 255. 255. 0. 0. 255. 255. 0. 0. 0. 0. 255. 255. 0. 0. 255. 255.
      0. 0. 0. 0. 255. 255. 0. 0. 255. 255. 0. 0. 0. 0. 255. 255. 0. 0.
      255. 255. 0. 0. 0. 0. 255. 255. 0. 0. 0. 255. 255. 0. 0. 255. 255.
      0. 0. 0. 0. 255. 255. 255. 255. 255. 255. 0. 0. 0. 0. 0. 255. 255.
      255. 255. 0. 0. 0.</_>
    <_>
      1.00000001e-001 1.00000001e-001 1.00000001e-001 3.00000012e-001
      3.00000012e-001 0. 0. 0. 0. 0. 4.00000006e-001 2.00000003e-001
      1.00000001e-001 2.00000003e-001 0. 0. 0. 0. 0. 0. 255. 0. 0. 0. 0.
      0. 0. 0. 0. 0. 255. 0. 0. 0. 0. 0. 0. 0. 0. 0. 255. 0. 0. 0. 0. 0.
      0. 0. 0. 0. 255. 255. 0. 255. 0. 0. 0. 0. 0. 0. 0. 255. 255. 255.
      0. 0. 0. 0. 0. 0. 0. 0. 0. 0. 0. 0. 0. 0. 0. 0. 0. 0. 0. 0. 0. 0.
      0. 0. 0. 0. 0. 0. 0. 0. 0. 0. 0. 0. 0. 0. 0. 0. 0. 0. 0. 0. 0. 0.
      0. 0. 0. 0. 0. 0. 0. 0. 0. 0. 0. 0.</_>
    <_>
      2.00000003e-001 2.00000003e-001 2.00000003e-001 2.00000003e-001
      2.00000003e-001 2.00000003e-001 2.00000003e-001 2.00000003e-001
      4.00000006e-001 0. 0. 6.00000024e-001 3.00000012e-001
      1.00000001e-001 1.00000001e-001 3.00000012e-001 6.00000024e-001 0.
      0. 0. 0. 0. 255. 0. 0. 255. 0. 0. 0. 0. 0. 255. 0. 0. 0. 0. 255.
      0. 0. 0. 0. 255. 0. 0. 0. 0. 255. 0. 0. 0. 0. 255. 0. 0. 0. 0.
      255. 0. 0. 0. 0. 255. 0. 0. 0. 0. 255. 0. 0. 0. 0. 255. 0. 0. 0.
      0. 255. 0. 0. 0. 0. 255. 0. 0. 0. 0. 255. 0. 0. 0. 0. 0. 255. 0.
      0. 255. 0. 0. 0. 0. 0. 0. 255. 255. 255. 255. 0. 0. 0. 0. 0. 0. 0.
      0. 0. 0. 0. 0. 0. 0.</_>
    <_>
      2.00000003e-001 2.00000003e-001 2.00000003e-001 2.00000003e-001
      4.00000006e-001 3.00000012e-001 0. 0. 0. 0. 0. 5.00000000e-001
      2.00000003e-001 1.00000001e-001 2.00000003e-001 5.00000000e-001 0.
      0. 0. 0. 0. 255. 0. 0. 0. 255. 0. 0. 0. 0. 0. 255. 0. 0. 0. 255.
      0. 0. 0. 0. 0. 255. 0. 0. 0. 255. 0. 0. 0. 0. 0. 255. 0. 0. 0.
      255. 0. 0. 0. 0. 0. 255. 255. 0. 255. 255. 0. 0. 0. 0. 0. 0. 255.
      255. 255. 0. 0. 0. 0. 0. 0. 0. 0. 0. 0. 0. 0. 0. 0. 0. 0. 0. 0. 0.
      0. 0. 0. 0. 0. 0. 0. 0. 0. 0. 0. 0. 0. 0. 0. 0. 0. 0. 0. 0. 0. 0.
      0. 0. 0. 0.</_>
    <_>
      2.00000003e-001 2.00000003e-001 2.00000003e-001 2.00000003e-001
      2.00000003e-001 4.00000006e-001 3.00000012e-001 0. 0. 0.
      6.00000024e-001 2.00000003e-001 1.00000001e-001 2.00000003e-001
      6.00000024e-001 0. 0. 0. 0. 0. 255. 0. 0. 0. 255. 0. 0. 0. 0. 0.
      255. 0. 0. 0. 255. 0. 0. 0. 0. 0. 255. 0. 0. 0. 255. 0. 0. 0. 0.
      0. 255. 0. 0. 0. 255. 0. 0. 0. 0. 0. 255. 0. 0. 0. 255. 0. 0. 0.
      0. 0. 255. 255. 0. 255. 255. 0. 0. 0. 0. 0. 0. 255. 255. 255. 0.
      0. 0. 0. 0. 0. 0. 0. 0. 0. 0. 0. 0. 0. 0. 0. 0. 0. 0. 0. 0. 0. 0.
      0. 0. 0. 0. 0. 0. 0. 0. 0. 0. 0. 0. 0.</_>
    <_>
      1.00000001e-001 1.00000001e-001 1.00000001e-001 1.00000001e-001
      3.00000012e-001 3.00000012e-001 0. 0. 0. 0. 5.00000000e-001
      2.00000003e-001 1.00000001e-001 2.00000003e-001 0. 0. 0. 0. 0. 0.
      255. 0. 0. 0. 0. 0. 0. 0. 0. 0. 255. 0. 0. 0. 0. 0. 0. 0. 0. 0.
      255. 0. 0. 0. 0. 0. 0. 0. 0. 0. 255. 0. 0. 0. 0. 0. 0. 0. 0. 0.
      255. 255. 0. 255. 0. 0. 0. 0. 0. 0. 0. 255. 255. 255. 0. 0. 0. 0.
      0. 0. 0. 0. 0. 0. 0. 0. 0. 0. 0. 0. 0. 0. 0. 0. 0. 0. 0. 0. 0. 0.
      0. 0. 0. 0. 0. 0. 0. 0. 0. 0. 0. 0. 0. 0. 0. 0. 0. 0. 0. 0.</_>
    <_>
      2.00000003e-001 2.00000003e-001 2.00000003e-001 2.00000003e-001
      4.00000006e-001 3.00000012e-001 0. 0. 0. 0. 0. 5.00000000e-001
      2.00000003e-001 1.00000001e-001 2.00000003e-001 5.00000000e-001 0.
      0. 0. 0. 0. 255. 0. 0. 0. 255. 0. 0. 0. 0. 0. 255. 0. 0. 0. 255.
      0. 0. 0. 0. 0. 255. 0. 0. 0. 255. 0. 0. 0. 0. 0. 255. 0. 0. 0.
      255. 0. 0. 0. 0. 0. 255. 255. 0. 255. 255. 0. 0. 0. 0. 0. 0. 255.
      255. 255. 0. 0. 0. 0. 0. 0. 0. 0. 0. 0. 0. 0. 0. 0. 0. 0. 0. 0. 0.
      0. 0. 0. 0. 0. 0. 0. 0. 0. 0. 0. 0. 0. 0. 0. 0. 0. 0. 0. 0. 0. 0.
      0. 0. 0. 0.</_>
    <_>
      4.00000006e-001 4.00000006e-001 4.00000006e-001 4.00000006e-001
      4.00000006e-001 4.00000006e-001 4.00000006e-001 4.00000006e-001
      6.00000024e-001 4.00000006e-001 6.00000024e-001 9.00000036e-001
      4.00000006e-001 2.00000003e-001 2.00000003e-001 4.00000006e-001
      9.00000036e-001 6.00000024e-001 0. 0. 0. 255. 255. 0. 0. 255. 255.
      0. 0. 0. 255. 255. 0. 0. 0. 0. 255. 255. 0. 0. 255. 255. 0. 0. 0.
      0. 255. 255. 0. 0. 255. 255. 0. 0. 0. 0. 255. 255. 0. 0. 255. 255.
      0. 0. 0. 0. 255. 255. 0. 0. 255. 255. 0. 0. 0. 0. 255. 255. 0. 0.
      255. 255. 0. 0. 0. 0. 255. 255. 0. 0. 0. 255. 255. 0. 0. 255. 255.
      0. 0. 0. 0. 255. 255. 255. 255. 255. 255. 0. 0. 0. 0. 0. 255. 255.
      255. 255. 0. 0. 0. 0.</_>
    <_>
      2.00000003e-001 2.00000003e-001 2.00000003e-001 2.00000003e-001
      2.00000003e-001 2.00000003e-001 2.00000003e-001 4.00000006e-001 0.
      0. 0. 6.00000024e-001 2.00000003e-001 1.00000001e-001
      1.00000001e-001 2.00000003e-001 6.00000024e-001 0. 0. 0. 0. 255.
      0. 0. 0. 0. 255. 0. 0. 0. 0. 255. 0. 0. 0. 0. 255. 0. 0. 0. 0.
      255. 0. 0. 0. 0. 255. 0. 0. 0. 0. 255. 0. 0. 0. 0. 255. 0. 0. 0.
      0. 255. 0. 0. 0. 0. 255. 0. 0. 0. 0. 255. 0. 0. 0. 0. 255. 0. 0.
      0. 0. 0. 255. 0. 0. 255. 0. 0. 0. 0. 0. 0. 255. 255. 255. 255. 0.
      0. 0. 0. 0. 0. 0. 0. 0. 0. 0. 0. 0. 0. 0. 0. 0. 0. 0. 0. 0. 0. 0.
      0.</_>
    <_>
      2.00000003e-001 2.00000003e-001 2.00000003e-001 2.00000003e-001
      2.00000003e-001 2.00000003e-001 2.00000003e-001 4.00000006e-001 0.
      0. 5.00000000e-001 3.00000012e-001 1.00000001e-001 1.00000001e-001
      3.00000012e-001 5.00000000e-001 0. 0. 0. 0. 0. 255. 0. 0. 255. 0.
      0. 0. 0. 0. 255. 0. 0. 0. 0. 255. 0. 0. 0. 0. 255. 0. 0. 0. 0.
      255. 0. 0. 0. 0. 255. 0. 0. 0. 0. 255. 0. 0. 0. 0. 255. 0. 0. 0.
      0. 255. 0. 0. 0. 0. 255. 0. 0. 0. 0. 255. 0. 0. 0. 0. 0. 255. 0.
      0. 255. 0. 0. 0. 0. 0. 0. 255. 255. 255. 255. 0. 0. 0. 0. 0. 0. 0.
      0. 0. 0. 0. 0. 0. 0. 0. 0. 0. 0. 0. 0. 0. 0. 0. 0. 0.</_>
    <_>
      1.00000001e-001 1.00000001e-001 1.00000001e-001 1.00000001e-001
      3.00000012e-001 3.00000012e-001 0. 0. 0. 0. 5.00000000e-001
      2.00000003e-001 1.00000001e-001 2.00000003e-001 0. 0. 0. 0. 0. 0.
      255. 0. 0. 0. 0. 0. 0. 0. 0. 0. 255. 0. 0. 0. 0. 0. 0. 0. 0. 0.
      255. 0. 0. 0. 0. 0. 0. 0. 0. 0. 255. 0. 0. 0. 0. 0. 0. 0. 0. 0.
      255. 255. 0. 255. 0. 0. 0. 0. 0. 0. 0. 255. 255. 255. 0. 0. 0. 0.
      0. 0. 0. 0. 0. 0. 0. 0. 0. 0. 0. 0. 0. 0. 0. 0. 0. 0. 0. 0. 0. 0.
      0. 0. 0. 0. 0. 0. 0. 0. 0. 0. 0. 0. 0. 0. 0. 0. 0. 0. 0. 0.</_>
    <_>
      2.00000003e-001 2.00000003e-001 2.00000003e-001 2.00000003e-001
      2.00000003e-001 2.00000003e-001 4.00000006e-001 5.00000000e-001
      3.00000012e-001 0. 6.99999988e-001 2.00000003e-001 2.00000003e-001
      2.00000003e-001 2.00000003e-001 2.00000003e-001 6.99999988e-001 0.
      0. 0. 255. 0. 0. 0. 0. 0. 255. 0. 0. 0. 255. 0. 0. 0. 0. 0. 255.
      0. 0. 0. 255. 0. 0. 0. 0. 0. 255. 0. 0. 0. 255. 0. 0. 0. 0. 0.
      255. 0. 0. 0. 255. 0. 0. 0. 0. 0. 255. 0. 0. 0. 255. 0. 0. 0. 0.
      0. 255. 0. 0. 0. 255. 255. 0. 0. 0. 255. 255. 0. 0. 0. 0. 255.
      255. 255. 255. 255. 0. 0. 0. 0. 0. 0. 255. 255. 255. 0. 0. 0. 0.
      0. 0. 0. 0. 0. 0. 0. 0. 0. 0. 0.</_>
    <_>
      2.00000003e-001 2.00000003e-001 2.00000003e-001 2.00000003e-001
      2.00000003e-001 2.00000003e-001 2.00000003e-001 4.00000006e-001 0.
      0. 6.00000024e-001 2.00000003e-001 1.00000001e-001 1.00000001e-001
      2.00000003e-001 6.00000024e-001 0. 0. 0. 0. 255. 0. 0. 0. 0. 255.
      0. 0. 0. 0. 255. 0. 0. 0. 0. 255. 0. 0. 0. 0. 255. 0. 0. 0. 0.
      255. 0. 0. 0. 0. 255. 0. 0. 0. 0. 255. 0. 0. 0. 0. 255. 0. 0. 0.
      0. 255. 0. 0. 0. 0. 255. 0. 0. 0. 0. 255. 0. 0. 0. 0. 0. 255. 0.
      0. 255. 0. 0. 0. 0. 0. 0. 255. 255. 255. 255. 0. 0. 0. 0. 0. 0. 0.
      0. 0. 0. 0. 0. 0. 0. 0. 0. 0. 0. 0. 0. 0. 0. 0. 0. 0.</_>
    <_>
      2.00000003e-001 2.00000003e-001 2.00000003e-001 2.00000003e-001
      2.00000003e-001 4.00000006e-001 3.00000012e-001 0. 0. 0.
      6.00000024e-001 2.00000003e-001 1.00000001e-001 2.00000003e-001
      6.00000024e-001 0. 0. 0. 0. 0. 255. 0. 0. 0. 255. 0. 0. 0. 0. 0.
      255. 0. 0. 0. 255. 0. 0. 0. 0. 0. 255. 0. 0. 0. 255. 0. 0. 0. 0.
      0. 255. 0. 0. 0. 255. 0. 0. 0. 0. 0. 255. 0. 0. 0. 255. 0. 0. 0.
      0. 0. 255. 255. 0. 255. 255. 0. 0. 0. 0. 0. 0. 255. 255. 255. 0.
      0. 0. 0. 0. 0. 0. 0. 0. 0. 0. 0. 0. 0. 0. 0. 0. 0. 0. 0. 0. 0. 0.
      0. 0. 0. 0. 0. 0. 0. 0. 0. 0. 0. 0. 0.</_>
    <_>
      1.00000001e-001 1.00000001e-001 1.00000001e-001 3.00000012e-001
      3.00000012e-001 0. 0. 0. 0. 0. 0. 4.00000006e-001 2.00000003e-001
      1.00000001e-001 2.00000003e-001 0. 0. 0. 0. 0. 0. 255. 0. 0. 0. 0.
      0. 0. 0. 0. 0. 255. 0. 0. 0. 0. 0. 0. 0. 0. 0. 255. 0. 0. 0. 0. 0.
      0. 0. 0. 0. 255. 255. 0. 255. 0. 0. 0. 0. 0. 0. 0. 255. 255. 255.
      0. 0. 0. 0. 0. 0. 0. 0. 0. 0. 0. 0. 0. 0. 0. 0. 0. 0. 0. 0. 0. 0.
      0. 0. 0. 0. 0. 0. 0. 0. 0. 0. 0. 0. 0. 0. 0. 0. 0. 0. 0. 0. 0. 0.
      0. 0. 0. 0. 0. 0. 0. 0. 0. 0. 0.</_>
    <_>
      4.00000006e-001 4.00000006e-001 4.00000006e-001 4.00000006e-001
      4.00000006e-001 4.00000006e-001 4.00000006e-001 4.00000006e-001
      6.00000024e-001 4.00000006e-001 0. 6.00000024e-001 9.00000036e-001
      4.00000006e-001 2.00000003e-001 2.00000003e-001 4.00000006e-001
      9.00000036e-001 6.00000024e-001 0. 0. 0. 255. 255. 0. 0. 255. 255.
      0. 0. 0. 255. 255. 0. 0. 0. 0. 255. 255. 0. 0. 255. 255. 0. 0. 0.
      0. 255. 255. 0. 0. 255. 255. 0. 0. 0. 0. 255. 255. 0. 0. 255. 255.
      0. 0. 0. 0. 255. 255. 0. 0. 255. 255. 0. 0. 0. 0. 255. 255. 0. 0.
      255. 255. 0. 0. 0. 0. 255. 255. 0. 0. 0. 255. 255. 0. 0. 255. 255.
      0. 0. 0. 0. 255. 255. 255. 255. 255. 255. 0. 0. 0. 0. 0. 255. 255.
      255. 255. 0. 0. 0.</_>
    <_>
      4.00000006e-001 4.00000006e-001 4.00000006e-001 4.00000006e-001
      4.00000006e-001 4.00000006e-001 4.00000006e-001 6.00000024e-001
      4.00000006e-001 0. 0. 6.00000024e-001 8.00000012e-001
      3.00000012e-001 2.00000003e-001 2.00000003e-001 3.00000012e-001
      8.00000012e-001 6.00000024e-001 0. 0. 255. 255. 0. 0. 0. 0. 255.
      255. 0. 0. 255. 255. 0. 0. 0. 0. 255. 255. 0. 0. 255. 255. 0. 0.
      0. 0. 255. 255. 0. 0. 255. 255. 0. 0. 0. 0. 255. 255. 0. 0. 255.
      255. 0. 0. 0. 0. 255. 255. 0. 0. 255. 255. 0. 0. 0. 0. 255. 255.
      0. 0. 0. 255. 255. 0. 0. 255. 255. 0. 0. 0. 0. 255. 255. 255. 255.
      255. 255. 0. 0. 0. 0. 0. 255. 255. 255. 255. 0. 0. 0. 0. 0. 0. 0.
      0. 0. 0. 0. 0. 0.</_>
    <_>
      2.00000003e-001 2.00000003e-001 2.00000003e-001 2.00000003e-001
      2.00000003e-001 2.00000003e-001 2.00000003e-001 2.00000003e-001
      4.00000006e-001 0. 6.00000024e-001 3.00000012e-001 1.00000001e-001
      1.00000001e-001 3.00000012e-001 6.00000024e-001 0. 0. 0. 0. 0.
      255. 0. 0. 255. 0. 0. 0. 0. 0. 255. 0. 0. 0. 0. 255. 0. 0. 0. 0.
      255. 0. 0. 0. 0. 255. 0. 0. 0. 0. 255. 0. 0. 0. 0. 255. 0. 0. 0.
      0. 255. 0. 0. 0. 0. 255. 0. 0. 0. 0. 255. 0. 0. 0. 0. 255. 0. 0.
      0. 0. 255. 0. 0. 0. 0. 255. 0. 0. 0. 0. 0. 255. 0. 0. 255. 0. 0.
      0. 0. 0. 0. 255. 255. 255. 255. 0. 0. 0. 0. 0. 0. 0. 0. 0. 0. 0.
      0. 0. 0. 0.</_>
    <_>
      4.00000006e-001 4.00000006e-001 4.00000006e-001 4.00000006e-001
      4.00000006e-001 4.00000006e-001 4.00000006e-001 6.00000024e-001
      4.00000006e-001 0. 0. 6.00000024e-001 8.00000012e-001
      3.00000012e-001 2.00000003e-001 2.00000003e-001 3.00000012e-001
      8.00000012e-001 6.00000024e-001 0. 0. 255. 255. 0. 0. 0. 0. 255.
      255. 0. 0. 255. 255. 0. 0. 0. 0. 255. 255. 0. 0. 255. 255. 0. 0.
      0. 0. 255. 255. 0. 0. 255. 255. 0. 0. 0. 0. 255. 255. 0. 0. 255.
      255. 0. 0. 0. 0. 255. 255. 0. 0. 255. 255. 0. 0. 0. 0. 255. 255.
      0. 0. 0. 255. 255. 0. 0. 255. 255. 0. 0. 0. 0. 255. 255. 255. 255.
      255. 255. 0. 0. 0. 0. 0. 255. 255. 255. 255. 0. 0. 0. 0. 0. 0. 0.
      0. 0. 0. 0. 0. 0.</_>
    <_>
      4.00000006e-001 4.00000006e-001 4.00000006e-001 4.00000006e-001
      4.00000006e-001 4.00000006e-001 2.00000003e-001 4.00000006e-001
      4.00000006e-001 0. 0. 6.00000024e-001 8.00000012e-001
      2.00000003e-001 1.00000001e-001 1.00000001e-001 2.00000003e-001
      8.00000012e-001 6.00000024e-001 0. 0. 255. 255. 0. 0. 0. 0. 255.
      255. 0. 0. 255. 255. 0. 0. 0. 0. 255. 255. 0. 0. 255. 255. 0. 0.
      0. 0. 255. 255. 0. 0. 255. 255. 0. 0. 0. 0. 255. 255. 0. 0. 255.
      255. 0. 0. 0. 0. 255. 255. 0. 0. 255. 255. 0. 0. 0. 0. 255. 255.
      0. 0. 0. 255. 0. 0. 0. 0. 255. 0. 0. 0. 0. 255. 255. 0. 0. 255.
      255. 0. 0. 0. 0. 0. 255. 255. 255. 255. 0. 0. 0. 0. 0. 0. 0. 0. 0.
      0. 0. 0. 0.</_>
    <_>
      1.00000001e-001 1.00000001e-001 1.00000001e-001 3.00000012e-001
      3.00000012e-001 0. 0. 0. 0. 0. 4.00000006e-001 2.00000003e-001
      1.00000001e-001 2.00000003e-001 0. 0. 0. 0. 0. 0. 255. 0. 0. 0. 0.
      0. 0. 0. 0. 0. 255. 0. 0. 0. 0. 0. 0. 0. 0. 0. 255. 0. 0. 0. 0. 0.
      0. 0. 0. 0. 255. 255. 0. 255. 0. 0. 0. 0. 0. 0. 0. 255. 255. 255.
      0. 0. 0. 0. 0. 0. 0. 0. 0. 0. 0. 0. 0. 0. 0. 0. 0. 0. 0. 0. 0. 0.
      0. 0. 0. 0. 0. 0. 0. 0. 0. 0. 0. 0. 0. 0. 0. 0. 0. 0. 0. 0. 0. 0.
      0. 0. 0. 0. 0. 0. 0. 0. 0. 0. 0. 0.</_>
    <_>
      4.00000006e-001 4.00000006e-001 4.00000006e-001 4.00000006e-001
      4.00000006e-001 4.00000006e-001 2.00000003e-001 4.00000006e-001
      4.00000006e-001 0. 6.00000024e-001 8.00000012e-001 2.00000003e-001
      1.00000001e-001 1.00000001e-001 2.00000003e-001 8.00000012e-001
      6.00000024e-001 0. 0. 255. 255. 0. 0. 0. 0. 255. 255. 0. 0. 255.
      255. 0. 0. 0. 0. 255. 255. 0. 0. 255. 255. 0. 0. 0. 0. 255. 255.
      0. 0. 255. 255. 0. 0. 0. 0. 255. 255. 0. 0. 255. 255. 0. 0. 0. 0.
      255. 255. 0. 0. 255. 255. 0. 0. 0. 0. 255. 255. 0. 0. 0. 255. 0.
      0. 0. 0. 255. 0. 0. 0. 0. 255. 255. 0. 0. 255. 255. 0. 0. 0. 0. 0.
      255. 255. 255. 255. 0. 0. 0. 0. 0. 0. 0. 0. 0. 0. 0. 0. 0. 0.</_>
    <_>
      2.00000003e-001 2.00000003e-001 2.00000003e-001 2.00000003e-001
      2.00000003e-001 4.00000006e-001 5.00000000e-001 3.00000012e-001 0.
      0. 6.00000024e-001 2.00000003e-001 2.00000003e-001 2.00000003e-001
      2.00000003e-001 2.00000003e-001 6.00000024e-001 0. 0. 0. 255. 0.
      0. 0. 0. 0. 255. 0. 0. 0. 255. 0. 0. 0. 0. 0. 255. 0. 0. 0. 255.
      0. 0. 0. 0. 0. 255. 0. 0. 0. 255. 0. 0. 0. 0. 0. 255. 0. 0. 0.
      255. 0. 0. 0. 0. 0. 255. 0. 0. 0. 255. 255. 0. 0. 0. 255. 255. 0.
      0. 0. 0. 255. 255. 255. 255. 255. 0. 0. 0. 0. 0. 0. 255. 255. 255.
      0. 0. 0. 0. 0. 0. 0. 0. 0. 0. 0. 0. 0. 0. 0. 0. 0. 0. 0. 0. 0. 0.
      0. 0. 0.</_>
    <_>
      2.00000003e-001 2.00000003e-001 2.00000003e-001 2.00000003e-001
      2.00000003e-001 4.00000006e-001 3.00000012e-001 0. 0. 0. 0.
      6.00000024e-001 2.00000003e-001 1.00000001e-001 2.00000003e-001
      6.00000024e-001 0. 0. 0. 0. 0. 255. 0. 0. 0. 255. 0. 0. 0. 0. 0.
      255. 0. 0. 0. 255. 0. 0. 0. 0. 0. 255. 0. 0. 0. 255. 0. 0. 0. 0.
      0. 255. 0. 0. 0. 255. 0. 0. 0. 0. 0. 255. 0. 0. 0. 255. 0. 0. 0.
      0. 0. 255. 255. 0. 255. 255. 0. 0. 0. 0. 0. 0. 255. 255. 255. 0.
      0. 0. 0. 0. 0. 0. 0. 0. 0. 0. 0. 0. 0. 0. 0. 0. 0. 0. 0. 0. 0. 0.
      0. 0. 0. 0. 0. 0. 0. 0. 0. 0. 0. 0.</_>
    <_>
      2.00000003e-001 2.00000003e-001 2.00000003e-001 2.00000003e-001
      2.00000003e-001 4.00000006e-001 3.00000012e-001 0. 0. 0. 0.
      6.00000024e-001 2.00000003e-001 1.00000001e-001 2.00000003e-001
      6.00000024e-001 0. 0. 0. 0. 0. 255. 0. 0. 0. 255. 0. 0. 0. 0. 0.
      255. 0. 0. 0. 255. 0. 0. 0. 0. 0. 255. 0. 0. 0. 255. 0. 0. 0. 0.
      0. 255. 0. 0. 0. 255. 0. 0. 0. 0. 0. 255. 0. 0. 0. 255. 0. 0. 0.
      0. 0. 255. 255. 0. 255. 255. 0. 0. 0. 0. 0. 0. 255. 255. 255. 0.
      0. 0. 0. 0. 0. 0. 0. 0. 0. 0. 0. 0. 0. 0. 0. 0. 0. 0. 0. 0. 0. 0.
      0. 0. 0. 0. 0. 0. 0. 0. 0. 0. 0. 0.</_>
    <_>
      4.00000006e-001 4.00000006e-001 4.00000006e-001 4.00000006e-001
      4.00000006e-001 4.00000006e-001 4.00000006e-001 2.00000003e-001
      4.00000006e-001 4.00000006e-001 0. 6.99999988e-001 9.00000036e-001
      2.00000003e-001 1.00000001e-001 1.00000001e-001 2.00000003e-001
      9.00000036e-001 6.99999988e-001 0. 0. 255. 255. 0. 0. 0. 0. 255.
      255. 0. 0. 255. 255. 0. 0. 0. 0. 255. 255. 0. 0. 255. 255. 0. 0.
      0. 0. 255. 255. 0. 0. 255. 255. 0. 0. 0. 0. 255. 255. 0. 0. 255.
      255. 0. 0. 0. 0. 255. 255. 0. 0. 255. 255. 0. 0. 0. 0. 255. 255.
      0. 0. 255. 255. 0. 0. 0. 0. 255. 255. 0. 0. 0. 255. 0. 0. 0. 0.
      255. 0. 0. 0. 0. 255. 255. 0. 0. 255. 255. 0. 0. 0. 0. 0. 255.
      255. 255. 255. 0. 0. 0.</_>
    <_>
      2.00000003e-001 2.00000003e-001 2.00000003e-001 2.00000003e-001
      2.00000003e-001 2.00000003e-001 4.00000006e-001 5.00000000e-001
      3.00000012e-001 0. 0. 6.99999988e-001 2.00000003e-001
      2.00000003e-001 2.00000003e-001 2.00000003e-001 2.00000003e-001
      6.99999988e-001 0. 0. 0. 255. 0. 0. 0. 0. 0. 255. 0. 0. 0. 255. 0.
      0. 0. 0. 0. 255. 0. 0. 0. 255. 0. 0. 0. 0. 0. 255. 0. 0. 0. 255.
      0. 0. 0. 0. 0. 255. 0. 0. 0. 255. 0. 0. 0. 0. 0. 255. 0. 0. 0.
      255. 0. 0. 0. 0. 0. 255. 0. 0. 0. 255. 255. 0. 0. 0. 255. 255. 0.
      0. 0. 0. 255. 255. 255. 255. 255. 0. 0. 0. 0. 0. 0. 255. 255. 255.
      0. 0. 0. 0. 0. 0. 0. 0. 0. 0. 0. 0. 0. 0.</_>
    <_>
      4.00000006e-001 4.00000006e-001 4.00000006e-001 4.00000006e-001
      4.00000006e-001 4.00000006e-001 4.00000006e-001 2.00000003e-001
      4.00000006e-001 4.00000006e-001 6.99999988e-001 9.00000036e-001
      2.00000003e-001 1.00000001e-001 1.00000001e-001 2.00000003e-001
      9.00000036e-001 6.99999988e-001 0. 0. 255. 255. 0. 0. 0. 0. 255.
      255. 0. 0. 255. 255. 0. 0. 0. 0. 255. 255. 0. 0. 255. 255. 0. 0.
      0. 0. 255. 255. 0. 0. 255. 255. 0. 0. 0. 0. 255. 255. 0. 0. 255.
      255. 0. 0. 0. 0. 255. 255. 0. 0. 255. 255. 0. 0. 0. 0. 255. 255.
      0. 0. 255. 255. 0. 0. 0. 0. 255. 255. 0. 0. 0. 255. 0. 0. 0. 0.
      255. 0. 0. 0. 0. 255. 255. 0. 0. 255. 255. 0. 0. 0. 0. 0. 255.
      255. 255. 255. 0. 0. 0. 0.</_>
    <_>
      2.00000003e-001 2.00000003e-001 2.00000003e-001 2.00000003e-001
      2.00000003e-001 2.00000003e-001 4.00000006e-001 5.00000000e-001
      3.00000012e-001 0. 0. 6.99999988e-001 2.00000003e-001
      2.00000003e-001 2.00000003e-001 2.00000003e-001 2.00000003e-001
      6.99999988e-001 0. 0. 0. 255. 0. 0. 0. 0. 0. 255. 0. 0. 0. 255. 0.
      0. 0. 0. 0. 255. 0. 0. 0. 255. 0. 0. 0. 0. 0. 255. 0. 0. 0. 255.
      0. 0. 0. 0. 0. 255. 0. 0. 0. 255. 0. 0. 0. 0. 0. 255. 0. 0. 0.
      255. 0. 0. 0. 0. 0. 255. 0. 0. 0. 255. 255. 0. 0. 0. 255. 255. 0.
      0. 0. 0. 255. 255. 255. 255. 255. 0. 0. 0. 0. 0. 0. 255. 255. 255.
      0. 0. 0. 0. 0. 0. 0. 0. 0. 0. 0. 0. 0. 0.</_>
    <_>
      2.00000003e-001 2.00000003e-001 2.00000003e-001 2.00000003e-001
      2.00000003e-001 2.00000003e-001 2.00000003e-001 4.00000006e-001 0.
      0. 6.00000024e-001 2.00000003e-001 1.00000001e-001 1.00000001e-001
      2.00000003e-001 6.00000024e-001 0. 0. 0. 0. 255. 0. 0. 0. 0. 255.
      0. 0. 0. 0. 255. 0. 0. 0. 0. 255. 0. 0. 0. 0. 255. 0. 0. 0. 0.
      255. 0. 0. 0. 0. 255. 0. 0. 0. 0. 255. 0. 0. 0. 0. 255. 0. 0. 0.
      0. 255. 0. 0. 0. 0. 255. 0. 0. 0. 0. 255. 0. 0. 0. 0. 0. 255. 0.
      0. 255. 0. 0. 0. 0. 0. 0. 255. 255. 255. 255. 0. 0. 0. 0. 0. 0. 0.
      0. 0. 0. 0. 0. 0. 0. 0. 0. 0. 0. 0. 0. 0. 0. 0. 0. 0.</_>
    <_>
      4.00000006e-001 4.00000006e-001 4.00000006e-001 4.00000006e-001
      4.00000006e-001 4.00000006e-001 4.00000006e-001 6.00000024e-001
      4.00000006e-001 0. 6.00000024e-001 8.00000012e-001 3.00000012e-001
      2.00000003e-001 2.00000003e-001 3.00000012e-001 8.00000012e-001
      6.00000024e-001 0. 0. 255. 255. 0. 0. 0. 0. 255. 255. 0. 0. 255.
      255. 0. 0. 0. 0. 255. 255. 0. 0. 255. 255. 0. 0. 0. 0. 255. 255.
      0. 0. 255. 255. 0. 0. 0. 0. 255. 255. 0. 0. 255. 255. 0. 0. 0. 0.
      255. 255. 0. 0. 255. 255. 0. 0. 0. 0. 255. 255. 0. 0. 0. 255. 255.
      0. 0. 255. 255. 0. 0. 0. 0. 255. 255. 255. 255. 255. 255. 0. 0. 0.
      0. 0. 255. 255. 255. 255. 0. 0. 0. 0. 0. 0. 0. 0. 0. 0. 0. 0. 0.
      0.</_>
    <_>
      4.00000006e-001 4.00000006e-001 4.00000006e-001 4.00000006e-001
      4.00000006e-001 4.00000006e-001 2.00000003e-001 4.00000006e-001
      4.00000006e-001 0. 6.00000024e-001 8.00000012e-001 2.00000003e-001
      1.00000001e-001 1.00000001e-001 2.00000003e-001 8.00000012e-001
      6.00000024e-001 0. 0. 255. 255. 0. 0. 0. 0. 255. 255. 0. 0. 255.
      255. 0. 0. 0. 0. 255. 255. 0. 0. 255. 255. 0. 0. 0. 0. 255. 255.
      0. 0. 255. 255. 0. 0. 0. 0. 255. 255. 0. 0. 255. 255. 0. 0. 0. 0.
      255. 255. 0. 0. 255. 255. 0. 0. 0. 0. 255. 255. 0. 0. 0. 255. 0.
      0. 0. 0. 255. 0. 0. 0. 0. 255. 255. 0. 0. 255. 255. 0. 0. 0. 0. 0.
      255. 255. 255. 255. 0. 0. 0. 0. 0. 0. 0. 0. 0. 0. 0. 0. 0. 0.</_>
    <_>
      4.00000006e-001 4.00000006e-001 4.00000006e-001 4.00000006e-001
      4.00000006e-001 4.00000006e-001 2.00000003e-001 4.00000006e-001
      4.00000006e-001 0. 0. 6.00000024e-001 8.00000012e-001
      2.00000003e-001 1.00000001e-001 1.00000001e-001 2.00000003e-001
      8.00000012e-001 6.00000024e-001 0. 0. 255. 255. 0. 0. 0. 0. 255.
      255. 0. 0. 255. 255. 0. 0. 0. 0. 255. 255. 0. 0. 255. 255. 0. 0.
      0. 0. 255. 255. 0. 0. 255. 255. 0. 0. 0. 0. 255. 255. 0. 0. 255.
      255. 0. 0. 0. 0. 255. 255. 0. 0. 255. 255. 0. 0. 0. 0. 255. 255.
      0. 0. 0. 255. 0. 0. 0. 0. 255. 0. 0. 0. 0. 255. 255. 0. 0. 255.
      255. 0. 0. 0. 0. 0. 255. 255. 255. 255. 0. 0. 0. 0. 0. 0. 0. 0. 0.
      0. 0. 0. 0.</_>
    <_>
      2.00000003e-001 2.00000003e-001 2.00000003e-001 2.00000003e-001
      2.00000003e-001 2.00000003e-001 2.00000003e-001 4.00000006e-001 0.
      0. 0. 5.00000000e-001 3.00000012e-001 1.00000001e-001
      1.00000001e-001 3.00000012e-001 5.00000000e-001 0. 0. 0. 0. 0.
      255. 0. 0. 255. 0. 0. 0. 0. 0. 255. 0. 0. 0. 0. 255. 0. 0. 0. 0.
      255. 0. 0. 0. 0. 255. 0. 0. 0. 0. 255. 0. 0. 0. 0. 255. 0. 0. 0.
      0. 255. 0. 0. 0. 0. 255. 0. 0. 0. 0. 255. 0. 0. 0. 0. 255. 0. 0.
      0. 0. 0. 255. 0. 0. 255. 0. 0. 0. 0. 0. 0. 255. 255. 255. 255. 0.
      0. 0. 0. 0. 0. 0. 0. 0. 0. 0. 0. 0. 0. 0. 0. 0. 0. 0. 0. 0. 0. 0.
      0.</_>
    <_>
      2.00000003e-001 2.00000003e-001 2.00000003e-001 2.00000003e-001
      2.00000003e-001 4.00000006e-001 5.00000000e-001 3.00000012e-001 0.
      0. 6.00000024e-001 2.00000003e-001 2.00000003e-001 2.00000003e-001
      2.00000003e-001 2.00000003e-001 6.00000024e-001 0. 0. 0. 255. 0.
      0. 0. 0. 0. 255. 0. 0. 0. 255. 0. 0. 0. 0. 0. 255. 0. 0. 0. 255.
      0. 0. 0. 0. 0. 255. 0. 0. 0. 255. 0. 0. 0. 0. 0. 255. 0. 0. 0.
      255. 0. 0. 0. 0. 0. 255. 0. 0. 0. 255. 255. 0. 0. 0. 255. 255. 0.
      0. 0. 0. 255. 255. 255. 255. 255. 0. 0. 0. 0. 0. 0. 255. 255. 255.
      0. 0. 0. 0. 0. 0. 0. 0. 0. 0. 0. 0. 0. 0. 0. 0. 0. 0. 0. 0. 0. 0.
      0. 0. 0.</_>
    <_>
      2.00000003e-001 2.00000003e-001 2.00000003e-001 2.00000003e-001
      2.00000003e-001 2.00000003e-001 4.00000006e-001 5.00000000e-001
      3.00000012e-001 0. 6.99999988e-001 2.00000003e-001 2.00000003e-001
      2.00000003e-001 2.00000003e-001 2.00000003e-001 6.99999988e-001 0.
      0. 0. 255. 0. 0. 0. 0. 0. 255. 0. 0. 0. 255. 0. 0. 0. 0. 0. 255.
      0. 0. 0. 255. 0. 0. 0. 0. 0. 255. 0. 0. 0. 255. 0. 0. 0. 0. 0.
      255. 0. 0. 0. 255. 0. 0. 0. 0. 0. 255. 0. 0. 0. 255. 0. 0. 0. 0.
      0. 255. 0. 0. 0. 255. 255. 0. 0. 0. 255. 255. 0. 0. 0. 0. 255.
      255. 255. 255. 255. 0. 0. 0. 0. 0. 0. 255. 255. 255. 0. 0. 0. 0.
      0. 0. 0. 0. 0. 0. 0. 0. 0. 0. 0.</_>
    <_>
      2.00000003e-001 2.00000003e-001 2.00000003e-001 2.00000003e-001
      2.00000003e-001 2.00000003e-001 2.00000003e-001 4.00000006e-001 0.
      0. 0. 5.00000000e-001 3.00000012e-001 1.00000001e-001
      1.00000001e-001 3.00000012e-001 5.00000000e-001 0. 0. 0. 0. 0.
      255. 0. 0. 255. 0. 0. 0. 0. 0. 255. 0. 0. 0. 0. 255. 0. 0. 0. 0.
      255. 0. 0. 0. 0. 255. 0. 0. 0. 0. 255. 0. 0. 0. 0. 255. 0. 0. 0.
      0. 255. 0. 0. 0. 0. 255. 0. 0. 0. 0. 255. 0. 0. 0. 0. 255. 0. 0.
      0. 0. 0. 255. 0. 0. 255. 0. 0. 0. 0. 0. 0. 255. 255. 255. 255. 0.
      0. 0. 0. 0. 0. 0. 0. 0. 0. 0. 0. 0. 0. 0. 0. 0. 0. 0. 0. 0. 0. 0.
      0.</_>
    <_>
      4.00000006e-001 5.00000000e-001 5.00000000e-001 3.00000012e-001
      2.00000003e-001 2.00000003e-001 2.00000003e-001 2.00000003e-001
      2.00000003e-001 2.00000003e-001 1.00000001e-001 3.00000012e-001
      3.00000012e-001 2.00000003e-001 1. 1. 0. 0. 0. 0. 0. 0. 255. 255.
      255. 255. 0. 0. 0. 0. 0. 255. 255. 255. 255. 255. 0. 0. 0. 0. 255.
      255. 255. 0. 255. 255. 0. 0. 0. 0. 0. 255. 0. 0. 255. 255. 0. 0.
      0. 0. 0. 0. 0. 0. 255. 255. 0. 0. 0. 0. 0. 0. 0. 0. 255. 255. 0.
      0. 0. 0. 0. 0. 0. 0. 255. 255. 0. 0. 0. 0. 0. 0. 0. 0. 255. 255.
      0. 0. 0. 0. 0. 0. 0. 0. 255. 255. 0. 0. 0. 0. 0. 0. 0. 0. 255.
      255. 0. 0. 0. 0.</_>
    <_>
      1.00000001e-001 1.00000001e-001 1.00000001e-001 1.00000001e-001
      1.00000001e-001 1.00000001e-001 0. 0. 0. 0. 0. 0. 6.00000024e-001
      0. 0. 0. 0. 0. 0. 0. 0. 0. 255. 0. 0. 0. 0. 0. 0. 0. 0. 0. 255. 0.
      0. 0. 0. 0. 0. 0. 0. 0. 255. 0. 0. 0. 0. 0. 0. 0. 0. 0. 255. 0. 0.
      0. 0. 0. 0. 0. 0. 0. 255. 0. 0. 0. 0. 0. 0. 0. 0. 0. 255. 0. 0. 0.
      0. 0. 0. 0. 0. 0. 0. 0. 0. 0. 0. 0. 0. 0. 0. 0. 0. 0. 0. 0. 0. 0.
      0. 0. 0. 0. 0. 0. 0. 0. 0. 0. 0. 0. 0. 0. 0. 0. 0. 0. 0. 0. 0. 0.</_>
    <_>
      4.00000006e-001 5.00000000e-001 4.00000006e-001 3.00000012e-001
      2.00000003e-001 2.00000003e-001 2.00000003e-001 2.00000003e-001
      2.00000003e-001 2.00000003e-001 3.00000012e-001 3.00000012e-001
      2.00000003e-001 1. 1. 0. 0. 0. 0. 0. 0. 255. 255. 255. 255. 0. 0.
      0. 0. 0. 255. 255. 255. 255. 255. 0. 0. 0. 0. 0. 255. 255. 0. 255.
      255. 0. 0. 0. 0. 0. 255. 0. 0. 255. 255. 0. 0. 0. 0. 0. 0. 0. 0.
      255. 255. 0. 0. 0. 0. 0. 0. 0. 0. 255. 255. 0. 0. 0. 0. 0. 0. 0.
      0. 255. 255. 0. 0. 0. 0. 0. 0. 0. 0. 255. 255. 0. 0. 0. 0. 0. 0.
      0. 0. 255. 255. 0. 0. 0. 0. 0. 0. 0. 0. 255. 255. 0. 0. 0. 0. 0.</_>
    <_>
      1.00000001e-001 1.00000001e-001 1.00000001e-001 1.00000001e-001
      1.00000001e-001 1.00000001e-001 0. 0. 0. 0. 0. 0. 6.00000024e-001
      0. 0. 0. 0. 0. 0. 0. 0. 0. 255. 0. 0. 0. 0. 0. 0. 0. 0. 0. 255. 0.
      0. 0. 0. 0. 0. 0. 0. 0. 255. 0. 0. 0. 0. 0. 0. 0. 0. 0. 255. 0. 0.
      0. 0. 0. 0. 0. 0. 0. 255. 0. 0. 0. 0. 0. 0. 0. 0. 0. 255. 0. 0. 0.
      0. 0. 0. 0. 0. 0. 0. 0. 0. 0. 0. 0. 0. 0. 0. 0. 0. 0. 0. 0. 0. 0.
      0. 0. 0. 0. 0. 0. 0. 0. 0. 0. 0. 0. 0. 0. 0. 0. 0. 0. 0. 0. 0. 0.</_>
    <_>
      2.00000003e-001 1.00000001e-001 1.00000001e-001 1.00000001e-001
      1.00000001e-001 1.00000001e-001 0. 0. 0. 0. 0. 1.00000001e-001 0.
      6.00000024e-001 0. 0. 0. 0. 0. 0. 0. 255. 0. 255. 0. 0. 0. 0. 0.
      0. 0. 0. 0. 255. 0. 0. 0. 0. 0. 0. 0. 0. 0. 255. 0. 0. 0. 0. 0. 0.
      0. 0. 0. 255. 0. 0. 0. 0. 0. 0. 0. 0. 0. 255. 0. 0. 0. 0. 0. 0. 0.
      0. 0. 255. 0. 0. 0. 0. 0. 0. 0. 0. 0. 0. 0. 0. 0. 0. 0. 0. 0. 0.
      0. 0. 0. 0. 0. 0. 0. 0. 0. 0. 0. 0. 0. 0. 0. 0. 0. 0. 0. 0. 0. 0.
      0. 0. 0. 0. 0. 0.</_>
    <_>
      2.00000003e-001 1.00000001e-001 1.00000001e-001 1.00000001e-001
      1.00000001e-001 1.00000001e-001 1.00000001e-001 0. 0. 0. 0.
      1.00000001e-001 0. 6.99999988e-001 0. 0. 0. 0. 0. 0. 0. 255. 0.
      255. 0. 0. 0. 0. 0. 0. 0. 0. 0. 255. 0. 0. 0. 0. 0. 0. 0. 0. 0.
      255. 0. 0. 0. 0. 0. 0. 0. 0. 0. 255. 0. 0. 0. 0. 0. 0. 0. 0. 0.
      255. 0. 0. 0. 0. 0. 0. 0. 0. 0. 255. 0. 0. 0. 0. 0. 0. 0. 0. 0.
      255. 0. 0. 0. 0. 0. 0. 0. 0. 0. 0. 0. 0. 0. 0. 0. 0. 0. 0. 0. 0.
      0. 0. 0. 0. 0. 0. 0. 0. 0. 0. 0. 0. 0. 0. 0. 0.</_>
    <_>
      3.00000012e-001 1.00000001e-001 1.00000001e-001 1.00000001e-001
      1.00000001e-001 1.00000001e-001 1.00000001e-001 0. 0. 0.
      1.00000001e-001 1.00000001e-001 0. 6.99999988e-001 0. 0. 0. 0. 0.
      0. 255. 255. 0. 255. 0. 0. 0. 0. 0. 0. 0. 0. 0. 255. 0. 0. 0. 0.
      0. 0. 0. 0. 0. 255. 0. 0. 0. 0. 0. 0. 0. 0. 0. 255. 0. 0. 0. 0. 0.
      0. 0. 0. 0. 255. 0. 0. 0. 0. 0. 0. 0. 0. 0. 255. 0. 0. 0. 0. 0. 0.
      0. 0. 0. 255. 0. 0. 0. 0. 0. 0. 0. 0. 0. 0. 0. 0. 0. 0. 0. 0. 0.
      0. 0. 0. 0. 0. 0. 0. 0. 0. 0. 0. 0. 0. 0. 0. 0. 0. 0. 0.</_>
    <_>
      1.00000001e-001 1.00000001e-001 1.00000001e-001 1.00000001e-001
      1.00000001e-001 1.00000001e-001 0. 0. 0. 0. 0. 0. 6.00000024e-001
      0. 0. 0. 0. 0. 0. 0. 0. 0. 255. 0. 0. 0. 0. 0. 0. 0. 0. 0. 255. 0.
      0. 0. 0. 0. 0. 0. 0. 0. 255. 0. 0. 0. 0. 0. 0. 0. 0. 0. 255. 0. 0.
      0. 0. 0. 0. 0. 0. 0. 255. 0. 0. 0. 0. 0. 0. 0. 0. 0. 255. 0. 0. 0.
      0. 0. 0. 0. 0. 0. 0. 0. 0. 0. 0. 0. 0. 0. 0. 0. 0. 0. 0. 0. 0. 0.
      0. 0. 0. 0. 0. 0. 0. 0. 0. 0. 0. 0. 0. 0. 0. 0. 0. 0. 0. 0. 0. 0.</_>
    <_>
      2.00000003e-001 1.00000001e-001 1.00000001e-001 1.00000001e-001
      1.00000001e-001 1.00000001e-001 1.00000001e-001 0. 0. 0.
      1.00000001e-001 0. 6.99999988e-001 0. 0. 0. 0. 0. 0. 0. 255. 0.
      255. 0. 0. 0. 0. 0. 0. 0. 0. 0. 255. 0. 0. 0. 0. 0. 0. 0. 0. 0.
      255. 0. 0. 0. 0. 0. 0. 0. 0. 0. 255. 0. 0. 0. 0. 0. 0. 0. 0. 0.
      255. 0. 0. 0. 0. 0. 0. 0. 0. 0. 255. 0. 0. 0. 0. 0. 0. 0. 0. 0.
      255. 0. 0. 0. 0. 0. 0. 0. 0. 0. 0. 0. 0. 0. 0. 0. 0. 0. 0. 0. 0.
      0. 0. 0. 0. 0. 0. 0. 0. 0. 0. 0. 0. 0. 0. 0. 0. 0.</_>
    <_>
      3.00000012e-001 2.00000003e-001 1.00000001e-001 1.00000001e-001
      1.00000001e-001 1.00000001e-001 1.00000001e-001 0. 0. 0.
      2.00000003e-001 1.00000001e-001 0. 6.99999988e-001 0. 0. 0. 0. 0.
      0. 255. 255. 0. 255. 0. 0. 0. 0. 0. 0. 255. 0. 0. 255. 0. 0. 0. 0.
      0. 0. 0. 0. 0. 255. 0. 0. 0. 0. 0. 0. 0. 0. 0. 255. 0. 0. 0. 0. 0.
      0. 0. 0. 0. 255. 0. 0. 0. 0. 0. 0. 0. 0. 0. 255. 0. 0. 0. 0. 0. 0.
      0. 0. 0. 255. 0. 0. 0. 0. 0. 0. 0. 0. 0. 0. 0. 0. 0. 0. 0. 0. 0.
      0. 0. 0. 0. 0. 0. 0. 0. 0. 0. 0. 0. 0. 0. 0. 0. 0. 0. 0.</_>
    <_>
      4.00000006e-001 3.00000012e-001 2.00000003e-001 2.00000003e-001
      2.00000003e-001 2.00000003e-001 2.00000003e-001 2.00000003e-001
      2.00000003e-001 2.00000003e-001 2.00000003e-001 1.00000001e-001 0.
      1. 1. 0. 0. 0. 0. 0. 255. 255. 0. 255. 255. 0. 0. 0. 0. 0. 255. 0.
      0. 255. 255. 0. 0. 0. 0. 0. 0. 0. 0. 255. 255. 0. 0. 0. 0. 0. 0.
      0. 0. 255. 255. 0. 0. 0. 0. 0. 0. 0. 0. 255. 255. 0. 0. 0. 0. 0.
      0. 0. 0. 255. 255. 0. 0. 0. 0. 0. 0. 0. 0. 255. 255. 0. 0. 0. 0.
      0. 0. 0. 0. 255. 255. 0. 0. 0. 0. 0. 0. 0. 0. 255. 255. 0. 0. 0.
      0. 0. 0. 0. 0. 255. 255. 0. 0. 0. 0. 0.</_>
    <_>
      3.00000012e-001 4.00000006e-001 2.00000003e-001 1.00000001e-001
      1.00000001e-001 1.00000001e-001 1.00000001e-001 1.00000001e-001
      1.00000001e-001 0. 2.00000003e-001 2.00000003e-001 2.00000003e-001
      9.00000036e-001 0. 0. 0. 0. 0. 0. 0. 255. 255. 255. 0. 0. 0. 0. 0.
      0. 255. 255. 255. 255. 0. 0. 0. 0. 0. 0. 255. 0. 0. 255. 0. 0. 0.
      0. 0. 0. 0. 0. 0. 255. 0. 0. 0. 0. 0. 0. 0. 0. 0. 255. 0. 0. 0. 0.
      0. 0. 0. 0. 0. 255. 0. 0. 0. 0. 0. 0. 0. 0. 0. 255. 0. 0. 0. 0. 0.
      0. 0. 0. 0. 255. 0. 0. 0. 0. 0. 0. 0. 0. 0. 255. 0. 0. 0. 0. 0. 0.
      0. 0. 0. 0. 0. 0. 0. 0. 0. 0.</_>
    <_>
      3.00000012e-001 2.00000003e-001 1.00000001e-001 1.00000001e-001
      1.00000001e-001 1.00000001e-001 1.00000001e-001 0. 0. 0.
      2.00000003e-001 1.00000001e-001 0. 6.99999988e-001 0. 0. 0. 0. 0.
      0. 255. 255. 0. 255. 0. 0. 0. 0. 0. 0. 255. 0. 0. 255. 0. 0. 0. 0.
      0. 0. 0. 0. 0. 255. 0. 0. 0. 0. 0. 0. 0. 0. 0. 255. 0. 0. 0. 0. 0.
      0. 0. 0. 0. 255. 0. 0. 0. 0. 0. 0. 0. 0. 0. 255. 0. 0. 0. 0. 0. 0.
      0. 0. 0. 255. 0. 0. 0. 0. 0. 0. 0. 0. 0. 0. 0. 0. 0. 0. 0. 0. 0.
      0. 0. 0. 0. 0. 0. 0. 0. 0. 0. 0. 0. 0. 0. 0. 0. 0. 0. 0.</_>
    <_>
      5.00000000e-001 5.00000000e-001 3.00000012e-001 2.00000003e-001
      2.00000003e-001 2.00000003e-001 2.00000003e-001 2.00000003e-001
      2.00000003e-001 0. 1.00000001e-001 3.00000012e-001 2.00000003e-001
      1.00000001e-001 9.00000036e-001 9.00000036e-001 0. 0. 0. 0. 0.
      255. 255. 255. 255. 255. 0. 0. 0. 0. 255. 255. 255. 0. 255. 255.
      0. 0. 0. 0. 0. 255. 0. 0. 255. 255. 0. 0. 0. 0. 0. 0. 0. 0. 255.
      255. 0. 0. 0. 0. 0. 0. 0. 0. 255. 255. 0. 0. 0. 0. 0. 0. 0. 0.
      255. 255. 0. 0. 0. 0. 0. 0. 0. 0. 255. 255. 0. 0. 0. 0. 0. 0. 0.
      0. 255. 255. 0. 0. 0. 0. 0. 0. 0. 0. 255. 255. 0. 0. 0. 0. 0. 0.
      0. 0. 0. 0. 0. 0. 0. 0.</_>
    <_>
      1.00000001e-001 1.00000001e-001 1.00000001e-001 1.00000001e-001
      1.00000001e-001 0. 0. 0. 0. 0. 0. 0. 5.00000000e-001 0. 0. 0. 0.
      0. 0. 0. 0. 0. 255. 0. 0. 0. 0. 0. 0. 0. 0. 0. 255. 0. 0. 0. 0. 0.
      0. 0. 0. 0. 255. 0. 0. 0. 0. 0. 0. 0. 0. 0. 255. 0. 0. 0. 0. 0. 0.
      0. 0. 0. 255. 0. 0. 0. 0. 0. 0. 0. 0. 0. 0. 0. 0. 0. 0. 0. 0. 0.
      0. 0. 0. 0. 0. 0. 0. 0. 0. 0. 0. 0. 0. 0. 0. 0. 0. 0. 0. 0. 0. 0.
      0. 0. 0. 0. 0. 0. 0. 0. 0. 0. 0. 0. 0. 0. 0. 0. 0. 0.</_>
    <_>
      4.00000006e-001 4.00000006e-001 2.00000003e-001 1.00000001e-001
      1.00000001e-001 1.00000001e-001 1.00000001e-001 1.00000001e-001
      1.00000001e-001 0. 1.00000001e-001 3.00000012e-001 2.00000003e-001
      1.00000001e-001 9.00000036e-001 0. 0. 0. 0. 0. 0. 255. 255. 255.
      255. 0. 0. 0. 0. 0. 255. 255. 255. 0. 255. 0. 0. 0. 0. 0. 0. 255.
      0. 0. 255. 0. 0. 0. 0. 0. 0. 0. 0. 0. 255. 0. 0. 0. 0. 0. 0. 0. 0.
      0. 255. 0. 0. 0. 0. 0. 0. 0. 0. 0. 255. 0. 0. 0. 0. 0. 0. 0. 0. 0.
      255. 0. 0. 0. 0. 0. 0. 0. 0. 0. 255. 0. 0. 0. 0. 0. 0. 0. 0. 0.
      255. 0. 0. 0. 0. 0. 0. 0. 0. 0. 0. 0. 0. 0. 0. 0.</_>
    <_>
      5.00000000e-001 4.00000006e-001 3.00000012e-001 2.00000003e-001
      2.00000003e-001 2.00000003e-001 2.00000003e-001 2.00000003e-001
      2.00000003e-001 0. 3.00000012e-001 2.00000003e-001 1.00000001e-001
      9.00000036e-001 9.00000036e-001 0. 0. 0. 0. 0. 255. 255. 255. 255.
      255. 0. 0. 0. 0. 0. 255. 255. 0. 255. 255. 0. 0. 0. 0. 0. 255. 0.
      0. 255. 255. 0. 0. 0. 0. 0. 0. 0. 0. 255. 255. 0. 0. 0. 0. 0. 0.
      0. 0. 255. 255. 0. 0. 0. 0. 0. 0. 0. 0. 255. 255. 0. 0. 0. 0. 0.
      0. 0. 0. 255. 255. 0. 0. 0. 0. 0. 0. 0. 0. 255. 255. 0. 0. 0. 0.
      0. 0. 0. 0. 255. 255. 0. 0. 0. 0. 0. 0. 0. 0. 0. 0. 0. 0. 0. 0. 0.</_>
    <_>
      4.00000006e-001 2.00000003e-001 2.00000003e-001 2.00000003e-001
      2.00000003e-001 2.00000003e-001 2.00000003e-001 2.00000003e-001
      2.00000003e-001 0. 1.00000001e-001 1.00000001e-001 0. 0.
      9.00000036e-001 9.00000036e-001 0. 0. 0. 0. 255. 255. 0. 0. 255.
      255. 0. 0. 0. 0. 0. 0. 0. 0. 255. 255. 0. 0. 0. 0. 0. 0. 0. 0.
      255. 255. 0. 0. 0. 0. 0. 0. 0. 0. 255. 255. 0. 0. 0. 0. 0. 0. 0.
      0. 255. 255. 0. 0. 0. 0. 0. 0. 0. 0. 255. 255. 0. 0. 0. 0. 0. 0.
      0. 0. 255. 255. 0. 0. 0. 0. 0. 0. 0. 0. 255. 255. 0. 0. 0. 0. 0.
      0. 0. 0. 255. 255. 0. 0. 0. 0. 0. 0. 0. 0. 0. 0. 0. 0. 0. 0.</_>
    <_>
      3.00000012e-001 2.00000003e-001 2.00000003e-001 2.00000003e-001
      2.00000003e-001 2.00000003e-001 2.00000003e-001 2.00000003e-001
      2.00000003e-001 0. 1.00000001e-001 0. 0. 9.00000036e-001
      9.00000036e-001 0. 0. 0. 0. 0. 255. 0. 0. 255. 255. 0. 0. 0. 0. 0.
      0. 0. 0. 255. 255. 0. 0. 0. 0. 0. 0. 0. 0. 255. 255. 0. 0. 0. 0.
      0. 0. 0. 0. 255. 255. 0. 0. 0. 0. 0. 0. 0. 0. 255. 255. 0. 0. 0.
      0. 0. 0. 0. 0. 255. 255. 0. 0. 0. 0. 0. 0. 0. 0. 255. 255. 0. 0.
      0. 0. 0. 0. 0. 0. 255. 255. 0. 0. 0. 0. 0. 0. 0. 0. 255. 255. 0.
      0. 0. 0. 0. 0. 0. 0. 0. 0. 0. 0. 0. 0. 0.</_>
    <_>
      1.00000001e-001 1.00000001e-001 1.00000001e-001 1.00000001e-001
      1.00000001e-001 1.00000001e-001 0. 0. 0. 0. 0. 0. 6.00000024e-001
      0. 0. 0. 0. 0. 0. 0. 0. 0. 255. 0. 0. 0. 0. 0. 0. 0. 0. 0. 255. 0.
      0. 0. 0. 0. 0. 0. 0. 0. 255. 0. 0. 0. 0. 0. 0. 0. 0. 0. 255. 0. 0.
      0. 0. 0. 0. 0. 0. 0. 255. 0. 0. 0. 0. 0. 0. 0. 0. 0. 255. 0. 0. 0.
      0. 0. 0. 0. 0. 0. 0. 0. 0. 0. 0. 0. 0. 0. 0. 0. 0. 0. 0. 0. 0. 0.
      0. 0. 0. 0. 0. 0. 0. 0. 0. 0. 0. 0. 0. 0. 0. 0. 0. 0. 0. 0. 0. 0.</_>
    <_>
      3.00000012e-001 2.00000003e-001 1.00000001e-001 1.00000001e-001
      1.00000001e-001 1.00000001e-001 1.00000001e-001 1.00000001e-001 0.
      0. 2.00000003e-001 1.00000001e-001 0. 8.00000012e-001 0. 0. 0. 0.
      0. 0. 255. 255. 0. 255. 0. 0. 0. 0. 0. 0. 255. 0. 0. 255. 0. 0. 0.
      0. 0. 0. 0. 0. 0. 255. 0. 0. 0. 0. 0. 0. 0. 0. 0. 255. 0. 0. 0. 0.
      0. 0. 0. 0. 0. 255. 0. 0. 0. 0. 0. 0. 0. 0. 0. 255. 0. 0. 0. 0. 0.
      0. 0. 0. 0. 255. 0. 0. 0. 0. 0. 0. 0. 0. 0. 255. 0. 0. 0. 0. 0. 0.
      0. 0. 0. 0. 0. 0. 0. 0. 0. 0. 0. 0. 0. 0. 0. 0. 0. 0. 0. 0.</_>
    <_>
      1.00000001e-001 1.00000001e-001 1.00000001e-001 1.00000001e-001
      1.00000001e-001 1.00000001e-001 0. 0. 0. 0. 0. 0. 0.
      6.00000024e-001 0. 0. 0. 0. 0. 0. 0. 0. 0. 255. 0. 0. 0. 0. 0. 0.
      0. 0. 0. 255. 0. 0. 0. 0. 0. 0. 0. 0. 0. 255. 0. 0. 0. 0. 0. 0. 0.
      0. 0. 255. 0. 0. 0. 0. 0. 0. 0. 0. 0. 255. 0. 0. 0. 0. 0. 0. 0. 0.
      0. 255. 0. 0. 0. 0. 0. 0. 0. 0. 0. 0. 0. 0. 0. 0. 0. 0. 0. 0. 0.
      0. 0. 0. 0. 0. 0. 0. 0. 0. 0. 0. 0. 0. 0. 0. 0. 0. 0. 0. 0. 0. 0.
      0. 0. 0. 0. 0.</_>
    <_>
      0. 0. 0. 0. 0. 0. 0. 0. 0. 0. 0. 0. 0. 0. 0. 0. 0. 0. 0. 0. 0. 0.
      0. 0. 0. 0. 0. 0. 0. 0. 0. 0. 0. 0. 0. 0. 0. 0. 0. 0. 0. 0. 0. 0.
      0. 0. 0. 0. 0. 0. 0. 0. 0. 0. 0. 0. 0. 0. 0. 0. 0. 0. 0. 0. 0. 0.
      0. 0. 0. 0. 0. 0. 0. 0. 0. 0. 0. 0. 0. 0. 0. 0. 0. 0. 0. 0. 0. 0.
      0. 0. 0. 0. 0. 0. 0. 0. 0. 0. 0. 0. 0. 0. 0. 0. 0. 0. 0. 0. 0. 0.
      0. 0. 0. 0. 0. 0. 0. 0. 0. 0.</_>
    <_>
      4.00000006e-001 3.00000012e-001 1.00000001e-001 1.00000001e-001
      1.00000001e-001 1.00000001e-001 1.00000001e-001 1.00000001e-001 0.
      0. 1.00000001e-001 2.00000003e-001 1.00000001e-001 1.00000001e-001
      8.00000012e-001 0. 0. 0. 0. 0. 0. 255. 255. 255. 255. 0. 0. 0. 0.
      0. 255. 255. 0. 0. 255. 0. 0. 0. 0. 0. 0. 0. 0. 0. 255. 0. 0. 0.
      0. 0. 0. 0. 0. 0. 255. 0. 0. 0. 0. 0. 0. 0. 0. 0. 255. 0. 0. 0. 0.
      0. 0. 0. 0. 0. 255. 0. 0. 0. 0. 0. 0. 0. 0. 0. 255. 0. 0. 0. 0. 0.
      0. 0. 0. 0. 255. 0. 0. 0. 0. 0. 0. 0. 0. 0. 0. 0. 0. 0. 0. 0. 0.
      0. 0. 0. 0. 0. 0. 0. 0. 0.</_>
    <_>
      4.00000006e-001 2.00000003e-001 1.00000001e-001 1.00000001e-001
      1.00000001e-001 1.00000001e-001 1.00000001e-001 1.00000001e-001 0.
      0. 1.00000001e-001 2.00000003e-001 1.00000001e-001 0.
      8.00000012e-001 0. 0. 0. 0. 0. 255. 255. 255. 0. 255. 0. 0. 0. 0.
      0. 0. 255. 0. 0. 255. 0. 0. 0. 0. 0. 0. 0. 0. 0. 255. 0. 0. 0. 0.
      0. 0. 0. 0. 0. 255. 0. 0. 0. 0. 0. 0. 0. 0. 0. 255. 0. 0. 0. 0. 0.
      0. 0. 0. 0. 255. 0. 0. 0. 0. 0. 0. 0. 0. 0. 255. 0. 0. 0. 0. 0. 0.
      0. 0. 0. 255. 0. 0. 0. 0. 0. 0. 0. 0. 0. 0. 0. 0. 0. 0. 0. 0. 0.
      0. 0. 0. 0. 0. 0. 0. 0.</_>
    <_>
      3.00000012e-001 2.00000003e-001 1.00000001e-001 1.00000001e-001
      1.00000001e-001 1.00000001e-001 1.00000001e-001 1.00000001e-001 0.
      0. 2.00000003e-001 1.00000001e-001 8.00000012e-001 0. 0. 0. 0. 0.
      0. 0. 255. 255. 255. 0. 0. 0. 0. 0. 0. 0. 255. 0. 255. 0. 0. 0. 0.
      0. 0. 0. 0. 0. 255. 0. 0. 0. 0. 0. 0. 0. 0. 0. 255. 0. 0. 0. 0. 0.
      0. 0. 0. 0. 255. 0. 0. 0. 0. 0. 0. 0. 0. 0. 255. 0. 0. 0. 0. 0. 0.
      0. 0. 0. 255. 0. 0. 0. 0. 0. 0. 0. 0. 0. 255. 0. 0. 0. 0. 0. 0. 0.
      0. 0. 0. 0. 0. 0. 0. 0. 0. 0. 0. 0. 0. 0. 0. 0. 0. 0. 0. 0.</_>
    <_>
      3.00000012e-001 4.00000006e-001 3.00000012e-001 1.00000001e-001
      1.00000001e-001 1.00000001e-001 1.00000001e-001 1.00000001e-001
      1.00000001e-001 0. 1.00000001e-001 2.00000003e-001 2.00000003e-001
      2.00000003e-001 9.00000036e-001 0. 0. 0. 0. 0. 0. 0. 255. 255.
      255. 0. 0. 0. 0. 0. 0. 255. 255. 255. 255. 0. 0. 0. 0. 0. 255.
      255. 0. 0. 255. 0. 0. 0. 0. 0. 0. 0. 0. 0. 255. 0. 0. 0. 0. 0. 0.
      0. 0. 0. 255. 0. 0. 0. 0. 0. 0. 0. 0. 0. 255. 0. 0. 0. 0. 0. 0. 0.
      0. 0. 255. 0. 0. 0. 0. 0. 0. 0. 0. 0. 255. 0. 0. 0. 0. 0. 0. 0. 0.
      0. 255. 0. 0. 0. 0. 0. 0. 0. 0. 0. 0. 0. 0. 0. 0. 0.</_>
    <_>
      3.00000012e-001 2.00000003e-001 2.00000003e-001 2.00000003e-001
      2.00000003e-001 2.00000003e-001 2.00000003e-001 2.00000003e-001
      2.00000003e-001 0. 1.00000001e-001 0. 0. 9.00000036e-001
      9.00000036e-001 0. 0. 0. 0. 0. 255. 0. 0. 255. 255. 0. 0. 0. 0. 0.
      0. 0. 0. 255. 255. 0. 0. 0. 0. 0. 0. 0. 0. 255. 255. 0. 0. 0. 0.
      0. 0. 0. 0. 255. 255. 0. 0. 0. 0. 0. 0. 0. 0. 255. 255. 0. 0. 0.
      0. 0. 0. 0. 0. 255. 255. 0. 0. 0. 0. 0. 0. 0. 0. 255. 255. 0. 0.
      0. 0. 0. 0. 0. 0. 255. 255. 0. 0. 0. 0. 0. 0. 0. 0. 255. 255. 0.
      0. 0. 0. 0. 0. 0. 0. 0. 0. 0. 0. 0. 0. 0.</_>
    <_>
      4.00000006e-001 4.00000006e-001 2.00000003e-001 1.00000001e-001
      1.00000001e-001 1.00000001e-001 1.00000001e-001 1.00000001e-001
      1.00000001e-001 0. 1.00000001e-001 3.00000012e-001 2.00000003e-001
      1.00000001e-001 9.00000036e-001 0. 0. 0. 0. 0. 0. 255. 255. 255.
      255. 0. 0. 0. 0. 0. 255. 255. 255. 0. 255. 0. 0. 0. 0. 0. 0. 255.
      0. 0. 255. 0. 0. 0. 0. 0. 0. 0. 0. 0. 255. 0. 0. 0. 0. 0. 0. 0. 0.
      0. 255. 0. 0. 0. 0. 0. 0. 0. 0. 0. 255. 0. 0. 0. 0. 0. 0. 0. 0. 0.
      255. 0. 0. 0. 0. 0. 0. 0. 0. 0. 255. 0. 0. 0. 0. 0. 0. 0. 0. 0.
      255. 0. 0. 0. 0. 0. 0. 0. 0. 0. 0. 0. 0. 0. 0. 0.</_>
    <_>
      4.00000006e-001 3.00000012e-001 2.00000003e-001 1.00000001e-001
      1.00000001e-001 1.00000001e-001 1.00000001e-001 1.00000001e-001
      1.00000001e-001 0. 3.00000012e-001 2.00000003e-001 1.00000001e-001
      9.00000036e-001 0. 0. 0. 0. 0. 0. 255. 255. 255. 255. 0. 0. 0. 0.
      0. 0. 255. 255. 0. 255. 0. 0. 0. 0. 0. 0. 255. 0. 0. 255. 0. 0. 0.
      0. 0. 0. 0. 0. 0. 255. 0. 0. 0. 0. 0. 0. 0. 0. 0. 255. 0. 0. 0. 0.
      0. 0. 0. 0. 0. 255. 0. 0. 0. 0. 0. 0. 0. 0. 0. 255. 0. 0. 0. 0. 0.
      0. 0. 0. 0. 255. 0. 0. 0. 0. 0. 0. 0. 0. 0. 255. 0. 0. 0. 0. 0. 0.
      0. 0. 0. 0. 0. 0. 0. 0. 0. 0.</_>
    <_>
      3.00000012e-001 4.00000006e-001 2.00000003e-001 1.00000001e-001
      1.00000001e-001 1.00000001e-001 1.00000001e-001 1.00000001e-001
      1.00000001e-001 0. 2.00000003e-001 2.00000003e-001 2.00000003e-001
      9.00000036e-001 0. 0. 0. 0. 0. 0. 0. 255. 255. 255. 0. 0. 0. 0. 0.
      0. 255. 255. 255. 255. 0. 0. 0. 0. 0. 0. 255. 0. 0. 255. 0. 0. 0.
      0. 0. 0. 0. 0. 0. 255. 0. 0. 0. 0. 0. 0. 0. 0. 0. 255. 0. 0. 0. 0.
      0. 0. 0. 0. 0. 255. 0. 0. 0. 0. 0. 0. 0. 0. 0. 255. 0. 0. 0. 0. 0.
      0. 0. 0. 0. 255. 0. 0. 0. 0. 0. 0. 0. 0. 0. 255. 0. 0. 0. 0. 0. 0.
      0. 0. 0. 0. 0. 0. 0. 0. 0. 0.</_>
    <_>
      2.00000003e-001 1.00000001e-001 1.00000001e-001 1.00000001e-001
      1.00000001e-001 1.00000001e-001 1.00000001e-001 0. 0. 0. 0.
      1.00000001e-001 0. 6.99999988e-001 0. 0. 0. 0. 0. 0. 0. 255. 0.
      255. 0. 0. 0. 0. 0. 0. 0. 0. 0. 255. 0. 0. 0. 0. 0. 0. 0. 0. 0.
      255. 0. 0. 0. 0. 0. 0. 0. 0. 0. 255. 0. 0. 0. 0. 0. 0. 0. 0. 0.
      255. 0. 0. 0. 0. 0. 0. 0. 0. 0. 255. 0. 0. 0. 0. 0. 0. 0. 0. 0.
      255. 0. 0. 0. 0. 0. 0. 0. 0. 0. 0. 0. 0. 0. 0. 0. 0. 0. 0. 0. 0.
      0. 0. 0. 0. 0. 0. 0. 0. 0. 0. 0. 0. 0. 0. 0. 0.</_>
    <_>
      2.00000003e-001 1.00000001e-001 1.00000001e-001 1.00000001e-001
      1.00000001e-001 1.00000001e-001 0. 0. 0. 0. 1.00000001e-001 0. 0.
      6.00000024e-001 0. 0. 0. 0. 0. 0. 255. 0. 0. 255. 0. 0. 0. 0. 0.
      0. 0. 0. 0. 255. 0. 0. 0. 0. 0. 0. 0. 0. 0. 255. 0. 0. 0. 0. 0. 0.
      0. 0. 0. 255. 0. 0. 0. 0. 0. 0. 0. 0. 0. 255. 0. 0. 0. 0. 0. 0. 0.
      0. 0. 255. 0. 0. 0. 0. 0. 0. 0. 0. 0. 0. 0. 0. 0. 0. 0. 0. 0. 0.
      0. 0. 0. 0. 0. 0. 0. 0. 0. 0. 0. 0. 0. 0. 0. 0. 0. 0. 0. 0. 0. 0.
      0. 0. 0. 0. 0. 0.</_>
    <_>
      4.00000006e-001 3.00000012e-001 2.00000003e-001 2.00000003e-001
      2.00000003e-001 2.00000003e-001 2.00000003e-001 2.00000003e-001
      2.00000003e-001 2.00000003e-001 2.00000003e-001 1.00000001e-001 0.
      1. 1. 0. 0. 0. 0. 0. 255. 255. 0. 255. 255. 0. 0. 0. 0. 0. 255. 0.
      0. 255. 255. 0. 0. 0. 0. 0. 0. 0. 0. 255. 255. 0. 0. 0. 0. 0. 0.
      0. 0. 255. 255. 0. 0. 0. 0. 0. 0. 0. 0. 255. 255. 0. 0. 0. 0. 0.
      0. 0. 0. 255. 255. 0. 0. 0. 0. 0. 0. 0. 0. 255. 255. 0. 0. 0. 0.
      0. 0. 0. 0. 255. 255. 0. 0. 0. 0. 0. 0. 0. 0. 255. 255. 0. 0. 0.
      0. 0. 0. 0. 0. 255. 255. 0. 0. 0. 0. 0.</_>
    <_>
      5.00000000e-001 5.00000000e-001 3.00000012e-001 2.00000003e-001
      2.00000003e-001 2.00000003e-001 2.00000003e-001 2.00000003e-001
      2.00000003e-001 0. 1.00000001e-001 3.00000012e-001 2.00000003e-001
      1.00000001e-001 9.00000036e-001 9.00000036e-001 0. 0. 0. 0. 0.
      255. 255. 255. 255. 255. 0. 0. 0. 0. 255. 255. 255. 0. 255. 255.
      0. 0. 0. 0. 0. 255. 0. 0. 255. 255. 0. 0. 0. 0. 0. 0. 0. 0. 255.
      255. 0. 0. 0. 0. 0. 0. 0. 0. 255. 255. 0. 0. 0. 0. 0. 0. 0. 0.
      255. 255. 0. 0. 0. 0. 0. 0. 0. 0. 255. 255. 0. 0. 0. 0. 0. 0. 0.
      0. 255. 255. 0. 0. 0. 0. 0. 0. 0. 0. 255. 255. 0. 0. 0. 0. 0. 0.
      0. 0. 0. 0. 0. 0. 0. 0.</_>
    <_>
      1.00000001e-001 1.00000001e-001 1.00000001e-001 1.00000001e-001
      1.00000001e-001 1.00000001e-001 0. 0. 0. 0. 0. 0. 0.
      6.00000024e-001 0. 0. 0. 0. 0. 0. 0. 0. 0. 255. 0. 0. 0. 0. 0. 0.
      0. 0. 0. 255. 0. 0. 0. 0. 0. 0. 0. 0. 0. 255. 0. 0. 0. 0. 0. 0. 0.
      0. 0. 255. 0. 0. 0. 0. 0. 0. 0. 0. 0. 255. 0. 0. 0. 0. 0. 0. 0. 0.
      0. 255. 0. 0. 0. 0. 0. 0. 0. 0. 0. 0. 0. 0. 0. 0. 0. 0. 0. 0. 0.
      0. 0. 0. 0. 0. 0. 0. 0. 0. 0. 0. 0. 0. 0. 0. 0. 0. 0. 0. 0. 0. 0.
      0. 0. 0. 0. 0.</_>
    <_>
      1.00000001e-001 1.00000001e-001 1.00000001e-001 1.00000001e-001
      1.00000001e-001 0. 0. 0. 0. 0. 0. 0. 5.00000000e-001 0. 0. 0. 0.
      0. 0. 0. 0. 0. 255. 0. 0. 0. 0. 0. 0. 0. 0. 0. 255. 0. 0. 0. 0. 0.
      0. 0. 0. 0. 255. 0. 0. 0. 0. 0. 0. 0. 0. 0. 255. 0. 0. 0. 0. 0. 0.
      0. 0. 0. 255. 0. 0. 0. 0. 0. 0. 0. 0. 0. 0. 0. 0. 0. 0. 0. 0. 0.
      0. 0. 0. 0. 0. 0. 0. 0. 0. 0. 0. 0. 0. 0. 0. 0. 0. 0. 0. 0. 0. 0.
      0. 0. 0. 0. 0. 0. 0. 0. 0. 0. 0. 0. 0. 0. 0. 0. 0. 0.</_>
    <_>
      1.00000001e-001 1.00000001e-001 1.00000001e-001 1.00000001e-001
      1.00000001e-001 1.00000001e-001 0. 0. 0. 0. 0. 0. 6.00000024e-001
      0. 0. 0. 0. 0. 0. 0. 0. 0. 255. 0. 0. 0. 0. 0. 0. 0. 0. 0. 255. 0.
      0. 0. 0. 0. 0. 0. 0. 0. 255. 0. 0. 0. 0. 0. 0. 0. 0. 0. 255. 0. 0.
      0. 0. 0. 0. 0. 0. 0. 255. 0. 0. 0. 0. 0. 0. 0. 0. 0. 255. 0. 0. 0.
      0. 0. 0. 0. 0. 0. 0. 0. 0. 0. 0. 0. 0. 0. 0. 0. 0. 0. 0. 0. 0. 0.
      0. 0. 0. 0. 0. 0. 0. 0. 0. 0. 0. 0. 0. 0. 0. 0. 0. 0. 0. 0. 0. 0.</_>
    <_>
      1.00000001e-001 1.00000001e-001 1.00000001e-001 1.00000001e-001
      1.00000001e-001 1.00000001e-001 0. 0. 0. 0. 0. 0. 6.00000024e-001
      0. 0. 0. 0. 0. 0. 0. 0. 0. 255. 0. 0. 0. 0. 0. 0. 0. 0. 0. 255. 0.
      0. 0. 0. 0. 0. 0. 0. 0. 255. 0. 0. 0. 0. 0. 0. 0. 0. 0. 255. 0. 0.
      0. 0. 0. 0. 0. 0. 0. 255. 0. 0. 0. 0. 0. 0. 0. 0. 0. 255. 0. 0. 0.
      0. 0. 0. 0. 0. 0. 0. 0. 0. 0. 0. 0. 0. 0. 0. 0. 0. 0. 0. 0. 0. 0.
      0. 0. 0. 0. 0. 0. 0. 0. 0. 0. 0. 0. 0. 0. 0. 0. 0. 0. 0. 0. 0. 0.</_>
    <_>
      3.00000012e-001 2.00000003e-001 1.00000001e-001 1.00000001e-001
      1.00000001e-001 1.00000001e-001 1.00000001e-001 1.00000001e-001 0.
      0. 2.00000003e-001 1.00000001e-001 0. 8.00000012e-001 0. 0. 0. 0.
      0. 0. 255. 255. 0. 255. 0. 0. 0. 0. 0. 0. 255. 0. 0. 255. 0. 0. 0.
      0. 0. 0. 0. 0. 0. 255. 0. 0. 0. 0. 0. 0. 0. 0. 0. 255. 0. 0. 0. 0.
      0. 0. 0. 0. 0. 255. 0. 0. 0. 0. 0. 0. 0. 0. 0. 255. 0. 0. 0. 0. 0.
      0. 0. 0. 0. 255. 0. 0. 0. 0. 0. 0. 0. 0. 0. 255. 0. 0. 0. 0. 0. 0.
      0. 0. 0. 0. 0. 0. 0. 0. 0. 0. 0. 0. 0. 0. 0. 0. 0. 0. 0. 0.</_>
    <_>
      2.00000003e-001 1.00000001e-001 1.00000001e-001 1.00000001e-001
      1.00000001e-001 1.00000001e-001 0. 0. 0. 0. 0. 1.00000001e-001 0.
      6.00000024e-001 0. 0. 0. 0. 0. 0. 0. 255. 0. 255. 0. 0. 0. 0. 0.
      0. 0. 0. 0. 255. 0. 0. 0. 0. 0. 0. 0. 0. 0. 255. 0. 0. 0. 0. 0. 0.
      0. 0. 0. 255. 0. 0. 0. 0. 0. 0. 0. 0. 0. 255. 0. 0. 0. 0. 0. 0. 0.
      0. 0. 255. 0. 0. 0. 0. 0. 0. 0. 0. 0. 0. 0. 0. 0. 0. 0. 0. 0. 0.
      0. 0. 0. 0. 0. 0. 0. 0. 0. 0. 0. 0. 0. 0. 0. 0. 0. 0. 0. 0. 0. 0.
      0. 0. 0. 0. 0. 0.</_>
    <_>
      1.00000001e-001 1.00000001e-001 1.00000001e-001 1.00000001e-001
      1.00000001e-001 0. 0. 0. 0. 0. 0. 0. 0. 5.00000000e-001 0. 0. 0.
      0. 0. 0. 0. 0. 0. 255. 0. 0. 0. 0. 0. 0. 0. 0. 0. 255. 0. 0. 0. 0.
      0. 0. 0. 0. 0. 255. 0. 0. 0. 0. 0. 0. 0. 0. 0. 255. 0. 0. 0. 0. 0.
      0. 0. 0. 0. 255. 0. 0. 0. 0. 0. 0. 0. 0. 0. 0. 0. 0. 0. 0. 0. 0.
      0. 0. 0. 0. 0. 0. 0. 0. 0. 0. 0. 0. 0. 0. 0. 0. 0. 0. 0. 0. 0. 0.
      0. 0. 0. 0. 0. 0. 0. 0. 0. 0. 0. 0. 0. 0. 0. 0. 0. 0.</_>
    <_>
      2.00000003e-001 1.00000001e-001 1.00000001e-001 1.00000001e-001
      1.00000001e-001 1.00000001e-001 0. 0. 0. 0. 1.00000001e-001 0. 0.
      6.00000024e-001 0. 0. 0. 0. 0. 0. 255. 0. 0. 255. 0. 0. 0. 0. 0.
      0. 0. 0. 0. 255. 0. 0. 0. 0. 0. 0. 0. 0. 0. 255. 0. 0. 0. 0. 0. 0.
      0. 0. 0. 255. 0. 0. 0. 0. 0. 0. 0. 0. 0. 255. 0. 0. 0. 0. 0. 0. 0.
      0. 0. 255. 0. 0. 0. 0. 0. 0. 0. 0. 0. 0. 0. 0. 0. 0. 0. 0. 0. 0.
      0. 0. 0. 0. 0. 0. 0. 0. 0. 0. 0. 0. 0. 0. 0. 0. 0. 0. 0. 0. 0. 0.
      0. 0. 0. 0. 0. 0.</_>
    <_>
      3.00000012e-001 1.00000001e-001 1.00000001e-001 1.00000001e-001
      1.00000001e-001 1.00000001e-001 1.00000001e-001 0. 0. 0. 0.
      1.00000001e-001 1.00000001e-001 0. 6.99999988e-001 0. 0. 0. 0. 0.
      0. 255. 255. 0. 255. 0. 0. 0. 0. 0. 0. 0. 0. 0. 255. 0. 0. 0. 0.
      0. 0. 0. 0. 0. 255. 0. 0. 0. 0. 0. 0. 0. 0. 0. 255. 0. 0. 0. 0. 0.
      0. 0. 0. 0. 255. 0. 0. 0. 0. 0. 0. 0. 0. 0. 255. 0. 0. 0. 0. 0. 0.
      0. 0. 0. 255. 0. 0. 0. 0. 0. 0. 0. 0. 0. 0. 0. 0. 0. 0. 0. 0. 0.
      0. 0. 0. 0. 0. 0. 0. 0. 0. 0. 0. 0. 0. 0. 0. 0. 0. 0.</_>
    <_>
      4.00000006e-001 2.00000003e-001 1.00000001e-001 1.00000001e-001
      1.00000001e-001 1.00000001e-001 1.00000001e-001 1.00000001e-001 0.
      0. 2.00000003e-001 1.00000001e-001 1.00000001e-001 8.00000012e-001
      0. 0. 0. 0. 0. 0. 255. 255. 255. 255. 0. 0. 0. 0. 0. 0. 255. 0. 0.
      255. 0. 0. 0. 0. 0. 0. 0. 0. 0. 255. 0. 0. 0. 0. 0. 0. 0. 0. 0.
      255. 0. 0. 0. 0. 0. 0. 0. 0. 0. 255. 0. 0. 0. 0. 0. 0. 0. 0. 0.
      255. 0. 0. 0. 0. 0. 0. 0. 0. 0. 255. 0. 0. 0. 0. 0. 0. 0. 0. 0.
      255. 0. 0. 0. 0. 0. 0. 0. 0. 0. 0. 0. 0. 0. 0. 0. 0. 0. 0. 0. 0.
      0. 0. 0. 0. 0. 0.</_>
    <_>
      4.00000006e-001 2.00000003e-001 2.00000003e-001 2.00000003e-001
      2.00000003e-001 2.00000003e-001 2.00000003e-001 2.00000003e-001
      2.00000003e-001 0. 1.00000001e-001 1.00000001e-001 0. 0.
      9.00000036e-001 9.00000036e-001 0. 0. 0. 0. 255. 255. 0. 0. 255.
      255. 0. 0. 0. 0. 0. 0. 0. 0. 255. 255. 0. 0. 0. 0. 0. 0. 0. 0.
      255. 255. 0. 0. 0. 0. 0. 0. 0. 0. 255. 255. 0. 0. 0. 0. 0. 0. 0.
      0. 255. 255. 0. 0. 0. 0. 0. 0. 0. 0. 255. 255. 0. 0. 0. 0. 0. 0.
      0. 0. 255. 255. 0. 0. 0. 0. 0. 0. 0. 0. 255. 255. 0. 0. 0. 0. 0.
      0. 0. 0. 255. 255. 0. 0. 0. 0. 0. 0. 0. 0. 0. 0. 0. 0. 0. 0.</_>
    <_>
      4.00000006e-001 2.00000003e-001 1.00000001e-001 1.00000001e-001
      1.00000001e-001 1.00000001e-001 1.00000001e-001 1.00000001e-001 0.
      0. 2.00000003e-001 1.00000001e-001 1.00000001e-001 8.00000012e-001
      0. 0. 0. 0. 0. 0. 255. 255. 255. 255. 0. 0. 0. 0. 0. 0. 255. 0. 0.
      255. 0. 0. 0. 0. 0. 0. 0. 0. 0. 255. 0. 0. 0. 0. 0. 0. 0. 0. 0.
      255. 0. 0. 0. 0. 0. 0. 0. 0. 0. 255. 0. 0. 0. 0. 0. 0. 0. 0. 0.
      255. 0. 0. 0. 0. 0. 0. 0. 0. 0. 255. 0. 0. 0. 0. 0. 0. 0. 0. 0.
      255. 0. 0. 0. 0. 0. 0. 0. 0. 0. 0. 0. 0. 0. 0. 0. 0. 0. 0. 0. 0.
      0. 0. 0. 0. 0. 0.</_>
    <_>
      2.00000003e-001 1.00000001e-001 1.00000001e-001 1.00000001e-001
      1.00000001e-001 1.00000001e-001 1.00000001e-001 0. 0. 0.
      1.00000001e-001 0. 6.99999988e-001 0. 0. 0. 0. 0. 0. 0. 255. 0.
      255. 0. 0. 0. 0. 0. 0. 0. 0. 0. 255. 0. 0. 0. 0. 0. 0. 0. 0. 0.
      255. 0. 0. 0. 0. 0. 0. 0. 0. 0. 255. 0. 0. 0. 0. 0. 0. 0. 0. 0.
      255. 0. 0. 0. 0. 0. 0. 0. 0. 0. 255. 0. 0. 0. 0. 0. 0. 0. 0. 0.
      255. 0. 0. 0. 0. 0. 0. 0. 0. 0. 0. 0. 0. 0. 0. 0. 0. 0. 0. 0. 0.
      0. 0. 0. 0. 0. 0. 0. 0. 0. 0. 0. 0. 0. 0. 0. 0. 0.</_>
    <_>
      5.00000000e-001 4.00000006e-001 3.00000012e-001 2.00000003e-001
      2.00000003e-001 2.00000003e-001 2.00000003e-001 2.00000003e-001
      2.00000003e-001 0. 3.00000012e-001 2.00000003e-001 1.00000001e-001
      9.00000036e-001 9.00000036e-001 0. 0. 0. 0. 0. 255. 255. 255. 255.
      255. 0. 0. 0. 0. 0. 255. 255. 0. 255. 255. 0. 0. 0. 0. 0. 255. 0.
      0. 255. 255. 0. 0. 0. 0. 0. 0. 0. 0. 255. 255. 0. 0. 0. 0. 0. 0.
      0. 0. 255. 255. 0. 0. 0. 0. 0. 0. 0. 0. 255. 255. 0. 0. 0. 0. 0.
      0. 0. 0. 255. 255. 0. 0. 0. 0. 0. 0. 0. 0. 255. 255. 0. 0. 0. 0.
      0. 0. 0. 0. 255. 255. 0. 0. 0. 0. 0. 0. 0. 0. 0. 0. 0. 0. 0. 0. 0.</_>
    <_>
      3.00000012e-001 2.00000003e-001 1.00000001e-001 1.00000001e-001
      1.00000001e-001 1.00000001e-001 1.00000001e-001 1.00000001e-001 0.
      0. 2.00000003e-001 1.00000001e-001 8.00000012e-001 0. 0. 0. 0. 0.
      0. 0. 255. 255. 255. 0. 0. 0. 0. 0. 0. 0. 255. 0. 255. 0. 0. 0. 0.
      0. 0. 0. 0. 0. 255. 0. 0. 0. 0. 0. 0. 0. 0. 0. 255. 0. 0. 0. 0. 0.
      0. 0. 0. 0. 255. 0. 0. 0. 0. 0. 0. 0. 0. 0. 255. 0. 0. 0. 0. 0. 0.
      0. 0. 0. 255. 0. 0. 0. 0. 0. 0. 0. 0. 0. 255. 0. 0. 0. 0. 0. 0. 0.
      0. 0. 0. 0. 0. 0. 0. 0. 0. 0. 0. 0. 0. 0. 0. 0. 0. 0. 0. 0.</_>
    <_>
      4.00000006e-001 3.00000012e-001 1.00000001e-001 1.00000001e-001
      1.00000001e-001 1.00000001e-001 1.00000001e-001 1.00000001e-001 0.
      0. 0. 2.00000003e-001 2.00000003e-001 1.00000001e-001
      8.00000012e-001 0. 0. 0. 0. 0. 0. 255. 255. 255. 255. 0. 0. 0. 0.
      0. 0. 255. 255. 0. 255. 0. 0. 0. 0. 0. 0. 0. 0. 0. 255. 0. 0. 0.
      0. 0. 0. 0. 0. 0. 255. 0. 0. 0. 0. 0. 0. 0. 0. 0. 255. 0. 0. 0. 0.
      0. 0. 0. 0. 0. 255. 0. 0. 0. 0. 0. 0. 0. 0. 0. 255. 0. 0. 0. 0. 0.
      0. 0. 0. 0. 255. 0. 0. 0. 0. 0. 0. 0. 0. 0. 0. 0. 0. 0. 0. 0. 0.
      0. 0. 0. 0. 0. 0. 0. 0. 0.</_>
    <_>
      2.00000003e-001 1.00000001e-001 1.00000001e-001 1.00000001e-001
      1.00000001e-001 1.00000001e-001 0. 0. 0. 0. 1.00000001e-001 0.
      6.00000024e-001 0. 0. 0. 0. 0. 0. 0. 255. 0. 255. 0. 0. 0. 0. 0.
      0. 0. 0. 0. 255. 0. 0. 0. 0. 0. 0. 0. 0. 0. 255. 0. 0. 0. 0. 0. 0.
      0. 0. 0. 255. 0. 0. 0. 0. 0. 0. 0. 0. 0. 255. 0. 0. 0. 0. 0. 0. 0.
      0. 0. 255. 0. 0. 0. 0. 0. 0. 0. 0. 0. 0. 0. 0. 0. 0. 0. 0. 0. 0.
      0. 0. 0. 0. 0. 0. 0. 0. 0. 0. 0. 0. 0. 0. 0. 0. 0. 0. 0. 0. 0. 0.
      0. 0. 0. 0. 0. 0. 0.</_>
    <_>
      4.00000006e-001 5.00000000e-001 5.00000000e-001 3.00000012e-001
      2.00000003e-001 2.00000003e-001 2.00000003e-001 2.00000003e-001
      2.00000003e-001 2.00000003e-001 1.00000001e-001 3.00000012e-001
      3.00000012e-001 2.00000003e-001 1. 1. 0. 0. 0. 0. 0. 0. 255. 255.
      255. 255. 0. 0. 0. 0. 0. 255. 255. 255. 255. 255. 0. 0. 0. 0. 255.
      255. 255. 0. 255. 255. 0. 0. 0. 0. 0. 255. 0. 0. 255. 255. 0. 0.
      0. 0. 0. 0. 0. 0. 255. 255. 0. 0. 0. 0. 0. 0. 0. 0. 255. 255. 0.
      0. 0. 0. 0. 0. 0. 0. 255. 255. 0. 0. 0. 0. 0. 0. 0. 0. 255. 255.
      0. 0. 0. 0. 0. 0. 0. 0. 255. 255. 0. 0. 0. 0. 0. 0. 0. 0. 255.
      255. 0. 0. 0. 0.</_>
    <_>
      1.00000001e-001 1.00000001e-001 1.00000001e-001 1.00000001e-001
      1.00000001e-001 0. 0. 0. 0. 0. 0. 0. 5.00000000e-001 0. 0. 0. 0.
      0. 0. 0. 0. 0. 255. 0. 0. 0. 0. 0. 0. 0. 0. 0. 255. 0. 0. 0. 0. 0.
      0. 0. 0. 0. 255. 0. 0. 0. 0. 0. 0. 0. 0. 0. 255. 0. 0. 0. 0. 0. 0.
      0. 0. 0. 255. 0. 0. 0. 0. 0. 0. 0. 0. 0. 0. 0. 0. 0. 0. 0. 0. 0.
      0. 0. 0. 0. 0. 0. 0. 0. 0. 0. 0. 0. 0. 0. 0. 0. 0. 0. 0. 0. 0. 0.
      0. 0. 0. 0. 0. 0. 0. 0. 0. 0. 0. 0. 0. 0. 0. 0. 0. 0.</_>
    <_>
      1.00000001e-001 1.00000001e-001 1.00000001e-001 1.00000001e-001
      1.00000001e-001 0. 0. 0. 0. 0. 0. 0. 5.00000000e-001 0. 0. 0. 0.
      0. 0. 0. 0. 0. 255. 0. 0. 0. 0. 0. 0. 0. 0. 0. 255. 0. 0. 0. 0. 0.
      0. 0. 0. 0. 255. 0. 0. 0. 0. 0. 0. 0. 0. 0. 255. 0. 0. 0. 0. 0. 0.
      0. 0. 0. 255. 0. 0. 0. 0. 0. 0. 0. 0. 0. 0. 0. 0. 0. 0. 0. 0. 0.
      0. 0. 0. 0. 0. 0. 0. 0. 0. 0. 0. 0. 0. 0. 0. 0. 0. 0. 0. 0. 0. 0.
      0. 0. 0. 0. 0. 0. 0. 0. 0. 0. 0. 0. 0. 0. 0. 0. 0. 0.</_>
    <_>
      3.00000012e-001 4.00000006e-001 3.00000012e-001 1.00000001e-001
      1.00000001e-001 1.00000001e-001 1.00000001e-001 1.00000001e-001
      1.00000001e-001 0. 1.00000001e-001 2.00000003e-001 2.00000003e-001
      2.00000003e-001 9.00000036e-001 0. 0. 0. 0. 0. 0. 0. 255. 255.
      255. 0. 0. 0. 0. 0. 0. 255. 255. 255. 255. 0. 0. 0. 0. 0. 255.
      255. 0. 0. 255. 0. 0. 0. 0. 0. 0. 0. 0. 0. 255. 0. 0. 0. 0. 0. 0.
      0. 0. 0. 255. 0. 0. 0. 0. 0. 0. 0. 0. 0. 255. 0. 0. 0. 0. 0. 0. 0.
      0. 0. 255. 0. 0. 0. 0. 0. 0. 0. 0. 0. 255. 0. 0. 0. 0. 0. 0. 0. 0.
      0. 255. 0. 0. 0. 0. 0. 0. 0. 0. 0. 0. 0. 0. 0. 0. 0.</_>
    <_>
      4.00000006e-001 2.00000003e-001 1.00000001e-001 1.00000001e-001
      1.00000001e-001 1.00000001e-001 1.00000001e-001 1.00000001e-001 0.
      0. 1.00000001e-001 2.00000003e-001 1.00000001e-001 0.
      8.00000012e-001 0. 0. 0. 0. 0. 255. 255. 255. 0. 255. 0. 0. 0. 0.
      0. 0. 255. 0. 0. 255. 0. 0. 0. 0. 0. 0. 0. 0. 0. 255. 0. 0. 0. 0.
      0. 0. 0. 0. 0. 255. 0. 0. 0. 0. 0. 0. 0. 0. 0. 255. 0. 0. 0. 0. 0.
      0. 0. 0. 0. 255. 0. 0. 0. 0. 0. 0. 0. 0. 0. 255. 0. 0. 0. 0. 0. 0.
      0. 0. 0. 255. 0. 0. 0. 0. 0. 0. 0. 0. 0. 0. 0. 0. 0. 0. 0. 0. 0.
      0. 0. 0. 0. 0. 0. 0. 0.</_>
    <_>
      4.00000006e-001 3.00000012e-001 1.00000001e-001 1.00000001e-001
      1.00000001e-001 1.00000001e-001 1.00000001e-001 1.00000001e-001 0.
      0. 0. 2.00000003e-001 2.00000003e-001 1.00000001e-001
      8.00000012e-001 0. 0. 0. 0. 0. 0. 255. 255. 255. 255. 0. 0. 0. 0.
      0. 0. 255. 255. 0. 255. 0. 0. 0. 0. 0. 0. 0. 0. 0. 255. 0. 0. 0.
      0. 0. 0. 0. 0. 0. 255. 0. 0. 0. 0. 0. 0. 0. 0. 0. 255. 0. 0. 0. 0.
      0. 0. 0. 0. 0. 255. 0. 0. 0. 0. 0. 0. 0. 0. 0. 255. 0. 0. 0. 0. 0.
      0. 0. 0. 0. 255. 0. 0. 0. 0. 0. 0. 0. 0. 0. 0. 0. 0. 0. 0. 0. 0.
      0. 0. 0. 0. 0. 0. 0. 0. 0.</_>
    <_>
      5.00000000e-001 4.00000006e-001 2.00000003e-001 2.00000003e-001
      2.00000003e-001 2.00000003e-001 2.00000003e-001 2.00000003e-001
      2.00000003e-001 2.00000003e-001 2.00000003e-001 2.00000003e-001
      1.00000001e-001 0. 1. 1. 0. 0. 0. 0. 255. 255. 255. 0. 255. 255.
      0. 0. 0. 0. 255. 255. 0. 0. 255. 255. 0. 0. 0. 0. 0. 0. 0. 0. 255.
      255. 0. 0. 0. 0. 0. 0. 0. 0. 255. 255. 0. 0. 0. 0. 0. 0. 0. 0.
      255. 255. 0. 0. 0. 0. 0. 0. 0. 0. 255. 255. 0. 0. 0. 0. 0. 0. 0.
      0. 255. 255. 0. 0. 0. 0. 0. 0. 0. 0. 255. 255. 0. 0. 0. 0. 0. 0.
      0. 0. 255. 255. 0. 0. 0. 0. 0. 0. 0. 0. 255. 255. 0. 0. 0. 0.</_>
    <_>
      1.00000001e-001 1.00000001e-001 1.00000001e-001 1.00000001e-001
      1.00000001e-001 0. 0. 0. 0. 0. 0. 0. 0. 5.00000000e-001 0. 0. 0.
      0. 0. 0. 0. 0. 0. 255. 0. 0. 0. 0. 0. 0. 0. 0. 0. 255. 0. 0. 0. 0.
      0. 0. 0. 0. 0. 255. 0. 0. 0. 0. 0. 0. 0. 0. 0. 255. 0. 0. 0. 0. 0.
      0. 0. 0. 0. 255. 0. 0. 0. 0. 0. 0. 0. 0. 0. 0. 0. 0. 0. 0. 0. 0.
      0. 0. 0. 0. 0. 0. 0. 0. 0. 0. 0. 0. 0. 0. 0. 0. 0. 0. 0. 0. 0. 0.
      0. 0. 0. 0. 0. 0. 0. 0. 0. 0. 0. 0. 0. 0. 0. 0. 0. 0.</_>
    <_>
      1.00000001e-001 1.00000001e-001 1.00000001e-001 1.00000001e-001
      1.00000001e-001 1.00000001e-001 0. 0. 0. 0. 0. 0. 6.00000024e-001
      0. 0. 0. 0. 0. 0. 0. 0. 0. 255. 0. 0. 0. 0. 0. 0. 0. 0. 0. 255. 0.
      0. 0. 0. 0. 0. 0. 0. 0. 255. 0. 0. 0. 0. 0. 0. 0. 0. 0. 255. 0. 0.
      0. 0. 0. 0. 0. 0. 0. 255. 0. 0. 0. 0. 0. 0. 0. 0. 0. 255. 0. 0. 0.
      0. 0. 0. 0. 0. 0. 0. 0. 0. 0. 0. 0. 0. 0. 0. 0. 0. 0. 0. 0. 0. 0.
      0. 0. 0. 0. 0. 0. 0. 0. 0. 0. 0. 0. 0. 0. 0. 0. 0. 0. 0. 0. 0. 0.</_>
    <_>
      3.00000012e-001 1.00000001e-001 1.00000001e-001 1.00000001e-001
      1.00000001e-001 1.00000001e-001 1.00000001e-001 0. 0. 0.
      1.00000001e-001 1.00000001e-001 0. 6.99999988e-001 0. 0. 0. 0. 0.
      0. 255. 255. 0. 255. 0. 0. 0. 0. 0. 0. 0. 0. 0. 255. 0. 0. 0. 0.
      0. 0. 0. 0. 0. 255. 0. 0. 0. 0. 0. 0. 0. 0. 0. 255. 0. 0. 0. 0. 0.
      0. 0. 0. 0. 255. 0. 0. 0. 0. 0. 0. 0. 0. 0. 255. 0. 0. 0. 0. 0. 0.
      0. 0. 0. 255. 0. 0. 0. 0. 0. 0. 0. 0. 0. 0. 0. 0. 0. 0. 0. 0. 0.
      0. 0. 0. 0. 0. 0. 0. 0. 0. 0. 0. 0. 0. 0. 0. 0. 0. 0. 0.</_>
    <_>
      4.00000006e-001 3.00000012e-001 1.00000001e-001 1.00000001e-001
      1.00000001e-001 1.00000001e-001 1.00000001e-001 1.00000001e-001 0.
      0. 2.00000003e-001 2.00000003e-001 1.00000001e-001 8.00000012e-001
      0. 0. 0. 0. 0. 0. 255. 255. 255. 255. 0. 0. 0. 0. 0. 0. 255. 255.
      0. 255. 0. 0. 0. 0. 0. 0. 0. 0. 0. 255. 0. 0. 0. 0. 0. 0. 0. 0. 0.
      255. 0. 0. 0. 0. 0. 0. 0. 0. 0. 255. 0. 0. 0. 0. 0. 0. 0. 0. 0.
      255. 0. 0. 0. 0. 0. 0. 0. 0. 0. 255. 0. 0. 0. 0. 0. 0. 0. 0. 0.
      255. 0. 0. 0. 0. 0. 0. 0. 0. 0. 0. 0. 0. 0. 0. 0. 0. 0. 0. 0. 0.
      0. 0. 0. 0. 0. 0.</_>
    <_>
      2.00000003e-001 1.00000001e-001 1.00000001e-001 1.00000001e-001
      1.00000001e-001 1.00000001e-001 0. 0. 0. 0. 1.00000001e-001 0.
      6.00000024e-001 0. 0. 0. 0. 0. 0. 0. 255. 0. 255. 0. 0. 0. 0. 0.
      0. 0. 0. 0. 255. 0. 0. 0. 0. 0. 0. 0. 0. 0. 255. 0. 0. 0. 0. 0. 0.
      0. 0. 0. 255. 0. 0. 0. 0. 0. 0. 0. 0. 0. 255. 0. 0. 0. 0. 0. 0. 0.
      0. 0. 255. 0. 0. 0. 0. 0. 0. 0. 0. 0. 0. 0. 0. 0. 0. 0. 0. 0. 0.
      0. 0. 0. 0. 0. 0. 0. 0. 0. 0. 0. 0. 0. 0. 0. 0. 0. 0. 0. 0. 0. 0.
      0. 0. 0. 0. 0. 0. 0.</_>
    <_>
      4.00000006e-001 3.00000012e-001 2.00000003e-001 3.00000012e-001
      3.00000012e-001 2.00000003e-001 2.00000003e-001 2.00000003e-001
      6.00000024e-001 0. 0. 4.00000006e-001 4.00000006e-001
      4.00000006e-001 4.00000006e-001 6.00000024e-001 5.00000000e-001 0.
      0. 0. 0. 255. 255. 0. 0. 255. 255. 0. 0. 0. 0. 255. 0. 0. 0. 255.
      255. 0. 0. 0. 0. 0. 0. 0. 0. 255. 255. 0. 0. 0. 0. 0. 0. 0. 255.
      255. 255. 0. 0. 0. 0. 0. 0. 255. 255. 255. 0. 0. 0. 0. 0. 0. 0.
      255. 255. 0. 0. 0. 0. 0. 0. 0. 255. 255. 0. 0. 0. 0. 0. 0. 0. 255.
      255. 0. 0. 0. 0. 0. 0. 0. 0. 255. 255. 255. 255. 255. 255. 0. 0.
      0. 0. 0. 0. 0. 0. 0. 0. 0. 0. 0.</_>
    <_>
      2.00000003e-001 2.00000003e-001 3.00000012e-001 3.00000012e-001
      3.00000012e-001 3.00000012e-001 3.00000012e-001 3.00000012e-001
      3.00000012e-001 6.99999988e-001 0. 3.00000012e-001 4.00000006e-001
      5.00000000e-001 5.00000000e-001 5.00000000e-001 6.00000024e-001
      4.00000006e-001 0. 0. 0. 0. 0. 0. 0. 0. 255. 255. 0. 0. 0. 0. 0.
      0. 0. 0. 255. 255. 0. 0. 0. 0. 0. 0. 0. 255. 255. 255. 0. 0. 0. 0.
      0. 0. 255. 255. 255. 0. 0. 0. 0. 0. 0. 0. 255. 255. 255. 0. 0. 0.
      0. 0. 0. 255. 255. 255. 0. 0. 0. 0. 0. 0. 255. 255. 255. 0. 0. 0.
      0. 0. 0. 255. 255. 255. 0. 0. 0. 0. 0. 0. 0. 255. 255. 255. 0. 0.
      0. 0. 0. 0. 0. 255. 255. 255. 255. 255. 255. 255. 0. 0.</_>
    <_>
      3.00000012e-001 2.00000003e-001 3.00000012e-001 3.00000012e-001
      2.00000003e-001 2.00000003e-001 2.00000003e-001 6.00000024e-001 0.
      0. 3.00000012e-001 3.00000012e-001 4.00000006e-001 4.00000006e-001
      5.00000000e-001 4.00000006e-001 0. 0. 0. 0. 255. 0. 0. 0. 255.
      255. 0. 0. 0. 0. 0. 0. 0. 0. 255. 255. 0. 0. 0. 0. 0. 0. 0. 255.
      255. 255. 0. 0. 0. 0. 0. 0. 255. 255. 255. 0. 0. 0. 0. 0. 0. 0.
      255. 255. 0. 0. 0. 0. 0. 0. 0. 255. 255. 0. 0. 0. 0. 0. 0. 0. 255.
      255. 0. 0. 0. 0. 0. 0. 0. 0. 255. 255. 255. 255. 255. 255. 0. 0.
      0. 0. 0. 0. 0. 0. 0. 0. 0. 0. 0. 0. 0. 0. 0. 0. 0. 0. 0. 0. 0. 0.</_>
    <_>
      1.00000001e-001 2.00000003e-001 1.00000001e-001 1.00000001e-001
      2.00000003e-001 4.00000006e-001 0. 0. 0. 0. 2.00000003e-001
      3.00000012e-001 3.00000012e-001 3.00000012e-001 0. 0. 0. 0. 0. 0.
      0. 0. 0. 255. 0. 0. 0. 0. 0. 0. 0. 0. 255. 255. 0. 0. 0. 0. 0. 0.
      0. 0. 255. 0. 0. 0. 0. 0. 0. 0. 0. 255. 0. 0. 0. 0. 0. 0. 0. 0.
      255. 255. 0. 0. 0. 0. 0. 0. 0. 0. 255. 255. 255. 255. 0. 0. 0. 0.
      0. 0. 0. 0. 0. 0. 0. 0. 0. 0. 0. 0. 0. 0. 0. 0. 0. 0. 0. 0. 0. 0.
      0. 0. 0. 0. 0. 0. 0. 0. 0. 0. 0. 0. 0. 0. 0. 0. 0. 0. 0. 0.</_>
    <_>
      3.00000012e-001 2.00000003e-001 3.00000012e-001 3.00000012e-001
      2.00000003e-001 2.00000003e-001 2.00000003e-001 6.00000024e-001 0.
      0. 0. 3.00000012e-001 3.00000012e-001 4.00000006e-001
      4.00000006e-001 5.00000000e-001 4.00000006e-001 0. 0. 0. 0. 255.
      0. 0. 0. 255. 255. 0. 0. 0. 0. 0. 0. 0. 0. 255. 255. 0. 0. 0. 0.
      0. 0. 0. 255. 255. 255. 0. 0. 0. 0. 0. 0. 255. 255. 255. 0. 0. 0.
      0. 0. 0. 0. 255. 255. 0. 0. 0. 0. 0. 0. 0. 255. 255. 0. 0. 0. 0.
      0. 0. 0. 255. 255. 0. 0. 0. 0. 0. 0. 0. 0. 255. 255. 255. 255.
      255. 255. 0. 0. 0. 0. 0. 0. 0. 0. 0. 0. 0. 0. 0. 0. 0. 0. 0. 0. 0.
      0. 0. 0. 0.</_>
    <_>
      1.00000001e-001 2.00000003e-001 2.00000003e-001 2.00000003e-001
      2.00000003e-001 2.00000003e-001 5.00000000e-001 0. 0. 0. 0.
      2.00000003e-001 3.00000012e-001 4.00000006e-001 4.00000006e-001
      3.00000012e-001 0. 0. 0. 0. 0. 0. 0. 0. 0. 255. 0. 0. 0. 0. 0. 0.
      0. 0. 255. 255. 0. 0. 0. 0. 0. 0. 0. 255. 255. 0. 0. 0. 0. 0. 0.
      0. 0. 255. 255. 0. 0. 0. 0. 0. 0. 0. 255. 255. 0. 0. 0. 0. 0. 0.
      0. 255. 255. 0. 0. 0. 0. 0. 0. 0. 0. 255. 255. 255. 255. 255. 0.
      0. 0. 0. 0. 0. 0. 0. 0. 0. 0. 0. 0. 0. 0. 0. 0. 0. 0. 0. 0. 0. 0.
      0. 0. 0. 0. 0. 0. 0. 0. 0. 0. 0.</_>
    <_>
      3.00000012e-001 2.00000003e-001 3.00000012e-001 3.00000012e-001
      2.00000003e-001 2.00000003e-001 2.00000003e-001 6.00000024e-001 0.
      0. 0. 3.00000012e-001 3.00000012e-001 4.00000006e-001
      4.00000006e-001 5.00000000e-001 4.00000006e-001 0. 0. 0. 0. 255.
      0. 0. 0. 255. 255. 0. 0. 0. 0. 0. 0. 0. 0. 255. 255. 0. 0. 0. 0.
      0. 0. 0. 255. 255. 255. 0. 0. 0. 0. 0. 0. 255. 255. 255. 0. 0. 0.
      0. 0. 0. 0. 255. 255. 0. 0. 0. 0. 0. 0. 0. 255. 255. 0. 0. 0. 0.
      0. 0. 0. 255. 255. 0. 0. 0. 0. 0. 0. 0. 0. 255. 255. 255. 255.
      255. 255. 0. 0. 0. 0. 0. 0. 0. 0. 0. 0. 0. 0. 0. 0. 0. 0. 0. 0. 0.
      0. 0. 0. 0.</_>
    <_>
      4.00000006e-001 4.00000006e-001 2.00000003e-001 3.00000012e-001
      3.00000012e-001 3.00000012e-001 3.00000012e-001 2.00000003e-001
      6.99999988e-001 6.99999988e-001 0. 4.00000006e-001 6.00000024e-001
      5.00000000e-001 5.00000000e-001 5.00000000e-001 6.99999988e-001
      6.00000024e-001 0. 0. 0. 255. 255. 0. 0. 0. 255. 255. 0. 0. 0.
      255. 255. 0. 0. 0. 255. 255. 0. 0. 0. 0. 0. 0. 0. 0. 255. 255. 0.
      0. 0. 0. 0. 0. 0. 255. 255. 255. 0. 0. 0. 0. 0. 0. 255. 255. 255.
      0. 0. 0. 0. 0. 0. 255. 255. 255. 0. 0. 0. 0. 0. 0. 255. 255. 255.
      0. 0. 0. 0. 0. 0. 0. 255. 255. 0. 0. 0. 0. 0. 0. 0. 255. 255. 255.
      255. 255. 255. 255. 0. 0. 0. 255. 255. 255. 255. 255. 255. 255. 0.
      0.</_>
    <_>
      1.00000001e-001 2.00000003e-001 2.00000003e-001 2.00000003e-001
      2.00000003e-001 2.00000003e-001 5.00000000e-001 0. 0. 0.
      2.00000003e-001 3.00000012e-001 4.00000006e-001 4.00000006e-001
      3.00000012e-001 0. 0. 0. 0. 0. 0. 0. 0. 0. 255. 0. 0. 0. 0. 0. 0.
      0. 0. 255. 255. 0. 0. 0. 0. 0. 0. 0. 255. 255. 0. 0. 0. 0. 0. 0.
      0. 0. 255. 255. 0. 0. 0. 0. 0. 0. 0. 255. 255. 0. 0. 0. 0. 0. 0.
      0. 255. 255. 0. 0. 0. 0. 0. 0. 0. 0. 255. 255. 255. 255. 255. 0.
      0. 0. 0. 0. 0. 0. 0. 0. 0. 0. 0. 0. 0. 0. 0. 0. 0. 0. 0. 0. 0. 0.
      0. 0. 0. 0. 0. 0. 0. 0. 0. 0. 0. 0.</_>
    <_>
      2.00000003e-001 1.00000001e-001 1.00000001e-001 2.00000003e-001
      4.00000006e-001 0. 0. 0. 0. 0. 0. 2.00000003e-001 3.00000012e-001
      3.00000012e-001 2.00000003e-001 0. 0. 0. 0. 0. 0. 0. 0. 255. 255.
      0. 0. 0. 0. 0. 0. 0. 0. 255. 0. 0. 0. 0. 0. 0. 0. 0. 255. 0. 0. 0.
      0. 0. 0. 0. 0. 255. 255. 0. 0. 0. 0. 0. 0. 0. 0. 255. 255. 255.
      255. 0. 0. 0. 0. 0. 0. 0. 0. 0. 0. 0. 0. 0. 0. 0. 0. 0. 0. 0. 0.
      0. 0. 0. 0. 0. 0. 0. 0. 0. 0. 0. 0. 0. 0. 0. 0. 0. 0. 0. 0. 0. 0.
      0. 0. 0. 0. 0. 0. 0. 0. 0. 0. 0. 0. 0.</_>
    <_>
      2.00000003e-001 2.00000003e-001 3.00000012e-001 3.00000012e-001
      3.00000012e-001 3.00000012e-001 3.00000012e-001 3.00000012e-001
      3.00000012e-001 6.99999988e-001 0. 3.00000012e-001 4.00000006e-001
      5.00000000e-001 5.00000000e-001 5.00000000e-001 6.00000024e-001
      4.00000006e-001 0. 0. 0. 0. 0. 0. 0. 0. 255. 255. 0. 0. 0. 0. 0.
      0. 0. 0. 255. 255. 0. 0. 0. 0. 0. 0. 0. 255. 255. 255. 0. 0. 0. 0.
      0. 0. 255. 255. 255. 0. 0. 0. 0. 0. 0. 0. 255. 255. 255. 0. 0. 0.
      0. 0. 0. 255. 255. 255. 0. 0. 0. 0. 0. 0. 255. 255. 255. 0. 0. 0.
      0. 0. 0. 255. 255. 255. 0. 0. 0. 0. 0. 0. 0. 255. 255. 255. 0. 0.
      0. 0. 0. 0. 0. 255. 255. 255. 255. 255. 255. 255. 0. 0.</_>
    <_>
      1.00000001e-001 2.00000003e-001 2.00000003e-001 2.00000003e-001
      2.00000003e-001 2.00000003e-001 5.00000000e-001 0. 0. 0.
      2.00000003e-001 3.00000012e-001 4.00000006e-001 4.00000006e-001
      3.00000012e-001 0. 0. 0. 0. 0. 0. 0. 0. 0. 255. 0. 0. 0. 0. 0. 0.
      0. 0. 255. 255. 0. 0. 0. 0. 0. 0. 0. 255. 255. 0. 0. 0. 0. 0. 0.
      0. 0. 255. 255. 0. 0. 0. 0. 0. 0. 0. 255. 255. 0. 0. 0. 0. 0. 0.
      0. 255. 255. 0. 0. 0. 0. 0. 0. 0. 0. 255. 255. 255. 255. 255. 0.
      0. 0. 0. 0. 0. 0. 0. 0. 0. 0. 0. 0. 0. 0. 0. 0. 0. 0. 0. 0. 0. 0.
      0. 0. 0. 0. 0. 0. 0. 0. 0. 0. 0. 0.</_>
    <_>
      2.00000003e-001 2.00000003e-001 2.00000003e-001 2.00000003e-001
      2.00000003e-001 5.00000000e-001 0. 0. 0. 0. 0. 2.00000003e-001
      3.00000012e-001 4.00000006e-001 4.00000006e-001 2.00000003e-001 0.
      0. 0. 0. 0. 0. 0. 0. 255. 255. 0. 0. 0. 0. 0. 0. 0. 255. 255. 0.
      0. 0. 0. 0. 0. 0. 0. 255. 255. 0. 0. 0. 0. 0. 0. 0. 255. 255. 0.
      0. 0. 0. 0. 0. 0. 255. 255. 0. 0. 0. 0. 0. 0. 0. 0. 255. 255. 255.
      255. 255. 0. 0. 0. 0. 0. 0. 0. 0. 0. 0. 0. 0. 0. 0. 0. 0. 0. 0. 0.
      0. 0. 0. 0. 0. 0. 0. 0. 0. 0. 0. 0. 0. 0. 0. 0. 0. 0. 0. 0. 0. 0.
      0. 0. 0.</_>
    <_>
      2.00000003e-001 2.00000003e-001 2.00000003e-001 2.00000003e-001
      2.00000003e-001 2.00000003e-001 6.00000024e-001 0. 0. 0. 0.
      2.00000003e-001 3.00000012e-001 3.00000012e-001 3.00000012e-001
      4.00000006e-001 3.00000012e-001 0. 0. 0. 0. 0. 0. 0. 0. 255. 255.
      0. 0. 0. 0. 0. 0. 0. 0. 255. 255. 0. 0. 0. 0. 0. 0. 0. 255. 255.
      0. 0. 0. 0. 0. 0. 0. 255. 255. 0. 0. 0. 0. 0. 0. 0. 255. 255. 0.
      0. 0. 0. 0. 0. 0. 255. 255. 0. 0. 0. 0. 0. 0. 0. 0. 255. 255. 255.
      255. 255. 255. 0. 0. 0. 0. 0. 0. 0. 0. 0. 0. 0. 0. 0. 0. 0. 0. 0.
      0. 0. 0. 0. 0. 0. 0. 0. 0. 0. 0. 0. 0. 0. 0. 0.</_>
    <_>
      2.00000003e-001 2.00000003e-001 2.00000003e-001 2.00000003e-001
      2.00000003e-001 5.00000000e-001 0. 0. 0. 0. 0. 2.00000003e-001
      3.00000012e-001 4.00000006e-001 4.00000006e-001 2.00000003e-001 0.
      0. 0. 0. 0. 0. 0. 0. 255. 255. 0. 0. 0. 0. 0. 0. 0. 255. 255. 0.
      0. 0. 0. 0. 0. 0. 0. 255. 255. 0. 0. 0. 0. 0. 0. 0. 255. 255. 0.
      0. 0. 0. 0. 0. 0. 255. 255. 0. 0. 0. 0. 0. 0. 0. 0. 255. 255. 255.
      255. 255. 0. 0. 0. 0. 0. 0. 0. 0. 0. 0. 0. 0. 0. 0. 0. 0. 0. 0. 0.
      0. 0. 0. 0. 0. 0. 0. 0. 0. 0. 0. 0. 0. 0. 0. 0. 0. 0. 0. 0. 0. 0.
      0. 0. 0.</_>
    <_>
      4.00000006e-001 2.00000003e-001 2.00000003e-001 2.00000003e-001
      2.00000003e-001 2.00000003e-001 2.00000003e-001 6.00000024e-001 0.
      0. 3.00000012e-001 4.00000006e-001 3.00000012e-001 3.00000012e-001
      5.00000000e-001 4.00000006e-001 0. 0. 0. 0. 255. 255. 0. 0. 255.
      255. 0. 0. 0. 0. 0. 0. 0. 0. 255. 255. 0. 0. 0. 0. 0. 0. 0. 0.
      255. 255. 0. 0. 0. 0. 0. 0. 0. 255. 255. 0. 0. 0. 0. 0. 0. 0. 255.
      255. 0. 0. 0. 0. 0. 0. 0. 255. 255. 0. 0. 0. 0. 0. 0. 0. 255. 255.
      0. 0. 0. 0. 0. 0. 0. 0. 255. 255. 255. 255. 255. 255. 0. 0. 0. 0.
      0. 0. 0. 0. 0. 0. 0. 0. 0. 0. 0. 0. 0. 0. 0. 0. 0. 0. 0. 0.</_>
    <_>
      1.00000001e-001 2.00000003e-001 1.00000001e-001 1.00000001e-001
      2.00000003e-001 4.00000006e-001 0. 0. 0. 0. 0. 2.00000003e-001
      3.00000012e-001 3.00000012e-001 3.00000012e-001 0. 0. 0. 0. 0. 0.
      0. 0. 0. 255. 0. 0. 0. 0. 0. 0. 0. 0. 255. 255. 0. 0. 0. 0. 0. 0.
      0. 0. 255. 0. 0. 0. 0. 0. 0. 0. 0. 255. 0. 0. 0. 0. 0. 0. 0. 0.
      255. 255. 0. 0. 0. 0. 0. 0. 0. 0. 255. 255. 255. 255. 0. 0. 0. 0.
      0. 0. 0. 0. 0. 0. 0. 0. 0. 0. 0. 0. 0. 0. 0. 0. 0. 0. 0. 0. 0. 0.
      0. 0. 0. 0. 0. 0. 0. 0. 0. 0. 0. 0. 0. 0. 0. 0. 0. 0. 0.</_>
    <_>
      2.00000003e-001 3.00000012e-001 3.00000012e-001 3.00000012e-001
      3.00000012e-001 3.00000012e-001 3.00000012e-001 3.00000012e-001
      6.99999988e-001 0. 3.00000012e-001 4.00000006e-001 5.00000000e-001
      5.00000000e-001 5.00000000e-001 5.00000000e-001 3.00000012e-001 0.
      0. 0. 0. 0. 0. 0. 0. 255. 255. 0. 0. 0. 0. 0. 0. 0. 255. 255. 255.
      0. 0. 0. 0. 0. 0. 255. 255. 255. 0. 0. 0. 0. 0. 0. 0. 255. 255.
      255. 0. 0. 0. 0. 0. 0. 255. 255. 255. 0. 0. 0. 0. 0. 0. 255. 255.
      255. 0. 0. 0. 0. 0. 0. 255. 255. 255. 0. 0. 0. 0. 0. 0. 0. 255.
      255. 255. 0. 0. 0. 0. 0. 0. 0. 255. 255. 255. 255. 255. 255. 255.
      0. 0. 0. 0. 0. 0. 0. 0. 0. 0. 0. 0. 0.</_>
    <_>
      2.00000003e-001 3.00000012e-001 3.00000012e-001 3.00000012e-001
      3.00000012e-001 3.00000012e-001 3.00000012e-001 3.00000012e-001
      6.99999988e-001 0. 0. 3.00000012e-001 4.00000006e-001
      5.00000000e-001 5.00000000e-001 5.00000000e-001 5.00000000e-001
      3.00000012e-001 0. 0. 0. 0. 0. 0. 0. 0. 255. 255. 0. 0. 0. 0. 0.
      0. 0. 255. 255. 255. 0. 0. 0. 0. 0. 0. 255. 255. 255. 0. 0. 0. 0.
      0. 0. 0. 255. 255. 255. 0. 0. 0. 0. 0. 0. 255. 255. 255. 0. 0. 0.
      0. 0. 0. 255. 255. 255. 0. 0. 0. 0. 0. 0. 255. 255. 255. 0. 0. 0.
      0. 0. 0. 0. 255. 255. 255. 0. 0. 0. 0. 0. 0. 0. 255. 255. 255.
      255. 255. 255. 255. 0. 0. 0. 0. 0. 0. 0. 0. 0. 0. 0. 0.</_>
    <_>
      2.00000003e-001 2.00000003e-001 2.00000003e-001 2.00000003e-001
      2.00000003e-001 5.00000000e-001 0. 0. 0. 0. 2.00000003e-001
      3.00000012e-001 4.00000006e-001 4.00000006e-001 2.00000003e-001 0.
      0. 0. 0. 0. 0. 0. 0. 255. 255. 0. 0. 0. 0. 0. 0. 0. 255. 255. 0.
      0. 0. 0. 0. 0. 0. 0. 255. 255. 0. 0. 0. 0. 0. 0. 0. 255. 255. 0.
      0. 0. 0. 0. 0. 0. 255. 255. 0. 0. 0. 0. 0. 0. 0. 0. 255. 255. 255.
      255. 255. 0. 0. 0. 0. 0. 0. 0. 0. 0. 0. 0. 0. 0. 0. 0. 0. 0. 0. 0.
      0. 0. 0. 0. 0. 0. 0. 0. 0. 0. 0. 0. 0. 0. 0. 0. 0. 0. 0. 0. 0. 0.
      0. 0. 0. 0.</_>
    <_>
      4.00000006e-001 2.00000003e-001 3.00000012e-001 3.00000012e-001
      3.00000012e-001 3.00000012e-001 2.00000003e-001 6.99999988e-001
      6.99999988e-001 0. 3.00000012e-001 5.00000000e-001 5.00000000e-001
      5.00000000e-001 5.00000000e-001 6.00000024e-001 5.00000000e-001 0.
      0. 0. 255. 255. 0. 0. 0. 255. 255. 0. 0. 0. 0. 0. 0. 0. 0. 255.
      255. 0. 0. 0. 0. 0. 0. 0. 255. 255. 255. 0. 0. 0. 0. 0. 0. 255.
      255. 255. 0. 0. 0. 0. 0. 0. 255. 255. 255. 0. 0. 0. 0. 0. 0. 255.
      255. 255. 0. 0. 0. 0. 0. 0. 0. 255. 255. 0. 0. 0. 0. 0. 0. 0. 255.
      255. 255. 255. 255. 255. 255. 0. 0. 0. 255. 255. 255. 255. 255.
      255. 255. 0. 0. 0. 0. 0. 0. 0. 0. 0. 0. 0. 0. 0.</_>
    <_>
      2.00000003e-001 3.00000012e-001 3.00000012e-001 3.00000012e-001
      3.00000012e-001 2.00000003e-001 6.99999988e-001 6.99999988e-001 0.
      0. 2.00000003e-001 4.00000006e-001 5.00000000e-001 5.00000000e-001
      5.00000000e-001 5.00000000e-001 4.00000006e-001 0. 0. 0. 0. 0. 0.
      0. 0. 255. 255. 0. 0. 0. 0. 0. 0. 0. 255. 255. 255. 0. 0. 0. 0. 0.
      0. 255. 255. 255. 0. 0. 0. 0. 0. 0. 255. 255. 255. 0. 0. 0. 0. 0.
      0. 255. 255. 255. 0. 0. 0. 0. 0. 0. 0. 255. 255. 0. 0. 0. 0. 0. 0.
      0. 255. 255. 255. 255. 255. 255. 255. 0. 0. 0. 255. 255. 255. 255.
      255. 255. 255. 0. 0. 0. 0. 0. 0. 0. 0. 0. 0. 0. 0. 0. 0. 0. 0. 0.
      0. 0. 0. 0. 0. 0.</_>
    <_>
      2.00000003e-001 3.00000012e-001 3.00000012e-001 3.00000012e-001
      3.00000012e-001 3.00000012e-001 3.00000012e-001 3.00000012e-001
      6.99999988e-001 0. 3.00000012e-001 4.00000006e-001 5.00000000e-001
      5.00000000e-001 5.00000000e-001 5.00000000e-001 3.00000012e-001 0.
      0. 0. 0. 0. 0. 0. 0. 255. 255. 0. 0. 0. 0. 0. 0. 0. 255. 255. 255.
      0. 0. 0. 0. 0. 0. 255. 255. 255. 0. 0. 0. 0. 0. 0. 0. 255. 255.
      255. 0. 0. 0. 0. 0. 0. 255. 255. 255. 0. 0. 0. 0. 0. 0. 255. 255.
      255. 0. 0. 0. 0. 0. 0. 255. 255. 255. 0. 0. 0. 0. 0. 0. 0. 255.
      255. 255. 0. 0. 0. 0. 0. 0. 0. 255. 255. 255. 255. 255. 255. 255.
      0. 0. 0. 0. 0. 0. 0. 0. 0. 0. 0. 0. 0.</_>
    <_>
      2.00000003e-001 3.00000012e-001 3.00000012e-001 2.00000003e-001
      2.00000003e-001 2.00000003e-001 6.00000024e-001 0. 0. 0.
      2.00000003e-001 3.00000012e-001 4.00000006e-001 4.00000006e-001
      4.00000006e-001 3.00000012e-001 0. 0. 0. 0. 0. 0. 0. 0. 255. 255.
      0. 0. 0. 0. 0. 0. 0. 255. 255. 255. 0. 0. 0. 0. 0. 0. 255. 255.
      255. 0. 0. 0. 0. 0. 0. 0. 255. 255. 0. 0. 0. 0. 0. 0. 0. 255. 255.
      0. 0. 0. 0. 0. 0. 0. 255. 255. 0. 0. 0. 0. 0. 0. 0. 0. 255. 255.
      255. 255. 255. 255. 0. 0. 0. 0. 0. 0. 0. 0. 0. 0. 0. 0. 0. 0. 0.
      0. 0. 0. 0. 0. 0. 0. 0. 0. 0. 0. 0. 0. 0. 0. 0. 0. 0. 0.</_>
    <_>
      4.00000006e-001 4.00000006e-001 2.00000003e-001 3.00000012e-001
      3.00000012e-001 3.00000012e-001 3.00000012e-001 2.00000003e-001
      6.99999988e-001 6.99999988e-001 4.00000006e-001 6.00000024e-001
      5.00000000e-001 5.00000000e-001 5.00000000e-001 6.99999988e-001
      6.00000024e-001 0. 0. 0. 255. 255. 0. 0. 0. 255. 255. 0. 0. 0.
      255. 255. 0. 0. 0. 255. 255. 0. 0. 0. 0. 0. 0. 0. 0. 255. 255. 0.
      0. 0. 0. 0. 0. 0. 255. 255. 255. 0. 0. 0. 0. 0. 0. 255. 255. 255.
      0. 0. 0. 0. 0. 0. 255. 255. 255. 0. 0. 0. 0. 0. 0. 255. 255. 255.
      0. 0. 0. 0. 0. 0. 0. 255. 255. 0. 0. 0. 0. 0. 0. 0. 255. 255. 255.
      255. 255. 255. 255. 0. 0. 0. 255. 255. 255. 255. 255. 255. 255. 0.
      0. 0.</_>
    <_>
      4.00000006e-001 4.00000006e-001 2.00000003e-001 3.00000012e-001
      3.00000012e-001 3.00000012e-001 3.00000012e-001 2.00000003e-001
      6.99999988e-001 6.99999988e-001 0. 4.00000006e-001 6.00000024e-001
      5.00000000e-001 5.00000000e-001 5.00000000e-001 6.99999988e-001
      6.00000024e-001 0. 0. 0. 255. 255. 0. 0. 0. 255. 255. 0. 0. 0.
      255. 255. 0. 0. 0. 255. 255. 0. 0. 0. 0. 0. 0. 0. 0. 255. 255. 0.
      0. 0. 0. 0. 0. 0. 255. 255. 255. 0. 0. 0. 0. 0. 0. 255. 255. 255.
      0. 0. 0. 0. 0. 0. 255. 255. 255. 0. 0. 0. 0. 0. 0. 255. 255. 255.
      0. 0. 0. 0. 0. 0. 0. 255. 255. 0. 0. 0. 0. 0. 0. 0. 255. 255. 255.
      255. 255. 255. 255. 0. 0. 0. 255. 255. 255. 255. 255. 255. 255. 0.
      0.</_>
    <_>
      2.00000003e-001 1.00000001e-001 1.00000001e-001 2.00000003e-001
      4.00000006e-001 0. 0. 0. 0. 0. 0. 2.00000003e-001 3.00000012e-001
      3.00000012e-001 2.00000003e-001 0. 0. 0. 0. 0. 0. 0. 0. 255. 255.
      0. 0. 0. 0. 0. 0. 0. 0. 255. 0. 0. 0. 0. 0. 0. 0. 0. 255. 0. 0. 0.
      0. 0. 0. 0. 0. 255. 255. 0. 0. 0. 0. 0. 0. 0. 0. 255. 255. 255.
      255. 0. 0. 0. 0. 0. 0. 0. 0. 0. 0. 0. 0. 0. 0. 0. 0. 0. 0. 0. 0.
      0. 0. 0. 0. 0. 0. 0. 0. 0. 0. 0. 0. 0. 0. 0. 0. 0. 0. 0. 0. 0. 0.
      0. 0. 0. 0. 0. 0. 0. 0. 0. 0. 0. 0. 0.</_>
    <_>
      2.00000003e-001 3.00000012e-001 3.00000012e-001 3.00000012e-001
      3.00000012e-001 2.00000003e-001 6.99999988e-001 6.99999988e-001 0.
      0. 0. 2.00000003e-001 4.00000006e-001 5.00000000e-001
      5.00000000e-001 5.00000000e-001 5.00000000e-001 4.00000006e-001 0.
      0. 0. 0. 0. 0. 0. 0. 255. 255. 0. 0. 0. 0. 0. 0. 0. 255. 255. 255.
      0. 0. 0. 0. 0. 0. 255. 255. 255. 0. 0. 0. 0. 0. 0. 255. 255. 255.
      0. 0. 0. 0. 0. 0. 255. 255. 255. 0. 0. 0. 0. 0. 0. 0. 255. 255. 0.
      0. 0. 0. 0. 0. 0. 255. 255. 255. 255. 255. 255. 255. 0. 0. 0. 255.
      255. 255. 255. 255. 255. 255. 0. 0. 0. 0. 0. 0. 0. 0. 0. 0. 0. 0.
      0. 0. 0. 0. 0. 0. 0. 0. 0. 0.</_>
    <_>
      4.00000006e-001 2.00000003e-001 2.00000003e-001 2.00000003e-001
      2.00000003e-001 2.00000003e-001 2.00000003e-001 6.00000024e-001 0.
      0. 3.00000012e-001 4.00000006e-001 3.00000012e-001 3.00000012e-001
      5.00000000e-001 4.00000006e-001 0. 0. 0. 0. 255. 255. 0. 0. 255.
      255. 0. 0. 0. 0. 0. 0. 0. 0. 255. 255. 0. 0. 0. 0. 0. 0. 0. 0.
      255. 255. 0. 0. 0. 0. 0. 0. 0. 255. 255. 0. 0. 0. 0. 0. 0. 0. 255.
      255. 0. 0. 0. 0. 0. 0. 0. 255. 255. 0. 0. 0. 0. 0. 0. 0. 255. 255.
      0. 0. 0. 0. 0. 0. 0. 0. 255. 255. 255. 255. 255. 255. 0. 0. 0. 0.
      0. 0. 0. 0. 0. 0. 0. 0. 0. 0. 0. 0. 0. 0. 0. 0. 0. 0. 0. 0.</_>
    <_>
      3.00000012e-001 2.00000003e-001 3.00000012e-001 3.00000012e-001
      2.00000003e-001 2.00000003e-001 2.00000003e-001 6.00000024e-001 0.
      0. 3.00000012e-001 3.00000012e-001 4.00000006e-001 4.00000006e-001
      5.00000000e-001 4.00000006e-001 0. 0. 0. 0. 255. 0. 0. 0. 255.
      255. 0. 0. 0. 0. 0. 0. 0. 0. 255. 255. 0. 0. 0. 0. 0. 0. 0. 255.
      255. 255. 0. 0. 0. 0. 0. 0. 255. 255. 255. 0. 0. 0. 0. 0. 0. 0.
      255. 255. 0. 0. 0. 0. 0. 0. 0. 255. 255. 0. 0. 0. 0. 0. 0. 0. 255.
      255. 0. 0. 0. 0. 0. 0. 0. 0. 255. 255. 255. 255. 255. 255. 0. 0.
      0. 0. 0. 0. 0. 0. 0. 0. 0. 0. 0. 0. 0. 0. 0. 0. 0. 0. 0. 0. 0. 0.</_>
    <_>
      2.00000003e-001 2.00000003e-001 2.00000003e-001 2.00000003e-001
      2.00000003e-001 5.00000000e-001 0. 0. 0. 0. 2.00000003e-001
      3.00000012e-001 4.00000006e-001 4.00000006e-001 2.00000003e-001 0.
      0. 0. 0. 0. 0. 0. 0. 255. 255. 0. 0. 0. 0. 0. 0. 0. 255. 255. 0.
      0. 0. 0. 0. 0. 0. 0. 255. 255. 0. 0. 0. 0. 0. 0. 0. 255. 255. 0.
      0. 0. 0. 0. 0. 0. 255. 255. 0. 0. 0. 0. 0. 0. 0. 0. 255. 255. 255.
      255. 255. 0. 0. 0. 0. 0. 0. 0. 0. 0. 0. 0. 0. 0. 0. 0. 0. 0. 0. 0.
      0. 0. 0. 0. 0. 0. 0. 0. 0. 0. 0. 0. 0. 0. 0. 0. 0. 0. 0. 0. 0. 0.
      0. 0. 0. 0.</_>
    <_>
      2.00000003e-001 2.00000003e-001 2.00000003e-001 2.00000003e-001
      2.00000003e-001 2.00000003e-001 6.00000024e-001 0. 0. 0. 0.
      2.00000003e-001 3.00000012e-001 3.00000012e-001 3.00000012e-001
      4.00000006e-001 3.00000012e-001 0. 0. 0. 0. 0. 0. 0. 0. 255. 255.
      0. 0. 0. 0. 0. 0. 0. 0. 255. 255. 0. 0. 0. 0. 0. 0. 0. 255. 255.
      0. 0. 0. 0. 0. 0. 0. 255. 255. 0. 0. 0. 0. 0. 0. 0. 255. 255. 0.
      0. 0. 0. 0. 0. 0. 255. 255. 0. 0. 0. 0. 0. 0. 0. 0. 255. 255. 255.
      255. 255. 255. 0. 0. 0. 0. 0. 0. 0. 0. 0. 0. 0. 0. 0. 0. 0. 0. 0.
      0. 0. 0. 0. 0. 0. 0. 0. 0. 0. 0. 0. 0. 0. 0. 0.</_>
    <_>
      4.00000006e-001 4.00000006e-001 2.00000003e-001 3.00000012e-001
      3.00000012e-001 3.00000012e-001 3.00000012e-001 2.00000003e-001
      6.99999988e-001 6.99999988e-001 4.00000006e-001 6.00000024e-001
      5.00000000e-001 5.00000000e-001 5.00000000e-001 6.99999988e-001
      6.00000024e-001 0. 0. 0. 255. 255. 0. 0. 0. 255. 255. 0. 0. 0.
      255. 255. 0. 0. 0. 255. 255. 0. 0. 0. 0. 0. 0. 0. 0. 255. 255. 0.
      0. 0. 0. 0. 0. 0. 255. 255. 255. 0. 0. 0. 0. 0. 0. 255. 255. 255.
      0. 0. 0. 0. 0. 0. 255. 255. 255. 0. 0. 0. 0. 0. 0. 255. 255. 255.
      0. 0. 0. 0. 0. 0. 0. 255. 255. 0. 0. 0. 0. 0. 0. 0. 255. 255. 255.
      255. 255. 255. 255. 0. 0. 0. 255. 255. 255. 255. 255. 255. 255. 0.
      0. 0.</_>
    <_>
      4.00000006e-001 2.00000003e-001 3.00000012e-001 3.00000012e-001
      3.00000012e-001 3.00000012e-001 2.00000003e-001 6.99999988e-001
      6.99999988e-001 0. 3.00000012e-001 5.00000000e-001 5.00000000e-001
      5.00000000e-001 5.00000000e-001 6.00000024e-001 5.00000000e-001 0.
      0. 0. 255. 255. 0. 0. 0. 255. 255. 0. 0. 0. 0. 0. 0. 0. 0. 255.
      255. 0. 0. 0. 0. 0. 0. 0. 255. 255. 255. 0. 0. 0. 0. 0. 0. 255.
      255. 255. 0. 0. 0. 0. 0. 0. 255. 255. 255. 0. 0. 0. 0. 0. 0. 255.
      255. 255. 0. 0. 0. 0. 0. 0. 0. 255. 255. 0. 0. 0. 0. 0. 0. 0. 255.
      255. 255. 255. 255. 255. 255. 0. 0. 0. 255. 255. 255. 255. 255.
      255. 255. 0. 0. 0. 0. 0. 0. 0. 0. 0. 0. 0. 0. 0.</_>
    <_>
      2.00000003e-001 2.00000003e-001 3.00000012e-001 3.00000012e-001
      3.00000012e-001 3.00000012e-001 3.00000012e-001 3.00000012e-001
      3.00000012e-001 6.99999988e-001 3.00000012e-001 4.00000006e-001
      5.00000000e-001 5.00000000e-001 5.00000000e-001 6.00000024e-001
      4.00000006e-001 0. 0. 0. 0. 0. 0. 0. 0. 255. 255. 0. 0. 0. 0. 0.
      0. 0. 0. 255. 255. 0. 0. 0. 0. 0. 0. 0. 255. 255. 255. 0. 0. 0. 0.
      0. 0. 255. 255. 255. 0. 0. 0. 0. 0. 0. 0. 255. 255. 255. 0. 0. 0.
      0. 0. 0. 255. 255. 255. 0. 0. 0. 0. 0. 0. 255. 255. 255. 0. 0. 0.
      0. 0. 0. 255. 255. 255. 0. 0. 0. 0. 0. 0. 0. 255. 255. 255. 0. 0.
      0. 0. 0. 0. 0. 255. 255. 255. 255. 255. 255. 255. 0. 0. 0.</_>
    <_>
      2.00000003e-001 3.00000012e-001 3.00000012e-001 2.00000003e-001
      2.00000003e-001 2.00000003e-001 6.00000024e-001 0. 0. 0.
      2.00000003e-001 3.00000012e-001 4.00000006e-001 4.00000006e-001
      4.00000006e-001 3.00000012e-001 0. 0. 0. 0. 0. 0. 0. 0. 255. 255.
      0. 0. 0. 0. 0. 0. 0. 255. 255. 255. 0. 0. 0. 0. 0. 0. 255. 255.
      255. 0. 0. 0. 0. 0. 0. 0. 255. 255. 0. 0. 0. 0. 0. 0. 0. 255. 255.
      0. 0. 0. 0. 0. 0. 0. 255. 255. 0. 0. 0. 0. 0. 0. 0. 0. 255. 255.
      255. 255. 255. 255. 0. 0. 0. 0. 0. 0. 0. 0. 0. 0. 0. 0. 0. 0. 0.
      0. 0. 0. 0. 0. 0. 0. 0. 0. 0. 0. 0. 0. 0. 0. 0. 0. 0. 0.</_>
    <_>
      2.00000003e-001 3.00000012e-001 3.00000012e-001 2.00000003e-001
      2.00000003e-001 2.00000003e-001 6.00000024e-001 0. 0. 0. 0.
      2.00000003e-001 3.00000012e-001 4.00000006e-001 4.00000006e-001
      4.00000006e-001 3.00000012e-001 0. 0. 0. 0. 0. 0. 0. 0. 255. 255.
      0. 0. 0. 0. 0. 0. 0. 255. 255. 255. 0. 0. 0. 0. 0. 0. 255. 255.
      255. 0. 0. 0. 0. 0. 0. 0. 255. 255. 0. 0. 0. 0. 0. 0. 0. 255. 255.
      0. 0. 0. 0. 0. 0. 0. 255. 255. 0. 0. 0. 0. 0. 0. 0. 0. 255. 255.
      255. 255. 255. 255. 0. 0. 0. 0. 0. 0. 0. 0. 0. 0. 0. 0. 0. 0. 0.
      0. 0. 0. 0. 0. 0. 0. 0. 0. 0. 0. 0. 0. 0. 0. 0. 0. 0.</_>
    <_>
      1.00000001e-001 2.00000003e-001 2.00000003e-001 2.00000003e-001
      2.00000003e-001 2.00000003e-001 5.00000000e-001 0. 0. 0. 0.
      2.00000003e-001 3.00000012e-001 4.00000006e-001 4.00000006e-001
      3.00000012e-001 0. 0. 0. 0. 0. 0. 0. 0. 0. 255. 0. 0. 0. 0. 0. 0.
      0. 0. 255. 255. 0. 0. 0. 0. 0. 0. 0. 255. 255. 0. 0. 0. 0. 0. 0.
      0. 0. 255. 255. 0. 0. 0. 0. 0. 0. 0. 255. 255. 0. 0. 0. 0. 0. 0.
      0. 255. 255. 0. 0. 0. 0. 0. 0. 0. 0. 255. 255. 255. 255. 255. 0.
      0. 0. 0. 0. 0. 0. 0. 0. 0. 0. 0. 0. 0. 0. 0. 0. 0. 0. 0. 0. 0. 0.
      0. 0. 0. 0. 0. 0. 0. 0. 0. 0. 0.</_>
    <_>
      1.00000001e-001 2.00000003e-001 1.00000001e-001 1.00000001e-001
      2.00000003e-001 4.00000006e-001 0. 0. 0. 0. 2.00000003e-001
      3.00000012e-001 3.00000012e-001 3.00000012e-001 0. 0. 0. 0. 0. 0.
      0. 0. 0. 255. 0. 0. 0. 0. 0. 0. 0. 0. 255. 255. 0. 0. 0. 0. 0. 0.
      0. 0. 255. 0. 0. 0. 0. 0. 0. 0. 0. 255. 0. 0. 0. 0. 0. 0. 0. 0.
      255. 255. 0. 0. 0. 0. 0. 0. 0. 0. 255. 255. 255. 255. 0. 0. 0. 0.
      0. 0. 0. 0. 0. 0. 0. 0. 0. 0. 0. 0. 0. 0. 0. 0. 0. 0. 0. 0. 0. 0.
      0. 0. 0. 0. 0. 0. 0. 0. 0. 0. 0. 0. 0. 0. 0. 0. 0. 0. 0. 0.</_>
    <_>
      2.00000003e-001 3.00000012e-001 3.00000012e-001 3.00000012e-001
      3.00000012e-001 3.00000012e-001 3.00000012e-001 3.00000012e-001
      6.99999988e-001 0. 0. 3.00000012e-001 4.00000006e-001
      5.00000000e-001 5.00000000e-001 5.00000000e-001 5.00000000e-001
      3.00000012e-001 0. 0. 0. 0. 0. 0. 0. 0. 255. 255. 0. 0. 0. 0. 0.
      0. 0. 255. 255. 255. 0. 0. 0. 0. 0. 0. 255. 255. 255. 0. 0. 0. 0.
      0. 0. 0. 255. 255. 255. 0. 0. 0. 0. 0. 0. 255. 255. 255. 0. 0. 0.
      0. 0. 0. 255. 255. 255. 0. 0. 0. 0. 0. 0. 255. 255. 255. 0. 0. 0.
      0. 0. 0. 0. 255. 255. 255. 0. 0. 0. 0. 0. 0. 0. 255. 255. 255.
      255. 255. 255. 255. 0. 0. 0. 0. 0. 0. 0. 0. 0. 0. 0. 0.</_>
    <_>
      2.00000003e-001 1.00000001e-001 1.00000001e-001 2.00000003e-001
      4.00000006e-001 0. 0. 0. 0. 0. 2.00000003e-001 3.00000012e-001
      3.00000012e-001 2.00000003e-001 0. 0. 0. 0. 0. 0. 0. 0. 255. 255.
      0. 0. 0. 0. 0. 0. 0. 0. 255. 0. 0. 0. 0. 0. 0. 0. 0. 255. 0. 0. 0.
      0. 0. 0. 0. 0. 255. 255. 0. 0. 0. 0. 0. 0. 0. 0. 255. 255. 255.
      255. 0. 0. 0. 0. 0. 0. 0. 0. 0. 0. 0. 0. 0. 0. 0. 0. 0. 0. 0. 0.
      0. 0. 0. 0. 0. 0. 0. 0. 0. 0. 0. 0. 0. 0. 0. 0. 0. 0. 0. 0. 0. 0.
      0. 0. 0. 0. 0. 0. 0. 0. 0. 0. 0. 0. 0. 0.</_>
    <_>
      2.00000003e-001 2.00000003e-001 3.00000012e-001 3.00000012e-001
      3.00000012e-001 3.00000012e-001 3.00000012e-001 3.00000012e-001
      3.00000012e-001 6.99999988e-001 3.00000012e-001 4.00000006e-001
      5.00000000e-001 5.00000000e-001 5.00000000e-001 6.00000024e-001
      4.00000006e-001 0. 0. 0. 0. 0. 0. 0. 0. 255. 255. 0. 0. 0. 0. 0.
      0. 0. 0. 255. 255. 0. 0. 0. 0. 0. 0. 0. 255. 255. 255. 0. 0. 0. 0.
      0. 0. 255. 255. 255. 0. 0. 0. 0. 0. 0. 0. 255. 255. 255. 0. 0. 0.
      0. 0. 0. 255. 255. 255. 0. 0. 0. 0. 0. 0. 255. 255. 255. 0. 0. 0.
      0. 0. 0. 255. 255. 255. 0. 0. 0. 0. 0. 0. 0. 255. 255. 255. 0. 0.
      0. 0. 0. 0. 0. 255. 255. 255. 255. 255. 255. 255. 0. 0. 0.</_>
    <_>
      4.00000006e-001 2.00000003e-001 3.00000012e-001 3.00000012e-001
      3.00000012e-001 3.00000012e-001 2.00000003e-001 6.99999988e-001
      6.99999988e-001 0. 0. 3.00000012e-001 5.00000000e-001
      5.00000000e-001 5.00000000e-001 5.00000000e-001 6.00000024e-001
      5.00000000e-001 0. 0. 0. 255. 255. 0. 0. 0. 255. 255. 0. 0. 0. 0.
      0. 0. 0. 0. 255. 255. 0. 0. 0. 0. 0. 0. 0. 255. 255. 255. 0. 0. 0.
      0. 0. 0. 255. 255. 255. 0. 0. 0. 0. 0. 0. 255. 255. 255. 0. 0. 0.
      0. 0. 0. 255. 255. 255. 0. 0. 0. 0. 0. 0. 0. 255. 255. 0. 0. 0. 0.
      0. 0. 0. 255. 255. 255. 255. 255. 255. 255. 0. 0. 0. 255. 255.
      255. 255. 255. 255. 255. 0. 0. 0. 0. 0. 0. 0. 0. 0. 0. 0. 0.</_>
    <_>
      1.00000001e-001 2.00000003e-001 1.00000001e-001 1.00000001e-001
      2.00000003e-001 4.00000006e-001 0. 0. 0. 0. 0. 2.00000003e-001
      3.00000012e-001 3.00000012e-001 3.00000012e-001 0. 0. 0. 0. 0. 0.
      0. 0. 0. 255. 0. 0. 0. 0. 0. 0. 0. 0. 255. 255. 0. 0. 0. 0. 0. 0.
      0. 0. 255. 0. 0. 0. 0. 0. 0. 0. 0. 255. 0. 0. 0. 0. 0. 0. 0. 0.
      255. 255. 0. 0. 0. 0. 0. 0. 0. 0. 255. 255. 255. 255. 0. 0. 0. 0.
      0. 0. 0. 0. 0. 0. 0. 0. 0. 0. 0. 0. 0. 0. 0. 0. 0. 0. 0. 0. 0. 0.
      0. 0. 0. 0. 0. 0. 0. 0. 0. 0. 0. 0. 0. 0. 0. 0. 0. 0. 0.</_>
    <_>
      2.00000003e-001 2.00000003e-001 2.00000003e-001 2.00000003e-001
      2.00000003e-001 2.00000003e-001 6.00000024e-001 0. 0. 0.
      2.00000003e-001 3.00000012e-001 3.00000012e-001 3.00000012e-001
      4.00000006e-001 3.00000012e-001 0. 0. 0. 0. 0. 0. 0. 0. 255. 255.
      0. 0. 0. 0. 0. 0. 0. 0. 255. 255. 0. 0. 0. 0. 0. 0. 0. 255. 255.
      0. 0. 0. 0. 0. 0. 0. 255. 255. 0. 0. 0. 0. 0. 0. 0. 255. 255. 0.
      0. 0. 0. 0. 0. 0. 255. 255. 0. 0. 0. 0. 0. 0. 0. 0. 255. 255. 255.
      255. 255. 255. 0. 0. 0. 0. 0. 0. 0. 0. 0. 0. 0. 0. 0. 0. 0. 0. 0.
