<?xml version="1.0"?>
<opencv_storage>
<my_nn type_id="opencv-ml-ann-mlp">
  <layer_sizes type_id="opencv-matrix">
    <rows>1</rows>
    <cols>3</cols>
    <dt>i</dt>
    <data>
      120 20 23</data></layer_sizes>
  <activation_function>SIGMOID_SYM</activation_function>
  <f_param1>1.</f_param1>
  <f_param2>1.</f_param2>
  <min_val>-9.4999999999999996e-001</min_val>
  <max_val>9.4999999999999996e-001</max_val>
  <min_val1>-9.7999999999999998e-001</min_val1>
  <max_val1>9.7999999999999998e-001</max_val1>
  <training_params>
    <train_method>RPROP</train_method>
    <dw0>1.0000000000000001e-001</dw0>
    <dw_plus>1.2000000000000000e+000</dw_plus>
    <dw_minus>5.0000000000000000e-001</dw_minus>
    <dw_min>1.1920928955078125e-007</dw_min>
    <dw_max>50.</dw_max>
    <term_criteria><epsilon>9.9999997764825821e-003</epsilon>
      <iterations>1000</iterations></term_criteria></training_params>
  <input_scale>
    2.3076212812791269e+002 -8.7780109294105002e-001
    2.0578981126777180e+002 -1.0741421810544305e+000
    1.9648453223263775e+002 -1.4039013356960763e+000
    2.1566102151896905e+002 -1.8166270737058525e+000
    2.1757044290348895e+002 -1.8395368801937442e+000
    1.9599669465964277e+002 -1.7163162604221227e+000
    1.6085833292622411e+002 -1.3335472044665642e+000
    1.5001891194779063e+002 -1.0454259771260996e+000
    1.5829658828938435e+002 -7.7534294794248382e-001
    1.7194111869501998e+002 -5.0301209023551241e-001
    1.9460069215990461e+002 -4.2277957141324524e-001
    1.3925288624087329e+002 -7.9073801158514967e-001
    1.4098806606539114e+002 -1.0261720340682896e+000
    1.3916826923510490e+002 -1.3780388385196622e+000
    1.4361242279968377e+002 -1.6326762450814067e+000
    1.2463528378243271e+002 -1.3455723901568242e+000
    1.2001203206057882e+002 -9.8409872925454467e-001
    1.2739851154828261e+002 -6.8695280318631402e-001
    1.5225643344225338e+002 -4.5079849149327045e-001
    2.3575764226553596e+002 -2.6811655316148364e-001
    2.1050870143817998e-002 -1.9324698792024922e-001
    1.2957510378066138e-002 -3.3702484493350027e-001
    1.2434958074309830e-002 -3.5514240260228874e-001
    1.0835915657723976e-002 -4.2828956637154014e-001
    1.0807526200907457e-002 -4.2992339227209864e-001
    1.1777438286823599e-002 -3.8141233891878223e-001
    1.1548469995888324e-002 -3.9166635991055249e-001
    1.3703069761070826e-002 -3.1448545101657543e-001
    1.9776916851181658e-002 -2.0676766567910423e-001
    2.9496319111537529e-002 -1.3538810472195725e-001
    1.8720037585823687e-002 -2.1958604088171185e-001
    1.1548469995888324e-002 -3.9166635991055249e-001
    1.0617035961180755e-002 -4.4129709972647807e-001
    9.4667558742209321e-003 -5.3108500454379426e-001
    9.7674835655431197e-003 -5.0312307846112603e-001
    1.0036975875882403e-002 -4.8117262348980239e-001
    1.0078389650117908e-002 -4.7801802110509234e-001
    1.2200750242129724e-002 -3.6400938347394035e-001
    1.6914787470097285e-002 -2.4585643587786404e-001
    2.8724237927388822e-002 -1.3916893275819883e-001
    1.6512782766010176e-002 -2.5264557631995571e-001
    1.0982588894337331e-002 -4.2008402520840293e-001
    9.8598188029553856e-003 -4.9530799756646376e-001
    8.7629591343625288e-003 -6.1897161845569726e-001
    8.3727139244490004e-003 -6.9388866648871095e-001
    8.4716891926773733e-003 -6.7184731142527920e-001
    9.1691781397667919e-003 -5.6349184257936813e-001
    1.1105917840758896e-002 -4.1347332121145369e-001
    1.4293268524205731e-002 -2.9887224484114183e-001
    2.1952784420494864e-002 -1.8473268089846426e-001
    1.5075041710102497e-002 -2.8062190143355797e-001
    1.0057585738167743e-002 -4.7959597592452885e-001
    9.2765006016234768e-003 -5.5116328324545882e-001
    8.4279089792703311e-003 -6.8127002233931711e-001
    8.1046982837060175e-003 -7.7294507531704293e-001
    8.1600946259041945e-003 -7.5325833491721617e-001
    8.7925779619784337e-003 -6.1433742220343324e-001
    1.0099390178381070e-002 -4.7643873166512696e-001
    1.2739081836049914e-002 -3.4433738202842917e-001
    2.0775228730750814e-002 -1.9601428307463395e-001
    1.4455093740676191e-002 -2.9488391230979427e-001
    9.8979344584819145e-003 -4.9217479094801320e-001
    9.1691781397667919e-003 -5.6349184257936813e-001
    8.4067933893386682e-003 -6.8599434057003528e-001
    8.0711217877203235e-003 -7.8620797334183667e-001
    8.1600946259041945e-003 -7.5325833491721617e-001
    8.9516034199520322e-003 -5.9120864787073202e-001
    1.0297691566214896e-002 -4.6216039749172455e-001
    1.3014254244984546e-002 -3.3518211807957699e-001
    2.0012171101169755e-002 -2.0412414523193148e-001
    1.4293268524205731e-002 -2.9887224484114183e-001
    9.8787901380756049e-003 -4.9374193110101872e-001
    9.0685985625805921e-003 -5.7581066573105466e-001
    8.2552205127754182e-003 -7.2414794338065969e-001
    8.0220171189021305e-003 -8.0801767430141702e-001
    8.0711217877203235e-003 -7.8620797334183667e-001
    8.9857300870927262e-003 -5.8658846008541321e-001
    1.0297691566214896e-002 -4.6216039749172455e-001
    1.2792447766954566e-002 -3.4251778896020851e-001
    1.8345127170713720e-002 -2.2454435656953595e-001
    1.6385590836782194e-002 -2.5487786546614705e-001
    1.0207435417555952e-002 -4.6852128566581819e-001
    9.3328629707589705e-003 -5.4499253317747010e-001
    8.4716891926773733e-003 -6.7184731142527920e-001
    8.0792710140228340e-003 -7.8288136125881269e-001
    8.1953175417051362e-003 -7.4188112046285748e-001
    8.8964952039292614e-003 -5.9891205712851781e-001
    1.0036975875882403e-002 -4.8117262348980239e-001
    1.2686511026792290e-002 -3.4615145336602765e-001
    2.0256565946247581e-002 -2.0145154833543219e-001
    1.7825496091597084e-002 -2.3182057667122008e-001
    1.1511938859517172e-002 -3.9336295082970180e-001
    9.8223865945776465e-003 -4.9843700774184263e-001
    8.8435165129287247e-003 -6.0662101520434586e-001
    8.3727139244490004e-003 -6.9388866648871095e-001
    8.4867528747662683e-003 -6.6871369276720816e-001
    9.2490083356500004e-003 -5.5424682451382623e-001
    1.1043561765559854e-002 -4.1678402103222889e-001
    1.4710031626743380e-002 -2.8883147099110629e-001
    2.2988642421982321e-002 -1.7586311452816475e-001
    2.0510700131577877e-002 -1.9874868427498962e-001
    1.2686511026792290e-002 -3.4615145336602765e-001
    1.1268177546885992e-002 -4.0514732369828582e-001
    9.9172539361371236e-003 -4.9060655222070348e-001
    9.3472475783501225e-003 -5.4344897420527616e-001
    9.3328629707589705e-003 -5.4499253317747010e-001
    1.0864613409398859e-002 -4.2665336858709324e-001
    1.3635064032307385e-002 -3.1640166086969285e-001
    1.8166510787829732e-002 -2.2699055229393250e-001
    2.9496319111537529e-002 -1.3538810472195725e-001
    2.4194771079253306e-002 -1.6658099888065900e-001
    1.6022560060309152e-002 -2.6148818018424536e-001
    1.3568223275910726e-002 -3.1831051805286564e-001
    1.2155827355819221e-002 -3.6576884513660035e-001
    1.1585452244340960e-002 -3.8996632254451669e-001
    1.1738067220847444e-002 -3.8313051408846061e-001
    1.3772273154264100e-002 -3.1256173923602376e-001
    1.6777234367203544e-002 -2.4813529629094039e-001
    2.2988642421982321e-002 -1.7586311452816475e-001
    4.4020907359503647e-002 -8.9802651013387441e-002</input_scale>
  <output_scale>
    5.2631578947368418e-001 4.9999999999999994e-001
    5.2631578947368418e-001 4.9999999999999994e-001 1. 0. 1. 0. 1. 0. 1.
    0. 1. 0. 1. 0. 1. 0. 1. 0. 1. 0. 1. 0. 1. 0. 1. 0. 1. 0. 1. 0. 1. 0.
    1. 0. 1. 0. 1. 0. 1. 0. 1. 0. 1. 0.</output_scale>
  <inv_output_scale>
    1.8999999999999999e+000 -9.4999999999999996e-001
    1.8999999999999999e+000 -9.4999999999999996e-001 1. 0. 1. 0. 1. 0.
    1. 0. 1. 0. 1. 0. 1. 0. 1. 0. 1. 0. 1. 0. 1. 0. 1. 0. 1. 0. 1. 0. 1.
    0. 1. 0. 1. 0. 1. 0. 1. 0. 1. 0. 1. 0.</inv_output_scale>
  <weights>
    <_>
      -4.2479289678456274e-002 4.1937572390186167e-002
      4.6945828187710668e-002 -7.8974170173034694e-002
      -9.8620475378192376e-003 -1.1649369182040797e-001
      8.8375209601532348e-002 -1.4280008228181248e-002
      -5.1948775353573742e-002 2.6438925731719576e-001
      -9.0799800378449577e-002 -1.1158466556111812e-001
      8.9468036990868097e-002 -9.5061922776145405e-002
      -5.5242590513386779e-002 2.1388810246912029e-001
      5.4385599474277353e-002 -3.0901601138121781e-001
      1.1663830592301982e-001 -1.5215107967471211e-001
      -2.0053366067277409e-001 -8.2719806610801958e-002
      2.8319939512674995e-002 1.4013641050569531e-001
      2.4168161703986585e-002 -2.1770040862472179e-001
      -1.4820863828162631e-001 2.3167301205586688e-001
      -3.8514408891879341e-002 7.3593851080014067e-002
      -9.0331596514322557e-002 -1.8106383603681037e-001
      1.9380262734401247e-002 -2.2799702317660833e-001
      9.2589167373138090e-002 1.8022904747821661e-001
      -1.0464311047857705e-001 -8.5291781706391429e-002
      1.6308290965999540e-002 -9.2162067120818550e-002
      3.0309602342791314e-001 1.6542229175761189e-001
      7.2886865143310872e-002 -7.8676636273287456e-002
      -2.2206217233629336e-001 7.8403214732010507e-002
      1.5961556025644255e-001 -7.5523426136563418e-002
      -2.3014351339585323e-001 5.8381857819966174e-002
      1.5486557259864020e-001 -1.1090851030027248e-001
      1.5700342661211214e-001 -4.2552627876926780e-001
      8.7462924969924777e-002 -1.1502375520554668e-001
      1.3381297128525349e-001 -1.0934327291408522e-001
      7.1930375485928302e-002 -3.1194097108375990e-001
      -1.0035154829304394e-001 -5.5962762068335288e-002
      -4.2991480892486750e-002 5.4182974775307424e-002
      1.1369892715009744e-001 -1.2638207216046371e-001
      1.1497950787462319e-001 -1.7816635766020461e-001
      1.4309007502911072e-001 2.8841183089937293e-002
      -4.1931516735101676e-002 1.2313706406502799e-001
      1.4715328643575118e-001 2.4488136364910970e-004
      3.0387175454020515e-002 -7.4052472529036018e-002
      -7.7172029354581603e-002 1.2615195953220300e-002
      1.0123457778023327e-001 6.6361322316694532e-002
      2.3975715276229123e-001 3.5197543909213855e-002
      -1.1626828259038854e-001 -1.0452812874517599e-001
      2.5892910116613721e-001 8.5397431277348890e-002
      1.7456214508935508e-001 -4.6769402448738617e-001
      4.3862453147625123e-002 1.1060021997007275e-002
      1.2529117277950735e-001 2.3220020044378295e-001
      -1.4522078144349882e-002 1.2758847053743940e-002
      -9.3944789273211100e-003 -1.2093717543030043e-001
      1.0442084169607863e-002 1.6849655257551194e-001
      -2.1337709607427872e-002 2.0443179011342824e-001
      1.6839470556414077e-001 1.0846880687586881e-001
      -1.4182893344015653e-002 -4.8685869528788679e-002
      4.0814811634108876e-002 2.1954655619745475e-001
      -1.8823107072547262e-002 6.1958377294669895e-002
      4.6972246069177777e-002 -2.4316408017675628e-001
      1.6986401352382541e-001 -2.1453221128665486e-002
      1.1725017128598560e-001 -1.7054673232580336e-001
      -1.3015141220762366e-002 -7.9561714954992105e-002
      3.7553166304693464e-002 3.8414687495230181e-003
      1.1022818345554919e-001 -1.3845346196568670e-001
      -2.1701413611426257e-001 4.5191812399351661e-002
      -4.1789219857815911e-002 -1.0184133093283662e-001
      2.6215970965188068e-001 -4.3791409210745535e-002
      1.2555154780121699e-002 -4.6065633235295717e-001
      -9.6721815355667123e-002 -7.1228912952983250e-003
      2.1153406775338532e-001 -3.4000001866723295e-001
      1.0906711466276413e-001 -4.8165656721143008e-002
      1.5721374906904562e-002 -8.6456863728019584e-002
      2.1981935057458346e-001 -2.3236510432743503e-002
      2.9424427656955632e-001 -1.7780016033920831e-002
      6.7192619590113439e-002 4.4183673501473497e-001
      -1.2466858303875412e-001 -1.0613505248120848e-001
      3.0007435761187035e-001 -8.9433774949677252e-004
      -8.7482063327953691e-002 -7.3486447956821868e-002
      2.0051850368625607e-001 -1.6497439366187840e-002
      3.6038690417966385e-001 9.6972260515043845e-002
      4.0813416726671166e-002 -1.2997401809992029e-001
      -2.1339803168650054e-001 -7.4251374919925242e-002
      -3.8356677892195466e-003 1.8543289953091591e-001
      1.1704588068966798e-002 3.2302801024361991e-002
      1.9975764637889254e-001 1.5522553138750045e-001
      2.9008781949338230e-001 -7.8977648525731733e-002
      3.7440994596659705e-001 2.2700352636175150e-001
      7.9288841554512934e-002 -2.2327379292495106e-001
      -6.9648502747307994e-002 -1.0556444304375280e-001
      7.3714571745886540e-002 8.2188809105897390e-002
      3.2784018914719298e-002 3.0819339546476554e-001
      -8.1972247505396639e-002 -5.9951246387565528e-002
      1.0463716750021677e-001 -9.8249621708069085e-002
      -6.9036516408870985e-002 2.9285475584564091e-001
      2.4157733356817307e-001 7.1814109208012886e-002
      -1.7812548209688406e-002 1.1776615333449554e-001
      5.0053736302384758e-002 1.7507673165630069e-001
      -1.0905705711131730e-001 -9.0352990442446643e-002
      9.5384558162788721e-002 -1.1317253013585907e-001
      9.0283409444641652e-002 -1.0365673673888949e-001
      -6.3517710885183515e-002 -5.5387664229238187e-002
      -5.3336344783190485e-002 4.7308982700027015e-002
      -2.1929471951889540e-001 -4.6305335871083611e-002
      9.4671706541143139e-002 1.1251989022167606e-001
      -2.2470643395955094e-002 -1.2826185770355830e-001
      -3.0082050453707206e-002 9.7544233686972626e-002
      -8.2523207722716430e-002 9.2041381259283725e-003
      8.7866738783115433e-002 -4.0370149274975559e-001
      -9.6380789965811148e-002 7.0632250261275162e-003
      -6.6165879910457803e-002 -3.8905659547338614e-002
      1.7578352177102567e-002 1.5442092568686175e-001
      -2.3193184545101341e-002 -2.2022927329781051e-003
      4.2875249597887320e-002 2.1019174603985938e-001
      -1.4295692703966789e-001 -2.2187180154566795e-003
      1.1445113756483974e-002 -2.0058380065578663e-001
      -3.6506399406775261e-002 6.3746165260877476e-003
      -1.2043610585846749e-002 9.8049074207855164e-002
      2.4597703909182672e-001 -1.0726365356220359e-001
      -2.3138057126657216e-001 2.1783153491177254e-001
      -2.4010338472974471e-001 -4.4410173048642726e-002
      -7.6654959007669429e-002 2.1386140142174714e-001
      3.0404139771600712e-003 1.0866704812939304e-002
      4.5472052856080532e-002 2.8885505063863365e-002
      -5.1605586884247240e-002 1.2984549591954581e-001
      1.2486873130413874e-001 -7.5580167079614458e-002
      -1.4311823986080319e-001 -1.5281606106540513e-001
      -1.0831558500214134e-002 7.5907809444168861e-002
      1.7666342863818765e-002 -3.1059405629274933e-002
      1.1734250657691821e-001 1.0550380929029256e-002
      9.4926089116613380e-003 3.5061931415969513e-002
      -9.3102156732645158e-002 6.1374090623295172e-002
      1.5041383067824156e-003 -8.0602099085021021e-003
      1.0544192665044018e-001 1.1160850169732957e-001
      -4.2881550568540885e-002 9.7772160066783104e-002
      2.1128553675433390e-001 9.9518442378177530e-002
      -9.9417467152673203e-002 -6.9721594548358426e-002
      4.3226666772494858e-003 8.5057871765808285e-002
      -1.0427438532035610e-001 -9.1392191284246624e-002
      1.9310739202148805e-002 -1.0313259746984122e-002
      1.6418892662473358e-002 -9.7269694041534488e-004
      -5.9819832475371842e-002 2.9734143784408174e-001
      6.6993134316118003e-003 1.1515128476016106e-003
      1.3748374646445868e-001 7.5832428295215540e-002
      -7.0706198228074793e-002 8.1534884281990114e-002
      -2.7363810739304600e-001 9.3788261870493106e-002
      -3.3630320064283986e-002 -4.4782692782990810e-002
      -8.3240212780070238e-002 -9.9222210272370048e-002
      4.7752680671369652e-001 2.8390099744960196e-001
      6.5085493831501307e-002 -2.5649387372997937e-002
      -2.9076837997659154e-002 1.2487666087004817e-001
      8.0401135547211924e-003 4.7830820150715325e-002
      -1.0758632989177275e-001 -4.4013113993307082e-002
      -2.4983850973980586e-002 1.6306197898547609e-001
      -3.3825603930076609e-002 -6.1703443847792833e-002
      -7.3329367699582926e-002 -1.5821613680272081e-001
      -2.3576751088662865e-001 1.7697167349858680e-002
      5.8025370203858853e-002 -1.3445481882455148e-003
      1.3981369414330019e-001 -3.1675384295986059e-001
      7.3543520317340016e-002 4.6953987477542578e-002
      -9.5184259023068894e-003 -1.4997902243466871e-001
      2.0006812761669494e-002 -4.9219629492672522e-002
      -4.0240132398771597e-003 -2.6749065633629499e-002
      6.8694914345607816e-002 1.9518506018620976e-001
      -8.1809624214457061e-002 6.7742459890849016e-003
      1.1506585221785859e-002 1.3327389061841033e-001
      -2.2417161282042238e-002 2.5568759208148568e-002
      2.5917129497989655e-003 1.6961318240508449e-001
      -2.3995212678478162e-001 9.3919303400644263e-002
      -9.1592063732724813e-002 -8.0075064794072864e-002
      1.1548108445265308e-001 -8.1132059282659347e-002
      4.7567823363605988e-002 -4.4871785441333072e-002
      1.4176071211105790e-001 3.3159738678890040e-003
      -5.0381032201037255e-003 -9.4684884382428933e-002
      -1.4077240954092501e-001 2.1864525330822690e-001
      -1.6760144938625543e-002 1.4684853553842922e-001
      7.2187169035153681e-002 -1.0152660631465948e-001
      -2.7238933252557090e-002 -5.2725317461157953e-002
      1.0967008820877885e-001 8.3715896492178171e-002
      -7.6901513555060655e-002 2.7431210782171578e-001
      1.5575646756291561e-001 4.6665526321527623e-002
      -1.2246596269542796e-001 -5.1394823841987562e-002
      -3.3477041114000468e-002 1.6617139172124006e-002
      1.2837274036965884e-001 -7.3192981092209675e-002
      1.8729811265419206e-002 -1.0584120494743467e-001
      6.7212957260092236e-003 1.8109842122615186e-001
      -6.9657959270758421e-002 -9.4533317442651005e-002
      -2.8993341400747354e-002 -6.0349339941031449e-002
      -9.2673022620448908e-002 1.3940033960439877e-001
      -1.1527859757696055e-001 2.1675752216100944e-001
      1.4535352553909131e-001 -1.0201586399916429e-001
      -1.5799506220161377e-001 -5.7067580518457797e-002
      -4.2714152935275564e-002 3.3591304705738553e-002
      -1.8051339147823817e-001 -6.3731331306279629e-002
      1.0100720530804115e-001 -8.7064422104826372e-002
      3.2690106488891529e-001 1.7016720135148919e-001
      1.8785273401209354e-001 -2.1319776905225812e-001
      6.0362845205642994e-002 2.2857000904427371e-001
      -2.3787718605509553e-001 9.1695306005255078e-002
      -2.0157918942561170e-001 2.4116857353921650e-001
      9.7259317518368776e-003 2.8836375560791633e-003
      -7.4496351674400732e-002 -2.6111081744454600e-002
      -3.8839963825079588e-001 8.7267035161272391e-002
      -2.0181088904841946e-001 -6.1275005207887201e-001
      3.6070741065823447e-001 -9.6452287299055875e-002
      -1.5248820477393990e-001 -3.3220201317758019e-001
      -4.3435499770929184e-002 4.8444646938447085e-002
      -1.2718913938320791e-002 -2.7285581187408422e-002
      2.0661850946931204e-001 -1.8023578285900361e-002
      -1.2861239996776083e-001 9.6916098273254203e-002
      -1.8052999647186929e-001 1.5153964303895668e-002
      3.9529884127378588e-002 1.9877354566515227e-002
      1.8503979453316038e-001 5.6167510925620077e-002
      -5.9136514261888901e-002 3.5918430971402807e-002
      -1.3168955865070500e-001 -1.2768254772235156e-002
      -2.8700804895016484e-002 -2.1600419826213583e-002
      7.8167446001337383e-003 9.3483661609522192e-002
      -6.7297028937007619e-002 1.2077751723545503e-001
      8.3347084203226202e-002 8.0819082210682056e-002
      -1.0444614870526453e-001 -8.9053254356891320e-002
      -3.0188256785193913e-002 3.0074409587185734e-003
      1.0538495881089531e-001 -1.2725779251604324e-001
      1.9201132426462297e-001 -3.9450642972269606e-002
      -1.3167274625011527e-001 7.6860848231658660e-002
      -4.8620187828049041e-002 -1.0592128885579953e-001
      4.6047109485337433e-002 7.5228465361686425e-002
      -6.9670844882939745e-002 2.1621171206848411e-001
      8.3461621690175181e-002 7.5192084201106096e-002
      2.2462053442058191e-002 -8.2508060169021527e-002
      -1.0531457705718458e-001 -2.2675625007356995e-001
      -1.3653042573822773e-002 8.7733750398682864e-002
      -1.8884116774048058e-002 -8.2881258022722060e-002
      6.4177836717227599e-002 -1.5587097768867301e-002
      2.0619231496796356e-002 2.7147091133665269e-001
      -3.0700979544716563e-002 -8.3985054712481078e-002
      -1.6594743174136697e-002 1.5428485437392269e-002
      4.5900580258838100e-002 1.0046300615435740e-001
      1.0797564960046567e-002 1.1148764651958341e-001
      5.3808409849701894e-002 1.1891090513466505e-002
      3.1538907591883908e-002 -1.0589700622270448e-001
      -2.4057688089453421e-002 -2.1096996970824764e-002
      -6.4277067346596731e-002 -1.0867103080867492e-001
      5.1660859010809253e-002 -4.8335592376741079e-002
      3.8951009590149979e-002 3.1489203388980397e-002
      5.9276968727607605e-002 2.2542415259344372e-002
      4.1891394895270627e-003 1.0020311203683723e-002
      1.1396048474570382e-001 8.6212881265597660e-002
      4.2728298001235586e-002 8.0321742615027895e-003
      -2.2813557077545266e-001 2.9153362095154744e-002
      -6.3327763497881509e-002 5.6050910136993093e-002
      7.9335639414152490e-002 -6.2478419134292681e-002
      -7.7040383562912554e-002 8.0828910002923346e-002
      -1.2676951993593819e-001 1.3106348227086800e-001
      -1.3477379374265114e-001 -7.6824025898878393e-002
      7.0077483623883996e-002 2.4204905986224368e-002
      4.8277580986257118e-002 3.4587246518992185e-004
      9.8397440963857150e-002 -5.8665810969438396e-002
      1.5419708387592920e-001 1.3604957604023016e-001
      -2.8724058422243619e-002 8.0474020416549150e-002
      -4.9635029072026958e-002 -8.7971540039622931e-002
      4.6023332064760473e-003 6.9993845087580383e-003
      -4.5947541327676339e-002 -1.7003712108034194e-001
      1.5304710305929666e-002 5.6767157877534800e-002
      -1.0028221538671564e-001 8.0311147023599913e-002
      1.0537235414596358e-001 3.8169196024034832e-002
      -3.8538784566010661e-002 -7.9466980205319462e-002
      -4.2095562734092581e-002 1.9286896928217934e-001
      -1.3648894695614511e-001 -6.6909322711316513e-002
      1.3069060052560227e-001 -7.3725533923843400e-002
      -1.6095023631030204e-003 -1.8982357380679705e-002
      -6.0565592573463320e-002 1.8385971682755547e-002
      1.1634482608326262e-002 3.7271490183726920e-002
      -8.5896688642797189e-004 -9.6632070417719457e-002
      -2.4041062864400907e-002 9.2011234827495070e-002
      -8.3163260589982538e-002 -2.8230324386819480e-002
      3.1661064402456036e-002 8.4715255275559675e-002
      4.9268195040968188e-002 5.5680912548817831e-002
      1.0382212231846346e-002 -6.8736012017661857e-002
      -1.9103507195673197e-001 8.4970618652260438e-002
      -3.6667568766735346e-002 -8.0041475835235326e-002
      2.8774287136423583e-003 5.7386833388583351e-002
      -1.0562729883906251e-001 -6.1800858847624270e-002
      -3.3552428188090178e-002 1.1467092813207362e-001
      -1.1463215618562665e-001 1.0688536536080835e-001
      1.4722939366085508e-001 -7.1848916728782228e-002
      1.9083256426184154e-002 -1.3645406861412723e-001
      2.0248410357014513e-002 5.3764688504603121e-002
      8.4668727346146871e-003 1.3204093900330979e-003
      3.9827885829113285e-002 1.6553688308990458e-001
      -5.7716476819279383e-002 -5.1076254490921465e-002
      -1.7842127117869444e-001 3.6081636117273920e-002
      -6.0737501534316576e-002 9.1801150421765801e-002
      -1.0035478596032475e-001 2.2132683536791795e-002
      -1.7795437040939435e-001 -1.0996028462676980e-002
      1.0670148797638527e-002 -4.3217514584686909e-002
      1.5227819015950839e-001 1.6535982533702034e-001
      9.3124429177284374e-001 -3.8822851543040895e-003
      2.4637124210628580e-001 3.5897635142975193e-001
      5.4501645069055513e-002 3.4256551790187079e-001
      -8.1467861848437934e-002 2.2418042821125711e-001
      3.5897971806756374e-001 -1.1899691880360837e-001
      -2.9347454538913905e-002 -1.0702594421097517e-002
      -8.7293916334069230e-002 -3.6086630341453270e-004
      -2.1425519660756862e-001 -3.7696518608132545e-001
      3.6384516515785270e-001 -6.1109698983145250e-002
      3.1576346763644222e-002 1.9422612147949891e-002
      -5.3820998086395996e-002 4.2208918149096109e-002
      1.5255922899145874e-002 1.3010175330196128e-001
      2.0701309424100275e-001 -1.4285026373067011e-002
      -1.3072808470739181e-001 4.3801255702792787e-002
      -2.9247499960795525e-001 -1.1482649750888954e-001
      1.6923886330624482e-001 -2.8747325653666281e-002
      2.8032046704860586e-001 4.9420782605379264e-002
      5.3083674753152552e-002 -5.1060400152221630e-003
      -1.5146280079819191e-001 -2.7430875252007072e-002
      -4.9937261710832015e-002 4.2985527849027483e-002
      -9.4467982438553394e-002 1.5570235354567011e-001
      -1.3829032846250783e-001 -2.9282204574568066e-002
      2.5273874858144180e-001 -1.3826175107962352e-001
      6.4056925790472535e-002 -9.8697538987064043e-002
      -6.5054266584099324e-002 -7.2187742321755372e-002
      1.1265320383238790e-001 -1.5443951554942345e-002
      2.5090473847223621e-001 -3.6751125701910137e-002
      2.0843619558379781e-001 6.3846661743174271e-002
      -4.9071357985227618e-002 -8.9198178509145312e-002
      -4.3205819766534093e-002 -6.8371790899440288e-002
      -5.6765561999799589e-002 -1.4873894277783850e-001
      2.9389162257259186e-002 1.2055027131307942e-001
      2.5721619519209182e-001 -7.3879063492173311e-002
      6.8920685178511215e-002 -9.8542598657443373e-002
      -2.4684071526181951e-002 1.9687498657038251e-002
      4.8332890265392482e-002 -4.0252752938576261e-002
      4.5322836042804009e-002 -7.1903241245499044e-002
      4.9206018159812154e-002 2.3664682605324867e-003
      -2.5216772422615091e-002 1.0483592899547917e-001
      -1.0281897299760739e-001 -1.1874631949142672e-001
      -9.5246270104103192e-004 -8.1973319971135286e-002
      6.1761865115502797e-003 8.3296998578053741e-002
      -7.5838786699072236e-002 5.4991353149613106e-002
      9.5725178202593159e-002 -9.5771888981191045e-002
      -1.4427833208521218e-001 1.5706036306802029e-001
      -2.1854491258522322e-003 4.8094758292549986e-002
      -1.3946425310227278e-002 -2.9761647744263802e-002
      -1.8019668553319132e-001 8.2866416546520341e-002
      -8.8410975263166672e-002 9.9147798510199836e-002
      7.6467681678804411e-002 2.8079150834461864e-004
      7.2322623284649626e-002 1.1869771366744380e-001
      -2.6169494856702702e-001 -1.7873113957295264e-001
      -9.7218567830275035e-002 -3.4595588169109598e-002
      -5.2809748430437474e-002 1.8462963484066734e-002
      -8.4157042627062181e-002 -5.9902154642954661e-002
      -3.6193234358514258e-002 8.1607485717270570e-002
      4.9723354041422495e-002 -1.0283820468007694e-001
      -5.0877833129607843e-002 -1.5039715757384006e-001
      1.4871465247821908e-001 9.3690574331448062e-002
      1.0372793925880582e-002 -3.0161277286720831e-002
      1.2849517516512998e-001 -3.6362917249342826e-003
      -1.6199867761140233e-001 1.0879976886930845e-001
      3.6029593799900235e-002 9.7852522895575833e-002
      -4.0449595538480244e-002 -9.6846491077755975e-006
      6.6462937446059869e-002 -1.7075436769179535e-002
      2.3884833533971807e-003 -3.8715238599806766e-002
      -4.7971258491852024e-003 -8.9760641514223957e-002
      -8.3162793924279707e-002 -7.1709633713318760e-002
      -8.9888688035106752e-003 -1.3593626172529491e-001
      -1.6636204762730825e-001 -1.9597069376764242e-001
      -1.7850284574284784e-002 9.4757563487177221e-004
      5.0510083875914179e-002 2.5627215260127796e-002
      2.0310843361870967e-001 5.7457716543858228e-002
      -5.8076483088767818e-002 -7.3330773437966665e-002
      -4.0943589999973884e-001 5.4963816872211378e-002
      -1.0116443447897328e-001 8.0723330190689460e-002
      5.8201893265975219e-002 1.6385062743721951e-001
      -1.0428447325971234e-001 1.9575964443305871e-001
      1.2611031227211647e-001 -5.9330149590497816e-002
      -8.6912021608533285e-002 -1.0522605357353508e-001
      -7.8533516938242551e-002 2.8637507022598336e-002
      -1.5721926792602731e-002 -2.3703058827841201e-002
      9.0172216360529467e-002 -5.3393138475197735e-002
      -4.0623398852232991e-002 -1.4257375622794837e-002
      -3.9161332162090369e-002 -7.7819898183291766e-003
      7.0452732257443154e-002 -9.7103240040976486e-003
      -3.7835518733465426e-002 -7.6051250433709552e-003
      -2.7174477909141636e-002 -8.8314135809825695e-002
      9.7341959540084740e-003 9.4826218963024039e-002
      6.3590946110595667e-003 -1.2328995233008722e-001
      1.4938862019948010e-001 -4.2342670241497508e-002
      4.3978336808179310e-003 7.8434827678737877e-003
      2.8080109369448429e-002 7.3701919182266207e-002
      -1.2870482149533785e-001 2.1083114046421672e-001
      1.1666959635640531e-002 -1.0346274355212286e-001
      -3.1231914562714982e-002 9.9438323568584050e-002
      -6.0630493452290782e-002 7.2861150973255679e-003
      -1.8647390598936567e-001 -8.5797916956917471e-003
      1.3159684657808035e-001 -9.5911499541437836e-002
      1.9727079796697369e-001 1.7269537673827803e-001
      9.1506661934566524e-001 2.2720335340651019e-002
      3.7628306400365311e-002 1.6752712364198549e-002
      -6.0691488090967485e-002 3.4543623499862403e-001
      -7.2536635539118405e-002 2.2966718600229752e-001
      3.5012372523229224e-001 -3.8655960317062622e-002
      -1.0402061884320628e-001 5.0178803221857353e-003
      -1.1720870142303623e-001 8.2274496331275846e-003
      -2.0749678547096592e-001 -3.7076289219347291e-001
      3.5947072405785152e-001 -6.1828631369782810e-002
      -1.8972940621709203e-001 -2.7963629383664917e-001
      -1.8466565457926260e-002 1.9793300417880369e-002
      1.0462382969453186e-001 2.3322638709995895e-002
      3.0573855806773154e-001 -3.6861142791724234e-002
      -6.9985323978471917e-002 2.1145669764473826e-003
      -3.1953138094113859e-001 -4.0142251315440886e-002
      5.0790850643832534e-002 -3.1741530494230299e-002
      6.9088674570016231e-002 1.1599701274965893e-001
      -2.2167419400241837e-002 2.5545903031831969e-002
      -1.5561335558650125e-001 -3.7387514405512741e-003
      -3.5692946145158909e-002 -1.8374810031083860e-002
      -2.5096068000982019e-001 3.7573585733154266e-002
      3.7825230023441667e-002 7.7395792294996865e-002
      -4.0148458991879403e-002 -1.4222737077945510e-001
      5.0643711761477084e-002 -1.7372413136377937e-001
      1.9233939697097815e-002 1.0418102043850501e-001
      6.9094875539644468e-002 1.9348102087356940e-002
      1.3703970744810637e-001 1.1170841935540419e-002
      5.9889574563837381e-002 2.0593193433960125e-001
      -1.4381245567231929e-001 5.4019558487121123e-002
      1.3570698284768040e-001 1.7375658626588852e-001
      5.7817132388507497e-002 1.0223797515258261e-001
      2.5455227462222917e-002 1.0652926808434894e-001
      -2.4165691957298976e-002 -1.7181147073068816e-002
      6.7300849800704429e-002 -1.0475460878881336e-001
      1.5853570454402710e-001 -3.7141338627271984e-003
      3.9288107684003440e-002 8.8828511810575883e-002
      -4.3960553364110012e-002 -1.0774665867566571e-001
      9.9258212454311334e-004 -2.6467969203945379e-002
      -6.3946647479802221e-002 9.4488459631758670e-002
      7.5123830838208616e-002 2.7551979168700995e-002
      4.9947085436781481e-003 -1.0586574005470077e-001
      4.1040953675218393e-002 1.5411023306772836e-002
      -7.8019187667053028e-002 -8.7799015076342579e-002
      7.9141481733030039e-002 -5.1298353566722552e-003
      2.7354859520505648e-001 1.2040561048493678e-001
      -9.4463086853131456e-002 -7.4645488977009178e-002
      -2.8991720653197113e-002 -2.1298582194995763e-001
      1.2526229601677144e-001 1.2160286769912432e-001
      5.2241101340358802e-002 3.9901419059936629e-003
      -2.3091423572015927e-002 -7.5527659751125992e-002
      3.3465030340078916e-002 -3.4246510607732185e-002
      9.6623145180480166e-002 8.5099037665986352e-002
      -3.7536113445880037e-002 -7.9212305726029067e-002
      -7.0580404714806602e-002 7.1621860306844753e-002
      -2.5889248514369904e-002 -1.2490557808942539e-001
      5.0353575402330673e-002 4.6954075387846413e-002
      -8.8266624802552734e-002 4.7761369546686833e-002
      -1.1291541048885391e-001 -2.7174080378488737e-002
      -1.1495444588027399e-003 4.5499354329030857e-002
      -4.4529025219559905e-002 1.1000455155651584e-001
      -2.2092451434621123e-002 1.3027398128176426e-001
      -9.2024337743334531e-002 -6.7509405368302036e-002
      -1.4948493259812567e-002 -1.8689553414489045e-002
      -4.1472849983864073e-002 4.2560295085555942e-002
      1.4846482404010836e-001 2.9657781484338255e-002
      7.5076430449505641e-002 7.2624385258982321e-002
      -1.4331631610509887e-001 -2.0596994625638819e-002
      6.4259094855529553e-002 -1.6350842263854798e-001
      -1.3486466180961370e-002 -5.2565979487488980e-003
      2.7869190494656026e-002 2.0563821677881556e-002
      1.6614951128231453e-002 -1.9087726914208316e-002
      2.4409529680223868e-001 9.4506308414513667e-003
      1.2812557849060801e-002 -1.0660491682208492e-002
      7.3076126632872981e-002 -1.1823944413472588e-001
      -1.9560633927496993e-002 6.5335934510716273e-002
      7.7852724471136562e-003 8.9812688439389318e-002
      7.0090858675945278e-002 -5.6915739418017860e-003
      7.1724857424080675e-003 5.6906403403077704e-002
      4.0647121889170655e-002 1.7770270788582004e-001
      -7.0479656140952335e-002 1.1036744707759617e-001
      -6.1191330011579597e-003 6.9063286348246933e-002
      -1.4039303152204419e-001 -7.6469831082303250e-002
      -2.3418128311226674e-001 1.2462225360979415e-001
      -1.3286467655618629e-002 9.1265275963970438e-002
      3.7418065552532499e-002 -9.4990535578685212e-002
      4.8472105016261965e-002 -7.5919310155944317e-002
      -8.0601853610625079e-002 -9.6656304277090571e-003
      -1.9231764073532562e-001 -8.4301932401432286e-002
      4.2117388029263965e-002 -9.7485689918455340e-002
      2.1671342166327190e-001 1.8840557283570575e-001
      1.3482297547671097e-002 -6.8415340848440656e-002
      2.0479226520705445e-003 -4.5956029975002220e-003
      -2.7226340441786606e-001 9.9262648392148226e-002
      -1.0121164852830696e-001 2.1953844680467813e-001
      1.9560675765843274e-001 -9.4245289014475458e-002
      -1.1804384577522718e-001 -4.8039799608055864e-002
      -1.3861241137803193e-001 -7.1001185179491409e-003
      -1.8281071309689070e-001 -8.8207670077839070e-002
      1.9977778021557829e-001 4.9550535218813162e-002
      3.3973068816021562e-001 1.7776908399962790e-001
      1.1781145639866024e-001 -7.3852603457767063e-002
      2.3123312077897792e-002 1.5497808638613841e-001
      1.0488066697419653e-001 1.9482143256789550e-001
      -1.1505893234168243e-001 2.1690396985019328e-001
      1.0781983050667730e-001 1.4973483209933081e-002
      -6.8584678835909837e-002 -1.1552773496688121e-001
      -5.2070032486205686e-001 1.2703369363621870e-002
      -2.0545795795360292e-001 -3.6690906142082214e-001
      3.7809314378141717e-001 -7.6152407551800944e-002
      -3.4130207915595567e-002 -1.9798103350593468e-002
      -1.6618797667083599e-001 1.8682601768733553e-001
      -1.5581428845326906e-001 4.9887625702810960e-002
      2.5579248248114573e-002 -5.2193793043177436e-002
      -4.5577702521048563e-002 9.1068680554344701e-003
      -2.9624011433077885e-001 -1.1014267436644258e-001
      5.6030159298375813e-002 -2.4806414862977400e-002
      1.7882290951027258e-001 1.2549271146508331e-001
      8.1321549577281008e-002 -1.0508177498791037e-001
      -1.0088302887921670e-001 -1.7200409712053884e-002
      -1.6305445926504358e-002 -1.6300015793783238e-002
      1.7185697847308602e-002 -2.6049011495926675e-002
      -3.2861227580953910e-003 7.7380090310864888e-002
      1.0014594311814447e-001 -5.9428961290028733e-002
      -1.7423375976764913e-001 8.8427636248190000e-002
      -1.0767697152803814e-001 -4.5161380370441366e-002
      8.9118275974916214e-002 2.1625982673578314e-001
      -1.5190918209008461e-002 -3.3804282109332168e-004
      7.9790584015235103e-002 -3.7204012406566511e-002
      3.0951889878126394e-002 1.0248127211781792e-001
      -1.7195058117308371e-002 -3.2513357674382473e-002
      -1.0395707800587219e-002 -9.3789169451554452e-002
      9.3597915177443917e-003 1.8888424561374188e-002
      -3.2487999229608142e-003 9.9245926139799434e-002
      -1.4220587640548604e-001 1.4323249351782780e-001
      -3.3309529456228643e-002 -1.2987138694130889e-002
      -1.1321273800186514e-002 1.3870136550557932e-001
      -9.7925606211873323e-002 -1.4381752084606828e-003
      -4.6242522624558621e-002 -2.9933084462512066e-002
      -1.0436096163555279e-001 -4.0569339174147158e-002
      1.1565436302374663e-001 1.1083420798295719e-001
      -4.1058874769921462e-002 -2.9374757794778359e-002
      -5.5550259144094123e-002 1.6768827721526696e-002
      -8.3974951803585274e-002 3.7829146876375626e-002
      3.9343334916291814e-002 -5.1229480471271141e-002
      8.6673144545987790e-002 -4.4462447019534275e-004
      3.7927786215039136e-003 1.7480063113068937e-002
      5.9016707391397354e-002 -2.0268539533292571e-001
      1.4010417745691783e-001 3.1084484409006598e-002
      -1.5566452923196622e-001 -3.8126368086328959e-002
      -1.1627804336755884e-002 -4.8125808928873269e-002
      5.1869118096751904e-002 -3.7635440822235661e-002
      -1.4802538078811368e-002 7.2080903255550777e-002
      -1.9390128444394217e-001 1.3155358770021486e-001
      -4.3169714420492836e-003 -1.0497981987887196e-001
      -4.9829874076875516e-002 -1.8491411472288388e-002
      -1.1033084766559369e-001 -4.6868486083591267e-002
      -3.5783681755423076e-002 3.8682918377952520e-002
      -5.5870305144964261e-003 -4.2037131378800822e-002
      -3.8807347498076392e-002 7.7755710075530912e-003
      4.7397317847409269e-002 3.9683430302272636e-002
      -2.9524506945142522e-002 -9.4023543511205267e-003
      -6.9994198722508824e-002 -1.3415013799189660e-001
      -1.0089160539398945e-001 8.2518228465734880e-002
      -7.6187720547209792e-002 -1.3681650096102024e-001
      -6.7225196634935286e-002 3.3598896972534698e-003
      -7.3288856127778246e-002 9.7185028856051861e-002
      1.1921009533237130e-001 7.4920921532427298e-002
      4.9043787643944840e-002 2.5827893862205589e-002
      4.9188868141836546e-002 4.6838430442828283e-003
      3.3288709106627665e-002 1.0940026217321404e-001
      1.8462769190138093e-002 -1.0882048214199919e-001
      -1.2291651279521749e-001 1.5113747296846128e-001
      3.7707973356402108e-002 8.8256758701894394e-002
      6.9287172052188472e-003 -9.0060751913551451e-002
      9.9426373052345057e-002 -8.4773532574426283e-002
      -1.5243865831221998e-001 -1.8578052118429209e-001
      -1.4033636964315066e-001 -5.0451171108494980e-003
      9.3744621267220531e-003 -9.3442303841168861e-002
      6.7545894764875589e-002 -1.4375519098813172e-001
      4.3605518046759481e-002 1.4660719895697585e-001
      6.4847528209838801e-002 2.3499101077315745e-002
      -4.0168738386983607e-002 -8.0492348651503884e-002
      8.9371675748695104e-002 4.2848944428777583e-002
      -2.9081682263110056e-002 -6.7758953188464491e-002
      1.3383760092997354e-001 -1.4987826671501006e-001
      -6.2176572195895216e-002 -7.2283505087910524e-002
      -6.5677984550728222e-002 2.1734374394142453e-003
      7.1215248439208068e-002 -6.9140931481551593e-002
      4.7422470254969713e-002 -2.2236863186742742e-002
      1.5748331055084150e-001 1.9454433193944734e-001
      2.0515564210688002e-002 -7.0774224787582454e-002
      -1.2450929327485281e-002 -8.1803781232128968e-003
      -3.5938628099794354e-002 7.9162725042701346e-002
      -1.1549311207277063e-001 2.0478577997363170e-001
      3.2392223969912087e-001 -1.2434562541618521e-001
      -1.4544171363169003e-001 -4.6175155402339046e-002
      -1.3640504433940115e-001 1.7399944059330482e-002
      -2.0437461777633015e-001 -6.7961958929390290e-002
      1.0265559041877211e-001 -5.4206203568911225e-002
      1.1924483056582415e-001 6.2096020406179848e-002
      2.1823862076296771e-001 -5.4621612756389021e-002
      1.4550600390650895e-001 1.3222778554882383e-001
      -1.4688626534360263e-001 1.3664065825925559e-001
      -1.0355365043722640e-001 2.1801193875978786e-001
      1.1049654706324015e-001 -9.9994383304704551e-004
      5.9313439952842720e-003 1.9816685171051057e-001
      -5.3611410130575810e-001 7.6442143678241189e-002
      -2.0824052653425792e-001 -3.7753083144558885e-001
      3.6581443577921691e-001 6.1785069792489503e-002
      -2.4567169831482105e-002 -1.0735645554777309e-001
      -2.3426850463473464e-001 5.8387242506440645e-004
      -3.0291933521922831e-002 -1.9334897421980225e-002
      7.0523571302863283e-002 -2.2231518628159867e-003
      -4.0374576129139306e-002 9.5550158232793822e-003
      -1.6386918309572454e-001 -4.1111222596724263e-002
      1.0800661258351456e-002 1.6968761923109010e-001
      7.4707912454574255e-002 1.6139845081249989e-002
      1.6955617803278827e-001 1.4852097221460409e-001
      -1.5767355569389513e-001 -7.5093502421827080e-002
      -2.5763732660855465e-002 -1.0343741270687197e-001
      2.5182226823822890e-002 1.4878352614395315e-001
      -9.9711321245534498e-003 6.6784520038215708e-002
      2.5321126747044048e-001 -3.1572508994935203e-002
      -1.2999251923704852e-001 1.5712126644180664e-002
      -2.3484127974927596e-001 -1.2875322672686035e-001
      1.2610206225938012e-001 6.8631650574938044e-002
      2.7081532414078902e-002 -7.2380869686611915e-003
      8.9138152863611500e-002 8.0665691100195600e-002
      -5.5160264930764424e-002 -1.3445778907837611e-001
      -1.1899684985528214e-001 -1.2681209260987553e-001
      1.3820307795203780e-003 -1.3572910201831778e-001
      8.3820953330337844e-002 2.0765558501377331e-003
      -3.6883728643927860e-001 -4.0248613087409083e-002
      2.3369490724089786e-001 -1.0656088688705898e-001
      2.6729654213165970e-002 6.3479414300898263e-002
      -9.8334153256820475e-002 1.2031336232615716e-001
      2.0934095387164134e-002 -2.8168584232664582e-002
      1.5506718340889034e-001 2.6601245536839867e-002
      -7.6837358015143548e-002 1.1993141541560427e-001
      2.7061596629363745e-002 9.5415959256277397e-002
      -1.1815290887323170e-001 -1.1948089547739370e-001
      1.2922142853785404e-001 -7.5369487365827231e-004
      -3.6752053573274684e-001 -2.7621039577178132e-002
      2.6115403404867638e-001 -3.9772374919017889e-001
      4.9574989294736416e-002 2.1167830140201851e-001
      -1.8875311553142216e-001 2.3902090673321610e-001
      -1.9613915059730019e-002 2.6045650501340684e-002
      9.1387326664451540e-002 5.7297263747355956e-002
      7.7051813190802135e-002 3.3022699458296800e-001
      1.0230275075578235e-001 -1.1983203300582704e-002
      -8.0910496965841100e-002 2.4803712987404619e-003
      4.3135524806139094e-002 1.5327430281984472e-001
      -7.2188281688306322e-002 -8.3741815719330454e-002
      -1.2714070474775624e-001 -6.4403344328710407e-002
      7.3285960087072652e-002 -9.4833730496132182e-002
      -4.3332587384294935e-002 -1.4101879694655643e-002
      -6.6246123661213199e-002 -8.1130258903391247e-003
      1.4396649853666107e-001 1.7575115936992979e-002
      1.8336283703332255e-002 -5.5896832310750072e-002
      -2.2911632131402661e-002 2.5761415117973380e-002
      -1.1624851251759491e-001 2.5884287969950438e-002
      -6.7334558804382369e-002 8.8094440974287563e-002
      9.7856372065416447e-002 1.1856762098160795e-001
      -6.7918782271989678e-002 -1.7939543849558584e-001
      -4.4630945753172287e-002 1.1400903910849815e-001
      6.7734703852155567e-003 9.7494526817297408e-002
      4.3496101136536198e-003 -5.8450180898105823e-002
      6.4662553330899888e-002 1.8136382194964099e-001
      -7.3748409336971021e-002 -1.1935857115015444e-002
      -7.6662198506687179e-002 7.2194079787446380e-002
      -5.0471853556670498e-002 -8.4928847345668482e-002
      1.5407412928364639e-001 -6.7071304070291063e-002
      1.0117024249289115e-001 8.3308213177139226e-002
      2.8666505788370662e-002 3.7930947939082783e-002
      3.1353894097196064e-002 3.0391832500586250e-002
      6.2926387086399874e-002 1.1381443166282763e-001
      -9.9710053611326496e-002 1.2009293499285227e-002
      1.2110867232497134e-001 2.2957855812979724e-002
      1.9187961223885702e-003 -1.1822973664166871e-001
      2.0840209263366138e-001 1.2264072909409608e-001
      -8.8663609456130204e-003 -4.6654321276445247e-002
      -2.7812786106418637e-002 -9.2619270226450487e-002
      -2.0239551003634690e-001 5.1779906270842599e-002
      -5.0026984303956738e-002 -9.5214663422873255e-002
      1.7833550085214897e-001 -1.5666224185981650e-001
      7.8428836539134378e-002 -5.8945037979250034e-002
      7.2522821484504688e-002 -1.1434193703525216e-002
      7.6607676539076131e-002 -7.8556047237198279e-002
      -2.7028760692799003e-003 -1.0409132338358376e-001
      9.1797391654721824e-002 2.0966205506879051e-001
      4.0467897256192251e-002 -3.3341224686248651e-002
      -2.8652243907324799e-002 -6.8237406655071636e-002
      -5.3239934026036795e-001 1.0188930019469401e-001
      -1.0528253114294731e-001 2.5571414683494681e-001
      -1.5833106422579075e-002 -2.1294278627812850e-002
      -1.1978134233163051e-001 -7.1997964745774884e-002
      -1.6296105912788397e-001 9.4303747951720203e-003
      -1.9199224507761020e-001 -6.0582879317283914e-002
      2.9248954313324088e-001 -1.1001262557155751e-001
      1.1654883823939673e-001 7.4883909942261101e-002
      9.3404112260545891e-001 -1.3167956186861696e-001
      1.5906411695415607e-001 3.2661966917944113e-001
      -1.6788752770839183e-001 2.1673919443845188e-001
      -1.9756645951098686e-001 2.2960195043223114e-001
      1.8727158972086280e-001 1.4831182274275812e-002
      -7.0244728054653330e-002 -2.3858418074363530e-001
      -5.3594104820431532e-001 6.7512393171644475e-003
      -2.1601160182927379e-001 -8.5781142555060752e-002
      3.9104778715068927e-001 -2.2548219723015905e-002
      1.3627732041694462e-002 2.0351566670443652e-001
      -2.2175818126843658e-001 7.7026177619606756e-002
      -6.9006294516652730e-002 -1.9009692810714539e-002
      1.2600561908259103e-001 -9.6961946438937241e-002
      -1.4313485989711192e-001 -3.7640925730184335e-002
      7.7496043334094128e-002 4.3194037835488822e-002
      1.5723113389438595e-001 -3.8065280182012863e-002
      6.8658703451028309e-004 3.6131608758983445e-006
      1.4417973486430427e-001 2.1850406495857760e-002
      -1.3171097380593169e-001 -1.8255640687569703e-002
      -4.0179712447546978e-002 -2.6198295141204992e-002
      -7.0141568595796538e-002 3.2561219937016386e-003
      -2.2616560088698057e-002 3.6262008387088304e-002
      -2.8361762215429635e-002 -4.8370356181583238e-002
      -1.3148279110459726e-001 6.8141865937057077e-003
      1.5552005052035418e-002 4.1067758175937739e-002
      7.7283831077903625e-002 -2.9082265400112963e-002
      -1.8084130856702050e-002 -8.6325011320407177e-003
      -7.2380984702349813e-003 1.7736310352766241e-002
      -7.3018757555619138e-002 3.0678810020544268e-002
      1.7022403333429081e-002 -5.0107757126904122e-003
      -2.4899896939429147e-002 8.0754070361530580e-002
      1.0331626549457160e-002 2.3232473716680010e-002
      -8.8910012560318857e-002 -9.6666730204732945e-002
      8.1287906624588013e-002 -1.0224832440393582e-002
      -3.3005061096385388e-002 6.1279607632354648e-002
      3.0871825519719242e-002 9.4417798959008717e-002
      7.1422749605830838e-002 -6.6913334749678201e-003
      6.9877285370144537e-002 1.9645217658322629e-002
      -2.6658974638216298e-001 2.3091660097454073e-002
      -1.4679746743892197e-001 -6.0091992831843792e-002
      -5.9716901914139815e-002 8.9992301527152707e-002
      -3.6091300765481948e-002 -1.3545703945142670e-001
      5.8611275888433303e-002 7.3786217229071721e-002
      4.7537356160009356e-002 -1.0037896544642416e-001
      3.4808955673537700e-002 7.2092968199744215e-002
      -1.0861797696967675e-001 -8.8853050978371914e-002
      6.6718204993170924e-002 -4.9264885953443582e-002
      1.6027250985692094e-002 8.3542223541454727e-002
      -4.9025363757804474e-002 -4.7635549365804396e-003
      1.6506671571676967e-001 7.0014865650094210e-002
      5.5300614637817581e-002 -1.7874471506321921e-001
      2.5424040604306691e-001 9.2597592510703639e-002
      -2.0090748864652988e-001 -1.4943314353662476e-001
      6.6113438864614099e-002 1.4908424000203108e-002
      3.5835908777869158e-002 7.7046939805455142e-002
      -1.0646440007901770e-002 3.4708463944995042e-002
      2.7175039871087978e-002 -2.8975749959421933e-002
      9.2771874940952140e-002 6.0916948762645723e-002
      -9.5353067069828157e-002 1.1323262750774338e-001
      -4.6752332761060035e-002 6.1395109172689352e-002
      1.1277906982267426e-001 1.2364609481802953e-001
      -1.0668409795100696e-001 -1.7155290929525457e-001
      -5.1733332651212422e-003 1.8981769775061844e-001
      -7.9854284541257148e-002 3.2031453302222668e-001
      -6.0058908309316296e-002 -8.5801979587058388e-002
      -4.4658003952668834e-002 1.1883495081970004e-001
      -7.0645094628813077e-002 1.2765087092178365e-001
      -1.2361180499129688e-001 -2.4256918383331105e-001
      -4.3265872864615557e-002 -5.7563121297186257e-002
      -2.2264251294426204e-003 1.9949719703971119e-002
      8.2564479899598739e-002 -4.3553916416704764e-003
      2.0168514794164042e-002 -6.6449931661028305e-002
      1.0480714848567904e-001 1.0584409700856384e-001
      -7.2377141748264331e-002 5.1801374655582239e-002
      6.4859534296683230e-002 8.3629199409682151e-002
      -6.5012115172821003e-002 -1.0968728732146186e-002
      3.5227118005435286e-002 -9.1698348523146737e-003
      -1.4407929374894126e-002 7.3275451095814709e-002
      4.2498091765520343e-002 -8.5934430507391260e-002
      -1.1138508887956301e-002 1.2098468745246041e-001
      6.6687833670152241e-002 -2.9666483116647563e-001
      4.1442364988297604e-003 -8.7834812362591039e-002
      -4.0809521534202128e-002 9.2036514251539470e-002
      -6.6124780591544433e-002 2.6050593484418955e-001
      1.5971192460233197e-001 3.7807268320564844e-002
      1.6143308015522487e-001 -4.9128082408015902e-002
      -1.0170023477966897e-001 -1.8819917189120197e-001
      -1.2931633927635041e-002 -9.5685097491550630e-002
      -1.6551659734377357e-002 -1.0237896961510123e-001
      1.1274941881856433e-001 2.5294712979873513e-001
      3.1533258680401341e-002 -4.1559867235117870e-002
      -1.8563178348740279e-002 -7.6030551494929210e-002
      -8.0693499818423900e-002 9.7588712000551150e-002
      -1.0956674810318741e-001 2.6245155295529327e-001
      7.8006436125744885e-002 -1.8158819890279093e-002
      -1.5727348347894307e-001 -5.9187736927977297e-002
      -1.5358048270217020e-001 1.7262258332262859e-002
      -1.8789920592303236e-001 -2.5787033874048092e-002
      2.3537098528501885e-001 -1.2199637827351069e-004
      2.2672671938091873e-001 1.7710078284926981e-001
      9.9947434980612135e-002 -1.5162698075332420e-001
      3.4788189459168495e-001 2.5690512469853233e-001
      -1.7834670904469474e-001 1.9877246859743632e-002
      1.6907457800271568e-002 2.1592444046231601e-001
      2.0959417268835051e-001 -8.0102494258709475e-004
      -1.4227968186337134e-001 -3.8609187953117220e-002
      -5.2802752733747493e-001 5.5271133619659865e-002
      -1.9393779522100521e-001 2.4596716762489448e-002
      3.7116677998482850e-001 -3.4206789129741330e-002
      -3.0281663665484796e-003 -1.8260252875571764e-001
      -3.2023140267722967e-002 -1.1783032704827172e-001
      1.9525276737715527e-001 1.3560941313649325e-001
      2.2149584120411284e-001 -1.8407406200655513e-001
      -1.0393377892999357e-002 -1.4670135745187177e-002
      9.1229627508415817e-003 -5.9866007977829386e-002
      6.1636452531015247e-003 -2.8404936068843745e-001
      1.2888659190903395e-001 1.1810928445906287e-001
      -5.5875252185498922e-002 3.5318576511119006e-002
      -1.8350988668731635e-002 4.9502757672852837e-002
      5.3470829293715459e-002 1.6990786273957351e-001
      -8.2125097652456958e-002 2.1493895344107269e-002
      1.7227478964786211e-001 6.3318380164331486e-002
      1.3880219901492594e-001 1.2827686329111809e-001
      4.1546910019887119e-002 -8.5244813595874283e-002
      -4.3477585385124917e-002 1.5905722443725825e-001
      2.3512504813662183e-002 7.4263646979500025e-002
      5.0245314593979074e-002 -2.1269265819733180e-003
      1.5145891140199673e-003 4.8558724918945931e-002
      -7.8379051596875249e-002 2.0594915860747728e-002
      1.5191557866902404e-002 -1.3068009112351226e-004
      -1.2901804549779020e-001 -9.2031654178304723e-002
      5.3132786994194076e-002 1.0560184255759705e-001
      2.0330233243041956e-001 -2.6693008554862629e-002
      4.6334683561104942e-002 -1.3000953836751672e-001
      1.7047815018784083e-002 1.5696093704099029e-001
      7.5673228756616154e-002 1.1632278710471249e-001
      7.8869799989755865e-002 -1.0825173475111468e-002
      1.1331701464114893e-001 5.8562300860913422e-002
      -1.4433136383151876e-001 2.0681869990950202e-001
      1.9647592149636306e-001 -2.3788664231065390e-002
      -1.4384620880495275e-002 1.1743878754529130e-001
      -1.2280729998965890e-002 8.7427497506403273e-002
      4.3296796656437708e-002 -8.2791936334341815e-002
      2.9716895185294610e-002 2.1389586834629402e-002
      -8.4433127690453164e-002 1.5067904458357195e-001
      5.9905900367635247e-002 5.1369390255194824e-002
      6.3946384375192469e-002 -8.8603756503449732e-002
      1.2816141549468038e-002 7.1258158796208892e-002
      -1.4421765657302932e-001 1.0464011120959920e-002
      1.2285859276321394e-002 -8.9846481765210068e-002
      1.7683086781267641e-002 6.4772170627350800e-002
      1.5981502284273350e-002 5.8297260449089457e-002
      1.2337166872606847e-001 1.2143782864713694e-001
      -1.9681849753936759e-001 9.0999509965555184e-002
      -4.1352376257280048e-002 1.5234722479932480e-002
      -8.9555729661340566e-002 -7.5159814496081417e-002
      -1.3774990750471502e-001 2.7486416227755872e-001
      -2.0463035019930209e-001 1.4239462187009335e-002
      -6.3218669417950332e-002 -5.4898526425215442e-002
      6.6321516442487696e-002 2.9649601381294612e-002
      -1.5747098398737433e-002 -1.9992932686811887e-001
      3.8909849580283165e-002 -4.1043478730632479e-003
      -2.5753622744042457e-003 9.9476496599681788e-002
      9.9685632710910937e-002 1.2772547774227089e-001
      -1.6525833328481301e-002 6.0320085178588258e-002
      2.0137368389496455e-002 1.9404991139129916e-002
      -6.4636295278153316e-002 9.6253172974033019e-002
      -2.2023942727825277e-002 -7.0425542850707151e-002
      -7.5707936246208696e-002 6.5221528508820292e-002
      2.8056569590670732e-001 -8.3591580651963190e-003
      1.0433482592342662e-002 -8.2299639428103658e-002
      1.2522281369162638e-002 1.7846430067257443e-001
      -2.8782136317336702e-002 -1.8838815406408010e-001
      -7.9336722986544483e-002 -1.0983529724809669e-001
      1.0201647879738696e-002 1.4540094995899996e-001
      -4.3652329813184287e-002 -1.0732733590458223e-002
      -7.6926280045529594e-002 -2.2963599835011880e-001
      -9.0738449592687558e-003 1.1909566505828348e-001
      1.5821839925197031e-002 1.9049857321716759e-001
      2.7229058204177453e-001 1.4619928211596922e-001
      5.9393176008765002e-002 -1.0956917231093613e-001
      7.1011457821091801e-003 2.4954229585598656e-001
      1.6367272075218120e-001 9.4452505465052530e-002
      -1.1436578789367260e-001 1.3799079900086339e-001
      2.3426464798498384e-001 -9.7165521816253500e-002
      1.0425412744402489e-001 -4.3939379622524685e-002
      -1.7446977471130171e-001 -1.8875189204676700e-002
      -4.9358688250166934e-002 -1.0798914311502267e-001
      -3.8394720259278724e-002 2.0070565020677728e-001
      1.0887768613729994e-001 1.7570460823876030e-001
      -3.6279301832384231e-002 -1.0809379649228687e-001
      -4.6881615910042883e-002 -5.3784110527475441e-002
      -8.1436043285036935e-003 6.9373536694344803e-002
      -1.2931876004418530e-001 2.8198331207412586e-001
      5.2490451631502941e-002 -3.0976814120541599e-002
      -9.6304600722600428e-002 3.7018476521798266e-002
      -1.8867453236347181e-001 8.8043137743136962e-002
      -2.0519296332061612e-001 -7.5513305832885000e-002
      -6.9301593413922821e-002 -2.3057027114489995e-002
      2.1411493339068433e-001 1.7169498575918521e-001
      1.1608550365853219e-001 2.0188881951071855e-002
      1.0782966461076821e-001 2.1974032573934918e-001
      -1.7425336289482735e-001 8.5483716300319909e-002
      2.7851641290740959e-002 2.1743374677750787e-001
      1.9125388614507194e-001 -5.4029256739230322e-004
      -1.9426675659576387e-001 -2.0989384651209803e-001
      -5.3580730681543398e-001 3.6226865358737696e-002
      -2.0176383483300556e-001 1.0592990778195113e-002
      9.0393669267620588e-002 -8.8358611146225077e-002
      1.3410795140394116e-002 1.7182627187498989e-001
      5.6045435074814340e-002 7.3697915256641239e-002
      -8.7107785343272862e-002 -4.1260276897393429e-003
      -2.0056880964167953e-001 -3.8716050987456146e-002
      -6.2150597304589605e-002 9.6048983356999670e-002
      -1.2890532836974163e-002 1.0751192322637901e-001
      -2.9667486642874458e-002 2.7556663676237209e-001
      -1.4549749208406224e-001 9.9583369170531552e-002
      4.7032852995873495e-003 -1.1047910970673970e-001
      -6.3594276337628888e-002 2.0867711660074156e-003
      2.1271904784518753e-001 6.1472643394554646e-002
      -5.5956449266265668e-002 -1.3574398687080300e-002
      1.0437756304016751e-001 2.1573872889449780e-001
      1.6215321546082642e-001 -2.2055421920345875e-001
      -1.2131446883261325e-001 -2.0366836536679078e-001
      3.4259279815706187e-002 1.4312284430049171e-001
      -5.8618174895758254e-002 -7.1856982601831076e-003
      -2.1864984658686290e-001 5.9893992860724873e-002
      1.1222159587140211e-001 1.4997911774974942e-001
      1.7911249344715865e-001 2.5475275074581832e-002
      7.7168672051651011e-002 -1.2407488543308936e-002
      -1.3927655368945485e-001 -2.2177917571953292e-002
      -1.2096401551562047e-002 1.1985477724588108e-001
      3.4297476069187982e-002 -1.5401199335684573e-001
      -1.1497937786300188e-002 1.5099099064883031e-002
      2.7244814834046678e-002 1.9891463042164870e-002
      5.2427229378713122e-002 1.8377627649911421e-001
      -1.1149182970563327e-001 1.6187784280748883e-002
      1.1742613989438977e-001 9.8620658140682292e-003
      -2.6812965393696120e-001 4.6270111989171470e-002
      6.4607631724004300e-002 -5.6499395819788190e-002
      1.0253704012131892e-001 -1.7550375346566183e-001
      -1.3587747437096042e-002 5.7738346139401951e-002
      5.0224755952206657e-002 2.9698953740948858e-002
      -5.9279128447333101e-002 -5.7272727026401120e-002
      1.2794776333956981e-001 -9.1652350823237486e-002
      -4.3941982083200021e-002 -2.7486370223339548e-002
      2.7791978914812887e-002 -6.7684241086638314e-002
      -3.3192007492963006e-002 -1.3285053879630532e-001
      1.6997737359576914e-001 1.2102162357591245e-001
      6.0502822538660489e-002 -1.0179109115240560e-001
      -2.3471135345737193e-002 1.9786508441310521e-002
      4.0588056967272197e-003 1.1344097795406235e-002
      -6.7688866576131237e-003 -4.7743492396177048e-002
      -1.5519482196122011e-001 -1.1492485238988383e-002
      -9.5555815837947797e-002 -6.3343611344321302e-002
      8.8196552617889421e-003 -3.9130150527143512e-002
      3.8181796573740670e-002 -1.0942274068001251e-001
      -1.2748069447017948e-001 -1.0670025887643302e-001
      1.3983361332288186e-001 8.5999856805696009e-002
      1.4677571783086002e-001 1.2583611179813350e-001
      1.1728603619472002e-002 -4.4263784079697624e-002
      -5.4110006038264290e-003 1.4461453753049416e-001
      -7.8511600321340400e-002 5.0479354468868226e-002
      -2.4757584004008831e-001 -5.5424568981322558e-002
      1.4984024518348643e-001 1.5363949760942439e-001
      -1.8214692181469355e-003 5.1180468166253823e-002
      1.4928996525111631e-002 -9.9045327290142759e-002
      6.7403800125741528e-002 1.5711516988929300e-001
      -2.5261521830578976e-002 2.7882559190885878e-002
      -2.3124104794882715e-002 -2.6802018682139839e-003
      4.9954070311203219e-002 -3.4322118847786881e-001
      3.1890380249498357e-001 1.9037963987003900e-001
      3.9421723224661261e-002 9.8664337070094199e-002
      2.3558087145867881e-001 2.1092301996797608e-001
      8.8271259480089785e-003 8.0538670152955211e-002
      -1.0487298714223196e-001 -3.0190535905574710e-002
      -1.5716470784160028e-001 -4.2539999631306419e-002
      3.6562511274910148e-003 -9.3414543251746085e-002
      7.4016698267794813e-003 1.1124620593903376e-002
      2.7029283100312562e-001 2.0176741702044990e-001
      5.4850079071210422e-002 -1.1762580484972490e-001
      -9.6667279961068463e-003 -1.9100334484576615e-002
      7.3473627037951489e-002 8.7867806355597836e-002
      -1.0140691994209070e-001 2.0421745622528620e-001
      2.4234772685998598e-001 -8.5166426767354142e-002
      -1.2449930037650300e-001 -5.1551949260737313e-002
      -1.1560950726146843e-001 -2.4159736017275054e-002
      -1.9523523033004303e-001 -7.3838754944628854e-002
      3.0892178634802085e-002 -8.8595546594930769e-002
      -3.9822388787608937e-002 9.9316545426450992e-002
      7.7723619140202885e-002 -1.2417813449234176e-001
      -7.1065940478354031e-002 -2.7427011905520129e-002
      -8.4771178614214099e-002 1.6241700390500845e-002
      -2.9262087557048116e-001 2.5828741687496853e-001
      1.5258781893072737e-001 -4.5042834761532459e-002
      -9.5517313231771359e-002 5.0584625875411057e-002
      -1.3846109321528743e-001 1.1011569346921972e-001
      -1.6523810049900256e-001 -1.0072956634623885e-001
      1.9036176114338785e-001 8.3941327022695203e-002
      9.8756696217266293e-002 1.7510917550996016e-001
      9.3031526481411408e-001 -7.6336818814596183e-002
      1.4511951144004209e-001 2.4201348945260914e-001
      1.3476801086206500e-002 3.8161523859479257e-001
      -1.7988114177859510e-001 2.4001063353273422e-001
      -3.1374439072317080e-002 -4.4697846214955608e-002
      8.0397778212190820e-003 -2.0479814132407875e-002
      -5.4723177138587265e-001 3.1437224544210197e-002
      -2.0858721509357561e-001 -4.8822478827016919e-001
      3.9034243844904265e-001 -4.5453850499811085e-002
      4.9423705619037632e-002 1.1586900364895469e-002
      5.8911795506442197e-002 -7.2585279549912077e-002
      -2.8293995915572429e-002 8.3873095310224091e-003
      -4.0591158572131375e-001 5.0872143891557194e-003
      3.5109395937622051e-001 -6.9290243103160135e-002
      -4.6766407855761402e-002 8.1092687055333942e-002
      -1.6817606348765646e-001 7.0927463293836113e-001
      1.2352254599907356e-002 2.5740832547616593e-002
      2.0433494276977663e-002 1.7756280617750944e-001
      8.7041129580869889e-002 1.4131634964987769e-001
      6.8449679846257869e-002 1.7863493670893797e-003
      -1.2977839872571012e-002 -1.8947004551219346e-001
      1.5218179793393152e-001 1.4146333195420849e-001
      -1.9331909120274701e-001 -6.5167673570043994e-002
      2.1286992179438780e-001 -4.5323449208183103e-001
      6.2330596960048917e-002 1.7417184302320260e-001
      -4.9752330592471722e-002 2.8237032978521781e-001
      -4.1724400058918761e-002 -2.0190701112216211e-001
      4.2167929875281430e-002 1.0609634417468945e-001
      -1.5849294753835380e-001 3.6807401629311237e-001
      1.5394867544443186e-001 5.2826668762973185e-002
      -3.1408700537357120e-001 -3.9114394912235845e-001
      3.1288185086295395e-001 1.5243236077035044e-001
      -2.8887418877554666e-001 -1.1067847879145218e-001
      4.8911777286778385e-001 -7.8148314933347715e-002
      6.0434644093265495e-002 2.5873270048580937e-001
      -9.6290280500050965e-002 3.2055704309599281e-001
      -1.5898014731418780e-001 -3.5954541399606868e-002
      9.1373253312215560e-002 7.5680758491763256e-002
      -3.2600551218884571e-001 3.5988695087329858e-001
      -6.6534355614680060e-002 4.5083295989848678e-002
      -8.0877010609092428e-002 -5.2480889008416548e-002
      2.2068915318323412e-001 2.6549024438073510e-001
      6.0787030594186220e-002 -7.0311270300469964e-002
      -1.0719910664082191e-002 -6.5438449849423097e-002
      7.6565862856038946e-002 2.2702067021706060e-001
      1.0508379178077185e-003 2.6376096540813666e-002
      2.2316648104073682e-002 -1.3606759836577861e-001
      1.5767902722143215e-001 1.9093521404866867e-001
      -4.5403449298763603e-002 5.8429891169075508e-002
      2.4251217984659329e-001 1.5742046376188101e-002
      4.7309080911175309e-003 -1.0974911582284770e-001
      6.3256868502443581e-002 2.1376004818033598e-001
      1.0294404375187532e-001 -2.3912433911636080e-001
      -9.5680913016588431e-002 -3.1025553609250450e-001
      1.3418156899786727e-002 -5.9603150287226292e-002
      1.6150438119789720e-001 -4.2841661143964420e-002
      6.8088059431591519e-002 -1.6470809589276283e-001
      2.4190525499925311e-001 1.6631837807073999e-001
      -1.8703411158130446e-002 7.6200374488032990e-002
      1.2861741971690754e-001 1.5183187634378670e-002
      8.0680662443996021e-002 -1.2536006443995526e-001
      2.0411802821737321e-001 3.5015949605119928e-001
      5.0944242823758513e-002 -2.0558488323446142e-001
      -5.7352150802946561e-002 -7.4553090359839619e-002
      1.2637234999703933e-001 3.8430823244833143e-002
      -3.7903125414704752e-002 -1.2678293816408998e-001
      -7.8322020564330588e-002 -1.2198389783222234e-002
      1.0280285866746600e-001 -8.6161209643751679e-002
      1.0806753166544995e-001 9.5769364744089119e-002
      7.9541942448802694e-002 1.0901934585100755e-003
      1.8263333176776964e-001 -2.1546394231142414e-003
      8.4381350396116356e-002 3.5424874779657867e-001
      3.1700629264077565e-003 8.0187631743433366e-002
      -6.6606255583277679e-002 -9.1775729655450458e-002
      6.3965922429320948e-002 1.5646145008241547e-002
      8.6020736463344294e-002 8.6387256189763548e-002
      -7.0319154910511841e-002 -4.0538362552495481e-002
      3.6397476428724804e-002 -5.3947682919430529e-002
      -2.3919458881247496e-002 5.2490761488790810e-002
      1.1417813025835885e-001 1.6271766121202971e-001
      -1.3754927769093006e-001 -7.4656406499976583e-002
      -6.8358691610131458e-002 -4.5907285318908218e-003
      -7.2693069707572389e-002 -3.4444280084486183e-002
      -9.2293118528765261e-002 2.0494674368963639e-001
      8.0574583096000033e-002 -2.2406150317985814e-002
      -8.1638656423555278e-002 6.6834389042009085e-002
      -1.4832246427172951e-001 3.7344835813342178e-002
      -1.9239231931072381e-001 -5.8101771574716826e-002
      1.0381240883031359e-001 1.2171538406820678e-001
      2.9781123801077131e-001 -1.7513847307755837e-002
      1.6748431954208326e-001 -1.0989130701293956e-001
      1.4802248893888514e-001 1.7193821303072590e-001
      -9.6443215819946138e-002 7.1829476499375156e-002
      -1.0100659259004463e-001 1.2658530002694596e-001
      1.3780103734457858e-001 -1.0000607392926664e-001
      -8.1546156411899010e-002 4.8767067006408975e-002
      -1.4241505965947965e-001 9.0300250044281452e-002
      -1.5227645213910901e-001 -9.0887510951329895e-002
      1.8554045965134081e-001 2.4522133225792411e-002
      -4.8541759929653372e-002 1.7256481593033249e-001
      9.1597052064606033e-001 -2.0409821254207153e-002
      1.5736495863693477e-002 1.0076047803838022e-001
      5.8746018178245665e-002 -1.7010070880368861e-001
      1.5448797666132530e-001 2.3327764238824994e-001
      9.8923555751937158e-004 -3.8490136124005848e-002
      -9.0859784711825126e-002 -2.3801617196840048e-002
      -5.4864570815756142e-001 3.2119980882020643e-002
      -2.1073268145335891e-001 -4.1571068607522119e-002
      1.2189490767137700e-002 1.2609523652581256e-001
      7.0496614363602106e-002 -5.9658186028390729e-002
      1.0429733165922556e-001 -2.4104521629941389e-001
      4.2752959560829534e-001 2.6543619180041261e-001
      -2.5756871254696830e-002 -4.3451214023455094e-002
      1.1453586652019129e-001 -3.4824850040545063e-001
      2.9089961847573762e-002 2.8673920418729421e-001
      -1.5712433101864434e-001 7.0641855116925878e-001
      -8.7100118253296693e-002 -1.3465272651714979e-002
      3.2767969055172930e-002 4.9750565844601807e-001
      -1.4562177218691068e-002 1.3017259745622853e-001
      -9.5875692242168922e-002 3.3708440777035310e-002
      -1.0436564064735729e-001 -1.0287494345954690e-001
      2.3280137550377883e-001 -1.0175562560247327e-001
      -4.5542346262720260e-002 -1.7220826853839789e-002
      2.1323015375346915e-001 -3.8675051176611498e-002
      8.4789901915975699e-002 2.6040878036972259e-001
      -1.5602661244433413e-001 2.4353859004653811e-001
      -1.5246345044772183e-001 2.8273021334293272e-002
      7.1847692118016102e-002 6.7729758830023967e-002
      -9.6870433507347115e-002 2.9614488536889932e-001
      1.1678438494683743e-001 7.6841695087177933e-002
      -2.8405770548849522e-002 -1.2469646365880717e-001
      4.7151442039618727e-002 1.4431585575983927e-001
      -1.5923664610146309e-002 5.1569587181873409e-003
      5.6756945675909422e-002 -9.7579548648656728e-002
      4.3621807034523917e-002 1.5114248574585967e-001
      -5.0777189829886188e-002 -6.2591188936172937e-002
      -8.1198490435981291e-002 -1.8645432774791115e-001
      9.5158929255559410e-002 1.7022867541485062e-001
      -1.2067853949891672e-002 -5.0424514463628459e-002
      4.6970419593985596e-002 8.7768211132621468e-003
      -2.8861522436516674e-002 -9.6483835429712839e-002
      8.9692507107969735e-002 1.3982623375346234e-001
      -2.5066937979800148e-002 -2.0283279041569907e-001
      5.6244150370507069e-002 -8.6591304359502672e-002
      6.1727874772751636e-002 9.1564425275646080e-002
      2.2094559798762511e-002 2.2061340537041590e-002
      -1.7020493475847040e-002 -9.4656719150196217e-002
      2.0268424703654736e-001 -6.2448344960569516e-002
      -4.9956420261377102e-002 2.0105979187334225e-001
      9.2236117224771083e-002 8.5491231693706538e-002
      -2.8623565421982741e-002 1.3684131814529132e-002
      1.3708780018458154e-002 2.0445979570486766e-001
      -4.4102882758193032e-003 -7.5030984193614064e-002
      8.9902487880095916e-002 -8.6418926388445713e-002
      8.4834745575146225e-002 1.1016391635416233e-001
      -1.1577406229145874e-001 -6.5508550234153307e-002
      -2.4783134933970330e-002 3.4730762947105247e-002
      2.1328802819733322e-001 6.3091257919625540e-002
      -2.2750985391164710e-002 -1.6873557622231430e-001
      2.0195929061465451e-001 3.5856632555971407e-002
      1.4325465375325419e-001 -2.6611218913614032e-001
      1.4572801831705490e-001 1.6910808399680965e-001
      -3.9508832005557509e-001 -7.7032282259976867e-002
      9.3085412574348853e-002 -8.2533347356764625e-002
      8.4235050152347654e-002 -4.3496798234268323e-002
      -4.6218831324256471e-002 2.2742433487885483e-001
      -3.0286284259429096e-002 4.6395734772916301e-002
      -4.1235167194808124e-003 -1.4046416024252326e-001
      2.0062466133247500e-001 3.8820130598298513e-001
      1.1627319943743181e-001 1.5256105211785528e-001
      7.7157523337581496e-002 -3.0120786511618319e-001
      4.9444852078181212e-001 3.4087609151351383e-001
      2.1441761547468285e-001 -8.2800770079250879e-002
      -6.1505837553332637e-002 -7.7912146993069212e-002
      1.3166635689068151e-001 4.7907637328427989e-002
      -1.2114617337699576e-002 4.2669463505663655e-002
      -1.5583696186232304e-001 1.3042141504119484e-001
      -2.3397826516172209e-002 -4.5984504701005555e-002
      -5.3062728850711546e-002 1.8491364280070760e-001
      -1.9934012491898417e-001 -5.4457967704292239e-002
      1.3433906426464498e-001 -1.6268205692949614e-001
      1.1789723663088210e-001 -4.0536197726599388e-002
      9.5357050031355250e-003 2.2926141849704285e-001
      -2.3131608795623584e-001 2.3281588023096425e-001
      9.9289022120894355e-002 -6.7316608226855923e-002
      -6.9791516372027781e-002 7.0744549653263489e-002
      -2.3662172869769765e-001 2.0068553259400090e-001
      -1.9910160051345918e-001 -9.6620023977698033e-002
      1.6368700584300175e-001 -1.8301197791572288e-001
      1.6164423981737069e-001 -6.8906156409612562e-002
      2.6281699486353965e-001 -8.1442322477735918e-002
      2.6482120330525322e-001 3.2021500137368286e-001
      -1.8733699373900792e-001 2.1144637140061456e-001
      -1.2320856511020951e-001 2.2188141039315817e-001
      -3.9016446002746161e-002 -5.7777546557666523e-002
      2.4604042349922056e-002 -1.3703283806740491e-001
      -1.4828541657552391e-001 8.1562416573791888e-002
      -1.6478265316637719e-001 -1.6181808690597888e-001
      -2.8382426621855718e-002 -1.0385802689627692e-001
      -1.1644638491608640e-001 -9.1603968232468566e-002
      9.1596415532087139e-001 -2.0729340534018328e-001
      5.3697800735876822e-001 1.2953530965990927e-002
      1.0765118807761068e-001 8.4255976983596284e-002
      -1.0267609909564017e-001 2.4400570955838596e-001
      -7.9987002054934045e-002 -2.0766012947745514e-002
      2.5749589487716881e-002 5.1208599260905929e-001
      -5.2462936882464806e-001 2.8793552566022593e-002
      -2.0878068804432812e-001 -3.5554831589330060e-001
      3.7014066556253894e-001 7.5475876609564896e-001
      5.7358537218815608e-001 6.6145675800767190e-001
      -9.3852265153848802e-001 3.9450816816902562e-001
      -5.4040273121326332e-001 -9.3383363195226207e-002
      -9.9009826429173586e-001 -3.4239880830516972e-001
      -3.3199217857247781e-001 -2.3388606107154541e-001
      -3.8458480000000000e-001 -4.8877646021047028e-001
      -2.5116567324970124e-001 -7.2133272888140110e-001
      5.3943446371549830e-001 5.2874613274106988e-002
      1.9510358742170872e-001 3.6611546863401545e-001
      -3.7650735924690387e-001 -7.6609755154793058e-001</_>
    <_>
      1.2765739736852983e+000 -1.8622596205161017e+000
      -1.1031897080020484e-001 2.1024515198982796e-002
      1.2340581341308676e-001 -1.1103907409624154e-001
      -1.6868301160604732e-001 3.4535599812775220e-001
      2.3344325615455067e-001 5.2633080052689729e-001
      3.2739340043264337e-001 5.1459995708180295e-001
      -2.4234602482133955e-001 -3.8954907097272862e-001
      -1.6069779004069640e-001 -5.4878659364108806e-001
      -6.0311551017230280e-001 3.0656622366755865e-001
      -1.9897758531306689e-001 1.4937242418442895e-001
      -5.9150673220741079e-001 3.1121256807825304e-001
      -2.9482335292064821e-001 8.3481490515906942e-001
      -8.1779851337137743e-001 -5.4406576140047999e-002
      -2.1624038529441558e-001 4.1533852609520056e-002
      -1.7598487242966351e-001 1.4017349426002362e-001
      -1.2382462585881276e-001 1.6141475139877770e-001
      -3.3595183786028639e-002 4.5582181001243977e-001
      -1.0358073121970823e-001 -2.9389235638853850e-001
      -4.4537390617896400e-001 1.0796669300776023e-001
      4.2528536276784096e-001 7.6615202277468231e-001
      5.3573270942098947e-002 3.3600781857810735e-001
      3.5473258180995532e-001 6.9071407971981169e-001
      1.3227532065172871e-002 1.7222884021535559e-002
      -2.0572999151757232e-001 -2.7438581559342273e-001
      2.8202612468986019e-002 -1.4262378098441598e-002
      1.8815125387383658e-001 -1.7374705309630412e-001
      7.4153956728922221e-002 2.7001408147942901e-001
      1.7199199919252803e-001 2.8588649664269972e-001
      1.6147914193019655e-001 -9.1391727308751239e-002
      1.1674182287533580e-001 -9.9308784405938641e-002
      8.0403413120914724e-001 5.9769507073445016e-001
      -9.4848377228104616e-002 -1.1221074371060824e-001
      7.1055160322428160e-002 3.0164166862254110e-001
      9.6527521522100612e-001 -1.3036032569884481e-001
      1.4122486092974715e-001 3.9726649991471946e-001
      -4.1113145771227200e-001 2.5133412110741432e-001
      6.0447151769207258e-002 -5.7433353169276530e-002
      1.9972418756691302e-002 -9.8008441393247409e-002
      -1.4915261591472975e-001 2.3062510088345983e-001
      -5.7732433464468436e-001 -3.9035161608172159e-001
      7.6867297321954534e-003 -2.4449166099551589e-001
      1.5181853390267822e-001 -6.3741706119750413e-002
      -4.7183641644344698e-001 -2.7530062007003342e-001
      2.2192049831189489e-001 -1.4838133435494111e-001
      -2.0534716163383874e-002 6.9383469688373700e-001
      -3.0580538994042744e-001 -3.3937918021860874e-001
      -4.3240267077878336e-001 3.5681976842570179e-001
      6.3645969955076209e-001 4.7639804595564400e-001
      -5.3936193801874133e-001 2.1430547388399238e-001
      6.6392537303957222e-001 -1.7767291448933428e-001
      2.2316414460421423e-002 3.9170755096564501e-002
      -1.4466693391690991e-001 3.8903996570681154e-001
      -6.7430427521220693e-001 -5.3529579083285220e-002
      -1.8775364574155071e-001 -2.3167639292745998e-001
      9.8456398132726497e-002 9.0430476234929183e-002
      1.8916955757547549e-001 -7.0204361606871005e-003
      9.9230460245218408e-002 -1.9934783785984661e-001
      -1.9522275784601065e-001 7.8508573059622899e-001
      -1.8219310522623952e-001 -4.0668611273391242e-001
      -3.3039187126139141e-001 2.5505366670651699e-002
      -1.3145240127442337e-001 -5.3590162005809083e-001
      -2.9477858894671416e-001 -6.8596003396285549e-002
      -6.3511170514738924e-001 -1.5510253982320366e-001
      -4.1130850745401532e-001 5.4708061907645811e-001
      2.8898170063255646e-001 -2.8597219391436607e-001
      -2.9972183913006373e-001 4.3355573271405529e-001
      3.0127472208049469e-002 -4.6316291106055223e-002
      -2.0025090382744562e-001 -1.8320102142085271e-001
      8.9742048973682376e-002 2.1383694928765457e-001
      -1.2462390937174184e+000 8.5370255838907261e-001
      -2.4492570119692567e-001 6.6378630883949227e-002
      2.6019611266773476e-002 1.6959743716614206e-001
      -2.3493551111278280e-001 3.3452284097881263e-001
      -1.1898861604463468e-001 2.8057139498344963e-001
      6.6023403630550592e-002 2.2207109431166783e-001
      7.0968245855256351e-002 4.9002168727124285e-001
      4.3193001158055427e-001 -2.3780390012677061e-001
      -2.7990232737264248e-001 2.5024598156602476e-002
      -1.4277614908756084e-001 2.8468736486196300e-002
      9.2307721741559309e-003 -6.2112180016218425e-002
      2.6456863818228138e-001 -7.2261645902567495e-001
      3.7879292376763551e-001 2.5616499381745580e-002
      -3.9782772678215050e-001 -8.9516960914377483e-004
      -1.3801472088689443e-001 -2.1469881278501579e-001
      -5.2904645458012198e-002 -2.4697509015905897e-001
      -6.2698868979382920e-003 -4.7998994939382461e-001
      -4.4466517650511456e-001 -1.3363241966091483e-001
      -2.1743062783218689e-001 1.5024104019876275e-001
      -3.6208218531324449e-001 -8.7646046420491641e-001
      4.1028090868045886e-001 -1.1226231648561477e-001
      -4.1398419777889589e-001 -5.3680530317122921e-001
      -9.3810505376702574e-002 -5.9310068946340555e-001
      -2.8377121610517891e-001 -1.7249570507337445e-003
      -1.6377669443621870e-001 3.2971975103412132e-001
      -2.3521422826569810e-001 7.5085002550594498e-002
      -3.1122913344528813e-001 2.5226384676562874e-001
      -1.9330202498962684e-001 1.3743787730732490e-001
      -3.8524082270254473e-002 2.9848081673296861e-001
      5.7829900033624604e-001 9.2757886165558634e-002
      -1.3232472464702827e-001 -3.8742211737607357e-001
      2.7530857212025822e-001 2.1850139763002818e-001
      -1.9722378318210504e-001 7.5301141645843298e-002
      4.9979742088851542e-001 -9.6884150316399104e-002
      3.3648621260674560e-001 -4.6145954465901851e-001
      4.9323864503589326e-001 -3.0006808213872051e-002
      -1.6048991359343739e-001 -1.1816771175395192e-001
      -2.2167095282914573e-001 -1.2344534301194308e-001
      -3.9157897326452029e-001 -1.2752302664696263e-001
      -1.6349639466750979e-001 1.2653534370657354e-001
      -1.0526267180728830e-002 5.8310243796586995e-002
      1.6399844527206184e-001 6.0663654342346307e-001
      -1.4928832828995428e-001 -2.5212150288422641e-001
      2.9937999065398607e-001 -1.1866303425652740e-001
      -2.6336816716416630e-002 6.2367016304573664e-001
      -2.0802183336584473e-001 -3.1146822638111006e-002
      -7.4856555419862980e-001 8.7420209583357844e-001
      4.2368070062395936e-002 1.7719377122894311e-001
      -3.1934235758284396e-001 -1.0788593445050557e-001
      -5.1513572213098857e-001 1.5529136501285570e-001
      -9.7107639363794261e-003 -5.6633236789384500e-001
      -6.1318243548755158e-001 -3.1647235837737625e-001
      4.6591426040049522e-001 6.9651883269744419e-001
      1.0081309473286218e-001 -5.2011799193892216e-001
      -1.6310425256195879e-001 -9.4572240692306006e-002
      -1.5076929475756945e-001 -2.7892078471490850e-001
      -2.4074933686577590e-001 -1.2032062115933179e-001
      2.2868193432264908e-001 -8.9554164093272259e-001
      4.2767568741590373e-001 -1.4553281013538488e-001
      3.5482682606651167e-001 5.0160454375488428e-001
      1.8592904141384292e-001 -3.7577664779005304e-001
      1.8933689110852253e-001 -1.8279644062277084e-002
      1.4273186455608999e-001 4.7554410968547262e-001
      -2.0066578431638327e-001 4.7298491011987892e-001
      7.4189970545309203e-001 6.4193226196052744e-001
      1.4262267664662501e-001 -6.3386635928944535e-001
      -2.5373235462631133e-001 -5.2755541530399186e-001
      -1.1398430733424415e-001 -2.8804920200662132e-001
      4.7320534537016547e-002 3.4229868227149662e-001
      -1.3538147810632351e-001 3.2373018588328577e-002
      1.8244476493240008e-001 4.6578091830936741e-001
      -9.8762267603578591e-002 -2.8104215115677327e-002
      -2.0959551418019476e-001 3.1144200747833745e-001
      -1.7887433390045962e-001 -1.6317276954964505e-002
      -1.1284066901400655e-001 -1.6643703004450347e-001
      7.2496244433513590e-001 -2.4173493984252462e-001
      -4.8340258774005301e-001 -5.9692130714661612e-004
      2.0112865744396431e-002 1.2069849793061624e-001
      -4.4330266109807170e-001 -2.1588488047819684e-001
      5.4972435778848208e-002 2.9311832740637887e-002
      -1.4772470017374961e-001 -7.9777279988362293e-001
      6.4976701216895738e-001 1.8380938884355005e-002
      1.7523254855990086e-001 -4.9847941899973491e-001
      9.9979819993064462e-002 1.2133898105562847e-001
      3.6426756612867073e-001 -8.0291298170804756e-002
      -5.3577307114912348e-002 -2.0711391170434695e-001
      -3.4824404894096295e-001 9.1075996146668975e-002
      1.9277089654748297e-001 -2.8948130689632839e-001
      -3.4847748233417181e-001 6.2599881343109520e-001
      6.9263257218606725e-002 1.4563330430373559e-002
      -2.2633948905711965e-001 -5.3151732921612715e-001
      1.6863597774479366e-001 2.9061316861296382e-001
      5.4574179911049503e-001 -7.2668911404092179e-002
      -1.5540313560780517e-001 -2.1961947953125541e-001
      -3.4004883874567882e-001 -4.4019133194540749e-001
      -4.2399252524606384e-001 -6.5262093700778526e-002
      1.5758220186938074e-001 -1.0965576561426758e-001
      3.6048558139616305e-001 1.3260459596094845e-001
      -1.1768633036633797e-001 4.9300648683428855e-001
      3.2152559025576233e-001 -5.6152603633993314e-001
      5.0283643029692027e-001 6.6176619885023519e-002
      2.2156753475381638e-001 7.3540073444491733e-002
      -7.1750554790179122e-001 2.9487293478468046e-001
      4.0553092186349587e-001 8.7419168021525287e-002
      -5.1037163989464418e-001 -7.4512653122166331e-002
      4.7709720659804389e-002 2.6436920824416549e-001
      -1.4195264888045575e-001 -3.8340655921573591e-001
      1.3806450217405491e-001 -1.0413723893566203e-003
      2.5845982354930497e-001 1.0602795008117140e-001
      -7.5045805185802547e-002 2.2598945987794383e-001
      -2.2653038742327161e-001 7.7748806012835112e-002
      -1.4394495278543312e-001 -2.3227703148645082e-001
      1.1669162769001089e-001 -8.1181577875952537e-002
      5.7074350902386523e-002 -3.3050621412545134e-001
      1.2105736023322917e-001 5.8587504727408285e-002
      -3.2763326150220923e-001 -5.7367718914198984e-001
      3.2527126379802168e-001 -2.9790892123746376e-001
      5.3618747318469828e-001 3.7673801394158046e-001
      4.0617243963690264e-001 -2.9270850007471583e-001
      -4.3121826028138011e-001 5.9383426428062491e-001
      -5.3740634185099467e-001 -4.2510139632410587e-001
      -5.5459604725926070e-001 -4.3382310323038059e-001
      4.0877879404894968e-001 6.1479837373941366e-002
      -1.0776938309792807e+000 4.6422820443665647e-001
      5.4073614513950437e-002 -2.5034640083413906e-001
      -1.1540210998625287e-001 -3.3860089866166898e-001
      -3.8897368356823020e-001 3.9247357945711187e-001
      -4.2232104198945281e-001 1.0526311221451878e-001
      -2.1108447138912340e-001 -3.7570369598210818e-001
      -6.0682869732814992e-001 -1.9572649439667594e-001
      -1.4236197344279083e-001 -4.4014819545761504e-003
      -2.4456914961436352e-001 -4.7177423747466213e-001
      -3.8570794708346634e-001 4.8441001583111065e-001
      -5.5279756696703131e-001 1.9474005682882115e-001
      6.2737531218501813e-002 1.8378500092390865e-001
      1.9309091577787071e-001 3.9889087259989998e-002
      4.5985548519455535e-002 8.2251883265345205e-001
      -2.8814910426401213e-001 -1.6716408507490327e-001
      -4.1953815419058327e-001 5.2102359295998775e-002
      1.7470747732113381e-001 3.4817283124462683e-001
      5.6650485522972589e-002 3.7053008323615361e-001
      -2.2770720407313719e-001 2.1128825364099971e-001
      -4.9330239655200891e-001 3.2993279919181839e-001
      -5.9121468332658389e-001 -1.4179821867943246e-001
      6.3622023835458708e-001 3.1066160564653905e-001
      -3.0055564091899339e-001 -4.4283681030074484e-001
      2.7052296695050576e-002 2.2082654557866177e-001
      -4.4604860320489509e-001 -3.0898499911953481e-001
      -2.5667599427607118e-001 -2.4998897809778658e-001
      3.7469805851060339e-001 -3.5928784150068604e-001
      8.8070378589125053e-001 -1.2976846074840221e-002
      -6.2710251476210743e-001 4.9687727557965289e-001
      -3.8142811006957406e-001 -3.9007492660180010e-001
      -2.1193411317866848e-001 4.3886174987096224e-002
      -1.9453980844121324e-001 -1.6248187768195968e-001
      1.2447448380879618e-001 -1.6873564784508330e-001
      -1.4018684813023860e-001 4.7179739031858370e-001
      2.8958033624412988e-001 -8.4781578581109485e-001
      1.3649159625326468e-001 -9.0124289464714430e-002
      6.0833217306482036e-002 6.5899331027462660e-001
      -2.7037527449890936e-001 -6.7642872412237853e-001
      9.0534977224467683e-001 -1.4227563427484513e+000
      -3.9738859939809652e-003 3.1086728615256959e-001
      9.2246290714875723e-002 2.2702754003406717e-001
      -2.0216258013628724e-001 4.0445639617721946e-001
      -2.4355038270588170e-001 1.0979037457914613e-001
      -1.8166021065634813e-001 -7.9849446335471988e-002
      5.3670747460112289e-001 5.9523360677698345e-001
      4.5334689804065093e-001 1.1187996860752969e-001
      -3.7381935216067058e-001 -5.1597090958385425e-002
      -4.3663842868547359e-001 -1.6120725457237142e-001
      4.7614480103821577e-001 -2.4629440818571283e-001
      2.1151083031410003e-001</_></weights></my_nn>
</opencv_storage>
