<?xml version="1.0"?>
<opencv_storage>
<my_nn type_id="opencv-ml-ann-mlp">
  <layer_sizes type_id="opencv-matrix">
    <rows>1</rows>
    <cols>3</cols>
    <dt>i</dt>
    <data>
      120 20 23</data></layer_sizes>
  <activation_function>SIGMOID_SYM</activation_function>
  <f_param1>1.</f_param1>
  <f_param2>1.</f_param2>
  <min_val>-9.4999999999999996e-001</min_val>
  <max_val>9.4999999999999996e-001</max_val>
  <min_val1>-9.7999999999999998e-001</min_val1>
  <max_val1>9.7999999999999998e-001</max_val1>
  <training_params>
    <train_method>RPROP</train_method>
    <dw0>1.0000000000000001e-001</dw0>
    <dw_plus>1.2000000000000000e+000</dw_plus>
    <dw_minus>5.0000000000000000e-001</dw_minus>
    <dw_min>1.1920928955078125e-007</dw_min>
    <dw_max>50.</dw_max>
    <term_criteria><epsilon>9.9999997764825821e-003</epsilon>
      <iterations>1000</iterations></term_criteria></training_params>
  <input_scale>
    6.8162049100143145e+000 -7.6409658449011908e-001
    7.0331226051434630e+000 -1.0683313445663489e+000
    7.2274334850356663e+000 -1.3746578753149739e+000
    8.0302868394437663e+000 -1.8405417791038108e+000
    8.6080355804995019e+000 -1.9548849178631587e+000
    8.2316626440235368e+000 -1.8134353147376951e+000
    7.1723554347944614e+000 -1.4581398871258269e+000
    6.3421141777451924e+000 -1.0984541969152155e+000
    6.5107711735669289e+000 -7.9366302118292276e-001
    7.5705995950766249e+000 -5.0344488271791255e-001
    5.1239789347393945e+000 -4.1760428925134291e-001
    4.1295259518315692e+000 -7.7717679605397882e-001
    4.8309972941620130e+000 -1.0043643558418822e+000
    5.0364854516954569e+000 -1.3034424586369353e+000
    5.1378486783164758e+000 -1.5059034761025021e+000
    4.7869628844377745e+000 -1.2000916177191745e+000
    4.6300443925915626e+000 -8.7693042343887961e-001
    5.1970221983338982e+000 -6.4650957195833847e-001
    5.9259843853724217e+000 -4.2667088179564167e-001
    8.5598650877897224e+000 -2.5422799670431917e-001
    1.8166510787829732e-002 -2.2699055229393250e-001
    1.1548469995888324e-002 -3.9166635991055249e-001
    1.1335765252441912e-002 -4.0179619937280359e-001
    1.0185411539020502e-002 -4.7010766958349126e-001
    9.8223865945776465e-003 -4.9843700774184263e-001
    1.0864613409398859e-002 -4.2665336858709324e-001
    1.1940086338083107e-002 -3.7450080799397667e-001
    1.4373401410763445e-002 -2.9688260613931899e-001
    1.9331681126118085e-002 -2.1197188354788479e-001
    2.8724237927388822e-002 -1.3916893275819883e-001
    1.4455093740676191e-002 -2.9488391230979427e-001
    1.0252125399436558e-002 -4.6534397188042537e-001
    1.0229672391498055e-002 -4.6693339630992875e-001
    9.2219630457820636e-003 -5.5732933667183904e-001
    8.9742642024476169e-003 -5.8812840450740456e-001
    9.5946421235487325e-003 -5.1868635319904455e-001
    1.0344158626130818e-002 -4.5897031824142437e-001
    1.2155827355819221e-002 -3.6576884513660035e-001
    1.5907331653232094e-002 -2.6366402215232193e-001
    2.8724237927388822e-002 -1.3916893275819883e-001
    1.3772273154264100e-002 -3.1256173923602376e-001
    9.8223865945776465e-003 -4.9843700774184263e-001
    9.3911269033607782e-003 -5.3881590608032470e-001
    8.6423459357109784e-003 -6.3910148194582683e-001
    8.3085759351038818e-003 -7.0976009925624906e-001
    8.6781608816313190e-003 -6.3289827309737212e-001
    9.4822684249757407e-003 -5.2953728019277024e-001
    1.1404969760979567e-002 -3.9843261859982121e-001
    1.3914410269794775e-002 -3.0869119183539706e-001
    2.1338414187880125e-002 -1.9044534662683013e-001
    1.2634716879527110e-002 -3.4796010286217660e-001
    8.9972873921790580e-003 -5.8504861267644326e-001
    8.7629591343625288e-003 -6.1897161845569726e-001
    8.2005301477719728e-003 -7.4026185643937592e-001
    8.0185115165345832e-003 -8.0970929293966221e-001
    8.2439034346378729e-003 -7.2735960003809952e-001
    8.9073435155230321e-003 -5.9737099286855211e-001
    1.0590946075953445e-002 -4.4291336489637306e-001
    1.3437912037174385e-002 -3.2210675153106999e-001
    2.1338414187880125e-002 -1.9044534662683013e-001
    1.2155827355819221e-002 -3.6576884513660035e-001
    8.8750533277832822e-003 -6.0199486722354001e-001
    8.5098003491551905e-003 -6.6401972124457953e-001
    8.2609515444221990e-003 -7.2254412683288771e-001
    8.0291431112868121e-003 -8.0464057689760793e-001
    8.4642465160535609e-003 -6.7341545281722137e-001
    9.1055585875427902e-003 -5.7119169019655924e-001
    1.0779440162243616e-002 -4.3155488689542310e-001
    1.3568223275910726e-002 -3.1831051805286564e-001
    2.0510700131577877e-002 -1.9874868427498962e-001
    1.2434958074309830e-002 -3.5514240260228874e-001
    8.9972873921790580e-003 -5.8504861267644326e-001
    8.8539462675374433e-003 -6.0507868792350894e-001
    8.3794201441260274e-003 -6.9230769230769240e-001
    8.0917996476564703e-003 -7.7790515912745484e-001
    8.3147552798673273e-003 -7.0816770718630029e-001
    9.3328629707589705e-003 -5.4499253317747010e-001
    1.0643398011896111e-002 -4.3967877187142834e-001
    1.3130456546173537e-002 -3.3147837550815096e-001
    1.9331681126118085e-002 -2.1197188354788479e-001
    1.3250433208059685e-002 -3.2774946540135630e-001
    9.2904172007218563e-003 -5.4962108159470502e-001
    9.0808198260364289e-003 -5.7427104579854382e-001
    8.4943746923571133e-003 -6.6714818833772771e-001
    8.2843652964719010e-003 -7.1614195805351344e-001
    8.5657464792763555e-003 -6.5309534031242578e-001
    9.4822684249757407e-003 -5.2953728019277024e-001
    1.0724159374146641e-002 -4.3481104182477559e-001
    1.3437912037174385e-002 -3.2210675153106999e-001
    2.0510700131577877e-002 -1.9874868427498962e-001
    1.4293268524205731e-002 -2.9887224484114183e-001
    1.0252125399436558e-002 -4.6534397188042537e-001
    9.8598188029553856e-003 -4.9530799756646376e-001
    9.0206796086474937e-003 -5.8196914495189311e-001
    8.6423459357109784e-003 -6.3910148194582683e-001
    8.8127140354977897e-003 -6.1124984550212669e-001
    9.6619672547235726e-003 -5.1247074319053831e-001
    1.1234972234124320e-002 -4.0681834459764166e-001
    1.4538394819384111e-002 -2.9287596363649288e-001
    2.2626484588801919e-002 -1.7886236067447916e-001
    1.7350714810519571e-002 -2.3891934294085448e-001
    1.2200750242129724e-002 -3.6400938347394035e-001
    1.1012905314637630e-002 -4.1843533742965672e-001
    1.0016557544744948e-002 -4.8274799086898273e-001
    9.3911269033607782e-003 -5.3881590608032470e-001
    9.8410183201060510e-003 -4.9687301498215453e-001
    1.1137629355354379e-002 -4.1181384541422816e-001
    1.4538394819384111e-002 -2.9287596363649288e-001
    1.9776916851181658e-002 -2.0676766567910423e-001
    2.6734930026805628e-002 -1.4998295745037957e-001
    2.4643005112759939e-002 -1.6338312389759840e-001
    1.5472497945829340e-002 -2.7223860135686723e-001
    1.3635064032307385e-002 -3.1640166086969285e-001
    1.2583681530673371e-002 -3.4976342814506639e-001
    1.2067793233267914e-002 -3.6927447293799820e-001
    1.3437912037174385e-002 -3.2210675153106999e-001
    1.5577487342332412e-002 -2.7011363051604403e-001
    1.8916983144899910e-002 -2.1707238158772646e-001
    2.4643005112759939e-002 -1.6338312389759840e-001
    3.0336019858909061e-002 -1.3150664608837079e-001</input_scale>
  <output_scale>
    5.2631578947368418e-001 4.9999999999999994e-001
    5.2631578947368418e-001 4.9999999999999994e-001 1. 0. 1. 0. 1. 0. 1.
    0. 1. 0. 1. 0. 1. 0. 1. 0. 1. 0. 1. 0. 1. 0. 1. 0. 1. 0. 1. 0. 1. 0.
    1. 0. 1. 0. 1. 0. 1. 0. 1. 0. 1. 0.</output_scale>
  <inv_output_scale>
    1.8999999999999999e+000 -9.4999999999999996e-001
    1.8999999999999999e+000 -9.4999999999999996e-001 1. 0. 1. 0. 1. 0.
    1. 0. 1. 0. 1. 0. 1. 0. 1. 0. 1. 0. 1. 0. 1. 0. 1. 0. 1. 0. 1. 0. 1.
    0. 1. 0. 1. 0. 1. 0. 1. 0. 1. 0. 1. 0.</inv_output_scale>
  <weights>
    <_>
      -1.6876686667845620e-001 -2.4791412489813827e-002
      -8.1991671812289321e-002 -1.0242957017303468e-001
      -6.9829947537819237e-002 -9.8968095804080249e-003
      -1.8707402898467677e-002 -6.6755742818125211e-004
      -4.0663675353573729e-002 1.5694543600519581e-001
      -1.3314200837844958e-001 6.7924334438881850e-002
      -1.9032656100913184e-001 1.2348880362385463e-001
      1.3433500948661325e-001 5.4990477469120308e-002
      -1.4984730025722657e-002 -6.7799911381217826e-002
      -2.3201156576980169e-002 -3.3950671367471197e-001
      3.6271706418425878e-002 4.7841193389198067e-002
      -1.0190953348732500e-001 -1.0364899235430466e-001
      -3.0832894286013414e-002 -6.1429771124721783e-002
      1.6207736718373673e-002 1.5525903112786693e-001
      8.6122991108120675e-002 3.5512033580014070e-002
      1.1841351068567749e-001 -3.4403101536810365e-002
      -4.2191672785598745e-002 -2.2660051016608326e-002
      2.0336069937313805e-001 6.3369939478216661e-002
      -9.5730931383376947e-002 2.3332696829360849e-001
      -3.4367258455400052e-001 -2.6356223022711861e-001
      -1.5046289532087007e-002 1.5111237527761190e-001
      -9.7226601606689111e-002 1.0445597443551262e-001
      -6.8342532336293421e-002 1.9919395473201051e-001
      -1.5064062911557471e-002 -1.0409913013656345e-001
      -2.7296667115585332e-001 1.0610578341996614e-001
      1.9018156059864028e-001 -9.8452666597872468e-002
      2.3239050612112119e-002 6.3618965390732238e-002
      9.8514174969924762e-002 -1.2568390270554666e-001
      -6.8552667114746529e-002 -9.2545580293285162e-002
      -1.2145970803407174e-001 -1.5977031634375996e-001
      -5.9574178053043984e-002 1.5153663793166472e-001
      1.0505531328607334e-001 -1.2893061437029257e-001
      6.0268935150097451e-002 4.9926709315376253e-002
      -2.1478392580217687e-001 -7.7310904988204560e-002
      -1.3087561431488923e-001 9.1884604789937263e-002
      3.1034096003929834e-001 -2.3666985274777205e-001
      7.4112407397511912e-003 -2.1405963116350884e-002
      -3.1089411861179483e-002 -1.8612085380235992e-002
      -1.0468612087458161e-001 -5.3917175681979734e-002
      2.8101494572903329e-001 -1.6468601523305471e-002
      5.4967686522291316e-002 -1.1524100166582607e-001
      -4.6695780830388535e-002 -1.6294209354517600e-001
      1.9328001326853719e-001 3.9354048877348863e-002
      -1.8111828499064492e-001 -1.9214302869858629e-001
      5.5866952276251713e-003 9.6791219970072742e-003
      1.4219218668517145e-001 1.0697057044378294e-001
      -8.6115439043498807e-003 -1.2400435070625609e-001
      -2.6287453007321045e-002 -2.0746272115830039e-001
      9.0043643632007855e-002 4.7299748575511953e-002
      -4.8728902107427870e-002 -1.6423309564657171e-001
      4.8690589404140790e-002 1.3664737487586878e-001
      1.1019248889598435e-001 9.1702978471211324e-002
      -2.4754148365891123e-002 5.4718821157454758e-002
      -8.2696815821347330e-002 4.5829318145869928e-002
      -2.5843499393082220e-001 -7.2152224176756319e-002
      3.1242213576382549e-001 8.0288928433834506e-002
      -2.9879607862814357e-002 -1.0290674339780337e-001
      1.3042662523043763e-001 1.7407505896207882e-002
      3.5242638715589347e-001 1.6786398451923010e-002
      5.6239266815549208e-002 7.3131386034313267e-002
      -1.2721223219106262e-001 7.1592591548151688e-002
      -1.9805037185781596e-001 -1.0566156117283662e-001
      1.5278652565188078e-001 -2.6091269707455432e-003
      1.5975413702012170e-001 -4.0430990188895721e-001
      -8.3415350855667120e-002 3.4997246704701682e-002
      4.7445411018285311e-002 -3.8061306167233022e-002
      -1.3650287337235863e-002 3.3210415327885701e-001
      -8.3873348344295454e-002 -3.6351163728019581e-002
      9.1606302574583479e-002 3.2528889567256504e-002
      1.8994623906955629e-001 3.6951021466079176e-002
      4.5898349830113427e-002 5.9847813814735001e-002
      -9.1498330387541314e-003 -1.9865778272120849e-001
      2.4583379121187041e-001 6.8707602505032276e-003
      -5.3138938327953668e-002 9.1563902043178130e-002
      1.7470604144625612e-001 -1.2063301366187839e-002
      8.3692690052303814e-002 -1.8026537868495607e-001
      -5.1860712422128835e-002 1.3051999557559960e-001
      -6.9639366566500577e-002 1.9216296280074756e-002
      -2.1466366778921953e-001 -1.9219658598908412e-001
      1.4388458806896676e-001 6.1189081024362019e-002
      4.3387258878892561e-002 8.3545781387500420e-002
      1.0469385173338225e-001 -1.8113654852573172e-001
      9.2090016366597000e-002 1.8450672636175150e-001
      -3.6988508445487060e-002 -1.8574844292495105e-001
      -1.3871663474730797e-001 -7.7851980803752802e-002
      -1.1665262825411349e-001 7.4365809105897407e-002
      1.8229413141471928e-001 -1.7276273893523447e-001
      6.6842952494603383e-002 -7.4305533887565528e-002
      9.8745565937716773e-002 -6.7325871708069099e-002
      2.7412998359112900e-001 8.4583439845640859e-002
      5.0197785568173066e-002 8.5675674208012892e-002
      9.6155569550311598e-002 5.4153405334495579e-002
      5.8144923802384722e-002 8.0987156196300703e-002
      -3.8535336586011726e-001 -2.1595235364244666e-001
      -1.1071854183721128e-001 -4.4356682135859068e-002
      5.1245309444641646e-002 -5.2718398793888943e-001
      -9.7485429635183515e-002 -2.1086087835659828e-001
      7.1370379216809512e-002 -2.4629017299972984e-002
      8.7720105481104579e-002 -1.7238842387108361e-001
      2.6512302454114312e-001 2.9439767296167602e-001
      -2.5420723395955098e-002 -6.8171232703558321e-002
      -1.5062450453707200e-002 -2.8854066313027338e-002
      -3.1073777872271641e-001 -1.3548574587407167e-001
      9.1907138783115488e-002 1.2280349413024431e-001
      1.3279041803418878e-001 7.4117257026127509e-002
      -3.5493235961913769e-002 2.7529710452661393e-002
      1.0963450177102563e-002 6.1247891446861727e-002
      -4.1347432545101349e-002 -2.7377292732978110e-002
      1.2591627459788732e-001 -4.8366914601406493e-003
      1.7344749603320935e-003 -4.2522193515456677e-002
      -7.8926987435160318e-003 -1.1069911315578658e-001
      -1.4760443156775264e-002 5.5721165260877456e-003
      4.4464201914153269e-002 8.6955574207855144e-002
      1.7913546211182674e-001 -9.3685466062203585e-002
      -2.0159784626657223e-001 -1.9030171508822749e-001
      -1.9157466472974463e-001 -3.5831825548642761e-002
      1.0365089099233057e-001 -2.2488398578252820e-002
      8.3199317977160070e-002 -1.8500485768706071e-001
      2.4852930856080546e-002 8.6617837191363345e-002
      -2.6665899384247238e-002 7.6845961919545833e-002
      2.3355885130413881e-001 2.3400938292038559e-001
      4.3035814139196812e-002 1.1323159093459485e-001
      4.3417823739785859e-002 8.4643461444168844e-002
      -2.1270541901118123e-001 -1.1077857762927494e-001
      1.1343145457691818e-001 -5.8851343070970723e-002
      -1.1406390883386467e-003 7.8278757215969497e-002
      -8.0176469232645167e-002 -2.4499613767048284e-003
      8.5329175157982398e-002 -1.4062962397100201e-001
      -1.4603259284955980e-001 3.7486318399729532e-002
      -2.0744108606854081e-001 6.1266962066783129e-002
      1.1719786994333853e-002 -1.0587608812182245e-001
      -5.9175723152673221e-002 9.1764814360441566e-002
      1.3232766677249482e-002 1.0899282033083018e-003
      -6.2851460320356101e-002 -1.9376627779424666e-001
      -7.7245616849307155e-002 -4.6991042150698409e-001
      -3.0637507337526636e-002 1.0859455059584652e-002
      -4.6326040475371845e-002 -5.6366415211918305e-002
      1.2496381775161181e-001 3.1310575347601607e-002
      9.9002114464458640e-002 6.6900128295215480e-002
      -4.6036630228074873e-002 1.6954328028199009e-001
      8.7860526206954018e-002 4.1401520976931307e-003
      -9.8958192064283967e-002 2.2832671265700921e-001
      2.9276304552392968e-001 1.7929551068762986e-001
      6.0250448416096419e-002 9.2032509949601965e-002
      -9.3463492668498682e-002 -8.8019437772997949e-002
      -1.1142318935765912e-001 6.1997152870048207e-002
      -7.3095308205278806e-002 -4.3539333998084698e-002
      -2.4087318491641274e-001 -9.6690124233307070e-002
      -3.1828404539805785e-003 4.7790478185476153e-002
      -1.4879227774767656e-001 -3.7975219847792847e-002
      3.6685866454041716e-001 1.1056293714582319e-001
      -2.2200602265942879e-001 1.9953854121865874e-001
      -8.3972815316141133e-002 -4.4526157711445524e-002
      -1.3151188585669976e-001 -1.3335871895986059e-001
      1.4337703917340008e-002 5.3559087477542580e-002
      8.7824744785693090e-002 -5.7428809934668749e-002
      4.6587087501669490e-002 -5.5318029492672512e-002
      -7.7234992388677176e-002 -5.6334945633629493e-002
      3.5352991434560782e-001 -2.6459218962590288e-002
      -1.1932882421445702e-001 -2.1246169151091510e-001
      -3.3548210282141385e-003 8.6286185930910309e-002
      6.4157438717957774e-002 -1.2503653291851430e-002
      1.3670574494979895e-001 -1.3650880094915484e-002
      -1.4784555078478154e-001 4.4237934006442960e-003
      -3.7840955373272483e-001 -8.2276551794072880e-002
      -4.0735155473469176e-003 -8.1639659282659344e-002
      -2.1235026636394021e-002 -2.2263647294133301e-001
      -3.3781087888942067e-002 1.9596922543038903e-001
      4.8017802989627740e-004 -1.3061811448242894e-001
      -8.8689996792125025e-002 1.7591946930822688e-001
      -4.1527230636255437e-003 1.1167587928842926e-001
      -2.3509283464846289e-002 -3.5199731881465957e-001
      -4.8051784815057091e-002 -6.3583817461157946e-002
      -9.6810597912211256e-003 -3.2878090070321837e-002
      -7.4919409555060643e-002 1.4898405982171570e-001
      8.1998321909155791e-003 -2.0870887367847238e-001
      -1.4749510219542794e-001 -6.8773459341987545e-002
      3.5821938885999549e-002 4.3974951672124001e-002
      -9.5227096303411602e-003 -8.7557443592209711e-002
      3.3184811265419195e-002 -7.8002454947434685e-002
      -5.1080712603399081e-001 -6.7782787738481327e-003
      1.0849985992924156e-001 -2.3135186944265101e-001
      -1.2053794140074732e-001 -8.2061557701031435e-002
      1.5828217737955108e-001 1.1227522160439878e-001
      -1.0373865507696052e-001 2.1932962301220940e-001
      2.3591040053909124e-001 -3.1519921399916423e-001
      -1.1890857196161377e-001 1.1621227104404221e-001
      -1.4238920093527552e-001 1.5051658024443854e-001
      -2.3433975147823813e-001 -6.0233293546279633e-002
      2.1516773230804115e-001 -2.9769194710482633e-001
      -8.3399406311084612e-002 1.3232488359148920e-001
      3.2342017852093584e-002 -7.7522411657225798e-001
      -6.9454535794357009e-002 2.7855384904427377e-001
      -5.7949061055095535e-002 2.4492654600525515e-001
      1.8495242257438826e-001 3.5565470793921655e-001
      1.0207639585423686e-001 -9.7595681003920853e-002
      -1.7918152287440076e-001 -1.3204627774445454e-001
      -5.1665919409079575e-001 1.1568592231007239e-001
      -2.1726088904841950e-001 -2.1459441943887222e-001
      2.3537492265823459e-001 -1.8928658729905587e-001
      -1.5365401471539929e-002 -3.8019118216940026e-002
      -1.0661629057438513e-001 4.7262127789647099e-002
      -1.9960857260072079e-001 -6.1187353094740837e-001
      5.0453955638912099e-002 -1.5697321028590036e-001
      1.3622067912343913e-001 -4.7483847966745839e-002
      -9.0147656523325279e-002 1.4827151375895660e-002
      2.3627364127378595e-002 6.5469606562675142e-002
      4.4147570533160409e-002 -1.6449371314379922e-002
      3.3391103498111127e-002 -1.0786805126859718e-001
      -4.6346897261904947e-002 6.6102877787764844e-002
      2.0677109773783533e-002 -1.4599797507741355e-001
      -7.0209255399866249e-002 8.4401976924722205e-002
      -8.1551119177007594e-002 -1.8742820047334496e-001
      3.5045772703226161e-002 -9.0045762958179381e-003
      6.7414599294735464e-002 5.7839810664548658e-002
      2.0016959854806105e-002 -4.4278434561281436e-002
      8.6875576570895327e-002 5.2732015403956729e-002
      -2.5764451735377013e-002 3.9218139027730387e-002
      1.6875158187384658e-002 -1.2788977000834129e-001
      -3.2288789428049046e-002 6.7458359144200508e-002
      -3.3673440514662555e-002 -4.9328544558313536e-002
      -5.5490472031739776e-002 3.9292209220484160e-002
      1.5582553632575224e-002 -7.0200074102893861e-002
      4.2886678442058193e-002 -1.6084831890215180e-003
      -5.6599761057184582e-002 -5.2544916533569901e-002
      1.4346326386177223e-002 1.4055474398682849e-002
      4.5002860057951954e-002 3.6518633382077927e-002
      7.4509532842757624e-004 5.1925614231132677e-002
      -1.0115022303203661e-002 1.2807212187852805e-002
      1.6927334004083441e-002 4.3172797527518923e-002
      4.1352522982663321e-002 -4.8221563762607743e-002
      -4.4463547197218928e-003 2.0075300615435734e-001
      -6.7591063999534323e-003 -1.3492888462921654e-001
      4.6976359849701887e-002 -1.2089625646533479e-002
      5.5042263643339903e-002 6.0904714628495518e-002
      -9.8667901209453387e-002 6.6546702101175220e-002
      7.2767178874203337e-002 3.5776578263325073e-002
      -7.7644995657990795e-002 4.3661907623258930e-002
      -5.0285154098500279e-003 -5.3442300931019648e-002
      -1.1393506042119243e-001 5.0489515259344413e-002
      2.8772603215270658e-003 -7.4626876296316272e-002
      6.8896138985703806e-002 -7.8204158494402348e-002
      -2.1551118701022035e-001 -1.1648374581529719e-001
      4.5842626133347275e-002 -1.0066624904845254e-002
      8.7679060438118503e-002 2.7091195787937134e-002
      -4.2046730858474931e-003 -8.3316234096792688e-002
      -4.5587303639712556e-002 4.6680569074923323e-002
      -2.6829148787138175e-002 1.9239520003086794e-001
      -1.0367038574265110e-001 3.0056635809921625e-002
      7.1165583623883991e-002 -2.4286646864975628e-002
      -5.0820024133742939e-002 2.6324786814245934e-002
      4.1333152038572022e-003 -8.6070712969438384e-002
      -8.0475065832870882e-002 -3.0364806199769837e-002
      -5.8486161411043583e-002 1.6402470768054916e-001
      3.6459284175973050e-002 6.4869371320377067e-002
      2.7961956776647606e-001 -2.5838063491241962e-002
      -6.4734472476476373e-002 -6.0712529080342012e-002
      -1.0252443268287027e-001 1.2281797877534834e-002
      -5.9844468237915643e-002 -9.1259127976400109e-002
      1.0971323654596363e-001 -6.6631639124765205e-002
      -9.0431017468666636e-002 -2.0583632105651944e-001
      5.3811669374451442e-002 1.5636049522179313e-002
      3.6823124043854849e-002 -1.3966742580251651e-001
      2.7378343303145830e-001 1.4953299596156612e-002
      -1.0987871111903035e-002 6.7834755281203050e-003
      2.7650471323624810e-002 -1.1519214831724443e-001
      1.1256045344326206e-002 7.6436586183726965e-002
      -3.9702671206427967e-002 -3.4912036017719451e-002
      -7.8446859344400932e-002 -5.2039144321304881e-002
      -1.3883471738782570e-002 1.7459133705318053e-001
      -7.0841959143143979e-002 -2.1624119941194031e-001
      1.1711498976968222e-002 1.3253847467617791e-001
      -1.6582954687215359e-001 -8.8945352017661863e-002
      1.5580406617062800e-001 1.0228917773066044e-001
      -4.6423830155535334e-002 -6.3126234907235373e-002
      -3.2498911704661365e-001 1.2102433338858333e-001
      1.2169467612137495e-002 -2.9163258847624236e-002
      -4.7037567388090180e-002 3.4789111223273592e-002
      -1.9736493818562673e-001 5.7918473460808362e-002
      2.6458481500855068e-002 -1.5571787819982228e-002
      -5.2074097909381600e-001 1.3822856690587282e-001
      -5.9401805169385508e-002 -1.1478998919396848e-002
      -1.1829497526538532e-001 -7.1027660369966897e-002
      7.4502065690111319e-001 -3.6007420910095428e-002
      -1.0939605527047934e-001 -1.0582178067946554e-001
      2.0918803458130553e-001 4.2305916117273940e-002
      -2.3038432683116585e-002 -6.5066428727034178e-002
      -9.4493778600324735e-002 6.3331766416791779e-002
      -1.3095292792619448e-001 -7.8353606702676964e-002
      3.2209596797638511e-002 -3.0903180583588691e-001
      -5.0968179593482765e-001 9.1314125337020366e-002
      -1.3270310417570022e-001 6.1759988971518721e-003
      -1.1774693029717008e-001 -4.5645690579848019e-002
      7.5163702862105530e-001 7.2819622190187061e-001
      -1.1353581384843794e-001 3.3458351461125718e-001
      1.6332931806756376e-001 -8.0971918803608434e-002
      -1.2490325453891390e-001 6.0683599927958520e-002
      -3.3950229166069254e-002 -4.2755848543414535e-002
      -2.3190569660756866e-001 -7.3045337652781414e-002
      3.7918589242332768e-002 -1.3815071983434521e-001
      3.8476753061244227e-002 -2.0213381409205006e-001
      -9.2113974463959927e-003 -3.0432009997039041e-003
      -2.0724565150085414e-001 -2.0823819933803875e-001
      -8.6740512056597330e-002 -1.2439865837306699e-001
      2.7493349353260815e-001 -3.6622892297207228e-002
      -1.4048649607955288e-002 3.4172280731110470e-002
      2.5406936806244840e-002 1.2358947434633372e-001
      1.0710670192860582e-001 -1.2241665394620727e-002
      5.0866916253152566e-002 1.9437622774477781e-001
      4.7615708961808119e-002 1.2203886520792930e-002
      -1.5042647515083205e-001 -4.6476068202428514e-002
      -1.3099624140953395e-002 -5.4335934029369808e-002
      1.1808916388692192e-002 -2.1482646397706806e-001
      1.5751136101441819e-002 1.8098312892037646e-001
      8.3330525790472523e-002 5.0042352161735928e-002
      -3.2121064099619262e-002 6.9620276827044636e-002
      4.5568571384387885e-002 1.0471301420505767e-001
      4.1806025512236215e-002 -2.3134514764410134e-002
      1.2708313583797788e-002 1.0517767454317430e-001
      4.1909314014772374e-002 6.2708537490854685e-002
      1.3804755753465917e-002 -7.7518073139440244e-002
      -7.1321879759799603e-002 4.4543684370961498e-002
      -1.3737923774274080e-001 2.1885742673079397e-002
      8.3107620824091802e-002 -1.2867833949217333e-001
      2.4486273978511202e-002 -9.3452419086434303e-003
      -9.8897373286181936e-002 1.9644559508238235e-002
      7.7807138265392470e-002 -2.2222079709776247e-002
      -3.2199899477195988e-002 -4.3164723485499053e-002
      1.3749129303981211e-001 9.0327338020532472e-002
      1.5241996664938484e-001 4.7998116495479172e-002
      -4.2272984880737004e-004 -1.4860496674267065e-003
      -8.1249127010410288e-003 3.9667599520647051e-003
      1.6809850075155031e-001 7.6496998578053754e-002
      3.4352856060927799e-002 1.6948081222161315e-001
      6.6176099962593146e-002 6.1953154858808965e-002
      -1.6493755982812219e-002 1.6252149746802030e-001
      7.4793599725347770e-002 8.0597444692550022e-002
      -8.5037395550227268e-002 -5.8703477442637979e-003
      -9.3194969533191369e-002 1.6061113638652030e-001
      -8.2792611912126751e-002 5.2066780750199819e-002
      -3.7774128138795549e-002 -1.7189427934285542e-001
      -3.5563109153503745e-003 4.8442333187443815e-002
      -3.2989557883902715e-001 -2.9357874544559259e-001
      -4.5006583139075046e-002 7.0564566495850439e-002
      2.3349296569692252e-001 4.8649083484066748e-002
      5.2426565729378101e-003 4.9465925280245321e-002
      -1.7500562187851429e-001 -8.9528762827294529e-003
      -1.1913375000977747e-001 1.1279071131992308e-001
      -8.7915742129607830e-002 -2.3061853221704001e-001
      7.9684524478219068e-002 -1.7025783966151949e-002
      -7.2309606074119348e-002 2.0231406233279198e-002
      8.8690405885129969e-002 5.6887302115065722e-002
      -1.0182588011402382e-002 1.5319435636930850e-001
      5.1270954959002418e-003 6.3202572802158853e-003
      -8.4759341496802396e-003 1.1795585110892228e-002
      -1.3098778255394011e-001 2.9647110430820467e-002
      -3.7312229146602816e-002 -1.0067094035980682e-001
      -5.7332776409185188e-002 3.1746391836976057e-002
      -8.5423731684279774e-002 -3.7307923713318765e-002
      1.5428046541728929e-001 8.6406189474705075e-002
      -2.1538365553082257e-003 -1.3617138752764241e-001
      1.5278061632171516e-001 -6.8244589965128222e-002
      1.9471752227591413e-001 5.5822168860127780e-002
      -2.4612022752490338e-002 4.4533060656498182e-002
      -5.5236975328767840e-002 -2.1349077437966667e-002
      -2.4512829999973876e-001 8.2128690322113909e-003
      4.8424217521026755e-002 1.4742369601889490e-002
      -2.8455325294024766e-002 -7.4455676562780529e-002
      -4.7440560759712362e-002 -6.8451364955485372e-002
      3.2572807451211644e-001 1.6696628816950221e-001
      -1.8611015680878931e-001 -1.0397454270089510e-001
      -1.6748234698242562e-002 1.5791872617139838e-001
      -9.4169763643802737e-002 -9.1350803827841193e-002
      1.4036761636052947e-001 -1.9984318635197715e-002
      -7.0552864612232966e-002 5.8681498617205181e-002
      1.3426531807790967e-001 -3.3065833658329179e-002
      -9.6622124142556831e-002 3.5207419196158315e-002
      -6.4493893133465416e-002 1.5050020320662905e-001
      1.4815356330858355e-002 -1.3146126580982567e-001
      1.5539079826648436e-002 -1.7139741618577600e-001
      -5.4391017514894036e-001 -1.7987534570087223e-002
      6.2084642050680060e-002 -2.2784219915029758e-001
      -1.1959951431918206e-001 -1.1610938765212621e-001
      2.2857491153275106e-001 2.4825195827961030e-001
      -1.9408333778013781e-001 1.7840402046421674e-001
      2.2150250272684047e-001 -2.2992314984972292e-001
      -5.2349645711514979e-002 6.3983884368584029e-002
      -8.5513354303490732e-002 1.5742356914878153e-001
      -1.2656995518590980e-001 -3.7782900530260360e-001
      3.1454728818080355e-002 -3.1568146178143769e-001
      -2.5322771905666352e-002 5.6239256738278023e-002
      -2.1377968174334672e-002 -4.3372471808148974e-002
      -1.4223409935963466e-001 -5.4845479100145474e-004
      1.5777807606903255e-001 7.3106693899862385e-001
      -1.3010951777911839e-001 3.1831000040229751e-001
      2.1967803935965224e-001 -1.2155085124506262e-001
      -1.1707343134320627e-001 -1.1139845962635833e-001
      -6.1593936771423596e-001 -1.7620481921807238e-001
      -2.2294678547096597e-001 -3.4904913219347278e-001
      2.3262191605785162e-001 -1.3828645222098276e-001
      3.0142476022907951e-002 -4.0047820185449279e-002
      -4.1733083217926251e-002 -5.7867187082119610e-002
      5.9333563454531876e-002 -1.4329656758760412e-001
      -1.3307158459492449e-001 3.4321594708275741e-002
      -1.6951527978471929e-002 -1.6157901023552634e-002
      3.6854619058861476e-002 6.6095734015759106e-002
      1.4403250643832528e-002 -9.6606647345430244e-002
      1.0195836945001630e-001 -3.1864705010341068e-002
      4.1806941119758169e-002 1.4284583218063196e-001
      3.9346946413498791e-002 -1.3677101440551278e-002
      1.1443316094841092e-002 5.3348918384436103e-002
      -2.7803507509820254e-002 5.0351447493154247e-002
      7.0647873971985728e-002 4.6841405094996839e-002
      1.6195163252812064e-001 -1.0207502077945513e-001
      9.9887153463877068e-002 -4.1794091142083392e-002
      3.6388739697097855e-002 2.7125271623449840e-003
      -4.6133007803555396e-003 7.2552127087356949e-002
      4.2404489688106353e-002 8.0248752435540416e-002
      2.2389206563837347e-002 -5.3575065660398706e-002
      -1.4198535672319271e-002 8.2144650567121169e-002
      7.1040213161380414e-002 1.4339744765468843e-001
      -2.1550112462692495e-002 -5.8495932847417380e-002
      3.6087809462222911e-002 3.0745474281848921e-002
      -6.1624294197298972e-002 -1.6206459992426880e-001
      1.1781848004070439e-001 -1.7138071188001336e-001
      9.9499052544027175e-002 3.5742045286072804e-002
      4.9631765352034524e-003 -1.3797263189424111e-002
      -8.5429235604109949e-002 -2.5375622803025747e-002
      2.0770542718054319e-001 -3.8505516723945386e-002
      -4.0440290846202209e-002 9.7288897131758645e-002
      6.2084393065408597e-002 1.2419699986630105e-001
      5.9871592876222152e-002 -4.6098783305900733e-002
      1.3930738940667434e-001 9.0398623306772868e-002
      -6.6594182718530195e-003 -8.6529229576342598e-002
      4.7631589733030021e-002 -2.5525964905472230e-002
      4.7735768056256511e-002 -7.0143841443063154e-002
      5.1149195468685738e-003 -8.7571376337009108e-002
      -2.6243346944397075e-002 -1.1558234449957613e-002
      9.7361929719171389e-002 -5.4505970700875685e-002
      9.5152547612358820e-002 1.2183443315719364e-001
      -1.0804895572015923e-002 1.6354974654647403e-001
      9.3461542824788447e-003 -1.2707519108773219e-001
      -1.4177185647071977e-001 1.2262739030598632e-001
      1.4408336170291994e-001 5.1297143125426908e-002
      -3.9682358199606582e-002 1.7610861460444474e-001
      1.8979067992313015e-001 -9.3046995689425357e-002
      -3.8938732117669357e-002 -3.2029660132153588e-002
      -1.7644872395135269e-001 1.9609411256723089e-001
      4.5044324011146122e-002 -1.8345572775384869e-001
      -3.3848827818802739e-002 -1.4673576305976915e-001
      -5.3795732195599097e-003 -5.5058579948124124e-002
      9.3766786856834816e-002 -1.6980815627035725e-002
      1.7987924759065497e-002 -5.8619516723020385e-003
      9.1820511412187431e-002 -1.1242314711688903e-001
      -5.1641582783864104e-002 -2.1750710811444413e-001
      3.0320738295468361e-002 3.2246901484338251e-002
      4.2797848689505619e-002 -4.0288814638617734e-002
      6.0753911043701168e-002 -2.3642633632803883e-001
      1.4130143879152962e-001 3.5816351710251992e-002
      3.7803553819038598e-002 1.4551260795045107e-001
      1.7361940825465605e-001 1.5813983649081556e-002
      4.4500309547031450e-002 -1.8176269142083157e-003
      2.6242550320223862e-001 -2.8009755585486663e-003
      -1.2057462965093921e-001 -5.6508939682208464e-002
      4.4659225461672974e-002 -9.1014639194725910e-002
      -3.3164751927496988e-002 4.7679369659516302e-002
      3.8961072447113651e-002 1.2287013240098928e-001
      4.7969239219945281e-002 1.2770943020699824e-001
      5.6764723502408056e-002 1.7233330255187776e-001
      1.9145825837970632e-002 1.7207774148582011e-001
      1.3220175307591651e-002 8.5605974630096171e-002
      -1.4744871001157935e-002 8.1495132133846987e-002
      -6.3968071602044194e-002 -7.8150170582303238e-002
      1.5692363336773321e-001 -5.2152701890205828e-002
      -6.1849198266818631e-002 -1.8524133796029539e-002
      -1.3337363447467500e-002 2.9873614421314816e-002
      -3.1673196743738023e-002 7.9078841406555689e-002
      -8.7534604970625096e-002 3.6123628687290944e-002
      5.8211394246743759e-003 -1.1379192516143230e-001
      2.7206110292639623e-003 -7.1151152418455349e-002
      -5.4694485748552812e-001 1.8766834398450580e-001
      1.7023749661967108e-001 -2.5877267684844063e-001
      -1.2088367484792943e-001 3.6353055675139773e-002
      2.0034066776389398e-001 8.9744873652148255e-002
      -1.7887893440094690e-001 1.4697102680467819e-001
      2.2207509189843272e-001 -3.0929180677447538e-001
      -1.3946759577522719e-001 1.2291725039194418e-001
      -1.5415073137803192e-001 1.3931098753350682e-001
      -1.6990246024569075e-001 -1.0705745092903907e-001
      2.1860980640412236e-001 -3.2520602728118680e-001
      -2.1773352912424340e-002 6.7426766239627886e-002
      5.3364464398660279e-002 -2.1752097721776709e-001
      -2.7624839922102202e-002 2.7271639413384363e-003
      -5.4645640265803437e-002 2.5159213656789559e-001
      -1.0181816534168241e-001 3.6467932510139328e-001
      1.1316204696107723e-001 -1.0287896759006693e-001
      -1.2929514443590984e-001 4.2210628431875235e-004
      -4.3646788470999259e-001 2.7739924623621872e-002
      -2.1132980245360294e-001 -6.9685796062082195e-001
      2.4968913578141722e-001 -3.8597883541800958e-002
      -3.2967922415595576e-002 1.3460939464940658e-001
      -4.1246766430836038e-002 -3.8114830312664431e-002
      -2.0484055245326910e-001 -1.0144679605718901e-001
      1.0502650024811459e-001 2.3969480556822541e-002
      1.5196570570935145e-001 3.6517447815434478e-002
      -1.4591179930778849e-002 -2.4412402366442595e-002
      -6.7606195952824161e-002 1.5704395798822254e-001
      4.6180903614726019e-003 2.2866662362508341e-001
      -1.2179618422718986e-002 -8.5213742987910374e-002
      -1.6573682370416655e-002 -6.5044127152053877e-002
      -2.1136584265043614e-003 -9.2764859543783246e-002
      2.1943510347308605e-002 1.1918498850407330e-001
      6.3820437241904629e-002 4.9601025939664867e-002
      1.7315885186694452e-001 -8.5425414718028711e-002
      -2.0367047601884913e-001 -1.7230184375181004e-001
      -8.1747684776038110e-002 -7.9283229624413885e-003
      2.9985063474916217e-002 -2.7688642014216794e-002
      6.9172453150991589e-002 -7.6656053861093337e-002
      9.5608554015235075e-002 5.1996225884889453e-002
      -3.7275860121873582e-002 7.3663574117817959e-002
      3.5058998826916314e-003 -3.9076666525582476e-002
      4.4313821348212781e-002 -1.7185624150275444e-001
      7.9032212368944380e-002 9.0994287412574176e-002
      1.5075182317039196e-002 -9.2631753435240494e-002
      1.0273617559451399e-001 -2.9604513534972215e-002
      -4.0260358307428634e-002 1.7322278157069129e-002
      1.0285109789981349e-001 7.3587561857579351e-002
      -8.7083302611873359e-002 -4.3914025208460702e-002
      1.2633011225544138e-001 -4.2730013137120739e-003
      -7.8649296355527750e-003 1.3470520738585284e-001
      2.4158652303746617e-002 2.6572524034413160e-002
      -8.0124343918721502e-002 7.7807953725816306e-003
      -7.2753088916894179e-002 -9.9824615995593252e-002
      2.5536428196414752e-002 -1.9278430272424370e-002
      1.0686805576749180e-001 7.9304154088728845e-002
      -2.0155260864441232e-001 1.4261824656980468e-001
      3.1193166621503923e-002 4.3470722261868863e-002
      2.1232569791397343e-002 -7.6058657732925708e-002
      8.6256629456917824e-002 -1.5282987795793391e-002
      -1.5196638236766265e-002 3.4132060073671026e-002
      1.6167114979060412e-001 -6.8196036848873237e-002
      1.8952316765551910e-002 -8.2213850910356698e-003
      -6.7976291422811377e-002 -2.1221088144844921e-001
      -9.6993927003942146e-002 -1.9932453270272915e-001
      2.4135632545395075e-001 -1.6215894051887192e-001
      -3.1889147015155030e-003 -9.1862154722883969e-003
      -3.0005566334393729e-002 6.3671316796408722e-002
      1.6791289168457693e-001 5.1292025526752466e-002
      1.0829526073670359e-001 4.0353503833999160e-002
      -7.7840997418076374e-002 1.2285041212755304e-001
      2.0937837847409282e-002 6.1479752247872610e-002
      1.5473474110857451e-002 -5.9665719650320498e-002
      2.4237789504691160e-002 1.6147685847376739e-001
      -6.7446181521989432e-002 -3.0144112014265079e-002
      -6.3977305472098017e-003 2.4001133365798280e-003
      -1.2256616676639118e-001 1.2044567529725349e-001
      5.8041634752221745e-002 -2.1170323463948107e-002
      -3.4225637096428681e-002 -5.9817956067572675e-002
      9.8278865263944873e-002 -3.5258506137794424e-002
      -6.1314518581634149e-003 6.1796968044282835e-002
      1.5501061106627665e-002 8.4638789725714064e-002
      -2.9009758886661904e-002 1.7611678580008029e-003
      1.3126104550238252e-001 1.4279665208461266e-002
      -1.5582977522599784e-001 2.8592108461894417e-002
      2.1126447496521886e-001 -2.8911238913551473e-002
      3.4915835552345037e-002 1.2149096655737260e-003
      -4.9784342792219972e-002 -1.4578651549211966e-004
      1.4409752116849313e-002 3.2222231969150555e-002
      -2.0000413982077928e-002 5.7768066908831087e-002
      -1.6341287995124423e-002 7.7207209011868311e-002
      -9.8862418669405060e-003 -2.0407835729302415e-001
      8.0021444209838782e-002 -1.0526675002684246e-002
      -3.7155782815783620e-002 -7.4096632651503860e-002
      3.1116267674869513e-001 2.9544630301417570e-002
      -7.9723182263110051e-002 -6.3916303188464516e-002
      4.7817676174735238e-003 -7.7138916715010025e-002
      -5.8703410595895240e-002 1.1668599491208947e-001
      -3.6292765478728221e-002 2.7799687439414245e-002
      6.5945374192080911e-003 -8.2336058481551608e-002
      4.0511670254969705e-002 1.6994136813257257e-002
      -2.0773357589770255e-001 -2.1573750300552669e-002
      1.0982688311068801e-001 -2.5581277678758246e-001
      -1.2977709182748526e-001 -6.1563305195212879e-002
      1.7838078166020566e-001 2.2106958859415729e-001
      -1.3727358292397063e-001 1.3789159997363176e-001
      2.2847248769912085e-001 -3.4115125041618510e-001
      -1.3401826563169003e-001 1.3781019616016096e-001
      -1.3915434033940116e-001 1.7249603991053047e-001
      -2.3339411933883017e-001 -2.2549157978059031e-001
      2.1543649241877211e-001 -7.2044671328911181e-002
      2.8514453765824122e-002 7.2516027646179815e-002
      8.2987502682967673e-002 -7.6451412475638880e-001
      -2.7614428093491059e-002 -4.3104755891176114e-002
      -1.2131907878360265e-001 1.9863140396165560e-001
      -1.3330837043722638e-001 3.0665475315978791e-001
      8.2619079517640109e-002 -1.0147926239304705e-001
      -1.1831838626471577e-001 5.7714931710510557e-002
      -4.5188166115369394e-001 1.0766290538678523e-001
      -2.2418833903425794e-001 -7.0747973064558878e-001
      2.4015535577921701e-001 -1.1418088220751049e-001
      -2.0234844231482099e-002 -1.0603840304777312e-001
      -1.1590663034734648e-002 8.2530291516520360e-002
      1.7710188718077183e-002 -5.2960815181980224e-002
      7.3155383562863177e-002 1.0013030733718402e-001
      -2.9292204129139316e-002 3.7511013583279386e-002
      -4.6896199011244567e-002 4.0501794032757410e-003
      -1.1789490741648544e-002 1.7879920082290123e-002
      -9.1744068345425756e-002 -8.2744611687500160e-003
      -1.2816580111601170e-001 -2.8968937545395930e-002
      -3.7877937933895114e-002 -6.5686042182706763e-004
      1.1637519893914450e-001 2.0292190505312807e-001
      -7.6402876561771022e-003 1.3090388253281707e-001
      -1.1182009106855344e-001 6.8787491538215687e-002
      -7.3773747009559548e-002 -8.3012765046391171e-002
      9.7992639511751495e-002 5.8904347495380621e-002
      -1.3025592774927594e-001 7.8248583193139612e-002
      1.1115096425938009e-001 -5.5657255675061960e-002
      1.0281230441407890e-001 -3.0088684968661194e-002
      1.2527893686361155e-001 7.6011829100195577e-002
      -7.7709629307644440e-003 7.1530671630423925e-002
      2.0731605014471793e-001 2.3246368239012452e-001
      -1.3639380922047961e-001 1.0888367574168223e-001
      -1.5327484261820620e-001 9.9220923610137735e-002
      4.2673365560721342e-002 -2.4280723406660906e-001
      1.0376848009209790e-001 -2.0278826603585892e-001
      1.4246959981316587e-001 -4.7273594771101768e-002
      8.9047546743179509e-002 1.3059019074957190e-002
      1.4400209387164143e-002 -1.7352793223266461e-001
      3.5433257722034633e-001 -1.8951033611960138e-002
      -7.7331132642503603e-002 1.3159457067560432e-001
      9.0973104187763748e-002 1.5943153749627736e-001
      -7.0939799113231714e-002 1.6888787815460618e-001
      1.4785532248639810e-001 1.0071240825134173e-001
      2.4007764267253075e-002 -5.2349039577178090e-002
      5.6893306048676401e-002 -1.8977951933789880e-003
      8.8278884294736390e-002 1.0128261030818476e-002
      8.4883145978577823e-002 1.7878124273321622e-001
      4.8021670271469974e-002 5.1225465013406803e-003
      9.5691598664451510e-002 4.1608656172316030e-002
      -2.0290204240919787e-001 1.1882166164216798e-001
      2.9466476645823442e-003 3.0058133866777335e-002
      5.5927155034158890e-002 5.2804130761140475e-002
      -6.6364941842660896e-002 5.4896101117444737e-002
      -6.9301032368503622e-003 5.5273725400669591e-002
      2.1909426101224375e-001 -3.4197241237510431e-002
      -5.2748292712927261e-002 -2.4621441267332178e-002
      -4.2667408235494947e-002 5.0573461156544340e-002
      -7.9937614784413191e-002 1.2192146466966089e-001
      -8.7642123703338862e-002 -1.0285193675036705e-001
      -4.2780711496667720e-002 1.3356839392924991e-001
      -2.4672362371402651e-002 1.7688016711797336e-001
      -1.3366240942639493e-001 9.1936039635614558e-002
      -2.0944661373583826e-001 1.3096496513428760e-001
      1.5659733782541646e-001 -1.2748607512079199e-001
      2.7616285115620343e-001 -4.4878821893985857e-002
      -4.8202880153172277e-002 2.0996235910849814e-001
      7.6972691236415522e-002 1.2258007085569740e-001
      -2.4415805453706408e-002 -4.7501680898105816e-002
      1.3444165989089990e-001 1.1919688818964100e-001
      -1.9805151274817101e-001 3.8988455384984563e-002
      8.5375713207127939e-003 -1.2033111252553567e-002
      6.7863503803329464e-002 -1.6197925105668486e-002
      -1.3051367241153782e-002 3.9988266969708898e-002
      1.1872400299289117e-001 7.1839299687139230e-002
      5.5909592329170685e-002 -8.3513404060917201e-002
      -6.7923081103059932e-002 1.7905045000586265e-002
      6.9033672959039866e-002 5.2182572590827647e-002
      9.5931147028673461e-002 -9.4364554500714737e-002
      4.5355235473771335e-002 6.6483861572979711e-002
      -2.7268515698411443e-002 1.3056692026713132e-001
      -1.0473405126338646e-002 1.0325039685409607e-001
      -2.1363208945613027e-002 -8.9531835164452615e-003
      -9.2569436106418643e-002 -4.9631611986450455e-002
      -3.6114150573946874e-002 3.3828464498042596e-002
      -9.0949970543956746e-002 1.1134720433712673e-001
      3.5778681780148931e-002 -1.2557891617981656e-001
      1.0758510165913436e-001 8.5901322020749932e-002
      2.6096888556504699e-002 2.7407828983974793e-002
      4.3846853819076125e-002 -8.8562384737198324e-002
      8.3568623930720093e-002 -7.7397104633583791e-002
      -4.8951002749407824e-001 1.5503715906879048e-001
      3.1260911561922888e-003 -2.0639371744624865e-001
      1.6826350809267526e-001 -6.9008185803871649e-002
      3.2723726619632014e-002 1.2547111694469401e-001
      -8.7455281142947289e-002 2.0279716027494682e-001
      2.0222298957742094e-001 -3.3192502862781276e-001
      -1.2065369433163051e-001 -7.4378052245774873e-002
      -7.6522616979083968e-002 1.1816537479517202e-001
      -6.2909788342510237e-002 -1.4195987931728390e-001
      2.0402991089324085e-001 -4.8788593331557509e-002
      7.4169978239396736e-002 1.0772625579346108e-001
      1.6415199630785898e-001 -7.5214887386861673e-001
      -2.9868759205843934e-002 2.4351341141944116e-001
      -1.0026872770839178e-001 2.3136419443845194e-001
      1.8352319664901312e-001 3.1824476483223119e-001
      6.2194805080862794e-002 -8.5648136285724194e-002
      -9.6037728054653368e-002 -1.4623626074363533e-001
      -6.0486033290345076e-001 4.5790519317164449e-002
      -2.3146160182927383e-001 -1.4527790350607238e-003
      2.5892498491068938e-001 -1.8752017172301585e-001
      -5.9075368809505528e-002 -8.0160713295563499e-002
      -1.2578408289236603e-002 5.6456059859606798e-002
      2.3518307083347248e-002 2.2075071892854558e-003
      7.8461816836447054e-002 1.0863993338954291e-001
      3.8042103428880861e-003 3.7373886509815657e-002
      -1.2857112594590583e-001 8.7310583548882862e-004
      6.4418047455859547e-003 -6.7831751033212831e-002
      1.8052837034510289e-002 -2.4672168089124105e-002
      -1.5516636013569571e-001 -1.1780310041422637e-003
      -7.2182826657131688e-002 -1.8565286447569704e-002
      5.9486491392453017e-002 1.6371704858794991e-002
      -9.7912568595796542e-002 9.8982271993701618e-002
      2.5018399113019363e-003 7.9908888887088303e-002
      -1.0056859815429638e-002 -8.9436316181583236e-002
      -1.7409853249339727e-001 -1.5218519255509436e-001
      -1.5585784184796458e-001 7.5183006047937734e-002
      9.5844311317903622e-002 -8.7021779001129583e-003
      7.9569623588097951e-002 -2.0491210113204072e-001
      1.6281575756965028e-002 8.6897633352766221e-002
      -9.5796856806191523e-003 4.7727100205442680e-003
      -6.6044221666570896e-002 -6.4157757126904105e-003
      -2.8487648919429141e-002 -9.7487682867269443e-002
      2.2012435614945713e-001 1.1497904171668001e-001
      -3.3660852560318838e-002 -7.0251167704732928e-002
      5.6212906624588013e-002 7.8310454343606534e-002
      3.0218597201214639e-002 -7.9851892367645338e-002
      1.5695260466851924e-001 -6.6818273897912952e-003
      -3.4665668154169167e-002 -1.2689190547496779e-001
      4.8846630650144510e-002 -2.4664517861677386e-002
      -5.3171128333630458e-003 8.0143877857454068e-002
      3.9427198161078064e-002 -4.7351635071843784e-002
      -8.6921784154139800e-002 1.0057018376715268e-001
      6.0696059285718022e-002 6.1413190308573243e-002
      -2.5720918851566705e-002 -6.9604167199728270e-002
      1.9622111168000930e-001 6.0806541753575805e-002
      -3.4854387069446230e-001 1.8502498286854416e-001
      1.4546167503032317e-001 9.7031168170428117e-002
      1.6784404993170909e-002 -3.9952802804643590e-002
      -5.9615315414307875e-002 1.5763697818145467e-001
      -2.0640954412926052e-001 -1.6089238569220406e-002
      7.9994994065569702e-002 7.7139635890094205e-002
      -1.3305322088218244e-001 -1.6602333585918200e-004
      1.5991110617746679e-001 5.4582839230703610e-002
      4.2660491454700284e-003 -3.0325314353662469e-001
      2.1017493886461411e-001 -6.9102206399796903e-002
      -4.5269463689330838e-002 4.8808539805455117e-002
      1.6259479199209820e-001 1.3269517134979497e-001
      1.5580991270308794e-001 -6.9835748794621955e-002
      5.0172950140952119e-002 1.4635246961384571e-001
      -1.1014810929702816e-001 9.5426646118943331e-002
      5.5741320984604048e-002 6.1282669571489368e-002
      1.0229719206267421e-001 -6.6633602385170437e-002
      4.8688522900193071e-002 1.5110012412554549e-001
      -6.8610416145121270e-002 1.1435077883861840e-001
      2.1185968259766829e-002 3.8311218734266269e-003
      -2.4879802709316303e-002 -2.0557538312241852e-001
      -6.3768603952668854e-002 -1.0520731467790005e-001
      -7.1766723198413110e-002 8.4780591772983610e-002
      -3.0761971715129693e-001 -1.4222928239331112e-001
      -2.6002151843175576e-002 5.7633449890013747e-002
      -8.0157450044426194e-003 5.7258967703971125e-002
      -2.8896424100401271e-002 -4.4288646681670478e-002
      -3.5603852058359768e-003 2.1087092633897167e-001
      -1.0623565677432097e-001 9.8343488750063796e-002
      1.5734277601173569e-001 4.5293048357982243e-002
      -8.1633757033168081e-003 -2.2285136590317847e-002
      -7.4240893668821029e-002 -8.3291970919646199e-002
      -9.5638707914564677e-002 2.2210812022685322e-002
      -2.1390353137489415e-001 5.0621959895814743e-002
      5.3020279265520331e-002 -1.8323959850739124e-001
      1.9836395495436998e-003 8.2658991452460445e-002
      1.1706440167015222e-001 -9.7078587217931639e-002
      -4.2238857511702459e-003 -5.3477650122591015e-002
      -1.5393596484325808e-001 -1.0907784948460522e-002
      -8.3258462831544422e-002 1.3293480460418966e-001
      1.8032705745353192e-001 -5.0990958828235143e-002
      -5.2112114059175069e-002 -5.0423816080159174e-003
      -1.2671717808846891e-001 1.5219561911298016e-002
      1.8104600312364955e-002 -8.6388924491550639e-002
      6.8374622505622651e-002 -7.5967133677601245e-002
      -4.6855800033023570e-001 1.9506927558735104e-002
      -1.6691374023598649e-002 -2.1666829749511787e-001
      -2.8233956058874027e-001 -7.1738830643729226e-002
      3.7757789883976114e-002 1.0773121200055114e-001
      -9.6844268103187414e-002 2.1764067487529318e-001
      2.4482270060574493e-001 -3.1884998239027901e-001
      -1.3673275323894307e-001 6.3054432202269890e-004
      -6.7142040553370197e-002 1.2599725833226283e-001
      -9.8774374474488308e-002 -2.2941647968524809e-001
      2.2063301728501891e-001 -6.0016783527073472e-002
      4.8274005473718767e-002 1.1117793084926979e-001
      9.8772999959812133e-002 -7.7894201773252392e-001
      -5.7093670549114968e-002 2.2085637469853220e-001
      -4.0574209044694769e-002 9.4728436597436416e-003
      -2.7992205296427236e-001 3.0456725486231606e-001
      8.7419764496350499e-002 -9.4962302702587112e-002
      -1.1779087212337129e-001 -1.7697263243311714e-001
      -5.9694681203661037e-001 1.1726654247085987e-001
      -2.0590310772100523e-001 -1.3837914509991053e-001
      2.4907385998482856e-001 -2.5213380342094127e-001
      -5.6661862366548479e-002 -7.5657994355717614e-002
      -3.7003540267722963e-002 4.1848115434928286e-002
      3.4326800305155274e-002 -1.1319586863506759e-002
      1.0089409016411284e-001 1.0832922139824482e-001
      -1.0096259874419936e-001 -1.3135034893987197e-002
      -4.0559761249158409e-002 -4.3022403778293621e-003
      4.5813774931015207e-003 -3.8655799088437630e-002
      -4.6318122330966022e-002 3.5497612699062833e-002
      -1.3460932773109893e-001 2.7635056511119017e-002
      -3.3883609519931614e-002 -3.2131838275691160e-002
      -8.5801707062845341e-003 1.1736243937957344e-001
      1.2153330234754307e-001 -1.3045542897589277e-001
      1.7060943225906205e-001 9.1475528601831502e-002
      -4.8925300133874090e-002 7.7968562664781369e-003
      -2.0537895974011292e-001 -1.7735905755874280e-002
      -1.6873777885124931e-002 3.6523008757258321e-002
      8.9292377813662185e-002 5.4597940830000170e-004
      1.7605822645435022e-002 6.1498728938026687e-002
      1.8837544712355922e-002 9.1231442678945951e-002
      -2.2095497596875274e-002 3.0534713620747726e-002
      2.0960641709023989e-003 -3.8021969456623533e-002
      3.5318554502209817e-002 6.3868712119295332e-002
      5.3100639742994102e-002 9.4027194557597046e-002
      1.0906409073441954e-001 -2.8686000554862635e-002
      -2.9556924438895061e-002 -9.2641268338716762e-002
      -8.3585369812159069e-003 -7.1227012159009714e-002
      6.4780069966161443e-003 -7.7704920440875421e-003
      4.4340260840955853e-002 4.2798248297688544e-002
      8.1788652401148978e-002 -2.7180782659086598e-002
      -4.0380163831518767e-002 7.7959799909502026e-002
      1.2684789584516307e-001 2.6276334168934570e-002
      -1.1108983864049531e-001 2.0215974109409132e-001
      2.6710364522341216e-003 2.4989475746403297e-002
      1.5255173296437708e-002 -1.0855624044314184e-001
      1.3606153518529462e-001 -7.8872490053705033e-003
      -1.0565458561045313e-001 2.3031120586357190e-001
      1.1659395236763526e-001 -3.3241169744805149e-002
      6.0772770602392431e-002 -1.7776436194344966e-001
      1.0554634954946802e-001 1.4559518146500891e-001
      -2.3836512583382946e-001 4.2691659120959895e-002
      -5.0062385636786035e-003 7.8872835994789989e-002
      2.4207111869267720e-002 -4.9248337424105185e-002
      -6.4541474035726715e-002 -6.9847347550910516e-002
      -5.3012363273931572e-002 5.5322590419936951e-002
      -4.0081539990823548e-002 2.2327046554355214e-002
      6.9778953982719980e-002 -3.0373709600675005e-003
      6.5328824578659503e-002 1.5822724652718573e-002
      7.2853657592244964e-002 1.0369700830635879e-001
      7.6907084180420967e-003 -3.9876868052990677e-002
      -5.8711296566750365e-002 -7.5497264252154458e-003
      5.7749377831287696e-002 8.4616069141294631e-002
      1.0627827760126256e-001 -7.8312803291890817e-004
      2.0419949182028310e-001 2.5285985468028072e-001
      8.5325424336795755e-002 1.3752109122112177e-001
      -9.5802755289089048e-002 1.7777722849470875e-002
      9.1053767471518693e-002 -1.2297714614117696e-003
      6.3322418808696351e-002 -1.3639578800967006e-001
      -1.6650928266973113e-003 1.4409997294033000e-002
      -1.3701387796625285e-002 -5.9733336590713469e-004
      -1.0641267864620868e-001 7.4604123248020265e-002
      1.5456380677416340e-001 9.7271241934803687e-002
      5.0598399072342655e-002 8.4368097480696347e-002
      -6.0448596630837355e-002 4.5589020672574448e-002
      -1.6472265476853670e-001 2.7755784495919894e-002
      1.5041560581345553e-001 -9.5339323148096677e-002
      -1.0726864120261349e-002 2.6613211958999961e-002
      -1.5049861813184299e-002 -1.2433612307045819e-001
      2.3648964549670450e-002 -5.4419846350118803e-002
      -8.8315324592687528e-003 -4.7789865053716553e-002
      1.0816110593997046e-002 1.8987842925967616e-002
      -4.3318011939665391e-002 3.4747653475969198e-002
      1.5237362600876497e-001 1.0331457918906387e-001
      1.7639486528210921e-001 2.4104550835598665e-001
      -1.4975261487818765e-002 1.2444688770505255e-001
      -1.0102985039367259e-001 1.1409627281231931e-001
      -8.5926981887016224e-002 -8.0382724964797619e-002
      9.5220335432249087e-003 -5.4156929622524691e-002
      5.4026471048698253e-002 2.1430441079532328e-001
      2.3999927098330544e-003 -1.3930657211502273e-001
      3.1910431740721279e-002 8.9347498206777301e-002
      -2.0360377836270011e-001 1.6701253138756031e-001
      1.0075316890041579e-001 -2.1748374849228691e-001
      -1.0877816391004287e-001 -9.7349950027475429e-002
      -3.2469853237303677e-002 1.1584719685434483e-001
      -1.0644901004418528e-001 2.1975459212532591e-001
      2.6043059248270289e-001 -3.1978116740054152e-001
      -1.4075417448260044e-001 -1.2957109415701738e-002
      -1.2302341460347180e-001 1.4113610158313697e-001
      -2.6156627320616094e-002 -2.6352790017579697e-001
      2.2454805858607721e-001 -2.8743678263448996e-001
      -9.5627425265315674e-002 1.0577213375918522e-001
      1.2668181756573221e-001 -1.4491643575772811e-001
      1.2462292770768182e-002 1.9172199997934916e-001
      -4.4986328494827379e-002 1.2165636147151988e-001
      -2.6897786947380298e-001 3.0607656117750792e-001
      9.6555308327471889e-002 -7.8529972827392311e-002
      -1.4886369659576393e-001 -2.1050113621449801e-001
      -6.0472659151456953e-001 5.0523896608737698e-002
      -2.1721383483300560e-001 -1.2416532228420485e-001
      2.3290618676762062e-001 7.1653982933774910e-002
      -3.7446340746965914e-002 -6.3178753125010173e-002
      1.5855335074814347e-002 8.4197902566412672e-003
      -1.8788351558327290e-001 -1.4281875728973947e-001
      5.0409761183204498e-003 3.8106761172543857e-002
      2.1066711444210403e-002 4.4140109065799689e-002
      2.1055711911825845e-002 4.7082236826379013e-002
      -1.0836138355167446e-001 4.6513113272871141e-003
      -5.4609096564062216e-002 3.2646547410531537e-002
      5.4423749139587314e-002 -7.2847009706739754e-002
      -2.0982038577628880e-002 -1.2471048740679257e-001
      4.2453902451875490e-003 1.0753574339455463e-001
      1.3317167573373431e-001 -1.8767616044708035e-001
      2.4669527091623442e-002 5.2984346654497826e-002
      -2.2596279856797355e-001 -4.7464325927298615e-002
      5.9802259073867686e-003 9.1487521327609150e-002
      -1.5510195184293810e-002 -6.8163025459508295e-002
      3.2756345648241744e-002 -1.3016919426018314e-001
      4.8075475013137081e-002 8.0171310072488277e-004
      9.5247143871402068e-002 7.7293485509749349e-002
      2.3835513739570277e-001 8.4604792834581805e-002
      9.9513151431069383e-003 9.8265313706691046e-002
      -2.0262771929454818e-002 1.1645401042804671e-001
      -2.0590644690620203e-003 -1.7467560531893821e-004
      8.0074381869187958e-002 -1.4616016295684564e-001
      -1.7459916007775611e-001 -1.0554979893511700e-001
      9.1296464834046659e-002 3.2824089604664861e-002
      6.3575729378713128e-002 5.9553249350314176e-002
      4.9709318243166684e-002 -5.3058203880511148e-003
      1.3489757850558978e-001 1.0613507431406821e-001
      -1.7791921648416115e-001 -7.1206999660285058e-003
      -4.2322747424795734e-002 -1.3735148887578816e-001
      8.4112593401318950e-002 6.1608777273538126e-002
      1.5707509822530394e-001 -6.8256805322997993e-002
      8.4597523952206682e-002 9.3416868729492855e-002
      -7.8821791000933075e-002 -4.1146021752011350e-003
      -3.7034251329230168e-002 -3.6115202663237429e-002
      2.5052699916799964e-002 -3.1262395223339554e-002
      -3.7888787696643049e-002 9.4723744244561689e-002
      -6.7088551492962986e-002 -1.9200538796305362e-002
      -2.7840287793030844e-002 1.2860601072471248e-001
      1.8292978701866044e-001 1.2044388182679436e-001
      1.1719863965426283e-001 6.4378790681310499e-002
      6.0980978567272207e-003 2.8274509998420627e-001
      -1.9002356217761310e-001 3.8137108038229593e-003
      3.9122109187579940e-002 -3.4224396838988383e-002
      3.1170632162052184e-002 2.3497638655678721e-002
      -9.9636812498211089e-002 -3.0613136565059945e-001
      1.0144990889406520e-003 -2.8042095560012539e-002
      -1.5499081490979488e-002 3.1345185603566937e-002
      1.6427642676288193e-001 6.3470156805696010e-002
      7.8802991962059893e-002 9.0836283370133539e-002
      7.3075203619471993e-002 7.8863601817902390e-002
      4.3255705316173496e-002 2.1398618953049428e-001
      -3.8416939821340410e-002 2.5942394468868240e-002
      -2.8847757700008841e-001 -4.4242460130122570e-002
      1.9206571078348639e-001 1.9617970109424409e-002
      -9.4163078293469250e-003 -1.5124441175694617e-001
      8.7941870304311595e-002 -6.1073247290142761e-002
      1.5679113272094153e-001 4.2771272980492978e-002
      -1.1937690623057894e-001 -7.8991585691140856e-003
      1.3220055065727729e-001 1.2042564813178601e-001
      7.5675168311203203e-002 -1.0035759631786875e-001
      -1.0964159750501647e-001 1.1339339870039065e-002
      -1.4056892677533872e-001 -2.0237276292990583e-001
      1.6479915060747882e-001 -1.0098433331202393e-001
      1.9811375122800887e-001 -1.2019975294438889e-001
      -1.1285902554223194e-001 4.6970003614425278e-002
      -1.2507255680160029e-001 -1.9687259791306422e-002
      1.8903149127491047e-002 -7.4233328549346167e-002
      -1.5157171875620518e-002 5.9386827593903381e-002
      7.1248386254325696e-002 9.8224121020449875e-002
      -1.1329896787895775e-003 1.2111040684907519e-001
      -1.0867454049610684e-001 -5.9711334484576606e-002
      -4.4142022962048472e-002 1.0465577510559781e-001
      -1.1439931994209068e-001 1.8229223846528625e-001
      4.1405607129262595e-001 -1.6008919791615417e-001
      -1.5466730037650298e-001 -7.5312231500737292e-002
      -2.0224141629468440e-002 5.0058499182724946e-002
      1.0054808732457003e-002 -1.6601588994462885e-001
      1.5171397384802082e-002 -2.5492716859493081e-001
      -5.2207868878760899e-001 -1.5984868675948977e-002
      6.1137550660202891e-002 -2.1630317774354180e-001
      -1.1531030847835402e-001 -8.9194536905520136e-002
      1.5880772938578588e-001 1.2414451639050086e-001
      -1.1989469447048123e-001 3.3874067594696849e-001
      2.4045185493072738e-001 -3.2346711252153243e-001
      -6.5026886991771379e-002 8.0044618791106021e-004
      -9.6545614373943434e-002 5.4272610320419731e-002
      -5.2091613390025616e-003 -2.5632987492863879e-001
      3.3805911719484383e-001 -3.2303904097730474e-001
      -6.6088642845233650e-002 1.0600372550996014e-001
      1.0869993436265821e-001 8.4334232846037666e-003
      -5.8534681615957873e-002 2.1377421969260915e-001
      1.1238769522355053e-001 1.1288845689879261e-001
      -3.5025872438493094e-001 3.2865344793273421e-001
      4.4707088735682896e-002 -1.0091913914295561e-001
      -6.9028245346780884e-002 4.2516639867592111e-002
      -5.3039133123380844e-001 3.7789001544210207e-002
      -2.2453502759357563e-001 -1.2714650027016930e-001
      2.5821963620904276e-001 -1.4789395609981110e-001
      1.5273204516776176e-003 3.1534712604895446e-002
      7.9179519026442269e-002 1.0346407597008792e-001
      1.5098740078151562e-001 -1.7925557028977610e-002
      -4.0265319430113793e-002 5.3126964389155706e-002
      -1.3829204633257930e-001 1.7610390496839864e-002
      -4.2078907855761412e-002 -1.4564305425666604e-001
      -1.6689731348765641e-001 -2.8129161461638807e-002
      1.0472381945110734e-001 3.0298347030761658e-001
      -2.3276973669902234e-001 -3.1142432222490600e-002
      9.0331379580869856e-002 -1.1797348505642255e-002
      -1.1215033113742157e-002 -2.0471250632910616e-002
      2.9769562127429001e-002 1.0219166648780653e-001
      6.8675903533931479e-002 8.0779941391685220e-003
      -4.9233740942747010e-002 -8.4799025378043999e-002
      -1.0605934776081218e-001 -1.4586856813328719e-001
      1.0835777722004890e-001 -5.5130964976797397e-002
      1.2718241940752828e-001 -8.9953921286782215e-002
      2.3698391866108126e-001 -3.3226633752782614e-001
      1.3419717968648143e-001 8.0086216414689396e-002
      -3.9480323538353762e-002 1.0891399515365641e-001
      5.3196153684431889e-002 -1.5543731237026806e-002
      -6.6689289775235291e-002 -4.3580642831158423e-002
      1.6953439895895384e-001 2.8284291919150446e-002
      -1.2065112444121065e-001 -7.4031188397852193e-002
      1.9448442486778383e-001 -4.4683038478947737e-002
      -4.3282905906734497e-002 2.9719778725809422e-002
      2.9231189899949040e-002 2.6249002539448806e-002
      1.3661861645812151e-002 2.9107868403931295e-003
      8.8634413312215526e-002 1.0166807497176325e-001
      1.8198446108754339e-002 1.0545791794529857e-001
      2.7650011472306096e-001 1.7962988568584873e-001
      -3.5112372330924572e-003 -1.6419656675616515e-002
      2.4337857183234158e-002 1.9160610260793498e-001
      -2.3314484140581376e-001 -2.1796978230046996e-001
      2.7625145110871785e-001 -1.3362071384942306e-001
      9.7159827356038952e-002 1.4016648457060573e-002
      4.4615329578077175e-003 8.0738154040813678e-002
      -7.4143181912631351e-004 -1.8668834044577864e-001
      1.0173576255263220e-001 1.6761963068866875e-001
      -8.9624466298763611e-002 1.4724307831787545e-001
      8.9373752346593310e-002 8.2238324136188104e-002
      5.5884446702317521e-002 4.2844582685952273e-002
      1.2589136055389960e-001 1.4350681618033598e-001
      -1.5109095084012472e-001 -2.0273428511636077e-001
      -2.7695878264588438e-002 -8.5475156943704556e-002
      -8.2498546511413279e-002 2.9647316361573712e-002
      1.0297072737645724e-001 1.3467261510603559e-001
      -2.4650799640408453e-002 -6.9657708392762793e-002
      9.3425654999253135e-002 1.5431446921939982e-002
      -8.2610728698130451e-002 2.7111548374803301e-001
      8.3963978156907537e-002 8.7857997114378666e-002
      -6.8178788472039818e-003 3.8189244488044720e-002
      1.6002962021737321e-001 2.2307878730239930e-001
      -2.5263042936241431e-002 -1.5377862454646146e-001
      -8.4768054802946580e-002 -8.7151124599839633e-002
      4.6520948237039353e-002 9.4943352448331499e-003
      6.1859831033839269e-002 -1.8384399723608996e-001
      6.8517754435669417e-002 -6.4936037783222197e-002
      8.9792770667465993e-002 2.5745985096248276e-002
      -2.6614255834550030e-002 1.0481692266408908e-001
      7.8869656948802727e-002 1.6237441430971006e-001
      1.3029073470169536e-002 -4.5191240224394177e-002
      1.1327239676116329e-002 1.8889227579657869e-001
      1.5371580442640775e-001 1.0241142724343337e-001
      -8.9778755583277706e-002 -4.8524128804250458e-002
      -3.4426478466679060e-002 8.6261273008241546e-002
      1.8778489971454426e-001 1.1309672775226352e-001
      -9.8912852017118084e-003 -9.3484823032495473e-002
      2.7158913228724827e-002 1.5121434300056941e-001
      -7.7958294212447474e-002 9.9305461488790839e-002
      2.6575902305718841e-002 1.3108770984829651e-002
      1.0035863280906990e-001 6.1199693500023390e-002
      -7.1546791610131472e-002 -4.8221207680690811e-002
      -2.7064344107572389e-002 1.7108350295551383e-001
      -2.4969027372876523e-001 -1.5009974070363629e-002
      6.6584406136000029e-002 -9.6507146266529870e-002
      -1.1836763869735532e-001 -3.5172651095799096e-001
      -3.7075254031729524e-002 -5.4593881226577884e-003
      -8.9501438110723849e-002 -6.5407759334716833e-002
      1.0827981283031353e-001 1.4026088068206734e-002
      -2.3596738949228670e-002 7.5627562122441653e-003
      4.1661401782083281e-002 -3.2291159864139482e-002
      -1.4222681730111483e-001 -7.2491565551674034e-002
      -5.7426867819946124e-002 2.7434709728657514e-001
      -8.4429444152544636e-002 1.4307937134014911e-001
      2.0463701430457862e-001 -3.6243165867781058e-001
      -1.4267970841189903e-001 -7.5959032993591025e-002
      -9.2984988510935535e-002 4.7238140495737491e-002
      -8.2902551979109007e-002 -9.7874589642529888e-002
      1.1902546068174086e-001 -5.4396928534207564e-002
      -3.3506504323819725e-001 7.8843015930332466e-002
      5.6206298784606046e-001 -1.6311176941420716e-001
      2.3939958636934816e-003 2.3104490940780213e-002
      1.3171683678944565e-001 1.4155229204776740e-001
      1.6228648866132522e-001 3.2192045678824999e-001
      1.0565950274471937e-001 -6.1570786124005836e-002
      -3.6747737678250918e-003 -1.6304658899240047e-002
      -6.1756499285669697e-001 1.2635934864202061e-001
      9.2359906046641155e-002 -2.4491850860752212e-001
      -8.0034982232862290e-002 1.0299625028581259e-001
      1.3597019783214617e-001 1.0058565567400926e-001
      9.0809233048025600e-002 -1.0494470539413939e-002
      7.9613299924093517e-001 2.0441350592777266e-001
      -2.0770929525469681e-001 8.6964466936544887e-002
      -1.1770352546547266e-001 2.9530846666549367e-002
      -5.0100038152426238e-002 3.3877039707294256e-002
      -3.7122617418644359e-002 -2.1635645533365305e-001
      -3.6106486202096694e-002 1.0842283043948499e-001
      -1.3518339145682701e-001 2.6305563854018044e-002
      6.8263490032508922e-002 1.7585905951062852e-001
      -7.9920841093368930e-002 -1.9603903982964684e-002
      8.2652333164098674e-002 -1.9758096121954694e-001
      3.4280652303778837e-002 5.4753471752669140e-004
      1.4255715373727976e-001 -1.3380504473839781e-002
      1.2586607951346920e-001 9.6288233884887081e-006
      1.2990511343597572e-001 -5.2072930299077426e-002
      3.1997735575665841e-002 2.3156240842989803e-001
      4.3968891312278234e-002 -4.0221438665706710e-002
      8.9681621078016055e-002 -1.7327352031877608e-001
      1.7420235044108848e-002 3.1977167071299273e-002
      2.3837026270683739e-001 6.9339395087177916e-002
      -1.9381091600495105e-003 -3.3435426519863046e-002
      -8.6031067835581218e-002 4.2410885019832402e-003
      -1.8238623810146321e-002 -1.9694760353812655e-002
      -1.4625460632409057e-001 -1.4678173648656759e-002
      1.1442585505452389e-001 4.1778422197059628e-002
      9.1008779301138092e-003 -1.0125412333617295e-001
      1.1507467324018722e-002 2.5789830556088824e-002
      6.3142630055559382e-002 9.0440805414850597e-002
      -2.4743265021891683e-002 -1.4073110646362849e-001
      -2.6693254006014435e-002 -5.7737817186737851e-002
      9.2526679563483316e-002 6.1443064570287184e-002
      1.8246922646796965e-001 1.7698000153462373e-002
      6.6858768071655819e-002 -1.7316571987699064e-002
      -1.1373749848094888e-001 -1.7659104359502676e-002
      -5.9612272427248383e-002 -4.4057491684353932e-002
      3.7361459798762521e-002 -9.2052169222958433e-002
      5.2044171644152960e-002 -4.1420891150196232e-002
      -2.7502657058526454e-003 -1.5557909434936956e-001
      3.6417313611262839e-002 1.4781109171334239e-001
      2.1929713151597102e-001 6.0928945821066560e-002
      9.7381997078017243e-002 -2.0710917442547089e-001
      5.2077600869658153e-002 1.6842124570486766e-001
      -9.9025560358193005e-003 -1.4660571939387004e-001
      -4.9834722618736005e-001 -1.3719297484457368e-003
      5.1075750375146244e-002 -3.7163644778377388e-003
      -3.1557442291458737e-002 -1.9256169418269731e-001
      -1.2491428757397030e-001 -3.1419862052894758e-002
      4.3934591346133242e-002 2.3054029314185587e-002
      1.8453556570003529e-001 -3.7622524972314310e-002
      4.3447661465854451e-002 8.0669753387971416e-002
      1.5176348692061425e-001 -3.9389929936140315e-002
      1.6985400557054851e-002 1.1679467775680967e-001
      -8.1872908906775121e-002 3.4478377853226258e-002
      -1.4923458742565113e-001 -1.7095847356764646e-002
      4.1065302152347660e-002 -7.8801929498268433e-002
      -2.1926361574921663e-001 -1.9871713578354513e-001
      -6.8171395510629090e-002 7.3862214612916297e-002
      -1.2838860471948083e-001 -1.3586173714517924e-001
      1.6124428848127498e-001 -5.7969531658149925e-003
      4.3898546586231810e-002 4.4268822357855245e-002
      3.2155674377581503e-002 -2.1005113116183211e-002
      1.0311937966181207e-001 2.2696950401351387e-001
      -1.0692168273715716e-001 8.1006908384749138e-002
      -7.7802276164532627e-002 3.0339453858130774e-002
      -6.0437579109318511e-002 5.9763801901611999e-002
      -8.3231209033699613e-002 -2.0819118097433637e-001
      -1.3578610126712309e-001 1.2622292916855488e-001
      -1.6846444749537220e-001 2.6494778703794485e-002
      9.8362200298088454e-002 -3.1478174959292435e-002
      -1.5577505093242422e-001 -8.3805149798628187e-002
      1.6082854874464494e-001 -1.3964708732949618e-001
      1.7308953487088205e-001 2.5701745329400612e-002
      -1.4640408395686449e-001 9.5974978657042853e-002
      -9.7950829518735835e-002 -2.9008944269035750e-002
      -4.0582080599105626e-002 -4.9969125986855926e-002
      -9.5093756372027813e-002 1.0260036965326345e-001
      -1.2522885829769773e-001 1.6709737654254497e-001
      -2.1392910051345920e-001 -4.6915371477698066e-002
      2.2085427378540168e-001 1.3256648075947713e-001
      -4.3730039716182922e-001 3.5851312807038738e-001
      2.1396777886353968e-001 -2.8357249233373610e-001
      1.1347183554525307e-001 2.7911078889368296e-001
      -1.8092349163609606e-001 -3.3836739972185448e-002
      2.7297149888979050e-001 1.6176542648749412e-001
      1.1607552033837376e-001 -1.1407681248566653e-001
      -2.7470745650077927e-002 -4.6491186067404877e-002
      -9.3535593599523875e-002 1.2331728372259187e-001
      -6.3892226337577199e-002 -3.8956045013925905e-001
      2.3640435252694433e-001 1.7197610830346710e-001
      -4.9326328091608634e-001 9.2374783767531457e-002
      5.6205662252087152e-001 -1.8264372012823341e-002
      -5.4466299790031571e-002 -1.3111419599055310e-001
      -1.3183135347093339e-001 1.7850555803959631e-001
      1.8695765090435981e-001 3.3264852395838601e-001
      5.4954158572265918e-002 -7.6882257696545525e-002
      -1.2700047158548625e-001 -7.4516886104796648e-002
      -5.9354865352378350e-001 6.9890357006022585e-002
      -2.2371934854432812e-001 -2.2789575589330049e-001
      2.3953418332253903e-001 3.3552073884491589e-003
      5.0443167618815621e-001 6.2573937125567169e-001
      -5.8461511873848815e-001 7.6263751897248155e-001
      -7.9731740006446339e-001 9.8474590084773758e-002
      -7.5476201617653593e-001 -7.2802951230516955e-001
      -2.4599322433247783e-001 -3.2252887547154546e-001
      -2.4377305907200006e-001 -4.6765174337830354e-002
      -1.6968252341850124e-001 -9.8729473848140115e-001
      6.0835374841463385e-001 -4.3341436272589295e-001
      2.1055358742170877e-001 7.4920036783401522e-001
      -2.4438455700690401e-001 -7.0476046354793076e-001</_>
    <_>
      -4.0183589777169482e-001 -4.1591361556414318e-002
      7.9762879772595219e-002 1.2720441519898279e-001
      -5.5887066586913267e-002 5.3234808463758443e-002
      -7.5712601106047314e-002 6.7360807113895227e-001
      6.2340533696950612e-002 1.4559978075697508e-002
      3.9000359243264349e-001 3.7747736007034677e-001
      6.6417968778660449e-002 3.7545134575815368e-002
      1.3164692995930360e-001 -3.7938819758963238e-001
      -3.0274531017230277e-001 -1.3505139809244138e-001
      -3.4653072195306683e-001 2.2581426424428931e-002
      -3.0814343359621083e-001 1.6495123963281302e-001
      -2.2326389212064823e-001 1.6928914609522658e+000
      -1.9305884315760933e+000 2.7355193937995198e-001
      -2.0106100305441560e-001 1.6944032327192007e-001
      -7.7883685869663516e-002 3.2007333605687693e-002
      -5.4348450806012763e-002 5.5249015712633728e-002
      3.1028780905877129e-001 3.0523399807413598e-001
      3.1779222184195766e-002 -3.6178047414853848e-001
      -4.1629501412750813e-001 2.9653937300776023e-001
      3.2949109839841083e-002 6.0783966775388232e-001
      1.1419457281064296e-001 1.1108671857810726e-001
      1.0438874493315535e-001 5.8482180771981163e-001
      -1.2967244924682717e-001 4.5124789429535517e-002
      -5.9068637795952517e-001 -5.4984085815342265e-001
      5.5450112468986013e-002 5.8166525134155833e-001
      3.8532835078263661e-001 -1.8439778154430406e-001
      1.4899473432892224e-001 5.0005747307942905e-001
      3.9354649978516792e-001 1.3653746112269979e-001
      2.1068476693019653e-001 -5.0963123807329547e-001
      1.3889752202413580e-001 -9.4028184405938645e-002
      9.7683877568914756e-001 1.2160031233445030e-001
      5.7689271209395376e-002 -3.8388243710608248e-002
      -1.0264119167757181e-001 4.1390931022254102e-001
      7.6321683298100629e-001 -1.9037792369884482e-001
      2.6034121618094708e-001 -3.6976552327347362e-001
      -1.1587877890881607e-001 3.8617239470741427e-001
      3.8396385176920722e-001 3.8587513452505934e-001
      -1.6405405901610862e-001 -3.6096866224444735e-001
      1.4899170408527018e-001 8.5081734659878973e-005
      -3.5727691197588446e-001 -4.0058378664172178e-001
      -8.8905901905500417e-001 4.1292172732484082e-002
      1.5882918590267814e-001 -1.9014886119750381e-002
      -1.3488737294646943e-002 5.6940453192996643e-001
      2.2811278055189488e-001 -8.5406823549411363e-003
      -5.2925410560338382e-001 8.7798755325493727e-001
      -4.0543577394042751e-001 -9.6755148218608727e-002
      -1.6888876058693523e+000 1.6433593822064068e+000
      1.1043436403076244e-001 4.4946747275628385e-001
      -4.2509005960440549e-001 3.1306077341679223e-001
      5.1418216505237213e-001 4.6308925175706572e-001
      -1.7743043225957858e-001 9.7436861148020457e-002
      4.9064671843090046e-002 2.1075804069535542e-001
      -7.9547157772206861e-002 -1.3067355731304522e-001
      -1.6255191774155070e-001 -3.1274014527460064e-002
      1.9697546063272653e-001 -2.6729817116270826e-002
      -9.0124026677244652e-003 6.9369328959312873e-002
      -2.2957760682781516e-002 -2.4111192100864659e-001
      2.1958640695398915e-001 1.0726732508227591e-001
      5.4620686276096397e-002 -3.6312337328405642e-001
      -2.5294329833339146e-001 -6.2164953329348280e-002
      -1.6870778345016743e-001 -2.8505400145303494e-001
      -2.3042280979791405e-001 -1.9093540339628565e-001
      -1.8778847314738911e-001 -2.1466770782320380e-001
      -2.0656779665055930e-001 1.6048251685565812e-001
      4.0228392932964463e-001 -2.9823334924236605e-001
      -3.1067133269806380e-001 1.2461957271405527e-001
      1.3881744897924941e-001 7.4048412893944759e-002
      -1.8421256830744553e-001 -4.4027388942085266e-001
      3.2118345697368250e-001 7.8554610676454611e-002
      -1.2535656631799157e+000 2.4984317918907248e-001
      -1.2150145058572560e-001 1.1456787088394922e-001
      1.1545562585877352e-001 8.0294116614207617e-004
      -1.5730018172014296e-001 4.1859099699061936e-001
      3.5346249555365299e-002 1.3004581080424968e-001
      5.3822546685910660e-002 1.2931627263461173e-001
      -3.9709802093543647e-002 1.4210342395722639e-002
      4.5797407296935427e-001 -2.8444813758213072e-001
      -2.5123172443632247e-001 7.7863796876602442e-002
      -3.7318188475608353e-003 1.6763123555819640e-001
      1.1935045217415595e-001 -1.2552561954517841e-001
      2.1457025733108143e-001 -5.5533872621287472e-001
      2.8901972576763557e-001 2.7017147853054552e-001
      -3.1248342678215046e-001 2.4553194788845623e-001
      -8.4045365924945055e-003 1.3393469121498408e-001
      1.3159887459318775e-001 -3.9131481239905885e-001
      8.2272715342061695e-002 -1.4702954939382470e-001
      -3.8114596650511451e-001 -4.7559325166091465e-001
      2.1328465216781300e-001 -8.2195419321237223e-002
      -1.3314916755324452e-001 -1.0781806420491666e-001
      3.6246638836045880e-001 1.4874635514385186e-002
      -1.2148404801889587e-001 -2.4366731405122938e-001
      -7.7365647776702531e-002 -3.0990351201700528e-001
      2.4172338635682417e-001 -6.8369407719892683e-001
      1.2399710043781176e-002 2.4581875380557719e-001
      -3.9482164214498155e-002 2.4601922550594520e-002
      -6.0989062964881807e-003 3.6431418660562875e-001
      1.3226807010373098e-002 8.1164918638524916e-002
      -1.0161211811025446e-001 3.4999258972968697e-002
      -1.2878677438375410e-001 -8.4738807444134060e-004
      -1.3835902887028375e-002 -2.7606607078407375e-001
      2.1797784188025815e-001 1.7691742323002818e-001
      1.4939055542909496e-001 -1.0754013298156725e-002
      1.7987687576825945e-001 -6.1906940153199183e-002
      2.4153325895554537e-001 3.6376859276917467e-001
      3.2479216002443728e-001 -2.9201480821387205e-001
      -5.7912677119343736e-001 -1.8648725100515190e-001
      -3.2030769032914574e-001 -2.2265197725194308e-001
      -2.2014494430452011e-001 2.0072152050183739e-001
      -7.0984022890750975e-001 1.8691476114657349e-001
      5.0215702881927105e-001 3.7441138299658699e-001
      1.9482932720618455e-003 5.8951759540346305e-001
      -9.2591438689954300e-002 -4.6944254884226495e-002
      3.3505211627860975e-003 -3.5866906152052758e-001
      3.1144101043583356e-002 7.9029314628573666e-001
      3.9920162341552240e-003 -2.7821082263811092e-001
      -3.8513571868477386e-001 1.3719331185178538e-001
      -5.4162593760407186e-004 5.1017206248014291e-001
      1.2100167441715595e-001 -1.9687313445050553e-001
      -5.8052863463098825e-001 2.5175172725285577e-001
      1.7736123319642053e-001 -3.8257738784238876e-001
      -1.4364493916140772e-001 -1.2934585837737625e-001
      5.5499035640049521e-001 3.4161883269744409e-001
      2.7509294932486217e-001 -1.7888741353092222e-001
      -3.3897803432195878e-001 -3.5627560692306014e-002
      -8.1578120466113485e-002 -1.0446478471490848e-001
      -3.1940652436577593e-001 -2.2348407203933174e-001
      1.6003272216264910e-001 -1.5613155289432284e-001
      -8.7177819307936139e-002 1.1462104586461502e-001
      7.7357399899451185e-001 3.6031860625488421e-001
      3.0932646533842950e-002 -4.3961528535805300e-001
      2.4409948731306652e-001 -2.6999970821107711e-001
      1.6838987671609007e-001 6.5180136709347258e-001
      -9.9960107316383218e-002 2.5289597950867898e-001
      3.0260656028573196e-001 8.0673400281172725e-001
      -1.5591759193374966e-002 -5.5164104678944548e-001
      -1.6379990790631135e-001 -3.1966865178399179e-001
      1.9657198537615594e-001 -6.0155078534662110e-001
      -5.2303213106298330e-001 4.4200635627149676e-001
      6.1378418924332476e-002 2.0017403234832859e-001
      4.9415901778360011e-001 7.8369470652056739e-001
      8.4501711916421432e-002 -2.8424082164773407e-003
      -2.7431516218019475e-001 5.1967508976953758e-001
      1.2731218135074021e-001 -1.2665548628616446e-001
      -1.1374957316280658e-001 5.1902187504296447e-002
      2.5821971265513588e-001 -1.0375715396988461e-001
      -3.3372797974005308e-001 1.2980560336485336e-001
      -1.5367466225560356e-001 1.9719746159141627e-001
      -2.9902115818071701e-002 -2.2848918342859684e-001
      6.3893235778848215e-002 1.6772044830799795e-001
      -1.2145219923294963e-001 -4.8396084788362309e-001
      4.0837226902041357e-001 9.1883763843550025e-003
      -1.0163257314249911e-001 3.0093086293065147e-002
      -1.1531263171893552e-001 6.0324842815628429e-002
      1.1500887800988693e-001 -2.2246174669816471e-001
      -7.4709627518368280e-002 2.5847998055653038e-002
      -5.7693362584361907e-001 7.8503121906669027e-002
      2.9534527990748299e-001 -1.3392561793632843e-001
      -1.5934038972617193e-001 4.4273447121029524e-001
      9.3201915829806664e-002 -1.4312077298082640e-001
      -2.3102091753711959e-001 -1.5262751796492727e-001
      1.1079472713359377e-001 -1.4726971021558016e-001
      8.6097940935049522e-001 -5.2256079364409236e-001
      -3.7932416260780516e-001 -2.2650051503125540e-001
      -5.9548387456787952e-003 -3.4626646432044733e-001
      -3.8795488984726390e-001 -5.3677719130077850e-001
      3.6809047629380712e-002 -7.1990765614267593e-002
      4.7006776172736303e-001 2.7901389596094844e-001
      -1.5348101786633803e-001 3.1514012907428829e-001
      2.4820041025576234e-001 -4.3171246633993343e-001
      3.1162833229692027e-001 1.8991277188502345e-001
      2.1660969244981657e-001 2.5046183728449167e-001
      -5.3021554790179115e-001 3.4434881478468043e-001
      4.9271322186349598e-001 1.0853513380362328e-001
      -1.9851850469438820e-001 5.1848159729033651e-002
      7.8621688711004431e-002 4.0757629309536553e-001
      -9.1636090582855698e-002 -5.2158862006693607e-001
      -7.3685145825945056e-002 -1.6494411164055658e-001
      4.5924596817394475e-001 -3.0761429631882853e-001
      -1.4423161548980257e-001 2.8296773285074384e-001
      -7.0013235423271675e-002 1.4194068825283512e-001
      -8.5072509905433094e-002 -8.0743535466597094e-001
      4.3271217654121086e-001 1.7655128321838343e-001
      7.6044957846386513e-002 -2.8709982017690738e-001
      1.6203181788442916e-001 4.7567089894768287e-002
      -2.7978130817484931e-001 6.4001497578010352e-002
      8.6762340380217243e-003 -2.9562742123746361e-001
      3.0220509542469814e-001 1.5423613746158049e-001
      2.7682364976426277e-001 -1.2739018346715907e-002
      -4.9441931623018021e-001 4.5664368513182507e-001
      -5.1184465105099464e-001 -4.5007150842650595e-001
      -2.0752966655526056e-001 4.6978284402259221e-002
      2.4887009404894961e-001 -2.7249983554058648e-002
      -8.3797913097928056e-001 4.1424237915665624e-001
      -1.2196160486049551e-002 1.0327239916586087e-001
      -1.0683382873625283e-001 -1.7482783116166886e-001
      -1.2158899956823022e-001 3.2453196169711179e-001
      -3.2750042422945275e-001 -2.7662718778548123e-001
      -7.8564464418912328e-001 -1.3436678723330825e-001
      -3.8202532452814991e-001 -2.0675804639667594e-001
      -2.9079062240279074e-001 3.4944237854542376e-001
      -1.6344818961436353e-001 -7.9143335970186213e-001
      -7.6736940834662816e-003 6.9727192109111047e-001
      -5.2278781581848721e-001 2.3856311932882121e-001
      -1.8540596878149815e-001 2.6440365292390866e-001
      1.4886761577787069e-001 8.5902187259989937e-002
      -6.3836514805444382e-003 7.4957937952845199e-001
      -6.7560878416123953e-003 -1.0239378507490325e-001
      2.2529147035341671e-001 -2.8210928240640121e-001
      2.3602802732113387e-001 5.0556970624462683e-001
      1.5387260616297260e-001 3.3286263236153586e-002
      -5.7692730207313736e-001 4.2410675364099970e-001
      -3.5087364655200892e-001 1.2029210461261848e-001
      -2.6560071145218400e-001 -2.8466684367943251e-001
      2.4857056861458710e-001 1.7154637364653907e-001
      -2.1837870341899343e-001 -6.3685012537274466e-001
      1.7452978669505059e-001 2.5147195357866176e-001
      -1.2138252831875099e-001 -4.8441501511953478e-001
      -3.3911036927607113e-001 -3.0219199633778665e-001
      2.9913684251060335e-001 -5.3211339649118605e-001
      5.6391997359045054e-001 -1.5859095807484017e-001
      -7.1552258494092347e-001 4.8234422587725279e-001
      -2.5846500350957408e-001 -5.1704975652205598e-001
      -4.1591091317866835e-001 3.5747926135640214e-002
      -2.8840652906585329e-001 6.8468064078040250e-002
      2.9645960915996205e-002 -3.3867550405083338e-002
      3.0273844031776143e-001 5.1324114031858370e-001
      1.3282433931612994e-001 -6.9559348181109470e-001
      8.6604672253264667e-002 -6.7943697464714445e-002
      1.1087564826482040e-002 1.6695965717462674e-001
      -5.1050635676509443e-002 -4.2547367830093852e-001
      1.5367121533969321e+000 -1.7172046549701474e+000
      5.7821467606019021e-002 2.9876262311256963e-001
      -2.7727213285124213e-002 1.7388625235406721e-001
      2.1877647251011267e-001 5.4987431439136347e-001
      -1.6825199289468190e-001 -2.8657389849653870e-002
      2.5153234463651877e-002 -6.8750502335471961e-002
      2.1385918121123084e-002 2.0795421415234336e-001
      8.2816654968650955e-002 3.2093281733929703e-002
      -3.9841990250947057e-001 6.8971700816145825e-003
      -1.8021402292547356e-001 1.4298040019628540e-002
      -1.1530181400178408e-001 -1.3253286957451288e-001
      -1.0254732489869992e-001</_></weights></my_nn>
</opencv_storage>
