%YAML:1.0
my_svm: !!opencv-ml-svm
   svm_type: C_SVC
   kernel: { type:LINEAR }
   C: 1.
   term_criteria: { epsilon:1.1920928955078125e-007, iterations:1000 }
   var_all: 4752
   var_count: 4752
   class_count: 2
   class_labels: !!opencv-matrix
      rows: 1
      cols: 2
      dt: i
      data: [ 0, 1 ]
   sv_total: 1
   support_vectors:
      - [ 1.05910967e-005, 1.03079874e-005, 9.95950722e-006,
          4.86405497e-006, 4.91548781e-006, 3.61360162e-006,
          6.24139375e-006, 1.09674984e-005, 1.30855487e-005,
          1.65941365e-005, 1.48626141e-005, 1.45424929e-005,
          1.87918558e-005, 1.68189345e-005, 4.19260778e-006,
          5.32845570e-006, 1.47651217e-005, 1.67596263e-005,
          1.15350012e-005, 7.95482265e-006, 1.35660594e-005,
          1.09000885e-005, 5.96425480e-006, 7.29994326e-007,
          5.91752769e-006, 3.02316550e-007, 2.22785093e-006,
          1.04387291e-005, 1.23116579e-005, 1.92865009e-005,
          2.66846491e-005, 2.50531684e-005, 2.32912535e-005,
          2.48216347e-005, 2.11617062e-005, 7.70373845e-006,
          -2.36453434e-006, -8.74021862e-006, -4.86051658e-006,
          -9.70529754e-007, 7.79711991e-006, 1.21365201e-005,
          9.92359764e-006, -2.89631498e-006, 7.09153369e-007,
          -3.88656963e-006, -2.90977944e-008, 4.71135036e-006,
          6.56075463e-006, 8.72209512e-006, 7.36919492e-006,
          9.95932896e-006, 1.16335432e-005, 2.25431381e-006,
          -2.72450211e-006, 7.83336691e-006, 1.42404433e-005,
          1.70884705e-005, 9.35220032e-006, 6.16526904e-006,
          7.26654162e-006, 5.26904887e-006, 4.89599734e-006,
          8.77383991e-006, 1.36965273e-005, 6.40464123e-006,
          -1.65357403e-006, -5.96677046e-006, -5.86267561e-006,
          -6.85774739e-006, -6.95014660e-006, -5.38019913e-006,
          -1.37141069e-006, 9.98347559e-007, -6.51807341e-007,
          3.55044176e-006, 2.79987285e-006, -1.42990950e-006,
          -3.03119305e-006, -1.00261868e-005, -1.51324375e-005,
          -2.42316746e-005, -2.55172872e-005, -2.10402723e-005,
          -2.15729615e-005, -2.16269400e-005, -1.75244113e-005,
          -2.16314529e-005, -2.65990184e-005, -2.21066675e-005,
          -2.51598121e-005, -1.08907507e-005, -5.19742389e-006,
          -5.72595991e-006, -1.12575981e-005, -8.30470981e-006,
          -8.76707509e-006, -3.91099957e-006, -8.61172566e-007,
          3.20659342e-006, 7.29232033e-006, 1.09920729e-005,
          6.48486230e-006, 4.90680713e-006, 6.39432892e-006,
          2.57917964e-006, 2.16058788e-006, 9.45887768e-006,
          1.63635668e-005, 2.12422510e-005, 1.71175870e-005,
          1.01164333e-005, 2.23418306e-006, 9.33180854e-006,
          2.11533315e-005, 2.50297235e-005, 2.74075755e-005,
          2.36886990e-005, 1.50679980e-005, 1.08884269e-005,
          1.34578540e-005, 8.06495245e-006, 1.00774541e-005,
          1.41568478e-006, -1.54023928e-005, -2.17163542e-005,
          -1.47790242e-005, -7.34130026e-007, 1.05712279e-005,
          1.52648809e-005, -6.22161269e-006, -1.80772095e-005,
          -2.21599494e-005, -2.51914080e-005, -3.41653431e-005,
          -4.37365961e-005, -4.11609581e-005, -3.22869419e-005,
          -2.39247311e-005, -7.73373358e-006, -5.01681598e-007,
          1.88872054e-005, 5.13479499e-005, 5.62378373e-005,
          1.73242624e-005, 1.54415447e-005, 7.66150333e-006,
          -6.24398865e-007, 4.78403820e-007, -8.67824838e-007,
          3.86576994e-006, 1.10905394e-005, 1.13228061e-005,
          7.97593839e-006, 4.19299386e-006, -8.07809010e-006,
          -1.11687605e-005, -1.12929301e-005, -9.11604093e-006,
          -8.45904015e-006, -5.29993076e-006, -2.49833215e-006,
          6.72900251e-006, 7.75675198e-006, 1.66718910e-005,
          1.58978728e-005, 7.03375690e-006, -2.64554927e-007,
          2.68946508e-007, 1.68324073e-006, 5.07241703e-006,
          1.32966607e-005, 1.59097490e-005, 1.67320122e-005,
          2.03595828e-005, 2.06918503e-005, 2.22093167e-005,
          1.80415554e-005, 3.19914477e-008, -3.43297802e-006,
          -6.90590286e-006, -1.00578427e-005, -1.23780874e-005,
          1.47882326e-006, 9.40171049e-006, -1.16809861e-006,
          -8.96006622e-006, -9.90732224e-006, -8.88594059e-006,
          -1.35802484e-005, -7.60165040e-006, 5.97509415e-006,
          9.10457675e-006, 7.36255879e-006, 1.01476180e-005,
          -5.96254768e-006, -1.30084927e-005, -2.00088380e-005,
          -2.23768875e-005, -1.90262199e-005, 1.00014870e-006,
          1.73815188e-005, 1.58784715e-005, 1.14898749e-005,
          1.11866220e-005, 4.74397166e-006, 3.46055185e-006,
          8.95924859e-006, 1.15883131e-005, 5.00885017e-006,
          -5.75799788e-007, -5.65432902e-006, -1.12036778e-005,
          -1.82734693e-005, -2.36186006e-005, -2.40385052e-005,
          -2.58203800e-005, -1.54070731e-005, -1.02578997e-005,
          -9.48966226e-006, -3.61274738e-006, -3.54680469e-006,
          -6.68781468e-006, -9.28794452e-006, -2.66791740e-005,
          -3.16028418e-005, -2.88223673e-005, -2.45415085e-005,
          -2.76845749e-005, -3.08530580e-005, -2.87261500e-005,
          -2.43976119e-005, -3.26353002e-005, -3.63040308e-005,
          -3.17083577e-005, -1.96666788e-005, -1.84981000e-005,
          -1.70499006e-005, -2.27972560e-005, -2.43845643e-005,
          -2.00901231e-005, -1.69216037e-005, -8.07898414e-006,
          -4.96272787e-006, 1.38842586e-006, 2.93615790e-006,
          2.97089036e-006, 3.24491134e-006, 5.71626333e-006,
          -1.16947024e-006, -1.27513272e-006, 8.35476840e-006,
          1.59194951e-005, 1.95974444e-005, 1.91825748e-005,
          9.45818829e-006, 3.58754255e-006, 1.45129734e-005,
          2.61634286e-005, 3.09207389e-005, 3.50798146e-005,
          2.79337546e-005, 1.84351793e-005, 1.20131699e-005,
          9.68044515e-006, 1.22743404e-005, 8.93326342e-006,
          -4.44797479e-006, -1.77459788e-005, -2.26762259e-005,
          -1.26463538e-005, 3.80382880e-006, 1.06028592e-005,
          1.37437919e-005, -8.53024994e-006, -2.09233476e-005,
          -2.60518118e-005, -3.07056907e-005, -3.80965212e-005,
          -4.36290611e-005, -3.57602803e-005, -3.00546853e-005,
          -2.44229759e-005, -1.22008605e-005, -5.70529301e-006,
          1.30145836e-005, 4.50540210e-005, 5.68763935e-005,
          8.81479264e-006, 4.45174874e-006, -3.02459989e-006,
          -9.65011441e-006, -1.49297048e-005, -1.64443882e-005,
          -1.43510788e-005, -5.28926603e-006, -6.23343203e-006,
          -1.73481549e-005, -3.39693579e-005, -3.51723211e-005,
          -3.04668320e-005, -3.48291505e-005, -3.62637293e-005,
          -3.38373975e-005, -2.75879229e-005, -2.18146015e-005,
          -2.30122732e-005, -2.66437801e-005, -2.64068399e-006,
          3.29033946e-006, -1.00929119e-005, -1.18230719e-005,
          -4.62999378e-006, -1.98493740e-006, 7.41210124e-006,
          1.74534962e-005, 1.68977858e-005, 1.36012895e-005,
          1.76966751e-005, 2.38630237e-005, 1.77201691e-005,
          -2.74008630e-006, -5.88270814e-006, -8.37216430e-006,
          -9.46811451e-006, -1.03709726e-005, -1.37354873e-005,
          -1.99601054e-005, 1.27723742e-005, 1.93928445e-005,
          1.78754635e-005, 1.05035815e-005, 1.20322820e-005,
          6.41058023e-006, 6.80017138e-006, 7.62050286e-006,
          3.54337317e-006, -1.28750946e-006, -1.74807083e-005,
          -3.12871634e-005, -3.68311921e-005, -3.60804843e-005,
          -3.52362586e-005, -3.26964546e-005, -2.18538244e-005,
          1.34975289e-005, 2.12589784e-005, 1.70544099e-005,
          8.74127545e-006, 5.04520767e-006, 5.76398406e-006,
          5.69391932e-006, 8.45431532e-006, 3.88562830e-006,
          -6.92539834e-006, -1.67284106e-005, -9.85027054e-006,
          -2.66637971e-006, -4.33167406e-006, -1.03450711e-005,
          -1.49032567e-005, -1.48498193e-005, -1.95318826e-005,
          -2.47228581e-005, -2.27260934e-005, -2.01839193e-005,
          -1.53886504e-005, -9.37415280e-006, -6.75083629e-006,
          -5.37806773e-006, -5.13817758e-006, -5.08126459e-006,
          -1.13082197e-005, -1.61918542e-005, -2.24137912e-005,
          -1.77762395e-005, -1.86866146e-005, -2.43339928e-005,
          -2.00047052e-005, -5.43844908e-006, -2.15410569e-006,
          7.45855075e-008, -8.83343182e-006, -1.32878440e-005,
          -1.69478772e-005, -2.13897365e-005, -2.08627935e-005,
          -1.47689125e-005, -1.14872892e-005, -1.02908380e-005,
          -8.41582550e-006, -3.85853582e-006, -4.00345425e-006,
          -1.17986165e-005, -1.18890957e-005, 1.03933223e-006,
          1.43206798e-005, 1.98784110e-005, 1.59812462e-005,
          4.86579165e-006, 5.31053229e-006, 1.61786429e-005,
          2.67255200e-005, 3.23545901e-005, 3.08209856e-005,
          2.39956971e-005, 1.45747126e-005, 5.89624460e-006,
          6.78759625e-006, 9.75525018e-006, 1.98433918e-006,
          -9.30972055e-006, -2.49116074e-005, -2.83882237e-005,
          -2.08225119e-005, -7.50928211e-006, -3.70755458e-007,
          1.12646794e-005, -5.01215209e-006, -2.32853363e-005,
          -2.83430345e-005, -3.47824789e-005, -3.98685952e-005,
          -3.76007993e-005, -3.08975468e-005, -2.90450698e-005,
          -2.88054507e-005, -2.70946493e-005, -2.08628826e-005,
          3.35928416e-006, 3.89456400e-005, 5.32399790e-005,
          3.42023981e-007, -3.17389163e-006, -9.72512134e-006,
          -1.50334108e-005, -2.39015226e-005, -2.37311906e-005,
          -2.35647294e-005, -1.62870911e-005, -2.32084731e-005,
          -4.26131337e-005, -4.75360102e-005, -4.56598464e-005,
          -4.27281921e-005, -4.39221039e-005, -5.16181426e-005,
          -4.98615300e-005, -4.68908984e-005, -4.61813725e-005,
          -3.87230284e-005, -3.82659782e-005, -3.91054891e-005,
          -1.81373216e-005, -2.05748147e-005, -1.69662781e-005,
          -3.09713937e-006, 1.65429913e-006, 1.55290272e-005,
          2.39822984e-005, 1.93343294e-005, 1.67372818e-005,
          2.52142836e-005, 2.60536126e-005, 6.02558293e-006,
          -4.39658152e-006, -1.07770284e-005, -1.20256327e-005,
          -1.67697963e-005, -1.02171125e-005, 1.12730777e-005,
          1.45835547e-005, 4.94254127e-005, 5.36508087e-005,
          4.56193411e-005, 2.59896296e-005, 2.03847176e-005,
          1.72583786e-005, 2.25009189e-005, 2.01999210e-005,
          1.91806139e-005, 8.56908719e-006, -2.10839935e-005,
          -3.96171199e-005, -4.12657246e-005, -4.23595411e-005,
          -4.43468998e-005, -3.38898863e-005, -2.56446674e-005,
          1.59219526e-005, 2.36304386e-005, 2.30900696e-005,
          2.52859772e-005, 2.33640803e-005, 1.64760404e-005,
          1.04939663e-005, 7.76259549e-006, -4.48038122e-007,
          -1.36367953e-005, -9.97749703e-006, -9.20663410e-007,
          1.68683448e-006, 2.30792079e-006, -1.26111971e-007,
          -7.37278651e-006, -1.77964084e-005, -2.58058299e-005,
          -3.45704539e-005, -2.93733901e-005, -1.62048709e-005,
          -7.05636739e-006, 6.37146559e-006, 1.18172347e-005,
          1.90708161e-005, 1.64996254e-005, 1.50871201e-005,
          5.80751794e-006, -6.58174395e-006, -1.37628449e-005,
          -9.69326265e-006, -6.87640386e-006, -1.75366386e-005,
          -1.83409411e-005, -7.02880925e-006, -2.92502250e-006,
          4.59523704e-007, -8.29692999e-006, -8.64441881e-006,
          -1.00577572e-005, -1.83686388e-005, -2.10200560e-005,
          -1.43627149e-005, -1.09375296e-005, -1.13969891e-005,
          -1.14218701e-005, -6.45343607e-006, -8.92973276e-006,
          -1.83870070e-005, -1.64517096e-005, -3.79914667e-007,
          1.10458814e-005, 2.02987139e-005, 1.61093030e-005,
          4.08121650e-006, 2.78278367e-006, 1.50163651e-005,
          2.34984745e-005, 3.00303418e-005, 2.66226652e-005,
          1.94965814e-005, 1.08846998e-005, 1.64780204e-006,
          6.21205481e-006, 1.24144426e-005, 5.22267783e-006,
          -6.77426351e-006, -2.44526418e-005, -3.49087677e-005,
          -3.13741912e-005, -1.74347024e-005, 3.78283090e-007,
          1.34054781e-005, -2.92317281e-007, -1.69198029e-005,
          -2.14699539e-005, -3.02524895e-005, -3.23347995e-005,
          -3.31355295e-005, -2.89733034e-005, -2.72468587e-005,
          -2.72803245e-005, -3.10191608e-005, -2.77403360e-005,
          -1.96051951e-006, 3.57690624e-005, 5.16505424e-005,
          -4.91168657e-006, -6.09898416e-006, -1.68864735e-005,
          -1.44545884e-005, -2.35957432e-005, -2.17363977e-005,
          -2.09231457e-005, -2.48513134e-005, -3.69345253e-005,
          -4.14273891e-005, -5.00353126e-005, -5.26470503e-005,
          -4.79334412e-005, -4.67670361e-005, -5.17925619e-005,
          -5.22180926e-005, -5.61176057e-005, -5.60802073e-005,
          -5.07440309e-005, -4.82975192e-005, -5.11436665e-005,
          -4.94340893e-005, -2.61744026e-005, -1.33498979e-005,
          1.90926585e-006, 9.11469942e-006, 1.26896266e-005,
          1.64688608e-005, 1.58800303e-005, 2.07234862e-005,
          1.53215988e-005, 1.96349652e-006, 2.88807178e-006,
          -6.76782838e-006, -8.79445270e-006, -1.75999194e-005,
          -1.20500199e-005, 1.12452262e-005, 3.66306122e-005,
          4.05441024e-005, 7.80318078e-005, 7.85997108e-005,
          6.77343705e-005, 4.56873495e-005, 3.60308986e-005,
          3.05024150e-005, 3.84784435e-005, 3.85274725e-005,
          3.64252628e-005, 2.04394564e-005, -2.51228175e-006,
          -2.73740206e-005, -4.08824126e-005, -3.97054391e-005,
          -3.44607033e-005, -2.57455431e-005, 8.14704322e-008,
          3.07956725e-005, 3.33202515e-005, 3.41771265e-005,
          4.03814302e-005, 4.52011154e-005, 3.80696474e-005,
          2.23147181e-005, 3.47135256e-006, 9.21405842e-007,
          2.05513197e-006, 8.31006844e-007, 1.01997175e-005,
          1.38953319e-005, 1.37282377e-005, 8.58824933e-006,
          -4.74317773e-007, -1.39595277e-005, -2.71025419e-005,
          -4.29691536e-005, -3.76242242e-005, -1.78835689e-005,
          -4.85448709e-006, 1.49207872e-005, 3.12962547e-005,
          3.69392183e-005, 3.71923015e-005, 3.30464281e-005,
          2.24021314e-005, 1.01801152e-005, 5.23508061e-006,
          5.72844192e-006, 8.99145107e-006, -1.89146886e-006,
          -6.99654311e-006, 2.18684295e-006, 6.44462534e-006,
          1.05604131e-005, 1.69382486e-006, -2.41353496e-006,
          -1.14774830e-005, -1.62112301e-005, -2.02193714e-005,
          -1.32225059e-005, -7.38887866e-006, -1.05246054e-005,
          -1.17305963e-005, -9.93647973e-006, -1.55107282e-005,
          -1.81395881e-005, -1.83689281e-005, -3.56495684e-006,
          1.00331090e-005, 2.12626182e-005, 1.55741618e-005,
          4.04912134e-006, 1.06702714e-006, 4.73879754e-006,
          1.96494984e-005, 2.95086811e-005, 2.82010133e-005,
          2.10231883e-005, 1.20035475e-005, 1.03203899e-006,
          4.19301250e-006, 1.27902194e-005, 6.43931207e-006,
          -6.33855825e-006, -2.38224620e-005, -3.36058074e-005,
          -3.68892252e-005, -2.25689128e-005, -4.69806037e-006,
          9.93707545e-006, 1.47180772e-005, 4.88138994e-006,
          -5.35014533e-006, -1.29987438e-005, -1.81973701e-005,
          -2.02622832e-005, -1.91379240e-005, -1.88845461e-005,
          -2.55610157e-005, -3.17355698e-005, -3.17975610e-005,
          -4.45726846e-006, 3.59582373e-005, 5.47437921e-005,
          -1.38507321e-005, -1.13141277e-005, -1.83103130e-005,
          -1.44439418e-005, -1.70245021e-005, -1.48499503e-005,
          -1.40059301e-005, -2.26281882e-005, -2.59051740e-005,
          -3.86011307e-005, -4.83696276e-005, -5.18786910e-005,
          -4.48781648e-005, -4.24083046e-005, -4.23381389e-005,
          -4.79985247e-005, -5.24481766e-005, -5.58482570e-005,
          -5.25386349e-005, -5.12524020e-005, -5.16285472e-005,
          -5.09977071e-005, -2.59741937e-005, -1.46128905e-005,
          5.30378247e-006, 1.90292230e-005, 1.90976298e-005,
          1.51834520e-005, 1.44795058e-005, 1.07728538e-005,
          -3.88252238e-006, -4.68479675e-006, -2.64442747e-006,
          -1.37286097e-005, -1.54573427e-005, -1.18730495e-005,
          -1.90101207e-006, 1.71929478e-005, 3.82534381e-005,
          5.48823191e-005, 8.56562328e-005, 9.06743517e-005,
          7.93999789e-005, 5.30017605e-005, 3.69257323e-005,
          3.95750394e-005, 4.98067056e-005, 5.43161150e-005,
          3.56627097e-005, 2.39530746e-005, 6.68952589e-006,
          -7.00646115e-006, -2.34702929e-005, -2.52223617e-005,
          -1.87611058e-005, -1.26622790e-005, 1.70168260e-005,
          3.18290076e-005, 4.22410703e-005, 5.28454875e-005,
          5.94819321e-005, 5.58719803e-005, 4.19707103e-005,
          2.46248383e-005, 1.38792238e-005, 1.14678260e-005,
          7.42688144e-006, 7.50936351e-006, 1.57811537e-005,
          1.82768072e-005, 1.51709801e-005, 9.80811183e-006,
          -2.40314466e-006, -1.59393694e-005, -3.10531505e-005,
          -3.85861422e-005, -3.75172021e-005, -2.06902077e-005,
          -1.20508116e-006, 2.24376763e-005, 4.49434883e-005,
          4.71251406e-005, 3.94141425e-005, 3.26650552e-005,
          3.04729292e-005, 2.53223188e-005, 2.11769875e-005,
          1.49263333e-005, 6.46234321e-006, -3.07257460e-006,
          -7.35459162e-006, 1.31974821e-006, 1.03098073e-005,
          1.44406622e-005, 2.25631766e-006, -4.08650521e-006,
          -8.80738480e-006, -1.36131985e-005, -1.98827984e-005,
          -1.23322015e-005, -6.17668093e-007, -7.47101103e-006,
          -8.57714440e-006, -6.19874254e-006, -4.57897613e-006,
          -1.27653775e-005, -1.46585180e-005, -6.28941780e-006,
          1.25132174e-005, 2.33595019e-005, 1.54887166e-005,
          2.63494348e-006, -4.52662653e-006, -6.69547399e-006,
          5.73605894e-006, 1.54334575e-005, 1.85791596e-005,
          1.67775634e-005, 9.99408076e-006, 3.69043073e-006,
          1.18413236e-005, 1.64733756e-005, 7.22643426e-006,
          -2.81814482e-006, -1.76629073e-005, -3.39771868e-005,
          -3.75426316e-005, -2.31497015e-005, -1.01548549e-005,
          4.07765856e-006, 9.18449678e-006, 1.01021578e-005,
          7.10015502e-006, 3.87247565e-006, 5.67122868e-007,
          -4.31894819e-007, -2.96164376e-006, -2.27965938e-005,
          -3.28953793e-005, -3.50089431e-005, -3.24665307e-005,
          -4.49161780e-006, 3.69204317e-005, 5.61028901e-005,
          -1.75068417e-005, -1.38490950e-005, -1.92383941e-005,
          -2.14739921e-005, -1.49534108e-005, -8.71374414e-006,
          -1.15698949e-005, -1.65902202e-005, -1.89825550e-005,
          -2.79468168e-005, -4.56572998e-005, -4.50212647e-005,
          -4.07631524e-005, -3.89644665e-005, -3.82305552e-005,
          -4.07584521e-005, -4.80567542e-005, -5.00387905e-005,
          -4.73018918e-005, -4.80078488e-005, -4.63334691e-005,
          -4.11089859e-005, -3.13205783e-005, -6.62337834e-006,
          1.14307170e-006, 1.24593307e-005, 1.37644492e-005,
          1.31565266e-005, 1.21685571e-006, -5.50186587e-006,
          -9.61612295e-006, -1.51744416e-005, -1.55156686e-005,
          -1.55116777e-005, -1.45042995e-005, -6.38643587e-006,
          2.92576169e-006, 4.84958764e-006, 2.73094465e-005,
          4.13736525e-005, 6.61911472e-005, 7.37012815e-005,
          6.44910251e-005, 4.27258055e-005, 3.25055698e-005,
          3.66947243e-005, 4.99291127e-005, 5.54566250e-005,
          4.45769620e-005, 2.56795047e-005, 8.14544637e-006,
          -2.22883341e-006, -6.58480303e-006, -1.18961752e-005,
          -4.18893205e-006, -1.94356687e-007, 1.11018262e-005,
          2.67334817e-005, 4.04782804e-005, 5.55723673e-005,
          6.63461979e-005, 5.87926261e-005, 4.16327312e-005,
          2.41710659e-005, 1.13615679e-005, -5.51865378e-006,
          -1.32612467e-005, -8.30903537e-006, -4.61859236e-006,
          -2.55871350e-006, 9.23807704e-007, -1.67903625e-006,
          -1.00398302e-005, -1.91498293e-005, -2.30849801e-005,
          -3.21739790e-005, -3.39384496e-005, -4.90474895e-006,
          1.71578140e-005, 2.92272252e-005, 4.19412718e-005,
          4.83393560e-005, 4.28446401e-005, 3.45253829e-005,
          3.76074640e-005, 3.08515664e-005, 1.50923897e-005,
          -1.53932262e-006, -1.13358710e-005, -1.59857336e-005,
          -2.25349759e-005, -6.46047920e-006, 6.94877053e-006,
          1.04172013e-005, 1.01942669e-006, -3.69020586e-006,
          -8.58411022e-006, -1.47509536e-005, -1.63431105e-005,
          -8.58176372e-006, -4.06154186e-007, -4.89196100e-006,
          -4.01713987e-006, -1.05046365e-005, -2.34867039e-005,
          -3.85782878e-005, -4.69856750e-005, -2.99436124e-005,
          1.22320353e-006, 1.69010909e-005, 1.72801228e-005,
          2.75357229e-006, -6.62581897e-006, -1.22113806e-005,
          -1.28944675e-005, -1.32379373e-005, -1.17208774e-005,
          -9.17966827e-006, -9.65571417e-006, -1.93302890e-006,
          6.53629468e-006, 7.78276080e-006, 2.63070717e-007,
          -1.59991359e-005, -3.92909460e-005, -5.11442377e-005,
          -4.52642271e-005, -3.27081179e-005, -1.51989170e-005,
          -8.09316862e-006, -2.08198253e-006, 4.35911352e-006,
          -3.05832600e-007, -7.09376809e-006, -1.37965671e-005,
          -1.06853295e-005, -2.02244701e-005, -3.70467933e-005,
          -4.45342994e-005, -4.89550403e-005, -3.51323288e-005,
          -2.13635440e-006, 3.54353506e-005, 5.70530647e-005,
          -2.03865729e-005, -2.05279757e-005, -3.14062781e-005,
          -2.54641782e-005, -2.01585499e-005, -5.50705590e-006,
          -8.85702411e-006, -4.17565207e-006, -6.37028825e-006,
          -1.82086733e-005, -2.87489529e-005, -3.29934555e-005,
          -2.82503279e-005, -1.64077319e-005, -5.02048806e-006,
          -1.63157838e-005, -2.19229223e-005, -2.71672379e-005,
          -3.42066596e-005, -3.78920158e-005, -4.02348087e-005,
          -3.05716603e-005, -2.15740365e-005, -7.31248349e-007,
          -3.25999758e-006, 2.89332252e-006, 2.87946773e-006,
          -4.93019252e-006, -1.29540176e-005, -1.43887783e-005,
          -1.90780393e-005, -2.01277635e-005, -1.95419907e-005,
          -1.25176775e-005, -7.49944593e-006, -3.08220683e-006,
          -4.66077381e-006, -5.79824700e-006, 1.25357265e-005,
          1.39034892e-005, 3.53304822e-005, 4.45435799e-005,
          3.46162851e-005, 1.68385086e-005, 1.57961022e-005,
          2.90095486e-005, 4.83388321e-005, 4.07950392e-005,
          3.24330540e-005, 1.77940328e-005, 1.32341131e-006,
          -3.52241409e-006, 4.54733026e-006, 4.58495288e-006,
          -7.41717440e-006, 6.39583550e-006, 7.59001796e-006,
          1.48934396e-005, 2.84101025e-005, 5.07502227e-005,
          5.46829760e-005, 4.55186128e-005, 4.12656591e-005,
          2.06996338e-005, -1.65454674e-006, -1.58660569e-005,
          -2.23168445e-005, -1.45878266e-005, -8.43705948e-006,
          -7.09202459e-006, -9.82261372e-006, -1.80091920e-005,
          -3.21498337e-005, -3.46349225e-005, -2.84182042e-005,
          -3.32124146e-005, -2.57736829e-005, 1.69451687e-006,
          1.54102072e-005, 2.53069502e-005, 3.42033018e-005,
          3.88379522e-005, 3.77219731e-005, 3.72965951e-005,
          1.95335761e-005, 3.41185682e-006, -5.69558006e-006,
          -1.75635141e-005, -2.81649300e-005, -3.41805171e-005,
          -3.67784560e-005, -1.99084716e-005, -2.32856814e-006,
          1.48779100e-005, 1.33478134e-005, 6.27242616e-006,
          -4.12139070e-006, -8.13132556e-006, -8.85504323e-006,
          -3.28216288e-006, -1.19388596e-006, -5.91373509e-006,
          -9.83568680e-006, -2.10353119e-005, -3.05464309e-005,
          -4.26102270e-005, -4.59242947e-005, -3.09088355e-005,
          -3.87128284e-006, 2.01268012e-005, 2.26507618e-005,
          1.05011368e-005, -1.90982028e-005, -4.16335861e-005,
          -4.67210411e-005, -3.86814390e-005, -3.12424781e-005,
          -2.26436750e-005, -2.11226579e-005, -1.23512436e-005,
          -5.74172327e-006, -5.21385573e-006, -1.88306676e-005,
          -2.79889173e-005, -4.15680806e-005, -4.44906836e-005,
          -4.34303001e-005, -3.06237926e-005, -1.28119091e-005,
          -3.11204508e-006, 3.58141915e-006, 4.25512371e-006,
          1.95265898e-006, 8.90053229e-007, -3.38250607e-006,
          -7.57201906e-006, -2.40339377e-005, -3.91331669e-005,
          -4.78380643e-005, -5.33051571e-005, -3.68124529e-005,
          -5.82952953e-006, 3.61109560e-005, 5.48954522e-005,
          -2.57014126e-005, -2.61240893e-005, -3.25021501e-005,
          -2.71924509e-005, -1.68767092e-005, -1.49590880e-006,
          -3.65839128e-006, 4.09595350e-006, -1.64240123e-006,
          -1.13224969e-005, -1.79335275e-005, -1.52850535e-005,
          8.63154855e-006, 3.48312496e-005, 4.48689425e-005,
          4.15088798e-005, 2.51288038e-005, 1.38783471e-005,
          6.17406295e-006, 1.07277833e-006, 1.78758148e-006,
          1.25815250e-005, 1.99628576e-005, 3.27899288e-005,
          2.67280047e-005, 1.98830421e-005, 1.56692240e-005,
          1.48093050e-005, 8.17255386e-006, -3.02202670e-006,
          -1.89555667e-005, -2.28965655e-005, -1.54944464e-005,
          -2.38750658e-006, 1.75381740e-006, -5.17628860e-006,
          -1.22040046e-005, -1.80495736e-005, -8.31878697e-006,
          -1.13438145e-005, -1.31049705e-006, 1.03209686e-005,
          1.60211152e-006, -1.39342474e-005, -5.81376435e-006,
          1.77108304e-005, 2.42819115e-005, 2.33288702e-005,
          2.08776437e-005, 6.50630545e-006, -5.20298136e-006,
          2.09319319e-006, 1.03534567e-005, 7.80095525e-006,
          -2.76318883e-006, -5.21260426e-006, -4.56199814e-006,
          5.56714622e-006, 1.11926811e-005, 3.58859434e-005,
          4.65615849e-005, 4.98991940e-005, 4.05166575e-005,
          1.48778545e-005, -9.71599820e-006, -1.93526266e-005,
          -3.24645116e-005, -3.19097162e-005, -1.60998716e-005,
          -1.24312792e-005, -1.15263065e-005, -1.63146760e-005,
          -2.37430158e-005, -3.35005570e-005, -3.42862004e-005,
          -3.62226892e-005, -2.87285638e-005, -1.43223235e-006,
          1.09277116e-005, 2.01983185e-005, 2.93473659e-005,
          2.95210302e-005, 2.85372389e-005, 1.18609305e-005,
          1.56228782e-006, -7.98027122e-006, -1.29188447e-005,
          -2.54187908e-005, -3.37943929e-005, -3.46944289e-005,
          -3.00540905e-005, -1.03314496e-005, -5.72871295e-006,
          5.60806347e-006, 1.66467307e-005, 1.45207114e-005,
          4.70647319e-006, -7.69507551e-006, -2.92683831e-006,
          3.49565039e-006, 6.15961835e-006, 2.22524000e-006,
          6.46834678e-006, 2.27411579e-006, -1.40253951e-006,
          -1.54778099e-005, -1.61405424e-005, -2.83684153e-006,
          2.34466734e-005, 5.17457811e-005, 5.84997724e-005,
          3.36344056e-005, 2.97605834e-006, -1.85325589e-005,
          -3.13567652e-005, -4.30973050e-005, -4.06122053e-005,
          -3.29302784e-005, -2.44891016e-005, -1.59607389e-005,
          -7.97830035e-006, -5.34757646e-006, -1.33726544e-005,
          -1.35029250e-005, -1.45304957e-005, -1.33786798e-005,
          -1.87410005e-005, -1.75127807e-005, -1.39600124e-005,
          2.30540240e-006, 8.71917837e-006, 6.55868007e-006,
          1.62938104e-005, 2.80260974e-005, 2.82751589e-005,
          1.83684715e-005, -4.27112082e-006, -2.23109164e-005,
          -3.05055091e-005, -4.31118642e-005, -3.24160901e-005,
          2.81514326e-006, 4.34893991e-005, 5.00863280e-005,
          -2.61155019e-005, -2.45331594e-005, -3.17860431e-005,
          -2.42319857e-005, -1.66896989e-005, -1.13477008e-005,
          -4.07297739e-006, 5.46300362e-006, 5.80335609e-006,
          -2.76668879e-006, 1.76138792e-006, 1.28654738e-005,
          3.48972753e-005, 5.99569830e-005, 6.44541506e-005,
          6.80396406e-005, 5.34114406e-005, 3.77543292e-005,
          2.60738707e-005, 1.39944386e-005, 1.23671553e-005,
          2.71770932e-005, 3.40186307e-005, 3.72728573e-005,
          3.29616087e-005, 1.92022399e-005, 1.42767958e-005,
          1.75529167e-005, 7.69425515e-006, 8.46287003e-006,
          1.47157186e-006, -9.18413843e-006, -9.23736934e-006,
          1.24247972e-005, 1.24938169e-005, -3.03823100e-007,
          -1.01136293e-005, -1.96646070e-005, -1.45169797e-005,
          -2.42450751e-005, -2.06948371e-005, -1.46372704e-005,
          -3.40531260e-005, -3.75588461e-005, -1.80841034e-005,
          3.75311902e-006, 9.08532184e-006, 1.33133772e-005,
          1.79596645e-005, 8.27635085e-006, -4.04026378e-006,
          -2.22949446e-008, 1.37726238e-005, 1.15672401e-005,
          1.15071171e-005, 3.73833586e-006, -5.82388611e-006,
          -4.82824953e-006, 1.01409751e-005, 3.59225451e-005,
          5.53212194e-005, 4.83654367e-005, 3.83890874e-005,
          2.15634718e-005, 1.62615902e-006, -1.73864573e-005,
          -2.96300441e-005, -2.59644858e-005, -6.18560898e-006,
          6.76681623e-007, 6.47651450e-006, 4.37701738e-006,
          -8.60985256e-006, -2.15431683e-005, -2.42806709e-005,
          -3.28198839e-005, -2.41689322e-005, 3.88763539e-007,
          1.24050121e-005, 2.22746312e-005, 3.49415168e-005,
          3.35269906e-005, 1.22248475e-005, 8.62565003e-007,
          -8.08769892e-006, -1.83246520e-005, -3.17273007e-005,
          -3.71070782e-005, -2.82293313e-005, -3.21200459e-005,
          -2.56774565e-005, -9.98972610e-006, -7.47167917e-007,
          6.84705219e-006, 8.34418552e-006, 7.86612782e-006,
          -9.24224082e-007, -2.04090020e-006, 3.28117335e-006,
          1.48388044e-005, 1.36683075e-005, 5.17456374e-006,
          1.30604694e-005, 1.30278177e-005, 7.32797844e-006,
          5.84061866e-007, -8.97824884e-006, 6.61456761e-006,
          4.06075524e-005, 7.07311920e-005, 6.92246249e-005,
          4.50548105e-005, 1.29752989e-005, -9.07798858e-006,
          -1.91018698e-005, -2.09012323e-005, -2.90166172e-005,
          -3.17345475e-005, -2.39760848e-005, -1.31720399e-005,
          -7.02365605e-006, 4.27028044e-006, -2.37161476e-006,
          -8.20747027e-006, -3.91353615e-006, -6.82062833e-008,
          -3.29130717e-006, -2.55488226e-006, 9.12500866e-007,
          1.09951570e-005, 1.46635775e-005, 1.68212537e-005,
          3.89043853e-005, 4.81840725e-005, 4.03376071e-005,
          2.06872865e-005, -1.79777760e-006, -1.85366080e-005,
          -2.65346425e-005, -3.62944447e-005, -2.98574305e-005,
          6.69468682e-006, 4.28708081e-005, 4.59004441e-005,
          -1.72533782e-005, -1.02465665e-005, -1.47122046e-005,
          -1.51189979e-005, -1.56631322e-005, -2.00893446e-005,
          -1.23815034e-005, -4.17810679e-006, 7.56836153e-006,
          3.25302790e-006, 1.41370683e-005, 2.83634508e-005,
          5.21004185e-005, 8.16779284e-005, 8.77543280e-005,
          8.46572802e-005, 6.90513771e-005, 5.12835177e-005,
          2.88085848e-005, 1.68024817e-005, 2.01037310e-005,
          3.35108089e-005, 3.63095824e-005, 3.75234667e-005,
          4.20930483e-005, 2.84747075e-005, 1.72111086e-005,
          1.08414279e-005, 3.88013996e-006, 5.92125298e-006,
          1.07956266e-005, -4.51339065e-006, -1.83886891e-006,
          2.49545101e-005, 2.19195535e-005, 1.14160757e-005,
          -3.28979650e-006, -1.71580905e-005, -1.88766735e-005,
          -2.98767700e-005, -3.17946142e-005, -3.85238418e-005,
          -5.58411193e-005, -5.16799264e-005, -2.94496458e-005,
          -1.39797075e-005, 1.26099019e-006, 1.17146856e-005,
          1.32882733e-005, 3.57574459e-006, -3.24952907e-006,
          1.06990785e-006, 1.16080409e-005, 9.97328334e-006,
          3.67732810e-006, -9.66243442e-006, -6.19186312e-006,
          -1.12261409e-006, 2.36844062e-005, 4.78671755e-005,
          5.61992783e-005, 4.32785237e-005, 3.70372909e-005,
          2.41180878e-005, -3.12346037e-006, -1.37421921e-005,
          -1.83960783e-005, -1.67001563e-005, 3.42730823e-006,
          1.90121118e-005, 2.60419110e-005, 2.06631448e-005,
          -2.08873553e-006, -2.02262618e-005, -2.95164318e-005,
          -3.14291028e-005, -2.73762416e-005, 2.28860654e-006,
          2.22713370e-005, 3.59495316e-005, 4.10580396e-005,
          3.42847525e-005, 1.27336043e-005, -8.81514825e-006,
          -1.34111788e-005, -2.40895952e-005, -2.83585141e-005,
          -1.60106119e-005, -1.29427171e-005, -1.64030062e-005,
          -9.83004520e-006, -1.02884701e-006, 3.50699497e-006,
          1.13937986e-005, 6.66450342e-006, -1.47895355e-006,
          -1.32343630e-005, -1.27056664e-005, -7.97237044e-006,
          4.04006278e-006, 6.30952763e-006, 6.72131080e-007,
          1.39424428e-005, 1.61570260e-005, 1.27887779e-005,
          5.50518780e-006, 9.05999514e-007, 1.66955015e-005,
          4.60718184e-005, 7.20726093e-005, 6.82008031e-005,
          4.94074156e-005, 2.08381680e-005, 1.32351749e-006,
          -1.07659534e-005, -6.18661170e-006, -6.60263140e-006,
          -1.69156810e-005, -2.02860356e-005, -7.76176330e-006,
          -3.92782158e-006, 6.24478389e-006, 4.37700891e-007,
          -4.80372091e-006, 9.26621124e-006, 9.95360460e-006,
          8.04980300e-006, 1.88973245e-005, 1.36796143e-005,
          1.92674561e-005, 2.62356480e-005, 4.22405683e-005,
          4.92324143e-005, 4.77804315e-005, 3.52095376e-005,
          1.43166435e-005, -5.78595700e-006, -1.82477670e-005,
          -2.63422480e-005, -3.23044005e-005, -2.40220870e-005,
          6.83807502e-006, 3.66573659e-005, 3.73699986e-005,
          -2.91033621e-006, 7.92530955e-006, -2.42033320e-006,
          -6.65820835e-006, -1.37381148e-005, -2.25562180e-005,
          -1.76482736e-005, -1.05396894e-005, 1.75842638e-006,
          1.24931621e-005, 1.82709628e-005, 4.09901586e-005,
          6.77719581e-005, 8.88094655e-005, 8.82116728e-005,
          7.85127850e-005, 6.42010928e-005, 3.78232107e-005,
          1.71075626e-005, 7.90366084e-006, 1.43374782e-005,
          2.79069991e-005, 3.44552063e-005, 3.34530450e-005,
          3.07088339e-005, 1.52978027e-005, 5.28134706e-006,
          -3.63965205e-006, -2.50521771e-006, 3.07944219e-006,
          1.05466215e-005, 5.09217807e-006, 1.25347842e-005,
          3.00764113e-005, 2.02197607e-005, 1.34718903e-005,
          3.98486281e-006, -7.98695510e-006, -1.10355295e-005,
          -2.66488532e-005, -3.28992865e-005, -3.99465935e-005,
          -6.26802939e-005, -5.76060593e-005, -4.52005734e-005,
          -2.67134601e-005, -6.44427303e-008, 7.80799110e-006,
          1.05339950e-006, -5.35137542e-006, -1.09220891e-005,
          -2.32550889e-007, 6.88281489e-006, 4.60131287e-006,
          -1.53190995e-005, -2.24273772e-005, -2.13875155e-005,
          -9.97671123e-006, 4.55911777e-006, 2.67561063e-005,
          3.65270680e-005, 3.93333721e-005, 3.38516766e-005,
          1.68882925e-005, -2.37128597e-006, -1.20763525e-005,
          -1.25299657e-005, -4.12877654e-007, 1.86485977e-005,
          3.49013535e-005, 3.69519112e-005, 2.85631158e-005,
          7.49281116e-006, -1.90548362e-005, -3.61884886e-005,
          -3.58797733e-005, -2.90671360e-005, 5.34014453e-006,
          2.41615708e-005, 3.87711007e-005, 4.72975589e-005,
          3.27982743e-005, 1.00226162e-005, -1.43255493e-005,
          -2.81837929e-005, -1.98791204e-005, 8.28309931e-006,
          4.27759716e-007, 3.37926667e-006, 2.77646404e-006,
          3.50577602e-006, 7.83838641e-006, 2.00769455e-006,
          9.25674340e-006, -1.31135391e-006, -1.51965451e-005,
          -2.25194144e-005, -2.64704813e-005, -2.38227767e-005,
          -1.09155071e-005, -7.68494829e-006, -1.51699287e-005,
          5.35594882e-006, 1.06740144e-005, 6.52136987e-006,
          -5.28959390e-006, -5.72035242e-006, 9.43183841e-006,
          3.63014078e-005, 5.77331593e-005, 5.05555145e-005,
          3.08575472e-005, 1.03069688e-005, -7.27509496e-006,
          -8.16818101e-006, -5.10056225e-006, -1.67997234e-006,
          1.00572845e-006, -7.72476869e-006, -2.18752393e-006,
          -1.00536681e-006, 9.73396891e-006, 6.89093258e-006,
          -1.28147144e-006, 6.79969344e-006, 1.30881936e-005,
          1.41387236e-005, 2.43241520e-005, 1.23419513e-005,
          2.36421747e-005, 4.82360228e-005, 5.08851226e-005,
          4.99737071e-005, 4.17793563e-005, 2.41911475e-005,
          1.98442126e-006, -1.49437228e-005, -2.91434535e-005,
          -3.53679025e-005, -4.33441419e-005, -2.41685666e-005,
          6.42512305e-006, 3.12476477e-005, 3.46762972e-005,
          1.48828858e-005, 1.98132420e-005, 1.06404777e-005,
          7.31250475e-006, -2.19882463e-006, -1.78437822e-005,
          -1.99548558e-005, -1.47234550e-005, -9.72621456e-006,
          7.58965871e-006, 2.08658712e-005, 4.08639462e-005,
          6.58315766e-005, 8.19427514e-005, 7.87988902e-005,
          7.08370499e-005, 5.35868749e-005, 2.10709386e-005,
          2.99183648e-006, -7.13134750e-006, -2.87013017e-006,
          1.11907357e-005, 1.68489460e-005, 1.31594306e-005,
          1.48717936e-005, 5.32797776e-006, -6.63518040e-006,
          -1.07512333e-005, -6.42471286e-006, 1.88220133e-006,
          1.19667020e-005, 1.16605588e-005, 2.23773404e-005,
          2.85075384e-005, 1.46330294e-005, 1.07817714e-005,
          6.02641830e-006, 3.36645189e-006, 3.41748319e-006,
          -9.35862408e-006, -1.50861206e-005, -2.30497408e-005,
          -3.23790009e-005, -3.17072336e-005, -1.82769181e-005,
          -1.77993161e-006, 8.29424425e-006, 9.43802934e-006,
          2.77635240e-006, -2.78679181e-006, -1.39938229e-005,
          2.13258477e-006, 6.18732156e-006, -1.10986475e-005,
          -3.11075237e-005, -3.26420595e-005, -3.21165171e-005,
          -1.56537208e-005, -6.48240075e-006, 9.40820792e-006,
          2.29595626e-005, 2.09930149e-005, 1.40554275e-005,
          9.57113116e-007, -8.64202775e-006, -1.19331917e-005,
          -9.00992836e-006, 1.46664561e-005, 3.65206979e-005,
          5.00920178e-005, 4.99686175e-005, 3.44418695e-005,
          1.09224657e-005, -1.53277961e-005, -2.60880824e-005,
          -3.59973674e-005, -3.14611461e-005, -5.75138984e-006,
          1.73529388e-005, 3.66891982e-005, 4.98306836e-005,
          3.31559859e-005, 9.57665907e-006, -1.45814447e-005,
          -1.83317261e-005, 2.30478759e-006, 1.81870855e-005,
          1.59219344e-005, 2.50209614e-005, 2.24678097e-005,
          1.11672225e-005, 8.89707280e-006, -3.14389854e-006,
          1.73339799e-006, -1.53976998e-005, -2.87446801e-005,
          -3.22918786e-005, -4.46394770e-005, -3.38612299e-005,
          -2.39755955e-005, -1.79565504e-005, -1.64213307e-005,
          -2.23340544e-006, 6.30215197e-007, 1.76380888e-006,
          -9.80492041e-006, -1.30785420e-005, -4.51646997e-007,
          2.26358552e-005, 4.30134678e-005, 3.33833304e-005,
          5.45383864e-006, -1.11789104e-005, -2.31767408e-005,
          -2.42311999e-005, -9.94015772e-006, 4.31140870e-006,
          1.57353661e-005, 1.04517721e-005, 2.80515974e-006,
          7.53081713e-006, 1.03903449e-005, 8.11370774e-006,
          -1.69658324e-006, -1.31208560e-006, 9.83552582e-006,
          1.75499717e-005, 2.64644259e-005, 1.49490024e-005,
          4.29678876e-005, 5.49771248e-005, 5.04557829e-005,
          4.06373947e-005, 2.99466446e-005, 1.12922207e-005,
          -7.81174549e-006, -2.82254023e-005, -4.27087798e-005,
          -5.25211326e-005, -4.71877465e-005, -2.54102051e-005,
          -1.80768495e-006, 2.47078715e-005, 3.35717341e-005,
          3.32908785e-005, 4.00020072e-005, 3.82769867e-005,
          3.86252068e-005, 2.96612889e-005, 1.27688338e-006,
          -1.45219165e-005, -1.05228282e-005, -7.06390574e-006,
          3.85588100e-006, 2.52493210e-005, 3.31983210e-005,
          5.89146948e-005, 7.39939278e-005, 6.82011450e-005,
          5.90901363e-005, 3.62521278e-005, 5.76585353e-006,
          -1.44959240e-005, -2.31192898e-005, -2.02179999e-005,
          -6.61316790e-006, -3.28436499e-006, -5.10989548e-006,
          -4.77866661e-006, -7.43268083e-006, -7.43699547e-006,
          -1.46930115e-005, -1.08630556e-005, -7.77409582e-007,
          1.08456979e-005, 2.08094461e-005, 3.16247933e-005,
          3.30796356e-005, 1.92675634e-005, 1.11831168e-005,
          1.17946520e-005, 1.83917764e-005, 2.46509990e-005,
          1.25204679e-005, 8.21365575e-006, -2.88363549e-006,
          -8.63962669e-006, -7.75881745e-006, 3.29716249e-006,
          7.63879325e-006, 1.16189813e-005, 8.14391115e-006,
          5.42190719e-006, -5.98352653e-006, -1.69054201e-005,
          2.85867600e-007, 7.23499033e-006, -1.72544514e-005,
          -3.67681314e-005, -4.34962312e-005, -3.93813207e-005,
          -1.17770496e-005, 1.56704823e-006, 1.49530006e-005,
          2.54841852e-005, 2.05661127e-005, 8.40765915e-006,
          -1.17739974e-005, -1.49484167e-005, -1.47831788e-005,
          -7.96551467e-006, 2.90699427e-005, 5.10597129e-005,
          6.48497517e-005, 5.81504210e-005, 3.76620774e-005,
          8.34766888e-006, -1.13177712e-005, -2.59818371e-005,
          -3.24217290e-005, -3.19836872e-005, -1.01514343e-005,
          2.90561206e-006, 2.13995463e-005, 4.41556695e-005,
          2.24168143e-005, 5.55618453e-006, -9.61561454e-006,
          -3.81888185e-006, 1.35070395e-005, 2.24898886e-005,
          1.96759720e-005, 3.54965232e-005, 3.06865004e-005,
          1.99417300e-005, 1.31130864e-005, 1.30807632e-006,
          -3.08310155e-006, -2.64402242e-005, -3.74203955e-005,
          -4.49566905e-005, -5.69774420e-005, -5.13708619e-005,
          -3.39385297e-005, -2.62928315e-005, -2.44403927e-005,
          -5.47166474e-006, 1.15997375e-006, 3.73875082e-006,
          -5.17324088e-006, -1.55638209e-005, -1.27487665e-005,
          8.95731046e-006, 2.52242717e-005, 8.96849542e-006,
          -1.46479160e-005, -3.06321745e-005, -3.33009993e-005,
          -3.37544589e-005, -2.20492639e-005, -9.18551507e-007,
          1.47252686e-005, 1.33007352e-005, -2.01570217e-007,
          6.23963570e-006, 6.97465703e-006, 6.35594688e-006,
          -2.16329408e-006, 3.65754181e-006, 1.18032376e-005,
          2.06983495e-005, 2.52455520e-005, 3.58506331e-005,
          4.32569104e-005, 4.59105031e-005, 3.77627075e-005,
          2.24827327e-005, 9.11686038e-006, -5.47506352e-006,
          -2.05906854e-005, -3.92573020e-005, -5.20089488e-005,
          -5.01422328e-005, -3.96802279e-005, -2.15493710e-005,
          1.07650010e-006, 2.51600104e-005, 3.49599832e-005,
          3.89867564e-005, 4.64228360e-005, 4.44903235e-005,
          5.03916381e-005, 4.53679968e-005, 2.22339968e-005,
          1.13508841e-005, 1.35173404e-005, 1.49484504e-005,
          2.20544898e-005, 3.15672478e-005, 2.83380868e-005,
          4.81794741e-005, 5.71164055e-005, 5.04480740e-005,
          3.53178802e-005, 1.53016117e-005, -9.34065156e-006,
          -2.48928154e-005, -3.27769958e-005, -3.08119816e-005,
          -2.23050120e-005, -1.98629514e-005, -1.85988611e-005,
          -2.01866478e-005, -2.56376661e-005, -1.66806785e-005,
          -1.04535120e-005, -4.41345128e-006, 1.15414641e-005,
          2.59287845e-005, 3.42583917e-005, 3.05802532e-005,
          2.68689364e-005, 1.54736008e-005, 9.76997671e-006,
          1.49935340e-005, 1.97677491e-005, 2.59519747e-005,
          1.87143214e-005, 1.91560157e-005, 1.73993831e-005,
          2.07709109e-005, 1.96675028e-005, 2.58446016e-005,
          2.73553233e-005, 1.72453401e-005, 5.68889845e-007,
          8.73461033e-007, -1.07414635e-005, -1.87151763e-005,
          -9.45619922e-006, -2.03073409e-006, -2.00948616e-005,
          -3.24638568e-005, -4.03420963e-005, -3.93968076e-005,
          -1.94373788e-005, -4.24913105e-006, 1.01332607e-005,
          2.42619008e-005, 1.56629994e-005, 2.63791253e-006,
          -1.01734940e-005, -1.10101064e-005, -1.09179155e-005,
          2.65832591e-006, 2.98446848e-005, 3.92473776e-005,
          5.03281153e-005, 5.01155919e-005, 3.43481406e-005,
          9.61681144e-006, -1.42685331e-005, -2.68593449e-005,
          -4.01353827e-005, -3.86812317e-005, -2.36330743e-005,
          -7.67725669e-006, 1.11760455e-005, 3.06138390e-005,
          1.22999027e-005, -2.02884780e-006, -1.17712407e-005,
          3.41886403e-006, 1.93516444e-005, 2.33403771e-005,
          2.61339064e-005, 2.63173715e-005, 2.57334304e-005,
          1.67714643e-005, 1.59138108e-005, 6.09592871e-006,
          -3.11868939e-006, -1.48675799e-005, -3.69392546e-005,
          -5.50559453e-005, -6.06377253e-005, -5.92577308e-005,
          -4.26160368e-005, -3.16105215e-005, -1.98091930e-005,
          -4.92671961e-006, 2.36755614e-006, 5.20243930e-006,
          -2.00151453e-006, -1.71595002e-005, -3.02118460e-005,
          -9.14702923e-006, 2.41677390e-006, -9.48313573e-006,
          -3.33747994e-005, -4.19185380e-005, -4.12518020e-005,
          -3.76798343e-005, -2.85096230e-005, -1.31331881e-005,
          3.27127600e-006, 3.40113706e-006, -5.96181189e-006,
          -8.89621560e-007, 8.24690505e-006, 1.46337497e-005,
          7.34833566e-006, 9.72045746e-006, 1.41928840e-005,
          1.83068478e-005, 2.20678357e-005, 3.60520062e-005,
          4.04456005e-005, 3.53528412e-005, 2.16235949e-005,
          1.00055613e-005, -2.29044349e-006, -2.35900789e-005,
          -3.90894347e-005, -5.46123265e-005, -4.93275729e-005,
          -4.46726954e-005, -3.52896859e-005, -2.17952256e-005,
          1.31761476e-006, 2.61060013e-005, 3.78396544e-005,
          2.91863780e-005, 3.46040906e-005, 3.64824409e-005,
          4.44813668e-005, 3.58549041e-005, 1.78947630e-005,
          1.20392715e-005, 2.03152267e-005, 2.05861907e-005,
          2.72944235e-005, 3.14690624e-005, 2.72747802e-005,
          3.80722813e-005, 4.28521125e-005, 3.61572238e-005,
          1.96314104e-005, -2.27303030e-006, -2.10075341e-005,
          -3.07399750e-005, -3.35251607e-005, -3.19749015e-005,
          -3.04888854e-005, -2.91702981e-005, -2.71406079e-005,
          -3.30089570e-005, -4.18540985e-005, -2.93795201e-005,
          -1.75087935e-005, -6.47470529e-007, 2.16989174e-005,
          3.54633958e-005, 3.11810363e-005, 2.33377305e-005,
          1.43029874e-005, 3.52724715e-006, 3.93722621e-006,
          8.11756036e-006, 1.02856247e-005, 1.70426047e-005,
          1.56427941e-005, 1.69655686e-005, 1.97134214e-005,
          3.16879559e-005, 2.97928782e-005, 3.93179580e-005,
          4.19290627e-005, 3.23758068e-005, 7.03182650e-006,
          5.12247334e-006, -1.05015033e-005, -2.44280418e-005,
          -2.02174942e-005, -1.16291940e-005, -2.23817096e-005,
          -3.04700734e-005, -4.34670219e-005, -3.84141640e-005,
          -1.90552819e-005, -5.07782033e-006, 3.95348206e-006,
          1.73146946e-005, 9.34890977e-006, -5.34745880e-007,
          -1.27607873e-005, -1.73535682e-005, -6.76846139e-006,
          4.44544776e-006, 3.18207167e-005, 3.86529682e-005,
          4.79642258e-005, 4.48928986e-005, 3.16020050e-005,
          7.29866588e-006, -1.79768576e-005, -3.24176654e-005,
          -4.19260359e-005, -3.94208000e-005, -2.61520327e-005,
          -8.14480973e-006, 1.26344094e-005, 1.70369985e-005,
          5.55269253e-006, -4.73681382e-007, -7.94300831e-006,
          5.81846189e-006, 1.99307069e-005, 1.76492158e-005,
          2.70273267e-005, 2.41106936e-005, 2.98243158e-005,
          2.18346740e-005, 2.33573046e-005, 7.11449957e-006,
          -2.26314455e-006, -1.58284620e-005, -2.15251621e-005,
          -4.60240299e-005, -6.15737445e-005, -5.81261811e-005,
          -3.95013922e-005, -2.31194354e-005, -8.18237550e-006,
          6.52876270e-006, 1.28548936e-005, 1.22669962e-005,
          -2.66567696e-007, -1.81564283e-005, -3.30238472e-005,
          -1.53448054e-005, -6.21400204e-007, -1.07670139e-005,
          -2.13737185e-005, -2.98854538e-005, -3.40026745e-005,
          -3.71008027e-005, -2.82867386e-005, -1.33412068e-005,
          9.61382852e-007, -2.17841307e-006, -1.10044439e-005,
          -3.01506361e-006, 1.95139432e-006, 1.30608951e-005,
          9.91500929e-006, 1.37324823e-005, 1.71247248e-005,
          1.67316721e-005, 2.09216341e-005, 2.95994269e-005,
          3.47504792e-005, 2.35965344e-005, 1.03808370e-005,
          4.42748660e-006, -8.66948540e-006, -3.16046062e-005,
          -5.09894635e-005, -5.41182126e-005, -4.70798659e-005,
          -4.17689735e-005, -3.38754726e-005, -2.18411496e-005,
          1.23605615e-008, 2.68363456e-005, 3.55259872e-005,
          7.50190111e-006, 1.68329752e-005, 2.17907600e-005,
          2.48434535e-005, 2.10958187e-005, 1.16834090e-005,
          1.24796297e-005, 2.28242970e-005, 2.13401272e-005,
          2.66455954e-005, 2.87551302e-005, 2.59386452e-005,
          3.48907379e-005, 4.07548505e-005, 3.06447218e-005,
          1.77084967e-005, 1.80988286e-006, -9.93014419e-006,
          -1.92109874e-005, -2.40294466e-005, -2.53160324e-005,
          -2.01790972e-005, -2.03313630e-005, -1.76457652e-005,
          -2.56164185e-005, -3.48831418e-005, -2.62638005e-005,
          -1.64634275e-005, 4.24456039e-006, 2.23908755e-005,
          3.27958878e-005, 2.73518290e-005, 1.53968558e-005,
          3.02776948e-006, -2.14730085e-006, -4.36656183e-006,
          5.38550296e-007, 8.87771648e-007, 9.11449843e-006,
          9.14018619e-006, 1.45606764e-005, 2.03243399e-005,
          2.98759423e-005, 2.55512277e-005, 3.33837597e-005,
          3.82348808e-005, 3.69399677e-005, 1.68740426e-005,
          1.29748951e-005, -5.80148753e-006, -2.59073422e-005,
          -1.83267766e-005, -1.49076131e-005, -2.44575658e-005,
          -3.76845965e-005, -5.29430290e-005, -4.68911421e-005,
          -2.01715338e-005, -2.94873757e-006, 3.91883168e-006,
          1.53947640e-005, 5.88346575e-006, -2.06132609e-006,
          -1.15628527e-005, -1.42250501e-005, -3.72811155e-006,
          9.35343360e-006, 3.10067226e-005, 3.80377533e-005,
          4.73879991e-005, 4.42873898e-005, 3.09546704e-005,
          1.01374317e-005, -1.16299216e-005, -2.73331862e-005,
          -3.74714655e-005, -3.35676596e-005, -2.21637401e-005,
          5.03529577e-007, 1.14050436e-005, 8.28206339e-006,
          1.02130207e-006, -3.83616225e-006, -3.20066897e-006,
          8.29126111e-006, 1.52649300e-005, 1.56765964e-005,
          2.29053876e-005, 2.27007404e-005, 2.95071968e-005,
          2.82096698e-005, 3.42988642e-005, 1.67163435e-005,
          1.96630594e-006, -1.02862950e-005, -1.98111647e-005,
          -3.48351241e-005, -5.07664954e-005, -4.19545868e-005,
          -2.60112320e-005, -1.03776702e-005, 2.32062939e-006,
          1.44741425e-005, 1.29017881e-005, 1.49602020e-005,
          4.17885303e-006, -5.93669165e-006, -5.48136995e-007,
          1.39766489e-005, 3.27002344e-005, 2.86723716e-005,
          -1.10273952e-007, -1.84690161e-005, -2.82019464e-005,
          -2.70109958e-005, -2.35385342e-005, -1.18558501e-005,
          3.47278683e-006, 8.59675083e-007, -7.17746298e-006,
          -6.92933554e-006, 4.50825752e-007, 5.28860073e-006,
          6.20434730e-006, 8.49304433e-006, 1.30179178e-005,
          2.07985668e-005, 2.20339462e-005, 2.84194775e-005,
          2.98564100e-005, 1.89602943e-005, 1.23475284e-005,
          2.53114990e-006, -1.38486021e-005, -3.66480381e-005,
          -5.19459609e-005, -5.15781467e-005, -4.40459080e-005,
          -4.05027349e-005, -2.94047895e-005, -2.16681565e-005,
          1.25756299e-006, 3.22475644e-005, 3.74811607e-005,
          -9.59292174e-006, -8.13008319e-006, -1.06128919e-005,
          -9.70758447e-006, -1.20702725e-005, -1.35776179e-006,
          3.17369836e-006, 1.52077164e-005, 1.60760574e-005,
          1.82832791e-005, 2.47943535e-005, 2.65893013e-005,
          3.57185418e-005, 4.00673780e-005, 3.24811044e-005,
          2.32564998e-005, 8.36576146e-006, -2.47728622e-006,
          -1.03786933e-005, -1.69345822e-005, -1.51455806e-005,
          -1.00167144e-005, -7.31542787e-006, -6.29104488e-006,
          -1.39655158e-005, -2.58201399e-005, -2.26912562e-005,
          -9.72468570e-006, 9.95671508e-006, 2.06167406e-005,
          2.60924098e-005, 2.21477458e-005, 5.47380023e-006,
          4.29864076e-006, -1.32606256e-005, -1.04254595e-005,
          -8.10960137e-006, -1.85235604e-005, -8.15509065e-006,
          -6.17782052e-006, 5.97365215e-006, 1.63826753e-005,
          1.82869917e-005, 1.45946333e-005, 2.24859432e-005,
          2.93694957e-005, 3.00897409e-005, 1.38492005e-005,
          -4.51586629e-006, -8.52923949e-006, -2.07977610e-005,
          -1.62767501e-005, -1.86699854e-005, -2.72764864e-005,
          -5.09638267e-005, -5.88689109e-005, -5.18706911e-005,
          -2.50763369e-005, -4.59458215e-006, 4.29397778e-006,
          1.67911003e-005, 4.38816005e-006, -3.77829519e-006,
          -6.66214191e-006, -7.60367402e-006, -3.02868375e-006,
          7.23221865e-006, 2.89510554e-005, 3.90444657e-005,
          4.82346186e-005, 4.44377183e-005, 3.20207146e-005,
          7.83049381e-006, -7.10981476e-006, -2.21576483e-005,
          -3.14992612e-005, -2.57730662e-005, -1.78562987e-005,
          3.75309583e-006, 1.27960784e-005, 5.36270545e-006,
          -2.71872341e-006, -6.90077741e-006, -1.14672848e-005,
          1.11850386e-006, 6.43908152e-006, 1.05803638e-005,
          2.02184747e-005, 2.04893095e-005, 2.82740712e-005,
          2.65979816e-005, 3.14564168e-005, 1.90216997e-005,
          4.90003367e-006, -7.09798087e-006, -1.74956349e-005,
          -2.44550374e-005, -3.57371318e-005, -3.09308925e-005,
          -1.43439092e-005, 4.77799347e-007, 8.74417219e-006,
          1.71674546e-005, 9.95624396e-006, 1.07967935e-005,
          6.25814255e-006, 3.72199520e-006, 1.35993923e-005,
          2.32733510e-005, 4.07935913e-005, 3.85897074e-005,
          1.24172675e-005, -4.77782214e-006, -9.02960801e-006,
          -1.38117030e-005, -1.13333235e-005, -6.66944334e-006,
          5.90063337e-007, -5.32264130e-006, -6.75459205e-006,
          -9.68554923e-006, -3.07072878e-006, 4.68541145e-007,
          -9.81125936e-007, 6.92420258e-007, 8.06385924e-006,
          1.76991089e-005, 1.87678088e-005, 3.20160361e-005,
          3.52475508e-005, 2.86701979e-005, 2.20937036e-005,
          1.09960738e-005, -9.15038072e-006, -3.06307229e-005,
          -4.56083071e-005, -4.85147830e-005, -4.37642411e-005,
          -4.44934631e-005, -3.47297937e-005, -2.04833796e-005,
          5.63486674e-006, 3.54033837e-005, 3.60441081e-005,
          -2.02462707e-005, -2.48681354e-005, -2.52888094e-005,
          -2.65648450e-005, -2.81227422e-005, -1.80704737e-005,
          -1.42615700e-005, -9.39680717e-007, 6.20570063e-006,
          7.77668629e-006, 1.68003626e-005, 2.21036607e-005,
          2.94654019e-005, 3.59985606e-005, 3.13438104e-005,
          2.57150878e-005, 1.56918213e-005, 3.41697432e-006,
          -5.04637546e-006, -1.48464824e-005, -9.31871182e-006,
          -8.53937195e-007, 3.54972349e-006, 2.52675841e-006,
          -1.13514743e-005, -2.12951436e-005, -1.12702637e-005,
          1.27958728e-008, 1.34528063e-005, 2.04257231e-005,
          2.13018175e-005, 1.55883390e-005, 4.16116154e-006,
          -3.68751284e-006, -2.29548677e-005, -2.27273777e-005,
          -1.98449125e-005, -3.12958509e-005, -2.27727414e-005,
          -1.93325723e-005, -3.44454224e-006, 5.72017780e-006,
          4.21562208e-006, -1.00016427e-006, 5.42714088e-006,
          1.33129306e-005, 1.78273895e-005, 4.47423145e-006,
          -1.57209361e-005, -1.27421272e-005, -1.54106347e-005,
          -1.54207864e-005, -1.85197514e-005, -2.69000720e-005,
          -5.17930202e-005, -5.54109174e-005, -5.12274564e-005,
          -3.13764140e-005, -1.49994803e-005, 2.23543020e-006,
          1.65804413e-005, 5.39311122e-006, -7.99096051e-006,
          -8.67897324e-006, -7.57104499e-006, -1.50005951e-006,
          6.29305623e-006, 2.33983355e-005, 3.65006163e-005,
          4.85751298e-005, 4.90452621e-005, 3.54283438e-005,
          1.44798223e-005, -8.70514305e-006, -1.77925504e-005,
          -3.47288151e-005, -2.99467538e-005, -2.06407985e-005,
          -2.01851390e-006, 5.16482260e-006, -7.08013295e-006,
          -8.40589382e-006, -1.74627912e-005, -2.14584179e-005,
          -7.31690307e-006, -4.26848555e-006, 4.12448117e-006,
          1.41159235e-005, 1.82218100e-005, 2.02072260e-005,
          1.44150854e-005, 1.79364251e-005, 2.76366563e-006,
          -3.38313475e-006, -1.53936398e-005, -1.83687735e-005,
          -2.28904864e-005, -2.24638388e-005, -1.88877511e-005,
          1.61467176e-006, 1.27906687e-005, 1.48179306e-005,
          1.05013451e-005, 9.65731147e-007, 4.67238078e-006,
          6.72014858e-006, 7.72100429e-006, 2.05152373e-005,
          3.47547721e-005, 4.44265897e-005, 3.95497773e-005,
          2.26724987e-005, 4.26339875e-006, 3.97068379e-006,
          1.31609920e-006, -9.71893314e-007, -4.56933685e-006,
          -3.69565464e-006, -1.31316719e-005, -7.80629398e-006,
          -9.47749595e-006, -1.02027825e-005, -7.39510597e-006,
          -1.00958241e-005, -3.68317001e-006, 2.75567868e-006,
          1.39993690e-005, 2.02823085e-005, 3.05986287e-005,
          4.00685640e-005, 4.33138921e-005, 3.26664849e-005,
          1.79591480e-005, 3.72367276e-006, -2.34037052e-005,
          -4.21355398e-005, -4.46530903e-005, -4.66833480e-005,
          -4.70940104e-005, -3.79995217e-005, -2.31439681e-005,
          5.91867956e-006, 3.17393060e-005, 3.39996514e-005,
          -2.14726824e-005, -2.62680751e-005, -3.04958121e-005,
          -3.31376796e-005, -3.25090114e-005, -2.70356486e-005,
          -2.44874027e-005, -1.26312843e-005, -5.02694866e-006,
          1.96867617e-007, 1.96625751e-005, 2.13147759e-005,
          2.22580675e-005, 3.13515338e-005, 3.07019145e-005,
          2.91903561e-005, 2.59237386e-005, 1.67463677e-005,
          1.91347249e-006, -9.88855209e-006, -3.93787013e-006,
          6.25344956e-006, 5.15104739e-006, 3.56249097e-006,
          -9.17681973e-006, -1.73516255e-005, -1.22793163e-005,
          -2.69509019e-006, 9.71706413e-006, 1.61264761e-005,
          1.65462025e-005, 4.23628080e-006, 3.02801641e-006,
          -1.65684778e-005, -3.22635788e-005, -3.50302107e-005,
          -2.50190278e-005, -3.09829265e-005, -2.19565063e-005,
          -1.64919729e-005, -8.72153032e-006, -4.27623490e-006,
          -4.43833915e-006, -1.39227468e-005, -6.63073433e-006,
          2.35252992e-006, 1.20890672e-005, 1.26177849e-006,
          -1.02238710e-005, -6.28877297e-006, -5.66721656e-006,
          -7.07332720e-006, -1.13696151e-005, -2.14049633e-005,
          -4.18347881e-005, -5.23812523e-005, -4.47448365e-005,
          -2.77326362e-005, -1.54347945e-005, 4.83986332e-006,
          2.20235597e-005, 1.79679482e-005, -2.18419746e-006,
          -4.38212328e-006, -1.19939978e-006, 1.70062231e-006,
          7.88987109e-006, 2.23873321e-005, 3.66494532e-005,
          5.33022940e-005, 5.65122464e-005, 3.65237538e-005,
          1.38767755e-005, -1.35367318e-005, -2.67105988e-005,
          -3.89985980e-005, -2.90713942e-005, -1.87386668e-005,
          -7.43664623e-006, -3.27529619e-007, -1.24172093e-005,
          -1.40467000e-005, -2.16899807e-005, -2.94265901e-005,
          -2.14318352e-005, -2.30815003e-005, -7.52782125e-006,
          8.29064902e-006, 1.55572416e-005, 1.60507807e-005,
          7.38191284e-006, 6.26782230e-006, -8.82656332e-006,
          -1.25375336e-005, -1.87881633e-005, -1.78972859e-005,
          -1.99436708e-005, -1.13943970e-005, -1.03131197e-005,
          9.63149614e-006, 1.68864608e-005, 1.37985680e-005,
          3.61597245e-006, -1.03598250e-005, -7.28170926e-006,
          -1.10880876e-006, -1.88702802e-006, 1.55594771e-005,
          3.29929426e-005, 4.04474777e-005, 3.49320726e-005,
          1.97707013e-005, 3.27711314e-006, 8.79802701e-006,
          8.42730151e-006, 3.49223751e-006, 2.29157672e-006,
          4.10333269e-006, -1.49121679e-005, -1.16825822e-005,
          -1.09741331e-005, -1.20012328e-005, -1.26841314e-005,
          -9.70485689e-006, -5.12238694e-006, -4.70066834e-006,
          9.55022279e-006, 2.16674871e-005, 2.76633782e-005,
          4.12758527e-005, 5.01788418e-005, 3.77901524e-005,
          2.24067880e-005, 1.03465654e-005, -1.02203649e-005,
          -4.21944642e-005, -4.52457425e-005, -5.03620067e-005,
          -4.87155339e-005, -4.71731801e-005, -2.65361978e-005,
          4.46966351e-006, 3.38156387e-005, 3.97674994e-005,
          -1.77241272e-005, -2.25749718e-005, -3.15631005e-005,
          -3.68821638e-005, -4.39554133e-005, -3.71674687e-005,
          -3.37647398e-005, -1.94599615e-005, -1.00995794e-005,
          8.02362536e-007, 2.02419396e-005, 2.23172610e-005,
          1.66803256e-005, 2.55433461e-005, 2.71407789e-005,
          2.66099723e-005, 2.53853032e-005, 2.24113610e-005,
          3.85811290e-006, -1.01147371e-005, -1.34308254e-006,
          6.89937769e-006, 3.08132189e-006, -3.79940388e-006,
          -5.93322329e-006, -9.47824265e-006, -1.23278896e-005,
          -7.89536443e-006, 4.53541043e-006, 1.28239062e-005,
          1.45525264e-005, 8.84831297e-006, 6.50729453e-006,
          -1.87991645e-005, -3.55076299e-005, -3.57301469e-005,
          -2.60141587e-005, -3.15103207e-005, -2.51219208e-005,
          -1.87527839e-005, -1.38267578e-005, -7.00495002e-006,
          -6.49542108e-006, -1.80339248e-005, -1.64666289e-005,
          -2.50502694e-006, 6.69007977e-006, 6.90716070e-006,
          8.97371990e-007, 1.05496656e-005, 1.05714234e-005,
          8.03247895e-006, 1.72879652e-006, -1.32217574e-005,
          -3.12413067e-005, -4.43049103e-005, -3.94264825e-005,
          -2.70087403e-005, -1.33493540e-005, 6.20426636e-006,
          2.15498167e-005, 1.36896306e-005, 4.99174426e-008,
          -2.30057435e-006, -7.03250680e-006, -5.99968689e-006,
          -2.26144903e-006, 1.67429334e-005, 2.78446787e-005,
          4.72916872e-005, 5.78731560e-005, 3.72717259e-005,
          1.57639624e-005, -9.68182394e-006, -2.66513980e-005,
          -3.88896151e-005, -2.71802000e-005, -8.57905525e-006,
          1.46495631e-005, 2.58868531e-005, 1.78542323e-005,
          1.55453799e-005, 3.17337208e-006, -7.84569329e-006,
          -1.37665475e-005, -1.53555957e-005, -1.42677630e-008,
          1.81225932e-005, 1.96065812e-005, 1.37329544e-005,
          9.69514167e-006, 4.87518355e-006, -9.84198141e-006,
          -1.70507010e-005, -2.26893771e-005, -2.04381558e-005,
          -1.19589395e-005, -7.02470106e-006, -5.49609103e-006,
          8.41560268e-006, 1.18873968e-005, 7.88197576e-006,
          -5.41181862e-006, -1.74616271e-005, -1.54964746e-005,
          -1.33851509e-005, -8.54870177e-006, 8.48873788e-006,
          2.90005937e-005, 3.91868925e-005, 3.66788336e-005,
          1.92519710e-005, 7.28827808e-006, 2.27156056e-006,
          6.55444865e-006, 3.32146919e-006, 1.57904492e-006,
          1.66591704e-007, -1.39728427e-005, -2.72323014e-005,
          -1.77485890e-005, -1.10831425e-005, -6.96578491e-006,
          -4.44946772e-006, 1.09693372e-006, -1.00905538e-006,
          1.37876286e-005, 2.43119412e-005, 2.84482830e-005,
          3.52115239e-005, 4.07490406e-005, 3.62628343e-005,
          2.36716460e-005, 1.05011895e-005, -4.79809660e-006,
          -3.26616137e-005, -4.43242971e-005, -4.73135733e-005,
          -4.81985771e-005, -4.75508423e-005, -3.10536270e-005,
          -1.75655316e-006, 3.23580462e-005, 3.86193860e-005,
          -1.62497763e-005, -2.17014058e-005, -2.97525276e-005,
          -3.95285606e-005, -4.88644655e-005, -4.31527478e-005,
          -4.18105410e-005, -2.51676083e-005, -1.34733400e-005,
          -1.95887810e-006, 1.25625202e-005, 1.35036835e-005,
          6.14717783e-006, 1.00080815e-005, 2.18082005e-005,
          2.64917671e-005, 2.18562363e-005, 2.23377174e-005,
          7.02044872e-006, -1.57521135e-005, -9.37075765e-006,
          -3.16022715e-006, -7.47531749e-006, -1.58904641e-005,
          -1.59242227e-005, -1.78823393e-005, -1.60715445e-005,
          -6.72227770e-006, 5.69510030e-006, 1.30700673e-005,
          1.57728718e-005, 7.46779006e-006, 1.07913468e-006,
          -1.70696312e-005, -3.39873804e-005, -2.93675093e-005,
          -1.68676743e-005, -1.99536371e-005, -1.98974903e-005,
          -1.72142663e-005, -2.02764986e-005, -1.10803658e-005,
          -1.15513840e-005, -2.16809094e-005, -2.56560979e-005,
          -1.43737225e-005, 2.64914866e-006, 1.02437880e-005,
          9.85617135e-006, 1.88285831e-005, 2.38948705e-005,
          1.60137370e-005, 5.87382237e-006, -8.66190294e-006,
          -2.79370943e-005, -4.16386356e-005, -3.42079038e-005,
          -1.45301174e-005, 5.00353644e-006, 2.35057378e-005,
          3.13536038e-005, 9.85458155e-006, -5.20383810e-006,
          -5.72899671e-006, -1.63620389e-005, -1.81155756e-005,
          -1.84947967e-005, -6.94261530e-007, 1.78973823e-005,
          4.07713487e-005, 4.89181439e-005, 3.06386282e-005,
          9.89916407e-006, -1.52169796e-005, -3.94609742e-005,
          -4.79390037e-005, -2.86500726e-005, -8.01879196e-006,
          1.77572292e-005, 2.90887383e-005, 2.61354271e-005,
          1.71546235e-005, 3.75783907e-006, -3.69044437e-006,
          -1.15059338e-005, -1.05373529e-005, 6.27090640e-006,
          2.31488320e-005, 2.68708609e-005, 1.23825675e-005,
          8.48673699e-006, -1.00395016e-006, -1.38921569e-005,
          -1.67272628e-005, -2.00388477e-005, -1.32996056e-005,
          -6.04340585e-006, -3.69187251e-006, -1.01131091e-005,
          5.89920000e-006, 7.03772685e-006, 3.41793702e-006,
          -1.11490690e-005, -2.71570680e-005, -3.22928427e-005,
          -3.37810816e-005, -2.49037003e-005, -2.03148716e-006,
          1.63485838e-005, 3.14511854e-005, 3.15277393e-005,
          1.39305275e-005, -2.67626092e-007, -4.46894364e-006,
          -1.96499241e-006, -1.66876077e-006, -8.11402333e-006,
          -1.63748100e-005, -2.78628486e-005, -3.97083822e-005,
          -1.91272156e-005, -8.11369227e-006, -2.10776238e-006,
          2.35314451e-006, -1.55128544e-006, -7.64791639e-006,
          1.03261946e-005, 1.89912862e-005, 2.57069441e-005,
          2.99270450e-005, 2.99742969e-005, 2.90884218e-005,
          2.15304444e-005, 6.26515248e-006, -7.73637748e-006,
          -2.35066964e-005, -4.29531283e-005, -4.64504483e-005,
          -4.50606785e-005, -4.53877292e-005, -3.61835773e-005,
          -1.42559247e-005, 2.16769149e-005, 3.16061341e-005,
          -1.87710175e-005, -2.51745660e-005, -3.27190792e-005,
          -4.58652030e-005, -5.20692192e-005, -4.71315434e-005,
          -4.32630586e-005, -3.31821575e-005, -2.41889738e-005,
          -8.58386011e-006, 1.36849087e-006, 4.93776315e-006,
          -3.28661531e-006, -6.14594683e-006, 2.96867438e-006,
          1.31079678e-005, 1.33751946e-005, 1.43902935e-005,
          1.72459647e-006, -2.38925986e-005, -2.36085889e-005,
          -1.92448297e-005, -2.50312787e-005, -3.00918255e-005,
          -2.88075862e-005, -2.98443792e-005, -1.73054104e-005,
          -1.09118546e-005, -2.07609469e-006, 1.47619880e-006,
          7.28545274e-006, 3.41724012e-006, 2.41022894e-006,
          -8.91816035e-006, -2.56357307e-005, -2.40247646e-005,
          -7.99845566e-006, -2.50153948e-006, -8.78664832e-006,
          -1.63093173e-005, -1.45385102e-005, -1.90279388e-005,
          -2.36175183e-005, -2.77927466e-005, -3.23975146e-005,
          -1.35904747e-005, 1.04517676e-005, 1.96308119e-005,
          1.91047911e-005, 2.39189922e-005, 2.35597254e-005,
          1.39159683e-005, 5.46779120e-006, -6.50196216e-006,
          -1.90653427e-005, -2.46763666e-005, -1.53188321e-005,
          -8.97245059e-007, 2.21458122e-005, 3.18678904e-005,
          3.34049728e-005, 1.13815804e-005, -9.61609658e-006,
          -1.80842235e-005, -2.36801570e-005, -2.62918093e-005,
          -2.87338225e-005, -1.99312453e-005, 5.77894616e-006,
          2.69088778e-005, 3.14925092e-005, 1.94135391e-005,
          -2.33881997e-006, -3.06614929e-005, -5.80753258e-005,
          -5.89891279e-005, -3.60374434e-005, -8.63024525e-006,
          1.75972873e-005, 3.10382384e-005, 3.30922921e-005,
          2.10062844e-005, -8.61499814e-007, -1.20625327e-005,
          -2.40949594e-005, -1.94312488e-005, -2.62122626e-006,
          1.16388519e-005, 1.15547418e-005, 5.34417995e-006,
          8.28669090e-006, -5.05841717e-006, -1.46777038e-005,
          -2.09078316e-005, -2.71505851e-005, -1.86477955e-005,
          -9.57452175e-006, -9.67191954e-006, -1.73107601e-005,
          7.59357408e-006, 1.03273769e-005, 5.25115047e-006,
          -1.07418400e-005, -3.45394619e-005, -4.83748154e-005,
          -4.27353298e-005, -3.36415796e-005, -2.09261125e-005,
          -2.34959714e-007, 1.28265365e-005, 2.25934746e-005,
          1.31259922e-005, 4.01545776e-006, -4.94306050e-006,
          -1.31607312e-005, -1.51380445e-005, -2.49669793e-005,
          -2.80248423e-005, -3.80612764e-005, -5.10198333e-005,
          -2.26807770e-005, -4.51978121e-006, 6.87098418e-006,
          1.15701705e-005, 7.38959159e-007, -1.67113176e-005,
          -9.48935735e-007, 7.58144643e-006, 1.43821280e-005,
          2.40187273e-005, 2.28038589e-005, 2.10892158e-005,
          1.59229567e-005, 6.05062314e-006, -1.00338093e-005,
          -2.45202573e-005, -3.76516546e-005, -5.08612720e-005,
          -5.11218750e-005, -4.73951040e-005, -3.60630220e-005,
          -1.72900982e-005, 2.10921808e-005, 2.58903747e-005,
          -2.20893689e-005, -2.71282188e-005, -3.63124200e-005,
          -4.34138419e-005, -5.01929644e-005, -4.82584728e-005,
          -3.71549759e-005, -3.93857517e-005, -2.92126952e-005,
          -1.43651987e-005, -5.42998623e-006, -7.34514151e-006,
          -1.54949139e-005, -2.09282061e-005, -1.09740613e-005,
          -4.74453691e-006, -2.02931142e-006, 1.62656295e-006,
          -9.87428484e-006, -3.42658168e-005, -3.91373251e-005,
          -3.60512458e-005, -4.00943500e-005, -3.56112323e-005,
          -4.14036294e-005, -3.38824175e-005, -1.88089180e-005,
          -1.76793419e-005, -7.85392422e-006, -4.63635888e-006,
          -6.11277869e-007, -4.83955603e-007, 2.45344813e-006,
          -9.31345767e-006, -2.09815062e-005, -1.85641857e-005,
          -7.69677058e-007, 9.54759889e-006, 1.43385967e-006,
          -3.35452853e-007, 2.76477954e-006, 2.74782633e-006,
          -1.89248112e-005, -2.56484691e-005, -1.54346344e-005,
          1.63546542e-006, 1.60583804e-005, 1.68340757e-005,
          1.94598524e-005, 1.62424421e-005, 9.58826240e-006,
          -2.02653632e-006, -6.08219852e-006, -1.91943836e-005,
          -3.37351194e-005, -1.73715471e-005, -8.08520781e-006,
          7.10962422e-006, 2.71604367e-005, 3.83387087e-005,
          4.02860605e-005, 1.40063867e-005, -3.76967137e-006,
          -2.08044494e-005, -2.78267253e-005, -3.17445956e-005,
          -2.97640108e-005, -1.74418146e-005, 5.08016228e-006,
          2.43028207e-005, 2.51086840e-005, 1.47911651e-005,
          -3.67762141e-006, -2.95726459e-005, -5.32818922e-005,
          -5.38639579e-005, -3.27566049e-005, 3.03147914e-007,
          1.95653101e-005, 3.20532454e-005, 3.56906130e-005,
          2.58121527e-005, 2.51617530e-006, -6.42482064e-006,
          -2.00004324e-005, -1.82142849e-005, 2.44575381e-006,
          2.02223000e-005, 2.66021052e-005, 2.52021146e-005,
          1.21335497e-005, -2.91956297e-007, -7.87425688e-006,
          -1.56602509e-005, -2.16811659e-005, -1.36277413e-005,
          -5.51741459e-006, -1.27947378e-005, -1.72455530e-005,
          7.81414110e-006, 1.25612059e-005, 5.94496396e-006,
          -9.91074739e-006, -3.46027155e-005, -5.19171481e-005,
          -5.03308365e-005, -4.02921869e-005, -1.81334035e-005,
          -4.01802481e-006, 8.36896834e-006, 1.69428913e-005,
          2.65902909e-005, 2.23151383e-005, 1.14481845e-005,
          -3.37194297e-006, -1.74236702e-005, -3.14019853e-005,
          -3.09623101e-005, -3.96867581e-005, -4.85558667e-005,
          -1.60745494e-005, 3.69975237e-006, 1.51462764e-005,
          1.15957464e-005, -6.02155637e-007, -1.35446908e-005,
          -6.43916655e-006, 2.31614581e-006, 9.91477555e-006,
          2.28330009e-005, 2.47059306e-005, 2.30656042e-005,
          1.91877498e-005, 1.01780934e-005, 3.74046692e-007,
          -1.88724716e-005, -2.95281116e-005, -4.84368902e-005,
          -5.49567885e-005, -4.58874165e-005, -3.66661516e-005,
          -1.50103187e-005, 2.18765636e-005, 2.38111061e-005,
          -2.40937261e-005, -2.67357027e-005, -2.62554968e-005,
          -3.71435381e-005, -4.32822817e-005, -4.22861231e-005,
          -3.42390376e-005, -4.15613285e-005, -4.04749262e-005,
          -2.90534663e-005, -1.79694325e-005, -1.75388377e-005,
          -2.69116917e-005, -3.01005330e-005, -2.01350067e-005,
          -1.30179615e-005, -5.52467645e-006, -2.34053937e-006,
          -1.28437796e-005, -2.46272193e-005, -3.62209612e-005,
          -4.64799450e-005, -4.62406679e-005, -3.23943204e-005,
          -4.45615733e-005, -3.26836598e-005, -1.80781662e-005,
          -1.40660832e-005, -8.75975820e-006, -1.13536169e-006,
          -1.91309283e-007, 8.41715701e-006, 1.03779257e-005,
          2.74164199e-006, -1.71018510e-005, -1.48627960e-005,
          3.57400040e-006, 1.49047628e-005, 1.15236217e-005,
          1.28512129e-005, 2.02200517e-005, 2.66717943e-005,
          1.29437449e-005, 4.28387966e-006, 6.70991903e-006,
          1.54272402e-005, 2.75148868e-005, 2.53337857e-005,
          2.16836179e-005, 1.62182841e-005, 5.64747324e-006,
          -5.64400034e-006, -1.04723576e-005, -2.52473892e-005,
          -3.08968010e-005, -1.61209809e-005, -3.21995685e-006,
          1.43424668e-005, 3.69202644e-005, 4.79807932e-005,
          4.62490243e-005, 2.34781546e-005, 5.94153880e-006,
          -1.38427195e-005, -2.29743273e-005, -2.97949337e-005,
          -3.37938691e-005, -1.78092596e-005, 1.56629187e-006,
          2.01845505e-005, 2.88219580e-005, 1.74277793e-005,
          -4.86977842e-006, -2.28251647e-005, -3.59678997e-005,
          -4.13010421e-005, -2.22836388e-005, 1.46397779e-005,
          2.62538615e-005, 3.08641029e-005, 3.36812591e-005,
          2.91682463e-005, 7.69375765e-006, 1.13218471e-006,
          -1.02246131e-005, -1.43405250e-005, 2.10136750e-006,
          2.21454666e-005, 2.96692051e-005, 2.84965918e-005,
          2.13257590e-005, 1.68307597e-005, 1.05180052e-005,
          -3.57547924e-006, -1.54763311e-005, -3.05936692e-006,
          -1.23804227e-006, -1.16016035e-005, -8.29501005e-006,
          1.73856461e-005, 2.11368897e-005, 1.08757613e-005,
          -1.32567502e-005, -3.82768558e-005, -5.30713951e-005,
          -5.42646012e-005, -3.36794656e-005, 1.14468094e-006,
          1.97644713e-005, 3.34337383e-005, 4.35476832e-005,
          4.57875358e-005, 3.76623539e-005, 2.93191333e-005,
          1.10369529e-005, -1.16598458e-005, -2.77990475e-005,
          -2.90855169e-005, -3.66349159e-005, -3.65675296e-005,
          -1.00225307e-005, 1.35180089e-005, 1.35833025e-005,
          9.68929180e-006, 1.10976305e-006, -1.23721775e-005,
          -2.35871676e-006, -3.23378117e-007, 3.76250682e-006,
          2.60161396e-005, 3.15512771e-005, 3.23135719e-005,
          3.16315418e-005, 2.02409192e-005, 1.46237808e-005,
          -4.09220820e-006, -2.50906251e-005, -3.46535053e-005,
          -5.02156399e-005, -4.63193610e-005, -3.48489230e-005,
          -1.74465331e-005, 1.88257036e-005, 2.01520706e-005,
          -1.81104278e-005, -2.19182475e-005, -2.66383340e-005,
          -3.72800569e-005, -3.79881785e-005, -4.05236970e-005,
          -3.35931618e-005, -4.13822818e-005, -4.68300022e-005,
          -4.07706502e-005, -3.02585431e-005, -2.33937608e-005,
          -3.74722185e-005, -4.33659588e-005, -3.69555710e-005,
          -1.90862156e-005, -4.25486496e-006, 6.99889733e-006,
          5.64713719e-006, -8.60185878e-007, -1.55238558e-005,
          -3.06494949e-005, -2.88158753e-005, -1.83358879e-005,
          -3.05491849e-005, -2.55177602e-005, -1.37959996e-005,
          -5.22340542e-006, -1.26854309e-006, -3.34201127e-006,
          -6.80102119e-007, 9.92593959e-006, 1.41760020e-005,
          8.44024180e-006, -1.37758461e-005, -1.71156262e-005,
          -3.18272282e-006, 1.32339428e-005, 1.55251637e-005,
          1.29173277e-005, 2.81116590e-005, 4.20136639e-005,
          2.69088960e-005, 1.53024157e-005, 1.79676899e-005,
          2.47521657e-005, 3.64160660e-005, 3.52400202e-005,
          2.95283735e-005, 1.56188889e-005, 5.01614477e-006,
          -5.54368808e-006, -1.35543632e-005, -3.14462886e-005,
          -2.97719598e-005, -1.77883994e-005, -2.64147320e-006,
          1.73060562e-005, 3.88173139e-005, 4.61740565e-005,
          4.54756919e-005, 2.36718479e-005, 4.85078135e-006,
          -1.45867334e-005, -2.69311167e-005, -3.23715976e-005,
          -3.45718254e-005, -1.73176650e-005, 5.55316501e-006,
          2.11477272e-005, 2.62232825e-005, 1.71096654e-005,
          3.38823475e-006, -1.13178749e-005, -1.73634871e-005,
          -2.60113848e-005, -2.84366115e-006, 2.03390482e-005,
          2.99635194e-005, 3.41918058e-005, 2.88395186e-005,
          3.47187924e-005, 9.05366414e-006, -1.81666178e-006,
          -5.96498876e-006, -4.17706042e-006, 1.66276052e-007,
          1.59099400e-005, 2.26625089e-005, 2.24534415e-005,
          2.19178291e-005, 2.30307742e-005, 1.65076708e-005,
          -5.71832834e-006, -1.00681891e-005, -1.63465563e-006,
          -5.75993818e-006, -1.26156492e-005, 6.03367243e-006,
          2.66919815e-005, 3.07741138e-005, 2.32448583e-005,
          -3.01439763e-006, -3.27495691e-005, -4.98164118e-005,
          -5.07669429e-005, -2.72089601e-005, 5.64174206e-006,
          2.44789571e-005, 3.86784013e-005, 5.56315172e-005,
          5.69326403e-005, 4.91532737e-005, 3.87224718e-005,
          1.74450706e-005, -9.24015967e-006, -2.62320991e-005,
          -2.35892348e-005, -2.50155881e-005, -1.33251306e-005,
          2.90462913e-006, 1.31431989e-005, 1.40073944e-005,
          9.16219142e-006, 8.64775848e-006, 2.40519648e-006,
          5.01999966e-006, 7.39073539e-006, 2.91574906e-006,
          2.74014292e-005, 3.96973883e-005, 4.47169732e-005,
          4.44972538e-005, 2.95135033e-005, 2.54502611e-005,
          1.11896225e-005, -1.44765190e-005, -2.19226567e-005,
          -2.85379665e-005, -3.75474156e-005, -2.47913249e-005,
          -1.35808059e-005, 1.93761443e-005, 1.76405647e-005,
          -6.40751932e-006, -9.06566493e-006, -1.65854981e-005,
          -2.98213417e-005, -3.20007566e-005, -3.45624430e-005,
          -3.19705505e-005, -3.66750464e-005, -4.56762245e-005,
          -4.75792731e-005, -3.99770179e-005, -3.67676148e-005,
          -4.65944358e-005, -5.44918876e-005, -4.48871251e-005,
          -2.63393467e-005, -8.31691523e-006, 5.51344874e-006,
          9.97239385e-006, 5.97876942e-006, -7.64837387e-006,
          -1.88811991e-005, -2.06435525e-005, -1.74958659e-005,
          -2.79758442e-005, -2.24588839e-005, -1.24888265e-005,
          -5.81870972e-006, -4.61554373e-006, -1.09916373e-005,
          -3.67205371e-006, 3.67408484e-006, 7.66687663e-006,
          3.99815008e-006, -2.04089902e-005, -2.08909769e-005,
          -7.85332031e-006, 6.15236331e-006, 6.66495089e-006,
          6.71726229e-006, 2.88943957e-005, 4.07122898e-005,
          3.51712224e-005, 1.99269234e-005, 2.04259613e-005,
          2.58123146e-005, 2.65698072e-005, 2.58809141e-005,
          1.97891532e-005, 3.27341286e-006, -2.08277152e-006,
          -1.37400748e-005, -2.77679919e-005, -4.49589716e-005,
          -4.40494587e-005, -2.93574631e-005, -1.65485562e-005,
          2.77193521e-006, 2.46316376e-005, 4.20245087e-005,
          4.24835162e-005, 2.74154372e-005, 4.09911081e-006,
          -2.22650579e-005, -2.90890603e-005, -3.68802066e-005,
          -2.69092616e-005, -8.04892443e-006, 5.55242423e-006,
          1.43527659e-005, 2.06102904e-005, 1.72898363e-005,
          1.91689196e-006, -7.68900281e-006, -1.73371427e-005,
          -2.08517486e-005, 3.34827200e-006, 1.57260911e-005,
          2.26933698e-005, 2.41763209e-005, 2.36304513e-005,
          2.52965820e-005, 2.27502351e-005, -2.95237692e-006,
          -5.24179859e-006, 7.35312085e-007, 5.25548103e-006,
          1.84964156e-005, 2.23161715e-005, 2.03914442e-005,
          1.84600958e-005, 1.51252298e-005, 9.79088236e-006,
          1.71755516e-006, -2.63371589e-006, -1.38633104e-005,
          -1.91353338e-005, -1.86707657e-005, 3.28659735e-006,
          2.32166822e-005, 2.80525364e-005, 2.23577554e-005,
          7.27956433e-007, -2.82497131e-005, -4.25195867e-005,
          -3.67515422e-005, -2.13172571e-005, 8.37375774e-006,
          2.65441067e-005, 4.30673681e-005, 5.74518454e-005,
          5.65704213e-005, 4.75160705e-005, 3.59061014e-005,
          1.45921385e-005, -6.52213521e-006, -2.26487591e-005,
          -2.23258212e-005, -1.51274198e-005, -4.86857925e-006,
          1.06421530e-005, 1.52682733e-005, 1.60715645e-005,
          1.40720413e-005, 1.29740856e-005, 1.05579638e-005,
          1.43260095e-005, 1.85477002e-005, 6.13380325e-006,
          2.43426985e-005, 3.78079421e-005, 4.57896022e-005,
          4.65997255e-005, 2.77123054e-005, 2.58372584e-005,
          1.33038657e-005, -1.14039367e-005, -1.98735470e-005,
          -2.41368944e-005, -3.85838503e-005, -2.64157788e-005,
          -1.34900120e-005, 1.58960156e-005, 1.34874526e-005,
          1.05469881e-005, 8.37095831e-006, -2.93092762e-006,
          -1.45665645e-005, -2.03663622e-005, -2.52270929e-005,
          -2.64038990e-005, -2.73860132e-005, -3.55937482e-005,
          -4.44999132e-005, -3.98275879e-005, -3.70700363e-005,
          -4.29010724e-005, -5.13188243e-005, -4.44877514e-005,
          -3.29292307e-005, -1.83834891e-005, -1.66304108e-006,
          5.31138994e-006, 1.10313786e-005, 9.35899334e-006,
          -2.55028021e-006, -1.06771649e-005, -1.15327102e-005,
          -2.61419191e-005, -2.18050827e-005, -2.04884964e-005,
          -1.53694000e-005, -1.31835377e-005, -2.24305386e-005,
          -1.81376090e-005, -9.81631092e-006, -7.41917302e-006,
          -7.08285324e-006, -2.60678789e-005, -3.00594020e-005,
          -1.69292234e-005, -1.00562920e-005, -5.54323742e-006,
          -1.13776343e-006, 1.47480741e-005, 2.78409425e-005,
          2.63746060e-005, 1.04029377e-005, 6.11142787e-006,
          1.24803364e-005, 1.56922088e-005, 7.72512612e-006,
          2.96464691e-006, -6.41171346e-006, -2.14804550e-005,
          -2.95177833e-005, -3.25232795e-005, -4.47051279e-005,
          -4.96495995e-005, -4.47882521e-005, -3.32578784e-005,
          -1.55125672e-005, 6.60659589e-006, 2.45119281e-005,
          2.94345809e-005, 1.28023994e-005, -4.85181090e-006,
          -2.98808736e-005, -3.44861364e-005, -2.98599080e-005,
          -1.54093887e-005, -3.84717441e-006, 2.39395763e-006,
          4.56099042e-006, 3.74045339e-006, -7.56129111e-007,
          -9.13501935e-006, -1.62402685e-005, -1.45308468e-005,
          -1.76724716e-005, -6.06902131e-006, 1.71953309e-006,
          1.87937428e-006, 4.87804800e-006, 7.12683232e-006,
          2.14876741e-006, 6.62044840e-006, 1.13957876e-005,
          -8.54146219e-006, -1.04243509e-005, -5.96074733e-006,
          5.78408662e-006, 7.40801624e-006, 7.90544800e-006,
          6.17504747e-006, 7.61354704e-006, 1.25495253e-005,
          1.12491334e-005, -1.11817371e-005, -2.84755606e-005,
          -2.98421019e-005, -2.39338169e-005, -7.76063644e-006,
          1.19106708e-005, 1.42581939e-005, 9.51822130e-006,
          -4.49158051e-006, -2.94300153e-005, -4.01485559e-005,
          -2.71675890e-005, -1.33687208e-005, 4.67188420e-006,
          1.40711109e-005, 2.69635839e-005, 3.39333055e-005,
          3.15022335e-005, 2.68973581e-005, 1.94757886e-005,
          5.63954154e-006, -5.44269369e-006, -2.28727622e-005,
          -2.37775457e-005, -1.25291144e-005, -4.23017264e-006,
          5.51492712e-006, 1.01727437e-005, 6.16624038e-006,
          5.27577868e-006, 6.90048910e-006, 5.94196717e-006,
          1.31876286e-005, 1.80676798e-005, 9.55574342e-006,
          1.64684225e-005, 2.87276689e-005, 3.57987010e-005,
          3.81583995e-005, 2.38394477e-005, 1.64424418e-005,
          7.75347689e-006, -5.23275230e-006, -1.93060023e-005,
          -2.83885511e-005, -3.95430907e-005, -3.03657816e-005,
          -1.81865162e-005, 9.09309438e-006, 4.50783591e-006,
          2.52452792e-005, 2.29541220e-005, 1.10180536e-005,
          -2.26033785e-006, -6.84002362e-006, -1.11350246e-005,
          -1.66518403e-005, -1.71603169e-005, -2.33421633e-005,
          -2.95917071e-005, -2.38273842e-005, -2.31265312e-005,
          -2.62633730e-005, -3.15008438e-005, -3.01616492e-005,
          -2.27342098e-005, -7.62250647e-006, 8.27865642e-006,
          2.52992304e-005, 2.94113306e-005, 2.23662519e-005,
          1.31618954e-005, 2.36485130e-006, -3.84090953e-007,
          -1.06350199e-005, -7.76507204e-006, -1.06876623e-005,
          -1.67166472e-005, -1.92869411e-005, -3.34973120e-005,
          -2.97427141e-005, -2.29712496e-005, -1.88911072e-005,
          -1.37031648e-005, -2.29129255e-005, -3.36231278e-005,
          -2.54717543e-005, -1.83656430e-005, -1.30381677e-005,
          -6.55487702e-006, 1.72895648e-006, 1.30696799e-005,
          1.29278478e-005, -4.51828737e-006, -6.70707959e-006,
          5.08621447e-008, -2.82894907e-009, -6.75045703e-006,
          -1.51723698e-005, -2.32363836e-005, -3.64440239e-005,
          -4.17449119e-005, -3.77752440e-005, -3.80956844e-005,
          -4.73883883e-005, -4.63572978e-005, -4.44454272e-005,
          -3.20427825e-005, -1.67233175e-005, -4.53540542e-006,
          1.35847881e-006, -5.28846840e-007, -6.06108915e-006,
          -2.32917209e-005, -3.50008959e-005, -2.67378291e-005,
          -1.45093863e-005, -8.36586878e-006, -7.68830887e-006,
          -7.42557950e-006, -1.27559351e-005, -1.78534337e-005,
          -2.31104386e-005, -1.39374970e-005, -1.79980889e-005,
          -2.62328576e-005, -2.32210150e-005, -1.60659347e-005,
          -1.49133275e-005, -1.61446496e-005, -1.32064215e-005,
          -1.74724846e-005, -1.07119258e-005, -5.55755105e-006,
          -6.19280172e-006, -1.64462272e-005, -2.56070362e-005,
          -1.61862317e-005, -1.22118845e-005, -7.80866776e-006,
          -1.29872697e-005, 2.39923656e-006, 4.13491944e-006,
          -8.38396500e-006, -2.42760179e-005, -3.31056544e-005,
          -3.55875854e-005, -3.43659449e-005, -2.47968292e-005,
          -9.01541262e-006, -1.59925617e-006, -2.39838209e-006,
          -1.45228560e-005, -3.20681211e-005, -3.86065913e-005,
          -2.92012101e-005, -1.37496581e-005, 8.88265618e-007,
          6.92442200e-006, 1.37964280e-005, 4.99728867e-006,
          -3.67834832e-006, -6.55603480e-006, -1.20968298e-005,
          -1.57295763e-005, -1.60704003e-005, -2.14761767e-005,
          -2.48819852e-005, -2.39922374e-005, -1.82787589e-005,
          -2.63367315e-006, 2.24439941e-006, -2.83983286e-006,
          -6.52406789e-006, -6.72586521e-006, -1.70251235e-006,
          7.32384024e-006, 7.81552353e-006, 4.28343401e-006,
          9.90707667e-006, 1.27534986e-005, 2.10431172e-005,
          2.89865948e-005, 1.50053411e-005, 6.73358500e-006,
          5.94375877e-007, -7.27521956e-006, -1.68430288e-005,
          -2.45882038e-005, -3.18360580e-005, -2.34008530e-005,
          -1.48048648e-005, 1.56387050e-005, 1.66939171e-005,
          2.53764174e-005, 2.45040537e-005, 1.51036593e-005,
          4.87522084e-006, 3.47774822e-008, -2.45267688e-006,
          -4.97211522e-006, -8.65948641e-006, -1.36472363e-005,
          -1.77864149e-005, -1.03539178e-005, -5.63202002e-006,
          -2.55898021e-006, -8.22186394e-006, -9.63826460e-006,
          -4.90957518e-007, 1.24348999e-005, 2.37047898e-005,
          2.78702264e-005, 2.96902181e-005, 2.48414799e-005,
          2.05564083e-005, 8.48282070e-006, 3.68534256e-006,
          2.59274429e-006, -3.76080926e-008, -7.81784820e-006,
          -2.10783292e-005, -3.04697987e-005, -3.89860506e-005,
          -2.86744416e-005, -2.08995261e-005, -1.97614518e-005,
          -1.60499931e-005, -1.74038923e-005, -1.88864178e-005,
          -1.34994980e-005, -1.12138905e-005, -5.00997885e-006,
          2.57050806e-006, 5.48653998e-006, 3.30783064e-006,
          2.64978166e-006, -1.52191324e-005, -1.93651849e-005,
          -1.13335345e-005, -8.93956349e-006, -1.33678323e-005,
          -2.18640398e-005, -2.82487144e-005, -3.49738075e-005,
          -3.58314683e-005, -3.57976642e-005, -3.18653147e-005,
          -2.56671465e-005, -2.46171912e-005, -2.54920742e-005,
          -2.30659098e-005, -1.88844151e-005, -1.59280589e-005,
          -1.67930448e-005, -1.20786281e-005, -6.98317126e-006,
          -8.12752387e-006, -2.00202212e-005, -1.30737926e-005,
          -3.42596036e-006, 4.24436575e-006, 1.70128089e-007,
          -9.84090002e-006, -1.73550743e-005, -1.76313424e-005,
          -1.48882209e-005, -1.81512441e-005, -2.61033183e-005,
          -3.16654150e-005, -3.13637283e-005, -3.30288603e-005,
          -3.37360143e-005, -2.75981292e-005, -2.84880334e-005,
          -2.05385531e-005, -1.67247108e-005, -1.54413556e-005,
          -1.44260312e-005, -1.70387993e-005, -2.03029540e-005,
          -1.94767617e-005, -1.57297927e-005, -1.15388830e-005,
          -2.08129095e-005, -1.33361882e-005, -1.21722996e-005,
          -1.46922648e-005, -1.95156335e-005, -2.50758931e-005,
          -3.45807566e-005, -3.55444536e-005, -3.31759402e-005,
          -2.49836503e-005, -1.82200965e-005, -1.80241932e-005,
          -2.76709798e-005, -2.95307764e-005, -2.28395529e-005,
          -1.42271147e-005, -4.01419993e-006, -1.40524014e-006,
          -3.56450755e-006, -3.15308228e-007, -1.15777093e-005,
          -2.53390845e-005, -3.66410677e-005, -3.40718761e-005,
          -2.49279656e-005, -1.77309594e-005, -1.65597012e-005,
          -1.92812768e-005, -2.87795265e-005, -2.76315022e-005,
          -1.73604894e-005, -1.18106573e-005, -1.10663059e-005,
          -8.24742983e-006, -8.07583274e-006, -3.49867560e-006,
          9.73117722e-007, -4.62168327e-006, 8.26240637e-007,
          1.75338221e-006, 1.83759516e-006, 5.54349344e-006,
          1.47529718e-005, 8.70498116e-006, -1.68734334e-006,
          -7.29354633e-006, -1.09259718e-005, -1.67152302e-005,
          -2.14175598e-005, -2.24060677e-005, -1.37188763e-005,
          -4.83958456e-006, 3.22564119e-005, 3.47346977e-005,
          4.88032565e-005, 4.61317686e-005, 3.90712339e-005,
          3.25436813e-005, 2.81877146e-005, 2.20343081e-005,
          2.06957156e-005, 2.26508801e-005, 1.91689360e-005,
          1.40172906e-005, 1.76282792e-005, 2.09482005e-005,
          2.48734941e-005, 2.13889780e-005, 2.05166180e-005,
          2.59096996e-005, 2.52621085e-005, 3.57854296e-005,
          3.81024656e-005, 3.42846542e-005, 3.24981047e-005,
          2.67882842e-005, 1.85021036e-005, 1.60177133e-005,
          1.64609337e-005, 1.89563343e-005, 1.37071429e-005,
          2.60803745e-006, -1.34260545e-005, -1.76068097e-005,
          -1.29931495e-005, -6.11961241e-006, -1.05693312e-006,
          1.49753907e-006, 1.65849235e-006, 2.86350814e-006,
          4.71096928e-006, 2.56226963e-006, 6.58660497e-007,
          4.96215080e-006, 1.30070730e-005, 8.16762258e-006,
          4.07222160e-006, -1.42913277e-005, -1.98220077e-005,
          -1.50020769e-005, -6.75183992e-006, -4.54176870e-006,
          -1.54481040e-006, -3.66553854e-006, -9.33013689e-006,
          -1.19816214e-005, -1.30325070e-005, -1.30987200e-005,
          -2.80108884e-006, -2.58391424e-006, -1.41229705e-007,
          -1.55778866e-006, -2.18770583e-006, -4.88777096e-006,
          -1.17972295e-005, -6.97582072e-006, -1.00036766e-006,
          3.71937494e-006, 4.56298449e-006, 1.02891645e-005,
          1.23494210e-005, 1.07143951e-005, 7.00647706e-006,
          -4.03944068e-006, -1.15985949e-005, -1.54204590e-005,
          -1.26267678e-005, -1.03690627e-005, -1.43410834e-005,
          -1.92213229e-005, -2.38638168e-005, -2.38596167e-005,
          -2.16296285e-005, -2.49617151e-005, -2.02370720e-005,
          -1.30425342e-005, -6.42159330e-006, -7.01638101e-006,
          -7.87206682e-006, -1.11857344e-005, -1.77834772e-005,
          -1.73093704e-005, -1.72974778e-005, -2.14381544e-005,
          -2.19309677e-005, -1.08568538e-005, -5.39548728e-006,
          -6.24538825e-006, -8.80225343e-006, -1.26214773e-005,
          -1.61159551e-005, -2.15696200e-005, -2.02882275e-005,
          -1.84521705e-005, -1.36746066e-005, -1.54063782e-005,
          -2.22250546e-005, -2.17904799e-005, -1.85395056e-005,
          -1.63440545e-005, -1.26119876e-005, -1.46877310e-005,
          -1.50510077e-005, -1.17161389e-005, -1.64102003e-005,
          -2.58115615e-005, -3.18986313e-005, -3.01185137e-005,
          -2.26045449e-005, -2.11180941e-005, -2.03246127e-005,
          -1.98020425e-005, -2.40554200e-005, -2.75796883e-005,
          -2.62890298e-005, -2.32042767e-005, -1.80095230e-005,
          -1.51353470e-005, -1.23270902e-005, -9.64561696e-006,
          -4.93692369e-006, -5.23644303e-006, -8.56021870e-006,
          -6.36008417e-006, -5.94896756e-006, -2.07420248e-006,
          -9.04758394e-007, -1.20111144e-006, -3.21645280e-006,
          -1.17627505e-005, -1.17227273e-005, -1.31632814e-005,
          -1.62862380e-005, -1.48685949e-005, -1.30519163e-006,
          1.17259506e-005, 4.61552008e-005, 5.11885773e-005,
          4.20573851e-005, 3.97412114e-005, 3.48367539e-005,
          2.97756378e-005, 2.72711550e-005, 2.11710267e-005,
          2.07819139e-005, 1.95586817e-005, 1.98706457e-005,
          1.48779664e-005, 1.34860556e-005, 1.55877642e-005,
          1.39990898e-005, 1.41955534e-005, 1.44474870e-005,
          1.51615468e-005, 1.69675823e-005, 1.95092307e-005,
          1.90851333e-005, 1.88523463e-005, 1.63524801e-005,
          1.79162762e-005, 1.55797825e-005, 1.42235958e-005,
          1.51824315e-005, 1.85456174e-005, 1.82901367e-005,
          5.94948506e-006, -6.56401141e-007, -1.01928799e-006,
          -1.22101630e-006, 1.89880197e-007, 8.59122156e-006,
          1.23545824e-005, 1.40925104e-005, 1.60563359e-005,
          1.83951070e-005, 1.80223687e-005, 9.13478016e-006,
          9.04150784e-006, 1.33806170e-005, 9.73938495e-006,
          3.08514882e-006, -6.72128999e-006, -4.63010838e-006,
          2.79088817e-006, 8.44720216e-006, 1.31553315e-005,
          1.41833252e-005, 1.30445078e-005, 1.20769937e-005,
          1.02609356e-005, 6.10361894e-006, 1.68559181e-005,
          1.73765129e-005, 1.29740147e-005, 1.62152992e-005,
          1.33113163e-005, 1.31830002e-005, 1.27937901e-005,
          2.58559453e-006, 2.20545098e-006, 9.63205639e-006,
          1.30596518e-005, 1.62397046e-005, 1.83294796e-005,
          2.38913162e-005, 2.09022946e-005, 1.87097830e-005,
          1.41576820e-005, 1.09781395e-005, 1.14908707e-005,
          1.64058256e-005, 1.23281316e-005, 1.16679812e-005,
          9.19060130e-006, 6.66229880e-006, 9.46103773e-006,
          7.86712371e-006, 2.25875351e-006, 8.34174898e-006,
          1.87636324e-005, 2.14154370e-005, 1.88735503e-005,
          2.02948377e-005, 1.53950659e-005, 9.01410567e-006,
          8.24006293e-006, 3.95472443e-006, -4.05921384e-007,
          1.82439589e-006, 1.22217643e-005, 2.33455012e-005,
          2.37910754e-005, 2.32841230e-005, 2.59186236e-005,
          2.32969123e-005, 2.02742995e-005, 1.73483386e-005,
          1.40616303e-005, 2.14426564e-005, 2.20349539e-005,
          1.90703013e-005, 1.81873365e-005, 1.59546689e-005,
          1.09765087e-005, 1.34975253e-005, 1.35644068e-005,
          1.84779547e-005, 2.50474277e-005, 2.32974398e-005,
          2.32615021e-005, 1.94418280e-005, 1.59782303e-005,
          1.96292785e-005, 2.19260892e-005, 1.88575850e-005,
          1.74595498e-005, 1.79359522e-005, 1.77190414e-005,
          1.69185842e-005, 2.47718890e-005, 3.20737490e-005,
          3.54346375e-005, 3.67048524e-005, 3.77064207e-005,
          3.54511758e-005, 3.57577119e-005, 3.36099693e-005,
          3.36226331e-005, 3.94298804e-005, 4.31693479e-005,
          4.06842919e-005, 3.85549174e-005, 4.24738610e-005,
          3.70859379e-005, 3.16943988e-005, 2.82694928e-005,
          2.29258130e-005, 2.18273090e-005, 2.97194674e-005,
          4.24760037e-005, 6.27312038e-005, 7.05738858e-005,
          5.07116492e-005, 5.15649990e-005, 4.74930966e-005,
          4.28652129e-005, 4.13328598e-005, 3.58164834e-005,
          3.10727846e-005, 3.26921399e-005, 3.56207493e-005,
          2.87707880e-005, 2.37431868e-005, 2.54300467e-005,
          3.07932569e-005, 3.51964591e-005, 3.77452379e-005,
          3.41227460e-005, 3.10810610e-005, 3.38432183e-005,
          3.47059904e-005, 3.29713512e-005, 3.23275453e-005,
          3.42981039e-005, 3.35096483e-005, 2.93851190e-005,
          3.13184864e-005, 3.35740260e-005, 3.20585350e-005,
          2.60860106e-005, 1.98339585e-005, 1.70127259e-005,
          1.40522470e-005, 1.60846157e-005, 2.40719110e-005,
          2.67746746e-005, 2.11343176e-005, 2.59383232e-005,
          3.02549324e-005, 2.85448459e-005, 2.49564218e-005,
          2.17092456e-005, 3.38177160e-005, 3.51672679e-005,
          2.54614715e-005, 1.51021868e-005, 1.28605807e-005,
          1.65034162e-005, 2.17500183e-005, 2.49427139e-005,
          2.69202501e-005, 2.90962198e-005, 2.77514864e-005,
          2.59829194e-005, 2.98909490e-005, 3.20460022e-005,
          3.25483670e-005, 2.97091137e-005, 2.82702331e-005,
          2.57373813e-005, 2.66339575e-005, 2.22013041e-005,
          1.69980140e-005, 9.03719683e-006, 1.91519921e-005,
          2.13763342e-005, 2.78959142e-005, 3.08293565e-005,
          3.43061402e-005, 3.14947756e-005, 2.96273483e-005,
          2.76291794e-005, 2.57591255e-005, 2.30523492e-005,
          2.38730645e-005, 2.33114752e-005, 2.24326541e-005,
          2.31988306e-005, 2.50833473e-005, 2.54565966e-005,
          1.82196436e-005, 2.49767600e-005, 2.68613967e-005,
          2.52774025e-005, 3.02754761e-005, 2.88985902e-005,
          2.60673805e-005, 2.27908367e-005, 2.03015061e-005,
          1.58403564e-005, 1.19747656e-005, 1.08846516e-005,
          1.04567343e-005, 1.62702381e-005, 2.36150754e-005,
          1.99851493e-005, 1.62351353e-005, 1.60355594e-005,
          1.83120537e-005, 1.41515748e-005, 1.38772657e-005,
          2.06413843e-005, 2.71105037e-005, 2.52329610e-005,
          2.36104042e-005, 2.55185842e-005, 2.01487564e-005,
          1.83463599e-005, 2.11339702e-005, 1.70721742e-005,
          1.44902133e-005, 1.85702720e-005, 2.18796540e-005,
          1.42912750e-005, 1.61430708e-005, 1.69646937e-005,
          1.16228366e-005, 1.01803735e-005, 1.34381207e-005,
          1.12125736e-005, 9.45271677e-006, 1.22334586e-005,
          1.51876538e-005, 2.32938237e-005, 2.83407826e-005,
          3.17783779e-005, 3.09007992e-005, 3.38873760e-005,
          3.16842779e-005, 2.70645069e-005, 2.06155855e-005,
          1.58874627e-005, 2.77480358e-005, 3.63874424e-005,
          3.46090637e-005, 3.82762883e-005, 3.91771027e-005,
          3.46148190e-005, 2.96289745e-005, 2.51750680e-005,
          1.72587006e-005, 2.20774054e-005, 4.17205410e-005,
          5.31905498e-005, 7.46410369e-005, 8.07930701e-005 ]
   decision_functions:
      -
         sv_count: 1
         rho: -1.4039130644919857e+000
         alpha: [ 1. ]
         index: [ 0 ]
